tree
version=v4
num_class=1
num_tree_per_iteration=1
label_index=0
max_feature_idx=18
objective=regression
feature_names=Column_0 Column_1 Column_2 Column_3 Column_4 Column_5 Column_6 Column_7 Column_8 Column_9 Column_10 Column_11 Column_12 Column_13 Column_14 Column_15 Column_16 Column_17 Column_18
feature_infos=[-0.26971253759149577:7.5102600193914864] [-1.625:8.375] [-0.70386904761904767:5.3065476190476186] [-0.72565320665083133:4.9002375296912115] [-3.591584158415841:1.918316831683168] [0:1] [0:1] [0:1] [0:1] [0:1] [0:1] [0:1] [0:1.0000000000000002] [0:1] [0:1] [0:1] [0:1] [0:1] [0:1]
tree_sizes=5738 5738 5777 5774 5742 5737 5758 5728 5786 5821 5713 5774 5819 5873 5834 5797 5736 5829 5793 5779 5840 5801 5829 5806 5836 5919 5883 5882 5882 5873 5843 5840 5903 5844 5859 5957 5865 5805 5801 5836 5929 5880 5930 5952 5880 5894 6005 5987 5953 5843 5957 6039 5985 5966 5958 5913 5928 5912 6009 5881 5994 5935 5922 6005 5922 5931 5900 6061 6029 5846 5922 6029 5946 6027 5984 6016 6012 5929 6005 6034 5866 5916 6030 5903 6072 5871 6051 6132 5902 6072 6028 5981 5932 6014 5968 5900 5989 6011 5920 5795 5979 6144 6014 6135 6033 5988 5975 6002 5992 5957 6008 6038 6118 5974 6020 6016 5976 5953 5912 5795 5993 5884 6085 6110 5958 6026 6097 5972 6109 6022 5910 6010 5939 6071 6019 5880 5957 5942 6008 5999 6054 5908 6025 5963 6092 5958 5975 6088 6026 6043 6173 5994 6058 5936 5983 5994 6005 6060 5926 6009 6062 6141 6007 6093 5986 6015 6092 5973 6040 6075 6008 5917 5978 5991 6047 5940 6051 5910 6011 6076 5959 6068 5965 6046 6009 5936 5965 5947 5901 6073 5854 6046 5881 6041 6125 6039 6005 6006 5925 6065 6036 6053 5986 5962 6078 6071 5889 5923 5886 5926 5967 5890 5969 6031 5938 6012 5978 6007 5994 6037 6081 6077 6050 5989 5857 6048 6132 6025 5950 6035 6088 5944 5979 6020 6047 5946 5941 6021 6069 5939 6172 6074 6026 6000 6077 5988 5935 6042 6119 5978 5906 5959 6091 5916 5931 5982 6028 5986 6034 6007 6100 5953 6023 6120 6008 5973 6084 6136 6093 5997 6123 6034 6032 6035 6046 6059 5909 5999 5979 5959 6093 5884 5920 5961 6037 6057 6025 6017 5998 5964 6069 6057 5895 6091 6087 5972 5962 5999 5849 5915 6077 6055 6064 5972 6010 6031 6016 6006 5882 5979 5935 6059 6102 6074 6051 5996 6005 5943 5982 6013 6035 5944 6034 5997 5960 6141 6084 6072 6051 5834 6192 5981 5895 5866 6002 6059 5981 5996 5938 6029 5935 5925 6037 6027 5968 5987 6102 6127 6009 6191 5985 6027 5949 5981 6055 5867 6027 5995 5912 6106 5930 6066 5947 5952 6100 6074 6011 6044 5985 5886 5837 5955 6115 6060 6083 6000 6019 6129 6016 6055 6024 5997 6005 6215 6193 6055 6014 5882 6110 6064 5968 6040 6106 6056 6102 6096 5944 6005 6114 6112 6040 6227 6024 6040 6043 6135 5985 6038 6031 5986 6025 6009 6020 6065 6077 5963 5963 6154 6041 6124 6066 5959 6105 6056 6024 6123 6075 6048 6027 6012 6088 5981 6040 6041 6081 6070 5929 6188 6008 5994 6059 6018 6058 6064 6010 6105 6055 5885 5962 6061 5997 5978 5992 6086 6059 5963 5973 5930 6010 6009 6079 6110 6084 6125 6029 6082 6067 6028 5997 6124 6050 6096 6022 6078 5823 6068 6119 6052 6132 6050 5907 6106 5977 6006 5998 6102 5995 5859 6093 6091 6062 5946 5953 6012 6075 5991 5983 6104 6007 6038 6096 5985 6048 5944 6053 6009 6172 6026 6008 6221 6026 6149 5962 6048 5905 6151 6003 6079 6042 5952 6286 6136 6017 5982 6106 6028 6005 6013 6089 6023 6058 6081 5997 6017 6002 6011 6019 6104 6102 5949 5975 5947 6073 6018 5972 6081 6049 6043 6058 5952 6067 6123 6067 6071 6111 5873 6263 5999 5946 6110 6086 5973 5941 5945 6067 6035 6088 6102 6031 6242 5957 6123 6021 5992 6064 6053 6140 6093 6075 6064 5983 6092 6233 6058 6120 5999 6033 6245 6083 6100 6047 5972 6075 6171 5946 5980 6064 6028 5994 5948 6062 6075

Tree=0
num_leaves=63
num_cat=0
split_feature=0 11 12 0 0 12 12 7 0 2 0 0 16 7 7 6 5 12 0 2 11 0 13 12 16 0 0 12 6 12 0 7 12 1 11 13 16 1 12 0 13 2 6 0 16 13 2 1 12 1 5 7 4 16 6 0 13 5 12 0 0 16
split_gain=31021.7 4207.16 5282.63 4371.63 2355.05 2372.96 3428.28 2496.82 2310.05 2024.29 1697.28 1103.18 1034.14 940.919 756.968 811.698 859.733 768.677 701.941 1144.25 698.94 646.62 578.144 524.69 515.718 515.709 719.177 459.944 417.689 395.18 370.46 351.552 349.871 345.119 331.12 327.719 309.14 285.564 269.976 267.555 266.38 259.231 256.107 264.41 252.366 352.151 305.045 250.996 245.459 242.198 480.023 232.235 228.178 222.351 210.557 208.187 205.661 194.731 191.451 337.818 189.614 187.86
threshold=-0.2665352549132825 0.96052631578947378 0.83290193939598234 0.56201065911375092 5.3234935264519629 0.045962030184042699 0.83290193939598234 0.50000000000000011 2.7941439025152932 -0.21056547619047616 0.85550414012306952 2.3089497598604409 0.75000000000000011 1.0000000180025095e-35 0.50000000000000011 0.88725490196078438 0.14583333333333334 0.038530921714831128 0.32333251244859157 1.4895833333333337 0.72368421052631593 0.60813536605465124 0.72222222222221444 0.006472824096983589 0.58333333333333337 0.60813536605465124 0.80838644651752911 0.020146186242682652 0.05392156862745099 0.62533800398021244 -0.24088117553332344 0.83333333333333337 0.38420979457018156 1.4375000000000002 0.51315789473684226 1.0000000180025095e-35 0.91666666666666674 2.9375000000000004 0.008253808242011617 3.2342494624194722 1.0000000180025095e-35 0.076636904761904781 0.13235294117647062 4.3757681707838625 0.41666666666666669 0.27777777777777152 0.49032738095238099 -0.56249999999999989 0.13549765676107547 2.0625000000000004 0.64583333333333337 0.50000000000000011 0.45544554455445524 0.58333333333333337 0.43627450980392163 -0.18727936473394166 1.0000000180025095e-35 0.64583333333333337 0.15641081520814923 3.7188044537370746 1.019035487885404 0.91666666666666674
decision_type=2 2 2 2 2 2 2 2 2 2 2 2 2 2 2 2 2 2 2 2 2 2 2 2 2 2 2 2 2 2 2 2 2 2 2 2 2 2 2 2 2 2 2 2 2 2 2 2 2 2 2 2 2 2 2 2 2 2 2 2 2 2
left_child=-1 4 -3 30 5 11 7 8 24 51 -5 14 18 -6 15 16 17 27 35 34 55 53 36 -13 49 -21 -27 -2 33 41 52 40 48 -23 -20 -11 -22 61 -17 -33 -9 -15 -34 -44 -36 46 -46 -43 -10 60 -51 -8 -4 -18 -45 -14 -53 -39 59 -42 -7 -26
right_child=1 2 3 10 13 6 9 31 32 12 -12 23 20 29 -16 38 21 -19 19 25 22 28 -24 -25 37 26 -28 -29 -30 -31 -32 39 42 -35 44 -37 -38 57 -40 -41 58 47 43 54 45 -47 -48 -49 -50 50 -52 56 -54 -55 -56 -57 -58 -59 -60 -61 -62 -63
leaf_value=-0.036169198567892961 0.050462749716895017 -0.0015848503873485201 0.69388178778016396 0.76430734356718011 0.24188100594813408 0.0049014529837360654 0.065096170170833384 0.16869143874138184 0.1176536002895802 0.3074322687536255 0.089523760415885167 0.55411113382166011 0.23304569960221933 0.11845806180136494 0.0015766957530437 0.097353243356075245 0.014578662970506178 0.034323792477571412 0.13974153997065425 0.034632810248908463 0.54505042102757939 0.13239478830927376 0.12621582468583567 0.16790994141272961 0.035109414061749632 0.66656928988962372 0.2224557418762281 0.09156253035273329 0.063155151784526117 0.052792724315367266 0.05867388584494318 0.0086613608275207046 0.26396706831332128 0.43114401152545623 0.050242890694550554 0.039381079844883725 0.28746169369341334 0.056633657430400317 0.02015625082147663 0.080759830397553217 0.0044778242778640487 0.62433419956754166 0.044882780266212952 0.28386797925127139 0.14211789029785835 0.084552002971817183 0.42004518853864947 0.21449988015470159 0.21983713486889364 0.015202964578553354 0.11743796388338323 0.16902979056526823 0.10223492818850666 0.042637459440962484 0.1002718116837545 0.10653813142840338 0.019014212715438947 0.25087776427562258 -0.012742242827594745 0.20107717786990878 0.020884388609933795 0.017134881282206131
leaf_weight=141804 3920 545 16.000000000000004 280 480 31478 1246 83 1260 46 43 39 142 870 5000 468 8738 5498 861 44 75 143 153 359 14054 67 80 8916 3491 1340 204 5221 67 53 2164 5389 123 113 14161 571 4866 18 1391 80 112 916 61 88 289 1805 616 92 10.999999999999998 4173 285 1550 13695 95 43277 89 9713 9918
leaf_count=141804 3920 545 16 280 480 31478 1246 83 1260 46 43 39 142 870 5000 468 8738 5498 861 44 75 143 153 359 14054 67 80 8916 3491 1340 204 5221 67 53 2164 5389 123 113 14161 571 4866 18 1391 80 112 916 61 88 289 1805 616 92 11 4173 285 1550 13695 95 43277 89 9713 9918
internal_value=4.8908e-09 0.0243146 0.219461 0.436917 0.0232925 0.0220614 0.0156259 0.00867944 0.0209896 0.0480763 0.674475 0.0398704 0.0791101 0.114456 0.0386604 0.0424016 0.0506833 0.0656102 0.0655421 0.0957057 0.143795 0.0341952 0.272215 0.205754 0.0169714 0.334976 0.424875 0.079011 0.0711304 0.0880461 0.104745 -0.0075115 0.101774 0.213179 0.0845972 0.0416498 0.385033 0.028685 0.0226259 0.0157691 -0.0103024 0.136447 0.0720815 0.0647602 0.0700016 0.109265 0.240115 0.284094 0.136718 0.010477 0.0412157 0.0237518 0.45284 0.0236476 0.140512 0.117155 0.0200153 0.145351 -0.0106104 0.00800907 0.00867029 0.0276728
internal_weight=0 210941 1099 554 209842 207046 152087 125271 71164 26816 323 54959 11783 2796 54561 49561 34932 18334 9740 4305 2043 16598 351 398 67792 191 147 12836 3687 2316 231 54107 3372 196 4114 5435 198 24180 14629 5792 48315 976 1823 1756 3253 1089 173 106 1549 43612 2421 15033 27 12911 365 1692 13787 208 48232 4955 41191 23972
internal_count=352745 210941 1099 554 209842 207046 152087 125271 71164 26816 323 54959 11783 2796 54561 49561 34932 18334 9740 4305 2043 16598 351 398 67792 191 147 12836 3687 2316 231 54107 3372 196 4114 5435 198 24180 14629 5792 48315 976 1823 1756 3253 1089 173 106 1549 43612 2421 15033 27 12911 365 1692 13787 208 48232 4955 41191 23972
is_linear=0
shrinkage=1


Tree=1
num_leaves=63
num_cat=0
split_feature=0 11 12 0 16 0 0 5 12 7 0 12 12 2 0 2 0 12 6 5 1 13 7 12 2 0 0 6 5 5 12 12 1 2 16 13 16 0 12 5 0 3 2 0 12 0 7 0 11 0 0 7 15 4 12 6 0 13 0 4 0 0
split_gain=25136.6 3409.03 4278.93 3541.02 2043.92 1383.84 1333.6 1376.24 1194.31 1494.62 1586.85 1129.13 1420.95 1089.91 917.841 751.827 623.393 617.65 563.285 421.206 540.854 401.469 378.146 375.417 374.974 898.077 526.45 351.116 351.282 367.228 327.716 390.435 327.34 324.98 322.506 523.496 410.085 327.046 320.92 310.503 300.073 291.088 277.924 272.009 235.329 225.9 222.15 220.1 245.802 196.127 195.949 195.897 185.702 184.824 173.017 172.662 201.265 172.518 172.421 171.859 171.592 169.242
threshold=-0.26970744607323316 0.96052631578947378 0.83290193939598234 0.56201065911375092 0.58333333333333337 0.87181866472674485 5.3234935264519629 0.14583333333333334 0.83290193939598234 0.50000000000000011 2.5212925854233004 0.83290193939598234 0.15641081520814923 0.060267857142857144 2.6566760357853751 -0.20312499999999997 5.3234935264519629 0.62533800398021244 0.88725490196078438 0.43750000000000006 2.0625000000000004 1.0000000180025095e-35 0.50000000000000011 0.006472824096983589 1.4895833333333337 0.60813536605465124 0.82440862960975148 0.88725490196078438 0.062500000000000014 0.64583333333333337 0.038530921714831128 0.020146186242682652 1.9375000000000002 -0.42336309523809518 0.75000000000000011 0.72222222222221444 0.91666666666666674 0.38319123936714461 0.039988264655009979 0.27083333333333337 -0.24088117553332344 1.0855106888361048 -0.28497023809523803 0.39894533927456421 0.38420979457018156 3.2342494624194722 1.0000000180025095e-35 0.32333251244859157 0.51315789473684226 -0.21465185669990611 2.0282468686017916 0.83333333333333337 0.15000000000000005 0.45544554455445524 0.009690085778324543 0.13235294117647062 4.3757681707838625 1.0000000180025095e-35 4.0604927139740417 -0.03465346534653465 0.7627920615135616 0.87181866472674485
decision_type=2 2 2 2 2 2 2 2 2 2 2 2 2 2 2 2 2 2 2 2 2 2 2 2 2 2 2 2 2 2 2 2 2 2 2 2 2 2 2 2 2 2 2 2 2 2 2 2 2 2 2 2 2 2 2 2 2 2 2 2 2 2
left_child=-1 4 -3 40 6 -5 7 18 9 10 19 12 14 33 27 -10 22 42 30 43 -21 -17 45 -12 47 -26 -27 28 38 -30 31 -2 -31 50 37 36 41 -15 -6 -16 53 52 -8 54 -25 -14 -18 -23 -49 -38 -13 57 -36 -4 -9 -46 -57 -11 -53 -22 -34 -39
right_child=1 2 3 5 11 -7 17 8 15 51 23 13 16 34 39 21 46 -19 -20 20 59 24 -24 44 25 26 -28 -29 29 32 -32 -33 60 -35 35 -37 49 61 -40 -41 -42 -43 -44 -45 55 -47 -48 48 -50 -51 -52 58 -54 -55 -56 56 -58 -59 -60 -61 -62 -63
leaf_value=-0.03261189668797173 0.031242097991935426 -0.0014263695096031022 0.62449358627200113 0.68373122063111258 0.082340739555298345 0.048470499452490073 0.11330915858061102 0.057074915499381054 0.014034942684735425 0.12955786765498381 0.53355893661562159 0.022685055026863403 0.020109868109675737 0.052182991367461885 0.30354743821200791 0.2894409234118131 0.20881667561925435 0.042254400691310229 0.015668571649729426 0.021488106290909789 0.13581586413841545 0.031884364471967984 -0.00076636254178175632 0.11972319507226888 0.052622723450165998 0.57986443335971527 0.1527789876692825 0.024390142818265591 0.030030573258212692 0.053582764267204444 0.028664801963950711 0.07657051825922509 0.11467838462370222 0.072779791912418026 0.53598303241389134 0.095171420977085308 0.35263303621248765 0.24293394203216234 0.035473109457940445 0.11654320531476998 0.052806492471227463 0.52797342150500326 0.22926941395544725 0.013720605119369745 0.21858562306142773 0.088333452586200567 0.073956961584277447 0.12006514738224171 0.052841220880790941 0.14844154904696805 0.1802390641199402 0.0056160980291646715 0.20829644133812009 0.092011431943286551 -0.0041770840048735705 0.033506961623421018 0.13499390932911334 -0.013070592923794769 0.11293875661828826 0.044217521608067314 0.28553820795880425 0.09514157553046533
leaf_weight=141524 2927 545 16.000000000000004 284 4506 39 489 473 10675 85 19 3100 14626 658 97 72 145 867 8600 10983 566 4204 13245 1209 295 62 54 8879 11407 4430 5189 5417 479 2949 21 477 55 172 2162 1049 204 66 358 21971 65 502 775 675 2801 325 81 4374 98 10.999999999999998 18419 1092 238 36955 155 321 67 141
leaf_count=141524 2927 545 16 284 4506 39 489 473 10675 85 19 3100 14626 658 97 72 145 867 8600 10983 566 4204 13245 1209 295 62 54 8879 11407 4430 5189 5417 479 2949 21 477 55 172 2162 1049 204 66 358 21971 65 502 775 675 2801 325 81 4374 98 11 18419 1092 238 36955 155 321 67 141
internal_value=0 0.0218509 0.197515 0.393225 0.0209321 0.607028 0.0139229 0.0128332 0.008465 0.00398712 0.014748 0.03481 0.0302375 0.0698313 0.0444422 0.0315045 0.0141984 0.101588 0.0356806 0.0109719 0.0275543 0.05435 0.0115716 0.0906631 0.052258 0.145317 0.381049 0.0412863 0.0477946 0.039919 0.048398 0.0606697 0.0625871 0.0488663 0.133674 0.172313 0.237439 0.0922101 0.0671446 0.132372 0.0942708 0.35954 0.162322 0.00615506 0.0874315 0.0223738 0.095212 0.0472779 0.0658953 0.177996 0.026697 -0.0103428 0.266123 0.407556 -0.00264351 0.0594453 0.0516678 -0.0127433 0.0092891 0.102667 0.135645 0.176357
internal_weight=0 211221 1099 554 210122 323 139610 137896 115763 96925 55356 70512 62369 8143 33076 18838 29293 1714 22133 52733 11870 8163 28373 2623 8091 411 116 31930 23051 16383 13533 8344 4976 6130 2013 1042 565 971 6668 1146 231 185 847 40863 2604 15128 920 7680 3476 380 3181 41569 119 27 18892 1395 1330 37040 4529 887 546 313
internal_count=352745 211221 1099 554 210122 323 139610 137896 115763 96925 55356 70512 62369 8143 33076 18838 29293 1714 22133 52733 11870 8163 28373 2623 8091 411 116 31930 23051 16383 13533 8344 4976 6130 2013 1042 565 971 6668 1146 231 185 847 40863 2604 15128 920 7680 3476 380 3181 41569 119 27 18892 1395 1330 37040 4529 887 546 313
is_linear=0
shrinkage=0.1


Tree=2
num_leaves=63
num_cat=0
split_feature=0 11 12 0 16 0 0 5 12 7 0 12 12 2 0 2 0 12 6 5 1 13 2 0 0 7 12 6 5 5 1 12 12 2 16 0 0 0 0 12 7 0 2 13 16 5 2 0 7 13 0 7 12 0 2 4 4 0 0 0 2 13
split_gain=20361 2760.19 3465.94 2868.23 1650.64 1126.31 1079.29 1112.68 985.05 1212.1 1296.41 918.587 1150.9 881.691 746.262 617.83 518.19 500.297 457.123 324.458 450.221 323.593 311.186 716.785 431.946 302.053 288.971 288.616 286.357 304.881 266.165 266.122 317.162 264.416 262.43 422.029 271.731 262.579 260.779 260.049 248.053 243.059 236.292 227.804 316.528 210.669 178.078 177.085 173.853 161.59 160.591 156.788 154.375 154.249 151.137 149.708 149.478 148.927 146.486 143.697 143.208 138.615
threshold=-0.2665352549132825 0.96052631578947378 0.83290193939598234 0.56201065911375092 0.58333333333333337 0.85550414012306952 5.3234935264519629 0.14583333333333334 0.83290193939598234 0.50000000000000011 2.9434089321305632 0.83290193939598234 0.15641081520814923 0.060267857142857144 2.5212925854233004 -0.20312499999999997 4.8358081542813336 0.62533800398021244 0.88725490196078438 0.43750000000000006 2.0625000000000004 1.0000000180025095e-35 1.4895833333333337 0.60813536605465124 0.80838644651752911 0.50000000000000011 0.006472824096983589 0.88725490196078438 0.062500000000000014 0.64583333333333337 2.0625000000000004 0.038530921714831128 0.020146186242682652 -0.42336309523809518 0.75000000000000011 -0.18727936473394166 0.60813536605465124 0.67920019693169309 0.511139053436093 0.039988264655009979 1.0000000180025095e-35 -0.24088117553332344 0.076636904761904781 0.61111111111110017 0.91666666666666674 0.27083333333333337 0.52752976190476197 0.067960200615390334 0.50000000000000011 1.0000000180025095e-35 1.3689148536243343 0.83333333333333337 0.020146186242682652 -0.22880459194101507 0.11830357142857144 0.45544554455445524 -0.03465346534653465 2.9434089321305632 0.59385463532488381 1.2111706918185441 1.4002976190476193 1.0000000180025095e-35
decision_type=2 2 2 2 2 2 2 2 2 2 2 2 2 2 2 2 2 2 2 2 2 2 2 2 2 2 2 2 2 2 2 2 2 2 2 2 2 2 2 2 2 2 2 2 2 2 2 2 2 2 2 2 2 2 2 2 2 2 2 2 2 2
left_child=-1 4 -3 41 6 -5 7 18 9 10 19 12 14 33 27 49 25 42 31 38 58 -17 47 -24 -25 -14 -12 28 39 -30 -31 32 -2 50 36 46 -15 -38 -9 52 -18 55 -8 44 -37 -16 -36 53 -32 -10 -13 61 -6 60 -44 -4 -22 -53 -21 -20 -23 -11
right_child=1 2 3 5 11 -7 17 8 15 51 26 13 16 34 45 21 40 -19 59 20 56 22 23 24 -26 -27 -28 -29 29 30 48 -33 -34 -35 35 43 37 -39 -40 -41 -42 -43 54 -45 -46 -47 -48 -49 -50 -51 -52 57 -54 -55 -56 -57 -58 -59 -60 -61 -62 -63
leaf_value=-0.029302514417456141 0.028134849889407905 -0.0012837328175894507 0.56204422712326041 0.61950348521981924 0.035571824491317912 0.069814929695323463 0.11624324902020994 -0.0014715055817539988 0.16208963928050557 0.11761592721022351 0.48020305445319728 0.019539356739546827 0.019575413308025036 0.051167293608462609 0.24329914121051965 0.26049682707008393 0.18690269037669655 0.038028960454053726 0.0091084003006556991 0.013264582917968623 0.12441965121446195 0.054584585448455569 0.048820592822860283 0.53591219847058436 0.14997564708605279 -0.0012552574864325315 0.088362573039691819 0.021715576503115452 0.026793712555394086 0.048949991599763376 0.1649377286273217 0.025810015514042096 0.069002887226858239 0.065672587047133038 0.22129669344008326 0.34625005963769545 0.38750607971425938 0.12393795795945171 0.014418014236855582 0.031918485026941085 0.057756471811203518 0.047525841761015208 0.58390689129009843 0.090911112533437116 0.13271258405503669 0.10281432880508157 0.44797383663007767 0.055370574574741344 0.030723999957415038 0.011769668521634941 0.13562926558867819 0.0021806041504209071 0.083018949846651618 0.012492275275081902 0.21814983238458849 0.082810288125818421 0.038881281475514701 0.062452257262734824 0.041231053998521103 0.047574786319463422 0.23769892797521922 -0.011760075479169395
leaf_weight=141804 2926 545 16.000000000000004 280 844 43 642 21599 72 83 19 3053 15063 713 118 72 172 867 7482 8605 565 597 290 58 58 12942 1994 8858 11347 4463 345 5188 5410 2943 84 98 46 212 19795 2161 1099 204 11.999999999999998 562 238 1119 59 4598 134 10562 124 4061 3657 2383 193 10.999999999999998 320 456 2394 1116 46 36925
leaf_count=141804 2926 545 16 280 844 43 642 21599 72 83 19 3053 15063 713 118 72 172 867 7482 8605 565 597 290 58 58 12942 1994 8858 11347 4463 345 5188 5410 2943 84 98 46 212 19795 2161 1099 204 12 562 238 1119 59 4598 134 10562 124 4061 3657 2383 193 11 320 456 2394 1116 46 36925
internal_value=0 0.0196985 0.177764 0.353902 0.0188706 0.546325 0.0125651 0.0115833 0.00764975 0.00358808 0.0132848 0.0313456 0.027221 0.062956 0.0400117 0.028638 0.0127832 0.0914289 0.0321297 0.0103084 0.0248728 0.049442 0.0475496 0.132856 0.342944 0.0099489 0.092061 0.0370483 0.0429659 0.0358225 0.0565529 0.0435914 0.0546579 0.0440762 0.120384 0.155264 0.0829891 0.170931 0.00612701 0.0604321 0.0752334 0.0848437 0.14609 0.129855 0.194994 0.116215 0.314821 0.0430068 0.127392 0.0127874 0.0240704 -0.00932318 0.074122 0.0242202 0.23956 0.366801 0.0934905 0.00826515 0.0193517 0.0141012 0.0676845 -0.0114699
internal_weight=0 210941 1099 554 209842 323 139388 137674 115552 96816 55291 70454 62322 8132 33046 18736 29276 1714 22122 53278 11884 8102 8030 406 116 28005 2013 31809 22951 16289 4942 13524 8336 6120 2012 1041 971 258 41394 6662 1271 231 847 898 336 1237 143 7624 479 10634 3177 41525 4501 3026 205 27 885 4517 10999 8598 643 37008
internal_count=352745 210941 1099 554 209842 323 139388 137674 115552 96816 55291 70454 62322 8132 33046 18736 29276 1714 22122 53278 11884 8102 8030 406 116 28005 2013 31809 22951 16289 4942 13524 8336 6120 2012 1041 971 258 41394 6662 1271 231 847 898 336 1237 143 7624 479 10634 3177 41525 4501 3026 205 27 885 4517 10999 8598 643 37008
is_linear=0
shrinkage=0.1


Tree=3
num_leaves=63
num_cat=0
split_feature=0 11 12 0 7 0 12 2 12 0 0 16 6 0 2 0 12 2 0 0 3 13 1 6 1 5 0 2 2 7 5 0 5 3 1 0 16 5 13 0 1 16 12 2 3 5 8 13 5 5 0 16 6 0 13 2 13 11 13 5 11 0
split_gain=16498.1 2236.56 2807.41 2323.64 1357.08 2658.55 2476.05 1221.24 1008.85 911.571 558.861 544.154 476.223 420.887 420.026 365.358 484.185 349.041 718.998 461.774 343.931 340.796 340.34 339.343 331.29 326.356 308.007 384.003 301.773 281.158 269.571 267.349 1174.59 558.359 260.171 254.374 253.873 249.38 236.834 230.001 253.129 224.296 217.046 215.484 204.726 202.776 195.86 248.441 193.422 182.498 178.217 171.956 168.64 168.233 166.451 190.394 164.625 164.256 163.166 159.12 149.931 146.761
threshold=-0.26970744607323316 0.96052631578947378 0.83290193939598234 0.52796940098855993 0.50000000000000011 3.101589930054804 0.83290193939598234 -0.20312499999999997 0.045962030184042699 0.88871857430020429 5.3234935264519629 0.75000000000000011 0.88725490196078438 -0.18727936473394166 0.32663690476190482 4.8358081542813336 0.006472824096983589 1.4895833333333337 0.60813536605465124 0.88871857430020429 0.22684085510688839 1.0000000180025095e-35 2.9375000000000004 0.15196078431372553 3.4375000000000004 0.81250000000000011 1.306569547709703 0.42633928571428575 -0.54687499999999989 0.83333333333333337 0.64583333333333337 0.36960308694775862 0.85416666666666674 -0.11757719714964369 2.0625000000000004 0.067960200615390334 0.91666666666666674 0.27083333333333337 0.38888888888887158 6.8543683213776818 -0.68749999999999989 0.75000000000000011 0.008253808242011617 0.52752976190476197 -0.59750593824228015 0.14583333333333334 0.50000000000000011 0.61111111111110017 0.64583333333333337 0.77083333333333337 0.39894533927456421 0.41666666666666669 0.74019607843137269 0.4944209346762547 0.27777777777777152 0.072172619047619055 1.0000000180025095e-35 0.51315789473684226 0.61111111111110017 0.68750000000000011 0.77631578947368429 1.2745729273408581
decision_type=2 2 2 2 2 2 2 2 2 2 2 2 2 2 2 2 2 2 2 2 2 2 2 2 2 2 2 2 2 2 2 2 2 2 2 2 2 2 2 2 2 2 2 2 2 2 2 2 2 2 2 2 2 2 2 2 2 2 2 2 2 2
left_child=-1 4 -3 41 5 8 10 -8 12 -5 29 17 14 43 25 16 -7 21 -19 -20 -12 60 26 24 -16 52 30 44 -17 56 45 -27 33 -33 49 -23 46 38 -25 40 -22 -4 -14 -13 -28 -10 -15 -48 -24 -32 -47 57 -2 -31 55 -53 -6 -37 -44 -30 -9 -58
right_child=1 2 3 9 6 15 7 11 22 -11 20 13 42 36 23 28 -18 18 19 -21 39 35 48 37 -26 31 27 -29 59 53 34 32 -34 -35 -36 51 -38 -39 -40 -41 -42 -43 58 -45 -46 50 47 -49 -50 -51 -52 54 -54 -55 -56 -57 61 -59 -60 -61 -62 -63
leaf_value=-0.026420455271389899 0.014230167884928447 -0.0011553597042909525 0.046373961816700005 0.54961765653431216 0.099788894861097072 0.44762764043278164 0.013856742036193987 0.16473606463383747 0.032778935804953627 0.022443212810400372 0.03155050956124672 0.17655989526660293 0.083527658308259034 0.096164320904200018 0.016734712732694699 0.093305024898543837 0.078444336886711902 0.048093840499428123 0.45928929063745527 0.10784035813923065 0.56745574040846392 0.021763742939078835 0.033558389158434801 0.042419174490130711 0.30610838286578657 0.030157682492699678 0.11486735998739837 0.010099455259403098 0.21384888851975867 0.0016521137613071401 0.031751870170702357 0.3985178612150776 0.03240497248907992 0.093460887234929638 0.081045646792570619 0.089866940305535339 0.063173350279778412 0.030532828421293186 0.070285706246294932 0.29668374678406578 0.076314631641817926 0.43465854294481687 0.0055081273892971542 0.40369778492693176 0.041685937141234163 -0.0019657800281741248 0.37116048602046264 0.14703210320415125 0.14432640993262588 0.0045805503250994743 0.010678687897330152 0.052775479115471979 0.046406551866134189 0.033857939088751843 0.069245624143214821 0.23160903074778619 -0.013225152263772064 0.033152726878089879 0.027284187041939818 0.090682386878324917 0.47443846762180331 -0.0026092822759683329
leaf_weight=141524 10619 545 212 289 142 36 14143 54 2760 37 1316 143 471 340 3622 558 2689 333 88 65 10.999999999999998 3716 331 4842 40 1184 415 5767 581 4334 5599 160 672 96 744 622 1148 3689 8240 78 228 15.999999999999998 8309 59 4847 20672 71 163 301 4426 24191 101 1924 2592 1455 145 26610 2853 5873 128 22 25504
leaf_count=141524 10619 545 212 289 142 36 14143 54 2760 37 1316 143 471 340 3622 558 2689 333 88 65 11 3716 331 4842 40 1184 415 5767 581 4334 5599 160 672 96 744 622 1148 3689 8240 78 228 16 8309 59 4847 20672 71 163 301 4426 24191 101 1924 2592 1455 145 26610 2853 5873 128 22 25504
internal_value=0 0.0177024 0.159987 0.318512 0.0169583 0.0236699 0.00733532 0.0334774 0.0209946 0.489785 -0.0036352 0.0578662 0.0318852 0.106343 0.0382084 0.10395 0.0833216 0.0480006 0.13054 0.309981 0.0540744 0.0435276 0.0132618 0.0474742 0.0198955 0.0252893 0.0125967 0.0279232 0.148317 -0.00522758 0.00970187 0.0616562 0.101844 0.284121 0.0239902 0.0417254 0.0903238 0.0534961 0.0599716 0.147581 0.0989195 0.073622 0.0167439 0.242902 0.0474576 0.00647085 0.144625 0.215037 0.0863134 0.0197558 0.00485236 0.0560564 0.0191658 0.0137049 0.0821082 0.158185 -0.00773688 0.0433042 0.014526 0.191613 0.254387 -0.00802987
internal_weight=0 211221 1099 554 210122 123786 86336 25521 119794 326 60815 11378 49741 1924 35088 3992 2725 9454 486 153 1633 8968 70053 20433 3662 14655 69421 11029 1267 59182 58392 2112 928 256 10769 8892 1722 16771 13082 317 239 228 14653 202 5262 47623 574 234 632 10025 44863 5176 12543 6926 1701 246 52256 3475 14182 709 76 52114
internal_count=352745 211221 1099 554 210122 123786 86336 25521 119794 326 60815 11378 49741 1924 35088 3992 2725 9454 486 153 1633 8968 70053 20433 3662 14655 69421 11029 1267 59182 58392 2112 928 256 10769 8892 1722 16771 13082 317 239 228 14653 202 5262 47623 574 234 632 10025 44863 5176 12543 6926 1701 246 52256 3475 14182 709 76 52114
is_linear=0
shrinkage=0.1


Tree=4
num_leaves=63
num_cat=0
split_feature=0 11 12 0 16 0 0 5 12 7 0 12 12 2 0 2 12 0 6 5 1 13 12 0 2 6 12 12 7 12 12 12 0 6 0 0 2 11 5 1 16 13 3 0 0 16 12 2 0 0 0 6 0 3 1 18 2 0 12 13 0 15
split_gain=13363.5 1811.61 2274 1887.8 1258.88 752.678 713.94 736.511 639.724 771.777 879.416 617.569 788.536 585.646 526.081 407.97 358.819 333.113 295.39 221.326 285.825 213.621 208.992 204.882 395.262 202.519 217.958 262.224 202.459 201.752 190.192 233.195 188.762 188.544 187.183 315.59 184.792 178.577 176.672 179.543 173.587 324.105 246.54 190.978 205.133 173.809 166.763 166.498 155.628 150.497 143.919 143.218 142.178 139.898 153.975 134.276 140.974 134.048 132.059 131.298 130.16 128.385
threshold=-0.26970744607323316 0.96052631578947378 0.83290193939598234 0.56201065911375092 0.58333333333333337 0.85550414012306952 5.3234935264519629 0.14583333333333334 0.83290193939598234 0.50000000000000011 2.5212925854233004 0.83290193939598234 0.15641081520814923 0.060267857142857144 2.6566760357853751 -0.20312499999999997 0.62533800398021244 4.8358081542813336 0.88725490196078438 0.43750000000000006 2.0625000000000004 1.0000000180025095e-35 0.38420979457018156 0.32333251244859157 1.4895833333333337 0.88725490196078438 0.022003771856314035 0.020146186242682652 0.50000000000000011 0.091636996364494308 0.038530921714831128 0.020146186242682652 -0.24088117553332344 0.33823529411764713 0.60813536605465124 0.79249384044484705 -0.42336309523809518 0.51315789473684226 0.64583333333333337 1.6875000000000002 0.75000000000000011 0.72222222222221444 1.0653206650831357 0.60813536605465124 0.67920019693169309 0.91666666666666674 0.006472824096983589 -0.28497023809523803 0.511139053436093 0.8395525736263153 0.59385463532488381 0.13235294117647062 0.7627920615135616 1.0653206650831357 1.4375000000000002 0.20416666666666669 1.4895833333333337 4.3757681707838625 0.044381358879412448 1.0000000180025095e-35 2.0282468686017916 0.18333333333333343
decision_type=2 2 2 2 2 2 2 2 2 2 2 2 2 2 2 2 2 2 2 2 2 2 2 2 2 2 2 2 2 2 2 2 2 2 2 2 2 2 2 2 2 2 2 2 2 2 2 2 2 2 2 2 2 2 2 2 2 2 2 2 2 2
left_child=-1 4 -3 32 6 -5 7 18 9 10 19 12 14 36 25 59 47 28 30 48 -21 -17 46 -23 37 26 27 -6 -14 -16 31 -2 -4 -19 -26 -36 60 -25 50 -40 43 42 61 -15 -45 -44 -12 -8 -9 53 -28 -24 -41 -39 -55 -46 -57 -53 -54 -10 -13 -42
right_child=1 2 3 5 11 -7 16 8 15 -11 22 13 17 40 29 21 -18 33 -20 20 -22 23 51 24 34 -27 38 -29 -30 -31 -32 -33 -34 -35 35 -37 -38 49 39 52 41 -43 45 44 55 -47 -48 -49 -50 -51 -52 57 58 54 -56 56 -58 -59 -60 -61 -62 -63
leaf_value=-0.023778410845984383 0.021493740162257833 -0.0010398243146509556 0.31685476258948997 0.50259135535785127 0.034799122973135435 0.053233190400655883 0.08225915313675497 -0.0018982272911558793 0.14434587485674355 -0.0078058753677849009 0.39078307465503093 0.016698938001221377 0.016431374547196544 0.041754996461263461 0.16852341646818111 0.21094708469592863 0.028680163662060384 0.12660651400542031 0.011186327805464845 0.015023508510919395 0.074037212831584528 0.023575638929086883 0.18519205957651141 0.094774643650416435 0.022290213081317071 0.018132537253155702 0.015564025821032487 0.073896184043697355 -0.00061768632108321058 0.074260414221795273 0.019854651344387603 0.056525051198123837 0.035492442467925593 0.03832050582315738 0.468406415228941 0.13447655895307883 0.054718546332913058 0.042000297981630012 0.038198005134645566 0.079293371947496416 0.2431253744243288 0.066502102990527362 0.39524358011467359 0.33358234691879024 0.45831273809075362 0.19722938767429127 0.092203805167894323 0.17201245096876344 0.010465678344192229 0.011767576540861826 0.038532517441799856 0.018350099289981475 0.35985120603361648 0.10024983303176355 0.43866378473384043 0.048711584190800357 0.28695633027317197 0.10117409079622511 0.088884413944823409 0.0088481609207322169 0.14510857769874511 0.10099144612581044
leaf_weight=141524 2927 545 27 280 4298 43 489 21629 72 41569 19 3100 15073 713 312 72 867 325 8600 10983 887 4460 65 675 39 8879 7929 2855 12949 834 5189 5417 204 946 49 67 2949 1192 3147 591 81 477 71 46 9.9999999999999982 118 1209 358 19234 1256 4159 1092 37 339 13.999999999999998 173 29 238 35 10603 81 295
leaf_count=141524 2927 545 27 280 4298 43 489 21629 72 41569 19 3100 15073 713 312 72 867 325 8600 10983 887 4460 65 675 39 8879 7929 2855 12949 834 5189 5417 204 946 49 67 2949 1192 3147 591 81 477 71 46 10 118 1209 358 19234 1256 4159 1092 37 339 14 173 29 238 35 10603 81 295
internal_value=0 0.0159322 0.143989 0.286661 0.0152624 0.44277 0.00976158 0.00896431 0.00576874 0.00249148 0.0102242 0.0261538 0.0227722 0.052054 0.0333539 0.0226309 0.0739037 0.0108241 0.0256782 0.00741309 0.0194334 0.0394598 0.0667383 0.0379337 0.0555699 0.0309646 0.0359074 0.0504041 0.00855298 0.0999236 0.0348876 0.0442364 0.0683789 0.0608956 0.211814 0.275533 0.0366861 0.0486028 0.0293849 0.0481619 0.0988527 0.1272 0.178444 0.0684326 0.142158 0.271616 0.0968235 0.120195 0.0039214 0.0374761 0.0234666 0.0402546 0.0954568 0.0583756 0.113671 0.100622 0.082915 0.0331712 0.228131 0.00976206 0.0199687 0.131611
internal_weight=0 211221 1099 554 210122 323 139610 137896 115763 96925 55356 70512 62369 8143 33076 18838 1714 29293 22133 52733 11870 8163 2623 8091 3631 31930 23051 7153 28022 1146 13533 8344 231 1271 155 116 6130 3476 15898 3810 2013 1042 565 971 258 189 1228 847 40863 2801 12088 1395 663 1545 353 212 202 1330 72 10675 3181 376
internal_count=352745 211221 1099 554 210122 323 139610 137896 115763 96925 55356 70512 62369 8143 33076 18838 1714 29293 22133 52733 11870 8163 2623 8091 3631 31930 23051 7153 28022 1146 13533 8344 231 1271 155 116 6130 3476 15898 3810 2013 1042 565 971 258 189 1228 847 40863 2801 12088 1395 663 1545 353 212 202 1330 72 10675 3181 376
is_linear=0
shrinkage=0.1


Tree=5
num_leaves=63
num_cat=0
split_feature=0 11 12 0 16 0 7 0 12 16 12 3 12 7 0 2 16 0 0 0 3 0 2 0 0 12 12 16 13 3 0 12 3 1 0 0 11 6 2 0 1 12 13 13 0 0 0 3 11 13 0 1 6 1 3 0 7 0 13 6 0 3
split_gain=10828.6 1466.74 1841.94 1537.47 1016.34 597.377 585.479 1164.22 827.444 535.145 456.056 395.861 309.418 397.2 401.46 309.6 264.532 245.248 239.96 233.235 230.435 225.858 195.213 296.103 303.891 188.638 185.093 184.68 177.389 176.627 224.859 174.87 173.501 173.19 165.073 160.495 154.029 147.261 261.228 146.118 145.307 142.495 152.908 140.194 137.083 120.5 132.583 125.286 147.745 234.666 120.416 120.297 120.215 149.777 119.149 166.998 118.445 212.366 140.986 146.156 116.323 115.427
threshold=-0.2665352549132825 0.96052631578947378 0.83290193939598234 0.45903314860996974 0.58333333333333337 0.88871857430020429 0.50000000000000011 2.9434089321305632 0.83290193939598234 0.91666666666666674 0.044381358879412448 -0.15795724465558192 0.83290193939598234 0.50000000000000011 2.7941439025152932 -0.27604166666666663 0.75000000000000011 5.3234935264519629 0.084517729887222726 4.8358081542813336 1.0653206650831357 -0.19697496539619361 1.4895833333333337 0.60813536605465124 0.88871857430020429 0.035204119933387373 0.006472824096983589 0.75000000000000011 0.72222222222221444 0.22684085510688839 6.8543683213776818 0.037822932641264607 -0.55878859857482177 2.9375000000000004 -0.24088117553332344 1.6501430039283205 0.82894736842105277 0.88725490196078438 0.32663690476190482 0.11123511656920536 -0.56249999999999989 0.83290193939598234 1.0000000180025095e-35 1.0000000180025095e-35 1.8701309690014127 0.067960200615390334 -0.22880459194101507 -0.11757719714964369 0.46052631578947373 0.72222222222221444 1.0422678081496779 1.4375000000000002 0.15196078431372553 3.4375000000000004 2.6318289786223281 -0.24467237993938781 0.50000000000000011 3.2342494624194722 0.38888888888887158 0.43627450980392163 0.87181866472674485 -0.35985748218527308
decision_type=2 2 2 2 2 2 2 2 2 2 2 2 2 2 2 2 2 2 2 2 2 2 2 2 2 2 2 2 2 2 2 2 2 2 2 2 2 2 2 2 2 2 2 2 2 2 2 2 2 2 2 2 2 2 2 2 2 2 2 2 2 2
left_child=-1 4 -3 34 6 -5 7 10 17 12 37 -10 13 14 31 -14 18 -8 -17 26 -18 36 43 -24 -25 35 -9 50 -22 -19 40 44 -21 -33 -4 -23 -11 38 39 -2 -31 56 -43 -13 -6 46 54 48 -47 -50 -15 -12 53 -40 -45 -56 57 -27 59 -59 -49 -44
right_child=1 2 3 5 9 -7 8 19 11 21 51 22 15 27 -16 16 20 29 -20 32 28 25 23 24 -26 41 -28 -29 -30 30 -32 33 -34 -35 -36 -37 -38 -39 52 -41 -42 42 61 45 -46 47 -48 60 49 -51 -52 -53 -54 -55 55 -57 -58 58 -60 -61 -62 -63
leaf_value=-0.021369385944868081 0.0017922616604711579 -0.00093584114493409161 0.28516928023762173 0.44106209985911848 0.042095121899324496 0.014875574409961701 -0.0071416844479570644 0.38026408379276599 0.0049531715117252162 0.06981892945519691 0.0037745093334157634 0.1676734866326054 0.031282331742509606 -0.010922325107170956 0.090466317607941202 0.016394524742165871 0.10295696670102557 0.022069739107572442 0.094888745643126104 0.067912642408630958 0.3557192188648271 0.026111046243579628 0.045157397820600381 0.35803055095672609 0.033721496742664579 0.0087496231326295061 0.058063809223071375 0.029042310005489416 0.13056803400910028 0.39220451529209432 0.33278713544741989 0.024870160155232676 0.16633178334255894 0.13137475447608279 0.021261785110247504 0.11711875252739186 0.34697601795196537 0.010796289955072199 0.012094552305236584 0.026488263349034782 0.043011765890604965 0.25374752253293992 0.0042971667979924575 0.044203472839525117 0.14726909351764278 0.050550538440019332 0.0053720151380671514 0.047283539596592518 0.34342144153736259 0.052515711713778349 0.018601580824832414 0.018537766654312417 0.040601622902985551 0.27433577071536674 0.35322978414338213 -0.067328773226056779 -0.004462671980874717 0.35338073811110332 0.05083720077041131 0.088705190443175125 0.013958984111099713 0.04467397612303467
leaf_weight=141804 4923 545 27 296 7532 37 42305 18 9035 444 38719 75 2755 3914 1195 751 632 812 809 298 71 4761 268 75 47 12822 1882 3254 69 12.999999999999998 42 17833 449 154 194 202 21 8796 2171 4667 143 30 1270 624 126 203 2626 3100 54 57 2135 6437 9902 22 29 13.999999999999998 7596 34 390 54 1582 1600
leaf_count=141804 4923 545 27 296 7532 37 42305 18 9035 444 38719 75 2755 3914 1195 751 632 812 809 298 71 4761 268 75 47 12822 1882 3254 69 13 42 17833 449 154 194 202 21 8796 2171 4667 143 30 1270 624 126 203 2626 3100 54 57 2135 6437 9902 22 29 14 7596 34 390 54 1582 1600
internal_value=0 0.0143655 0.12959 0.257995 0.013762 0.393708 0.00881418 0.01454 0.00147843 0.0235509 0.0122587 0.0196368 0.0308884 0.0276384 0.0338102 0.0539796 0.0807939 -0.00597904 0.0571008 0.0797287 0.128671 0.013199 0.0347918 0.103947 0.233092 0.0120811 0.0611162 0.0098321 0.244752 0.0427198 0.127406 0.0311701 0.12707 0.025782 0.0535039 0.0298152 0.0823357 0.0217099 0.0261367 0.0138106 0.0721112 0.00838246 0.0291545 0.0315672 0.0438256 0.0303357 0.0154846 0.0401245 0.101274 0.194037 -0.000501836 0.00587902 0.0359099 0.0147253 0.0552984 0.216304 0.00549965 0.0111894 0.076635 0.190966 0.0360235 0.0268069
internal_weight=0 210941 1099 554 209842 333 139388 78284 61104 70454 75637 17789 41230 36143 26840 5087 2332 43315 1560 2647 772 29224 8754 390 122 28759 1900 9303 140 1010 198 25645 747 17987 221 4963 465 30481 21685 9590 156 23796 2900 8364 7658 8289 3293 4996 314 111 6049 45156 12095 2193 667 43 20896 13300 478 88 4682 2870
internal_count=352745 210941 1099 554 209842 333 139388 78284 61104 70454 75637 17789 41230 36143 26840 5087 2332 43315 1560 2647 772 29224 8754 390 122 28759 1900 9303 140 1010 198 25645 747 17987 221 4963 465 30481 21685 9590 156 23796 2900 8364 7658 8289 3293 4996 314 111 6049 45156 12095 2193 667 43 20896 13300 478 88 4682 2870
is_linear=0
shrinkage=0.1


Tree=6
num_leaves=63
num_cat=0
split_feature=0 11 12 0 16 0 7 0 12 16 5 2 6 12 7 0 2 16 8 0 0 5 1 0 0 11 12 15 16 12 0 2 0 0 13 18 12 16 12 2 1 13 0 0 6 5 3 13 4 14 14 7 0 6 0 0 12 3 2 12 0 16
split_gain=8771.17 1188.06 1491.97 1250.86 823.238 504.116 474.238 943.021 670.23 433.467 373.546 327.104 253.737 250.628 321.732 325.182 251.241 200.844 205.701 200.084 198.651 197.68 223.271 188.92 185.013 175.768 169.557 163.839 163.007 158.473 152.175 151.681 239.843 253.606 154.098 150.861 149.925 149.591 141.645 140.715 140.284 128.706 128.502 127.617 126.941 124.881 121.496 120.798 119.85 169.393 167.293 111.708 116.823 132.55 111.037 108.784 204.904 294.918 117.527 108.611 107.964 113.08
threshold=-0.2665352549132825 0.96052631578947378 0.83290193939598234 0.56201065911375092 0.58333333333333337 0.85550414012306952 0.50000000000000011 2.9434089321305632 0.83290193939598234 0.91666666666666674 0.14583333333333334 -0.20312499999999997 0.88725490196078438 0.83290193939598234 0.50000000000000011 2.7941439025152932 -0.31770833333333326 0.75000000000000011 0.50000000000000011 0.084517729887222726 5.3234935264519629 0.43750000000000006 2.0625000000000004 4.8358081542813336 -0.21465185669990611 0.82894736842105277 0.038530921714831128 0.11666666666666671 0.75000000000000011 0.02949156541229209 0.511139053436093 1.4895833333333337 0.60813536605465124 0.79249384044484705 0.61111111111110017 0.71875000000000011 0.006472824096983589 0.75000000000000011 0.037822932641264607 -0.54687499999999989 2.9375000000000004 1.0000000180025095e-35 0.38319123936714461 1.6501430039283205 0.64215686274509809 0.64583333333333337 -0.70011876484560565 1.0000000180025095e-35 -1.3329207920792074 0.68181818181818199 0.86363636363636398 0.83333333333333337 4.0604927139740417 0.43627450980392163 1.8701309690014127 0.36960308694775862 0.044381358879412448 -0.15795724465558192 -0.42336309523809518 0.006472824096983589 -0.20297111930372572 0.25000000000000006
decision_type=2 2 2 2 2 2 2 2 2 2 2 2 2 2 2 2 2 2 2 2 2 2 2 2 2 2 2 2 2 2 2 2 2 2 2 2 2 2 2 2 2 2 2 2 2 2 2 2 2 2 2 2 2 2 2 2 2 2 2 2 2 2
left_child=-1 4 -3 28 6 -5 7 10 20 13 12 -10 26 14 15 38 -15 19 -19 -18 51 30 42 36 25 -11 -2 -20 -4 43 -12 41 60 -34 -35 -22 -9 -16 54 -25 -40 -13 -23 -26 -41 -31 -32 -47 49 -24 -51 -8 -53 -54 -6 -49 57 58 -57 -45 61 -33
right_child=1 2 3 5 9 -7 8 23 11 24 21 31 -14 16 37 -17 17 18 27 -21 35 22 48 39 29 -27 -28 -29 -30 45 46 32 33 34 -36 -37 -38 -39 40 44 -42 -43 -44 59 -46 47 -48 55 -50 50 -52 52 53 -55 -56 56 -58 -59 -60 -61 -62 -63
leaf_value=-0.019232447669102065 0.040452257030381036 -0.00084225788080227477 0.031596980538479119 0.40822603540761132 0.037885609759038402 0.040475526798603147 -0.0082398199636791996 0.34223765881939072 0.0054645349631576544 0.068602395307783101 -0.0025459781174125766 0.16656051069936331 0.0089349308584070631 0.027751744812518193 -0.00045165275350548655 0.081419686160128762 0.0145895418526708 0.074805888771015183 0.36563402214428276 0.085778190246304967 0.033241794244054289 0.0072966196031539927 0.038071274410079542 0.063255241569042359 0.024194053378510577 0.39845282610724952 0.016856170726324615 0.14990098396368534 0.36244590133428578 0.0037025055046004704 0.065741900738979148 -0.0047231763601303101 0.38576271728593481 0.30587811988333002 -0.0068817873001098644 0.32535916782087754 0.052257427606863666 0.02613807900097935 0.022383144097401334 0.12630258601314498 0.11823727845806967 0.028362262556484621 0.030544196570131878 0.27441621862817556 0.26860036854632202 0.20857811131898096 0.0084988807354210629 0.0080070038734133524 0.045821726199802626 0.52022721469402311 0.16775052136577229 0.0052184130701118086 0.18779094682908373 0.0028066309288297367 0.13254218321914477 0.15246476039290424 0.030466275552106726 0.044946198924802817 0.56898795692693616 0.073593352667110812 -0.0018717754758088977 0.23262919613293243
leaf_weight=141804 7749 545 215 280 7532 43 37625 18 9825 325 21599 68 8571 2708 6049 1195 758 507 41 824 992 8657 96 313 4593 17 5017 249 15.999999999999998 18394 378 34 49 23 50 18 1882 3254 17833 358 154 7506 3278 32 76 34 19417 3349 774 15.999999999999998 85 4525 76 79 126 10.000000000000002 2227 52 21 170 185 49
leaf_count=141804 7749 545 215 280 7532 43 37625 18 9825 325 21599 68 8571 2708 6049 1195 758 507 41 824 992 8657 96 313 4593 17 5017 249 16 18394 378 34 49 23 50 18 1882 3254 17833 358 154 7506 3278 32 76 34 19417 3349 774 16 85 4525 76 79 126 10 2227 52 21 170 185 49
internal_value=0 0.0129289 0.116631 0.232195 0.0123858 0.359269 0.00793276 0.013086 0.00133058 0.0211958 0.0110328 0.0176732 0.0222437 0.0277995 0.0248745 0.0304292 0.0485816 0.0722922 0.113228 0.0516688 -0.00538113 0.00662756 0.0174333 0.0717558 0.0118791 0.0849985 0.0311791 0.180401 0.0545129 0.0110133 0.00325851 0.0327346 0.0935524 0.209783 0.091659 0.0384478 0.0550046 0.00884889 0.0280531 0.114363 0.0232038 0.029603 0.0136817 0.0276153 0.151221 0.00770831 0.00959198 0.020651 0.0635461 0.133184 0.223588 -0.00642752 0.00814255 0.0935086 0.039443 0.0195219 0.036216 0.190489 0.434626 0.105407 0.0406417 0.135401
internal_weight=0 210941 1099 554 209842 323 139388 78284 61104 70454 75637 17789 21337 41230 36143 26840 5087 2379 797 1582 43315 54300 12906 2647 29224 342 12766 290 231 28882 41394 7964 390 122 73 1010 1900 9303 25645 747 17987 7574 11935 4795 434 24087 19795 5693 971 197 101 42305 4680 155 7658 5659 2310 83 31 202 268 83
internal_count=352745 210941 1099 554 209842 323 139388 78284 61104 70454 75637 17789 21337 41230 36143 26840 5087 2379 797 1582 43315 54300 12906 2647 29224 342 12766 290 231 28882 41394 7964 390 122 73 1010 1900 9303 25645 747 17987 7574 11935 4795 434 24087 19795 5693 971 197 101 42305 4680 155 7658 5659 2310 83 31 202 268 83
is_linear=0
shrinkage=0.1


Tree=7
num_leaves=63
num_cat=0
split_feature=0 11 12 0 12 12 0 0 2 0 2 7 5 7 12 12 12 0 12 16 0 0 1 0 2 3 5 3 2 5 11 6 0 12 16 13 14 2 12 7 2 16 2 2 5 2 12 7 0 0 0 0 1 11 3 13 1 0 0 11 2 0
split_gain=7106.76 962.684 1208.5 1015.93 677.783 1008.48 981.499 725.855 485.152 400.645 340.094 307.796 300.015 291.834 320.392 291.3 551.673 384.699 302.128 287.676 262.884 245.38 243.799 225.135 263.805 195.269 187.895 208.569 176.862 262.072 176.795 170.74 167.633 159.443 154.008 218.89 150.931 150.765 149.039 145.842 139.824 139.352 138.5 226.666 136.857 200.917 156.58 133.453 218.321 132.218 127.24 126.399 126.35 163.091 143.055 136.665 124.482 122.785 121.876 119.457 118.283 116.744
threshold=-0.26970744607323316 0.96052631578947378 0.83290193939598234 0.45903314860996974 0.15641081520814923 0.83290193939598234 2.5212925854233004 5.3234935264519629 -0.21056547619047616 0.7627920615135616 -0.066220238095238082 0.50000000000000011 0.27083333333333337 0.50000000000000011 0.14364000986626921 0.022003771856314035 0.020146186242682652 0.56201065911375092 0.037822932641264607 0.75000000000000011 3.4857527174184697 -0.18727936473394166 1.6875000000000002 0.32333251244859157 1.4895833333333337 -0.32422802850356286 0.39583333333333337 -0.18408551068883608 -0.68876488095238086 0.31250000000000006 0.51315789473684226 0.39705882352941185 0.8395525736263153 0.008253808242011617 0.25000000000000006 0.27777777777777152 0.40909090909090923 -0.021577380952380949 0.094046495559412871 0.50000000000000011 0.47842261904761912 0.41666666666666669 0.15997023809523811 -0.67983630952380947 1.0000000180025095e-35 0.16889880952380956 0.003542817922905219 0.83333333333333337 4.1993331359478958 0.59385463532488381 -0.24088117553332344 2.7941439025152932 -0.43749999999999994 0.77631578947368429 -0.19358669833729214 0.61111111111110017 0.68750000000000011 1.9471601485087082 -0.22880459194101507 0.90789473684210531 0.34300595238095244 0.4944209346762547
decision_type=2 2 2 2 2 2 2 2 2 2 2 2 2 2 2 2 2 2 2 2 2 2 2 2 2 2 2 2 2 2 2 2 2 2 2 2 2 2 2 2 2 2 2 2 2 2 2 2 2 2 2 2 2 2 2 2 2 2 2 2 2 2
left_child=-1 4 -3 50 6 7 13 11 39 -5 -9 20 33 14 15 16 44 38 26 23 -6 60 -16 58 30 -20 36 -28 -18 -30 49 37 34 -8 -32 40 57 -22 -17 -7 56 -26 43 -14 -2 -46 -47 -13 -49 -25 -4 -51 -23 54 -54 -55 -36 -19 59 -10 -21 -43
right_child=1 2 3 9 5 8 12 10 19 -11 -12 47 42 -15 22 17 28 18 25 21 31 52 -24 24 41 -27 27 -29 29 -31 32 -33 -34 -35 35 -37 -38 -39 -40 -41 -42 61 -44 -45 45 46 -48 48 -50 51 -52 -53 53 55 -56 -57 -58 -59 -60 -61 -62 -63
leaf_value=-0.017340386504083542 0.0043988664267998242 -0.0007580315000420317 0.24614045708267779 0.36914220872348635 0.0044290392466942224 0.043766071553086976 0.37984339486468927 0.032563981307631738 0.035369255562321018 0.07792972943239046 0.11791099570144924 -0.0074384443054620417 0.031918551285109106 0.0013466347974771065 0.023741813214335477 0.0083432587094602467 0.16437055543776005 0.067077129433919233 0.052652820083682633 0.10647517479620539 0.22629214699194838 0.12214328236483013 0.10808071577519418 0.012075716779268917 0.080769918170338934 0.01578296940110737 0.34310081342700871 0.095825778337117917 0.057348978498505877 0.011092802151103708 0.021041816458815622 0.031731847980362035 0.0070762201651975764 0.14522963323147051 0.20152164713518933 0.057096813816156444 0.026495083746490369 0.068412382390909979 -0.010114536982035538 0.0081849383872721303 0.30757892573701928 -0.046432882683196418 0.00014456780748714842 0.0945378660946362 0.0065086922459630381 0.074318866037945047 0.028304090448514414 0.0087994742426884646 0.1354199942473012 0.1190899938858038 0.014441044843688453 -0.017018731339991867 0.31811202056705956 0.23662224575877189 0.034360567138524901 0.06087368050910006 -0.0082833676698043004 0.18719171875530913 0.010733064565537367 0.1354704011125224 0.25936340922815226 0.28676495483692954
leaf_weight=141524 6205 545 27 276 40947 1256 33 1719 803 57 641 43335 918 12340 687 21672 131 694 1542 111 93 283 684 206 109 20985 43 165 5534 1573 840 844 1497 237 71 788 1311 173 5481 13909 58 11.999999999999998 307 1561 4272 860 5278 2505 144 599 194 77 18 80 1376 99 47 97 4554 140 93 85
leaf_count=141524 6205 545 27 276 40947 1256 33 1719 803 57 641 43335 918 12340 687 21672 131 694 1542 111 93 283 684 206 109 20985 43 165 5534 1573 840 844 1497 237 71 788 1311 173 5481 13909 58 12 307 1561 4272 860 5278 2505 144 599 194 77 18 80 1376 99 47 97 4554 140 93 85
internal_value=0 0.0116185 0.104968 0.208976 0.0111303 0.00608837 0.017528 0.0010152 0.0230047 0.319295 0.0557451 -0.000451878 0.073257 0.0156262 0.0179083 0.0170423 0.0261918 0.0128444 0.0218386 0.0380769 0.00573075 0.0720721 0.065819 0.0309932 0.0478817 0.0183068 0.0562809 0.146945 0.0492333 0.047111 0.042441 0.0537497 0.0318142 0.173905 0.0523424 0.0796168 0.0473093 0.123611 0.00461744 0.0111318 0.180445 0.158358 0.063503 0.0713493 0.0161543 0.0231612 0.0347513 -0.00610651 0.0156826 0.0822132 0.0427482 0.103586 0.0606298 0.0495629 0.0380245 0.139421 0.117955 0.0818067 0.0175088 0.0502305 0.176174 0.245545
internal_weight=0 211221 1099 554 210122 117512 92610 90401 27111 333 2360 88041 3056 89554 77214 75843 23853 51990 24837 11946 42057 2060 1371 9886 4389 22527 2310 208 7238 7107 4183 1110 3301 270 1804 964 2102 266 27153 15165 176 206 2786 2479 16615 10410 6138 45984 2649 882 221 676 1856 1573 1394 179 118 791 5497 943 204 97
internal_count=352745 211221 1099 554 210122 117512 92610 90401 27111 333 2360 88041 3056 89554 77214 75843 23853 51990 24837 11946 42057 2060 1371 9886 4389 22527 2310 208 7238 7107 4183 1110 3301 270 1804 964 2102 266 27153 15165 176 206 2786 2479 16615 10410 6138 45984 2649 882 221 676 1856 1573 1394 179 118 791 5497 943 204 97
is_linear=0
shrinkage=0.1


Tree=8
num_leaves=63
num_cat=0
split_feature=0 11 12 0 16 0 16 12 0 12 0 13 2 5 16 0 0 3 2 3 0 13 12 12 12 0 13 0 7 0 6 16 11 12 3 5 3 13 1 11 0 2 0 3 3 13 2 1 12 0 18 16 0 3 5 5 3 0 2 6 5 2
split_gain=5758.06 779.432 979.105 826.732 626.343 354.216 343.097 327.429 505.399 402.157 388.449 228.335 194.533 177.784 202.836 223.803 202.087 172.899 164.45 163.138 160.512 158.373 151.372 163.688 146.928 180.265 148.486 134.11 131.236 168.016 208.184 125.764 123.321 116.11 158.832 115.586 117.914 114.795 114.356 113.861 112.78 173.215 144.036 120.104 137.61 114.247 111.511 125.211 109.108 105.967 134.383 117.551 101.126 106.534 100.893 478.326 182.256 94.5053 93.911 90.2402 110.251 89.5726
threshold=-0.2665352549132825 0.96052631578947378 0.64998261146662717 0.56201065911375092 0.58333333333333337 0.88871857430020429 0.91666666666666674 0.15641081520814923 2.5212925854233004 0.83290193939598234 5.3234935264519629 1.0000000180025095e-35 0.060267857142857144 0.64583333333333337 0.75000000000000011 0.4760997784486149 -0.18011986973057709 -0.1532066508313539 0.32663690476190482 0.41686460807600956 5.3234935264519629 0.72222222222221444 0.022003771856314035 0.020146186242682652 0.14364000986626921 0.38319123936714461 0.16666666666667143 -0.21465185669990611 0.50000000000000011 2.0282468686017916 0.13235294117647062 0.75000000000000011 0.82894736842105277 0.02949156541229209 0.48812351543943 0.31250000000000006 -1.0000000180025095e-35 0.49999999999998584 1.8125000000000002 0.72368421052631593 0.4132274215488479 1.4895833333333337 1.5808076286803645 -0.11757719714964369 -0.12945368171021374 0.72222222222221444 0.029017857142857147 -0.43749999999999994 0.02949156541229209 0.36960308694775862 0.034722222222222231 0.75000000000000011 0.90559580088939784 1.4619952494061759 0.81250000000000011 0.85416666666666674 -0.11757719714964369 3.101589930054804 -0.20312499999999997 0.36764705882352949 0.062500000000000014 -0.22991071428571427
decision_type=2 2 2 2 2 2 2 2 2 2 2 2 2 2 2 2 2 2 2 2 2 2 2 2 2 2 2 2 2 2 2 2 2 2 2 2 2 2 2 2 2 2 2 2 2 2 2 2 2 2 2 2 2 2 2 2 2 2 2 2 2 2
left_child=-1 4 -3 31 7 -5 13 8 18 10 28 -11 -12 20 15 -15 39 -13 24 -14 22 35 23 -6 25 26 -2 32 29 -9 -31 -4 -8 34 -20 -10 -37 59 -26 -16 -19 43 -43 44 -42 58 -22 -48 57 51 -51 -24 53 -45 -27 56 -56 -29 61 60 -36 -46
right_child=1 2 3 5 6 -7 27 9 21 11 12 17 19 14 16 -17 -18 40 33 -21 46 -23 49 -25 38 54 -28 48 -30 30 -32 -33 -34 -35 37 36 -38 -39 -40 -41 41 42 -44 52 45 -47 47 -49 -50 50 -52 -53 -54 -55 55 -57 -58 -59 -60 -61 -62 -63
leaf_value=-0.015582746922924396 0.034516510767250444 -0.00086638993983369271 0.023245272761167484 0.32908642813042333 0.02209182604894995 0.0041252314260131441 0.057950809681931371 -0.00047327995571618849 0.20362470932556895 0.13930532572637885 0.029783536591636618 0.0047017163702645611 0.20396584631263759 0.011781641691926276 0.12149418120991862 0.053337494948598185 0.047634233616885006 0.014055865213563744 0.039469891131501775 0.058441822343371454 0.049575565261968546 0.04142925074699351 -0.0038046421999217645 0.05981694721238541 0.014459532228661684 0.011755586965108124 -0.0039182554701882441 0.021058035680032394 -0.0074652283216116461 0.15314793658703565 0.020495432578960943 0.31385158933699131 0.3342406139654272 0.0097740682936854357 0.069905662615058969 0.1083974301515309 -0.0058876046597693878 0.026809969842292343 0.069458246640623486 0.34282846158301394 0.036990944940397251 0.1929797357737513 -0.049238637528352197 0.034180576568747449 0.35302566856145856 0.083696003524120904 0.48025829792022706 0.12625951112222372 0.0059518012947039284 0.049450890668655517 0.017314060659475328 0.021930550813023617 0.0077482725855541126 0.10712764656121752 0.28524801973535707 0.007677992822973225 0.075296557295910074 0.16208175411447884 0.41409133816587512 -0.0043107700621902289 -0.0027545435658553183 -0.060498437319289548
leaf_weight=141804 1062 544 215 286 3556 38 325 24574 97 146 1122 9912 131 4459 167 1827 3758 4989 3985 187 426 1160 4772 1700 1043 8979 18783 4747 32718 125 2210 15.999999999999998 17 14154 406 449 113 4181 593 27 140 118 31 1754 10 50 10.999999999999998 109 24087 1415 16177 2826 1450 226 99 604 71 48 29 3246 430 11
leaf_count=141804 1062 544 215 286 3556 38 325 24574 97 146 1122 9912 131 4459 167 1827 3758 4989 3985 187 426 1160 4772 1700 1043 8979 18783 4747 32718 125 2210 16 17 14154 406 449 113 4181 593 27 140 118 31 1754 10 50 11 109 24087 1415 16177 2826 1450 226 99 604 71 48 29 3246 430 11
internal_value=0 0.0104754 0.0944709 0.187919 0.0100355 0.290974 0.0177201 0.00615133 0.0117711 0.00197132 -0.00197118 0.0147327 0.0493509 0.0235952 0.0350202 0.0238597 0.0527721 0.0137612 0.0101331 0.11839 0.0198211 0.0636694 0.0188573 0.0342936 0.00522208 0.00360958 -0.00186143 0.00943127 -0.00321061 0.00196247 0.0275967 0.0433738 0.0716845 0.015943 0.0230719 0.102818 0.0854184 0.0151636 0.0343949 0.152298 0.0239561 0.0368894 0.142585 0.0325982 0.100987 0.190582 0.073561 0.158709 0.00869412 0.0156365 0.019899 0.00576731 0.027813 0.0425069 0.0147418 0.0493839 0.197562 0.0224697 0.297468 0.00323481 0.0325326 0.136418
internal_weight=0 210941 1099 555 209842 324 70454 139388 59455 79933 61067 18866 1440 41230 10238 6286 3952 18720 57636 318 30992 1819 30446 5256 31234 29598 19845 29224 59627 26909 2335 231 342 26402 12248 659 562 8263 1636 194 8808 3819 149 3670 240 100 546 120 28882 25190 17592 7598 3430 1980 9753 774 170 4795 50 4082 836 21
internal_count=352745 210941 1099 555 209842 324 70454 139388 59455 79933 61067 18866 1440 41230 10238 6286 3952 18720 57636 318 30992 1819 30446 5256 31234 29598 19845 29224 59627 26909 2335 231 342 26402 12248 659 562 8263 1636 194 8808 3819 149 3670 240 100 546 120 28882 25190 17592 7598 3430 1980 9753 774 170 4795 50 4082 836 21
is_linear=0
shrinkage=0.1


Tree=9
num_leaves=63
num_cat=0
split_feature=0 11 12 0 16 0 0 5 16 12 7 0 13 12 12 6 16 0 5 5 0 6 1 8 13 13 5 0 3 3 0 16 0 11 3 3 7 0 12 11 12 0 6 0 4 3 2 12 1 7 0 18 1 6 5 13 0 12 3 2 11 0
split_gain=4664.31 631.591 793.075 669.653 509.324 290.702 287.922 406.955 276.933 250.863 238.683 399.399 213.638 176.109 162.102 160.749 146.834 219.06 195.369 179.743 159.726 140.81 138.102 137.819 152.459 121.097 133.533 111.331 103.764 102.115 404.292 101.869 96.6911 95.9771 93.3453 91.4475 87.8978 215.696 87.5531 85.7764 84.413 84.5914 83.5314 83.4154 84.5738 139.326 84.4654 82.9235 82.631 81.6145 81.3075 80.6775 80.6077 78.2776 78.0184 96.0518 80.4544 159.334 232.255 97.7048 94.5961 114.814
threshold=-0.26970744607323316 0.96052631578947378 0.64998261146662717 0.56201065911375092 0.58333333333333337 0.7627920615135616 0.59385463532488381 0.31250000000000006 0.91666666666666674 0.022003771856314035 0.50000000000000011 4.8358081542813336 1.0000000180025095e-35 0.020146186242682652 0.0043854340775421356 0.23039215686274514 0.75000000000000011 0.59385463532488381 0.60416666666666674 0.18750000000000003 -0.18011986973057709 0.17156862745098042 2.0625000000000004 1.0000000180025095e-35 0.72222222222221444 0.61111111111110017 0.14583333333333334 -0.19697496539619361 0.15083135391923994 2.4893111638954877 0.79249384044484705 0.75000000000000011 2.1116719850896959 0.72368421052631593 0.12470308788598576 0.26484560570071264 0.83333333333333337 4.0604927139740417 0.089865012892027182 0.77631578947368429 0.02949156541229209 1.6501430039283205 0.88725490196078438 0.17757506020284769 -0.96905940594059381 -0.6580760095011875 -0.56629464285714282 0.006472824096983589 1.9375000000000002 1.0000000180025095e-35 3.4857527174184697 0.011805555555555557 2.5625000000000004 0.20098039215686278 0.64583333333333337 1.0000000180025095e-35 0.36960308694775862 0.044381358879412448 -0.17458432304038002 -0.42336309523809518 0.85526315789473695 0.96131634428759904
decision_type=2 2 2 2 2 2 2 2 2 2 2 2 2 2 2 2 2 2 2 2 2 2 2 2 2 2 2 2 2 2 2 2 2 2 2 2 2 2 2 2 2 2 2 2 2 2 2 2 2 2 2 2 2 2 2 2 2 2 2 2 2 2
left_child=-1 4 -3 31 6 -5 9 10 16 13 11 14 49 -2 32 21 17 28 -18 52 33 -14 34 24 51 50 42 35 -6 -25 -31 -4 -8 -20 -23 -10 -12 -38 -17 48 41 -29 -27 44 45 -24 -47 -43 -22 -11 -16 -9 -19 -37 -42 -56 -57 58 59 -58 -59 -62
right_child=1 2 3 5 8 -7 7 23 27 12 36 -13 15 -15 25 38 18 19 20 -21 39 22 43 29 -26 26 -28 40 -30 30 -32 -33 -34 -35 -36 53 37 -39 -40 -41 54 47 -44 -45 -46 46 -48 -49 -50 -51 -52 -53 -54 -55 55 56 57 60 -60 -61 61 -63
leaf_value=-0.014048071795838816 0.0055931558393947202 -0.00077975154289400533 0.020920746340308077 0.30610708634656181 0.00034881838068328631 0.05902496160104357 0.096791062174314588 0.089634682194771664 0.026826714957562777 0.036288665448635474 -0.0029199589242599761 0.12019218880457222 -0.0068991893191671788 0.031583348889743276 0.003494160600226082 0.0017334943458388722 0.022413267703412072 0.017845499233442776 0.10643262764572768 0.048625669333843588 0.036014911754512671 0.0026431481763469536 0.057436957173278472 0.020199368379008292 0.036807908837996207 0.047669727980088769 0.010319077603438399 0.017084551035464548 0.019089879777938235 0.31296223931140821 0.007467065637279874 0.28246643021702766 0.36789671555161479 0.30854561729011715 0.019558702589591651 -0.0069769086937109641 0.0077373227369337827 0.13713266103142432 -0.0082685248924582351 0.13095644300925399 0.0021410279639436937 0.23089903523214161 0.019974165487773383 -0.0072618614188800362 0.043295084801560885 0.31728207982248735 0.10065976350713755 0.055424136022544084 0.094062068330998908 0.12821682102542806 0.065156962511812078 0.22643038626015188 0.14785973097229241 0.16234819869535555 0.18315491500474954 0.004548003162688722 0.13204477412626145 0.021168804097691347 0.039068090982454007 0.51487273973412806 0.30305615878105163 -0.08463171124458313
leaf_weight=141524 7148 544 215 266 8126 58 74 313 325 259 21130 339 6570 4104 14673 12542 14374 7300 181 2760 3450 9583 122 11778 1628 1877 8656 4536 4642 59 163 15.999999999999998 15.999999999999998 27 4946 36 845 152 28960 107 18377 32 2594 184 399 45 30 170 264 154 217 50 48 113 34 3300 10.000000000000002 2191 53 20 25 10.999999999999998
leaf_count=141524 7148 544 215 266 8126 58 74 313 325 259 21130 339 6570 4104 14673 12542 14374 7300 181 2760 3450 9583 122 11778 1628 1877 8656 4536 4642 59 163 16 16 27 4946 36 845 152 28960 107 18377 32 2594 184 399 45 30 170 264 154 217 50 48 113 34 3300 10 2191 53 20 25 11
internal_value=0 0.0094126 0.0850238 0.169127 0.00901713 0.261876 0.00551821 0.0104143 0.0159448 0.00130599 0.00623846 0.0122975 -0.00112218 0.0150727 0.0109961 -0.00158932 0.0212187 0.0158693 0.0278683 0.0268675 0.0473297 0.00534679 0.0106023 0.0255086 0.0498747 0.0105657 0.0175677 0.00849777 0.00716242 0.0214658 0.0886572 0.0390365 0.144988 0.132668 0.00840159 0.0565672 -0.00155089 0.0274646 -0.00524589 0.0426842 0.0077055 0.0199043 0.0316012 0.051594 0.0697643 0.123375 0.230633 0.0832221 0.040141 0.070567 0.00439281 0.108477 0.0186948 0.121437 0.00529937 0.015583 0.0145674 0.0288809 0.164922 0.387263 0.0238106 0.184596
internal_weight=0 211221 1099 555 210122 324 139610 64564 70512 75046 50573 28446 63794 11252 28107 63381 41279 22876 18403 10108 4029 21879 15309 13991 1991 28017 13127 29233 12768 12000 222 231 90 208 14529 474 22127 997 41502 3821 28759 4738 4471 780 596 197 75 202 3714 413 14890 363 7348 149 24021 5644 5610 2310 83 30 2227 36
internal_count=352745 211221 1099 555 210122 324 139610 64564 70512 75046 50573 28446 63794 11252 28107 63381 41279 22876 18403 10108 4029 21879 15309 13991 1991 28017 13127 29233 12768 12000 222 231 90 208 14529 474 22127 997 41502 3821 28759 4738 4471 780 596 197 75 202 3714 413 14890 363 7348 149 24021 5644 5610 2310 83 30 2227 36
is_linear=0
shrinkage=0.1


Tree=10
num_leaves=63
num_cat=0
split_feature=0 11 12 0 7 0 12 2 12 0 1 5 0 2 8 16 2 0 13 2 0 16 18 0 0 11 0 12 12 0 3 0 1 6 6 2 5 6 2 0 5 7 3 0 0 1 0 5 4 14 3 1 15 14 13 0 3 1 13 1 0 14
split_gain=3779.55 511.357 642.391 546.875 428.318 825.868 637.245 402.694 283.742 251.089 188.352 188.578 225.96 201.264 199.307 181.169 230.997 243.152 230.364 201.2 180.461 151.146 148.597 149.285 146.671 146.139 145.945 174.677 148.845 143.883 164.15 166.011 161.043 138.665 132.194 125.43 121.048 245.757 166.81 308.101 228.42 118.25 155.083 117.77 116.125 114.894 111.016 148.402 147.419 139.015 109.307 143.633 118.077 189.522 108.225 108.079 243.825 105.928 102.1 99.6425 97.5558 97.1272
threshold=-0.2665352549132825 0.96052631578947378 0.64998261146662717 0.60813536605465124 0.50000000000000011 3.101589930054804 0.83290193939598234 -0.20312499999999997 0.075440764850343719 0.88871857430020429 1.0625000000000002 0.64583333333333337 1.019035487885404 -0.56629464285714282 0.30000000000000004 0.41666666666666669 1.5639880952380956 0.4760997784486149 0.27777777777777152 0.072172619047619055 0.82440862960975148 0.41666666666666669 0.011805555555555557 -0.12555819514891639 0.31201085912093268 0.46052631578947373 4.8358081542813336 0.006472824096983589 0.39152102174102893 5.3234935264519629 0.22684085510688839 6.8543683213776818 -0.56249999999999989 0.88725490196078438 0.15196078431372553 0.28645833333333337 0.81250000000000011 0.5931372549019609 -0.15550595238095236 0.36960308694775862 0.85416666666666674 0.83333333333333337 -0.68230403800475048 0.20721735813675921 -0.25005530030724332 0.18750000000000003 0.38319123936714461 0.64583333333333337 -0.22896039603960408 0.50000000000000011 1.0653206650831357 0.68750000000000011 0.15000000000000005 0.59090909090909116 1.0000000180025095e-35 1.2745729273408581 -0.6661520190023752 1.6875000000000002 0.16666666666667143 0.43750000000000006 -0.21205950106211771 0.59090909090909116
decision_type=2 2 2 2 2 2 2 2 2 2 2 2 2 2 2 2 2 2 2 2 2 2 2 2 2 2 2 2 2 2 2 2 2 2 2 2 2 2 2 2 2 2 2 2 2 2 2 2 2 2 2 2 2 2 2 2 2 2 2 2 2 2
left_child=-1 4 -3 -4 5 8 29 -8 21 -5 46 12 -12 22 -14 -9 18 60 19 -17 -19 -2 -13 -24 45 43 27 -7 -28 41 -31 32 -32 34 -23 36 -36 38 39 -38 -41 54 -43 -20 -27 -21 -10 -48 49 -49 52 -52 53 -26 -6 58 -57 -44 -56 61 -18 -33
right_child=1 2 3 9 6 26 7 15 10 -11 11 13 14 -15 -16 16 17 20 25 24 -22 33 23 -25 50 44 28 -29 -30 30 31 59 -34 -35 35 -37 37 -39 -40 40 -42 42 57 -45 -46 -47 47 48 -50 -51 51 -53 -54 -55 55 56 -58 -59 -60 -61 -62 -63
leaf_value=-0.012624841259153561 0.010098758425716829 -0.00070177519669146831 0.038491379134356976 0.27192816575081341 0.082524403247183672 0.26242395496034682 0.0047362071523193647 0.018226594860081401 -0.0035671867391559075 -0.0021897893202932257 0.0020245366214312961 0.037256388390294208 0.11749711288425951 0.0031340624481481037 0.026742534275627439 0.032500882833234136 0.18650999149760686 0.40825213193893434 -0.00071379022672772411 0.016138840728161626 0.12814234061085658 0.0078689530583229746 0.2033003632527064 0.078508509798107667 0.072966035654147457 0.10971488721704313 0.061745601534923283 0.040678603177347915 0.13589505418411657 0.010876981287160796 0.33732354574733314 0.19034278715985853 0.026268382041769869 0.0085521304401107029 0.014092688622755981 0.034672240477655325 0.062981692117211399 0.0025395199527192269 0.043697619848900943 0.43586301762949342 0.12615896050064337 -0.0092865715545598377 0.017271319403819253 0.12678108974058933 0.021982746499700591 0.1719043482278968 0.0052081243731801636 0.059019656442105772 0.038849866811508052 0.44208399355411532 0.21222835676883586 0.50671981085430495 0.064247786618349428 0.60614830056826285 0.013759500660177405 0.14505337411374378 -0.001521449491904382 0.088162059540914661 -0.011599073308071802 0.03150184424150558 -0.0091005727716880602 0.46386466085910794
leaf_weight=141804 29266 544 240 277 140 36 14098 6035 17945 38 7613 797 270 809 2332 304 37 46 100 114 46 4167 119 493 15.000000000000002 157 875 2689 392 1316 18 37 221 7757 7387 10727 122 461 208 55 42 2842 3847 263 3865 81 28279 20 794 18 67 22 71 11.999999999999998 1696 114 25390 223 24869 21 82 20
leaf_count=141804 29266 544 240 277 140 36 14098 6035 17945 38 7613 797 270 809 2332 304 37 46 100 114 46 4167 119 493 15 157 875 2689 392 1316 18 37 221 7757 7387 10727 122 461 208 55 42 2842 3847 263 3865 81 28279 20 794 18 67 22 71 12 1696 114 25390 223 24869 21 82 20
internal_value=0 0.00848698 0.0765214 0.152214 0.00813067 0.0119018 0.00271816 0.0160141 0.0104094 0.23886 0.00551159 0.0164584 0.0107196 0.0428883 0.0361598 0.0300635 0.0435878 0.146108 0.039322 0.093209 0.268197 0.01525 0.0657138 0.102774 0.141521 0.0308918 0.0566459 0.0436081 0.0846869 -0.0028439 0.0264377 0.0910368 0.0496951 0.0201247 0.0239992 0.0275364 0.0182861 0.0531697 0.107831 0.168744 0.301764 -0.00365269 0.00863867 0.0916585 0.0254074 0.0808414 0.00261926 0.0064328 0.0480585 0.240471 0.204797 0.285024 0.131937 0.309936 -0.00527996 -0.00551604 -0.000866277 0.0211555 -0.0099801 0.217712 0.0517195 0.286315
internal_weight=0 210941 1099 555 209842 123673 86169 25415 119681 315 59489 12433 10215 2218 2602 11317 5282 211 5071 686 92 60192 1409 612 382 4385 3992 2725 1267 60754 1633 317 239 30926 23169 19002 8275 888 427 219 97 59121 6912 363 4022 195 47056 29111 832 38 187 89 98 27 52209 52069 25504 4070 26565 78 119 57
internal_count=352745 210941 1099 555 209842 123673 86169 25415 119681 315 59489 12433 10215 2218 2602 11317 5282 211 5071 686 92 60192 1409 612 382 4385 3992 2725 1267 60754 1633 317 239 30926 23169 19002 8275 888 427 219 97 59121 6912 363 4022 195 47056 29111 832 38 187 89 98 27 52209 52069 25504 4070 26565 78 119 57
is_linear=0
shrinkage=0.1


Tree=11
num_leaves=63
num_cat=0
split_feature=0 11 12 0 16 12 12 0 2 0 13 0 0 2 0 3 2 1 1 0 5 13 12 12 13 0 5 7 8 11 4 0 12 6 5 5 1 12 2 13 14 0 2 4 14 14 12 12 1 0 4 6 12 0 2 0 4 0 2 6 0 13
split_gain=3061.44 414.199 520.336 448.663 373.229 211.754 416.077 353.208 297.995 219.273 211.842 193.972 175.161 172.41 217.084 166.743 159.328 204.922 151.773 143.237 137.766 209.876 136.823 156.489 134.619 126.666 187.677 123.918 123.133 122.998 240.052 120.138 217.021 117.187 147.66 166.814 164.828 109.079 106.753 106.521 106.427 103.217 101.613 101.324 202.838 126.986 98.2613 102.78 98.1558 109.68 98.1556 96.7231 110.966 153.795 96.5146 93.6909 95.938 89.9759 154.981 120.994 164.133 164.123
threshold=-0.2665352549132825 0.96052631578947378 0.64998261146662717 0.45903314860996974 0.41666666666666669 0.15641081520814923 0.83290193939598234 2.5212925854233004 0.060267857142857144 4.8358081542813336 0.27777777777777152 0.7627920615135616 0.62310347539459399 1.5639880952380956 0.4760997784486149 0.24109263657957247 0.06622023809523811 -0.31249999999999994 0.18750000000000003 0.82440862960975148 0.14583333333333334 1.0000000180025095e-35 0.62533800398021244 0.50422820956323389 0.72222222222221444 0.4132274215488479 0.31250000000000006 0.50000000000000011 0.50000000000000011 0.72368421052631593 0.41089108910891087 4.8358081542813336 0.62533800398021244 0.88725490196078438 0.14583333333333334 0.64583333333333337 2.0625000000000004 0.0081389060391065821 -0.19270833333333331 0.49999999999998584 0.50000000000000011 0.6512867205977767 -0.68028273809523798 -1.6076732673267322 0.77272727272727304 0.9545454545454547 0.038530921714831128 0.020146186242682652 0.68750000000000011 0.8395525736263153 0.4938118811881187 0.25980392156862747 0.003542817922905219 -0.11622805802044889 0.71651785714285732 -0.24088117553332344 0.45544554455445524 1.4119526241327849 0.51860119047619058 0.13235294117647062 1.7979082885222428 0.27777777777777152
decision_type=2 2 2 2 2 2 2 2 2 2 2 2 2 2 2 2 2 2 2 2 2 2 2 2 2 2 2 2 2 2 2 2 2 2 2 2 2 2 2 2 2 2 2 2 2 2 2 2 2 2 2 2 2 2 2 2 2 2 2 2 2 2
left_child=-1 4 -3 55 20 7 9 33 28 27 12 -5 18 16 -15 -14 17 24 -10 -16 39 -22 23 -11 -12 -23 31 57 -8 30 -17 37 38 34 46 51 -37 -27 -33 -2 -18 43 -9 44 -38 -46 47 -6 49 -31 -21 -36 53 -53 -44 56 -4 -7 59 60 -59 -62
right_child=1 2 3 11 5 6 8 42 10 22 13 -13 15 14 19 29 40 -19 -20 50 21 25 -24 -25 -26 26 -28 -29 -30 48 -32 32 -34 -35 35 36 41 -39 -40 -41 -42 -43 54 -45 45 -47 -48 -49 -50 -51 -52 52 -54 -55 -56 -57 -58 58 -60 -61 61 -63
leaf_value=-0.011362357511996607 0.0034301124602827311 -0.00063159820565488194 0.35728732943534847 0.2450641505960105 0.017004709842175489 0.0037811516402793781 0.012814025989182496 0.020427595655399894 0.0054034503575177556 0.031087050047100467 0.16194040169391563 0.043889097355563067 0.59182165682315835 0.038191705879289661 0.37263543294234713 0.37621526539325717 0.046494562003965977 -0.00066875501311030889 0.14658682431258702 0.023641682136803868 0.07278429414094921 -0.0026026470814094409 0.013930989231905042 0.12469732289666663 0.45789008255709301 0.30120584871619943 0.015098834083879426 -0.0041361085181909627 0.10939112256155975 0.29741754897616129 -0.028348524915901098 0.032117652793836209 0.0056891451487369859 0.0065335839272429282 -0.0085020473402414171 0.020670243913827439 0.0055916079669259492 -0.00034469281284834783 0.13736961683386162 0.019132018949326802 0.0054090446061956085 0.17603637479245662 0.085987655507340846 0.036134976665571798 0.42234620291606656 0.13662925348750185 0.015398605036214744 0.042564334226025 0.52276521126429243 0.0099222001276518187 0.34110783806868961 0.19367120991787548 0.00959767375379641 0.027913737050825504 -0.0054147348010031753 0.0021696667388542415 -0.02635002678090876 0.017234323477253406 -0.00069773549530017165 0.032371810502299474 0.36226364874280992 0.098021050949433919
leaf_weight=141804 8510 544 16.000000000000004 276 2322 17302 8916 439 173 425 51 58 9.9999999999999982 120 44 20 1298 58 136 32 413 42879 1033 308 22 11.999999999999998 13065 20474 134 44 55 168 1071 12041 3218 6404 59 32833 226 8776 1226 85 1106 452 28 35 4433 4879 11.999999999999998 19 13.999999999999998 77 10375 205 129 194 10.999999999999998 86 1736 1757 40 57
leaf_count=141804 8510 544 16 276 2322 17302 8916 439 173 425 51 58 10 120 44 20 1298 58 136 32 413 42879 1033 308 22 12 13065 20474 134 44 55 168 1071 12041 3218 6404 59 32833 226 8776 1226 85 1106 452 28 35 4433 4879 12 19 14 77 10375 205 129 194 11 86 1736 1757 40 57
internal_value=0 0.00763829 0.0688693 0.136993 0.0073176 0.0116587 0.0074992 0.0166552 0.0236593 0.00286858 0.0492166 0.21013 0.111518 0.0390179 0.126243 0.196446 0.0321187 0.139647 0.0675424 0.243644 0.0032204 0.00166057 0.037378 0.0704212 0.251131 0.00133511 0.00489916 0.00139836 0.014244 0.170088 0.0795352 0.0010152 0.0290337 0.014963 0.0180792 0.0130603 0.0255707 -0.000234521 0.0924906 0.0114019 0.0265378 0.0731923 0.0617512 0.0579628 0.138833 0.263615 0.0271118 0.0343225 0.260641 0.210713 0.120262 0.00669198 0.01128 0.0731738 0.0764404 0.02646 0.200991 0.00679986 0.0210081 0.0404315 0.117814 0.206987
internal_weight=0 210941 1099 555 209842 101889 55602 46287 12384 43218 3334 334 469 2865 210 160 2655 131 309 90 107953 90667 1766 733 73 90254 47375 41452 9050 150 75 34310 1465 44613 32572 20938 7063 32845 394 17286 2524 659 1674 574 122 63 11634 7201 75 63 46 13875 10657 282 1235 221 27 20978 3676 1940 183 97
internal_count=352745 210941 1099 555 209842 101889 55602 46287 12384 43218 3334 334 469 2865 210 160 2655 131 309 90 107953 90667 1766 733 73 90254 47375 41452 9050 150 75 34310 1465 44613 32572 20938 7063 32845 394 17286 2524 659 1674 574 122 63 11634 7201 75 63 46 13875 10657 282 1235 221 27 20978 3676 1940 183 97
is_linear=0
shrinkage=0.1


Tree=12
num_leaves=63
num_cat=0
split_feature=0 11 12 0 7 0 12 3 11 12 12 0 0 16 2 0 12 13 6 2 6 1 12 0 0 0 3 0 3 2 13 13 0 1 7 0 13 0 2 12 6 6 1 13 2 1 13 5 0 5 14 0 0 3 18 11 13 13 3 3 13 7
split_gain=2480.5 335.625 421.473 365.948 315.446 585.458 434.435 298.496 252.098 204.617 239.418 631.453 173.772 162.781 157.586 146.04 143.536 212.46 124.702 186.256 146.718 166.807 129.336 118.595 140.27 119.077 127.959 262.774 187.272 129.807 117.322 113.959 115.853 112.973 111.57 109.909 106.942 106.802 156.702 171.086 197.296 196.959 117.207 107.867 159.262 106.462 103.168 156.525 109.556 367.098 110.966 135.743 102.318 155.137 123.4 100.832 125.772 95.5471 94.8673 94.6717 90.2362 89.445
threshold=-0.26970744607323316 0.96052631578947378 0.64998261146662717 0.60813536605465124 0.50000000000000011 2.5212925854233004 0.83290193939598234 -0.15795724465558192 0.61842105263157898 0.044381358879412448 0.042294160363642502 0.36960308694775862 0.88871857430020429 0.75000000000000011 -0.12574404761904759 -0.18727936473394166 0.64998261146662717 0.38888888888887158 0.88725490196078438 0.31026785714285721 0.15196078431372553 3.4375000000000004 0.002470397362458234 0.067960200615390334 -0.20297111930372572 0.87181866472674485 1.4572446555819478 0.60813536605465124 1.4928741092636584 1.4895833333333337 0.27777777777777152 1.0000000180025095e-35 -0.1047029425391094 2.9375000000000004 0.83333333333333337 0.22089488316441877 0.61111111111110017 1.306569547709703 0.51562500000000011 0.17164320874359809 0.20098039215686278 0.60294117647058831 2.5625000000000004 1.0000000180025095e-35 -0.60840773809523796 -0.43749999999999994 0.38888888888887158 0.27083333333333337 -0.16771453765669564 0.22916666666666669 0.40909090909090923 1.6501430039283205 1.2745729273408581 -0.61508313539192383 0.011805555555555557 0.69736842105263164 0.61111111111110017 0.16666666666667143 2.6318289786223281 -0.71722090261282645 0.72222222222221444 0.83333333333333337
decision_type=2 2 2 2 2 2 2 2 2 2 2 2 2 2 2 2 2 2 2 2 2 2 2 2 2 2 2 2 2 2 2 2 2 2 2 2 2 2 2 2 2 2 2 2 2 2 2 2 2 2 2 2 2 2 2 2 2 2 2 2 2 2
left_child=-1 4 -3 -4 5 9 52 -8 16 10 18 -12 60 23 -13 -15 17 -7 19 -2 21 -21 -20 24 58 26 -25 28 -28 30 -29 -26 -33 37 -27 -30 -24 43 39 -39 42 -42 -41 44 -11 -17 -22 48 49 -48 51 -50 57 54 -54 -47 -57 -6 -9 -19 -5 -59
right_child=1 2 3 12 6 8 7 13 -10 33 11 14 -14 15 -16 45 -18 59 22 20 46 -23 36 25 31 34 27 29 35 -31 -32 32 -34 -35 -36 -37 -38 38 -40 40 41 -43 -44 -45 -46 55 47 -49 50 -51 -52 -53 53 -55 -56 56 -58 61 -60 -61 -62 -63
leaf_value=-0.010244545185743584 0.006900511195349711 -0.00056843857986249916 0.030265624051292739 0.19166937228721409 0.015660298992234048 0.11393498253381221 0.0023425495713994601 0.021860881736128122 -0.012036368840110178 0.40462615869652768 0.011183213700104378 0.32826843973486985 -0.0063597216417914937 0.12930784144628685 0.12926338977413251 0.090724361041609081 0.021846945744306533 0.012917970554927292 0.057532150811565312 0.0016706820833883142 0.015264066227397816 0.20700468206778169 -0.004169737257242288 0.02980239236443491 0.20580671590566638 0.0020890051987768206 0.37122792363166812 0.30562622019877805 0.086096158467989889 0.25763591527938845 0.077535900289521509 -0.029329286575015479 0.011188842498938891 0.047022516472118546 0.10438900569073169 -0.028080697716798199 0.013445681866189722 0.012771490813144645 0.00075200585818432561 0.016190120931976706 0.15588648656383053 0.05268876003459512 0.34449779174544592 0.0025289205740959358 0.046906004452516574 0.015875966328200854 0.019509705693313471 0.0094026111337924562 0.046836181924519195 0.37752910768840375 0.027166886931194803 0.14994404074806841 0.0076957079367382083 0.00015671740341241752 0.072432232256739004 0.14764568475011278 0.025042662482556641 -0.010401609407427327 0.099645077299805332 0.058595835260135315 0.33022516389687856 0.0037722647631818849
leaf_weight=141524 13767 544 240 217 1830 622 13084 1264 750 12.999999999999998 408 94 38 206 69 347 1283 569 451 3623 5754 40 8309 3376 25 1885 14.999999999999998 26 128 82 170 1382 1442 629 113 247 5889 3374 4636 950 274 569 10.999999999999998 58536 292 1208 95 2398 3194 41 4773 133 649 27462 539 146 196 24914 179 2240 60 5421
leaf_count=141524 13767 544 240 217 1830 622 13084 1264 750 13 408 94 38 206 69 347 1283 569 451 3623 5754 40 8309 3376 25 1885 15 26 128 82 170 1382 1442 629 113 247 5889 3374 4636 950 274 569 11 58536 292 1208 95 2398 3194 41 4773 133 649 27462 539 146 196 24914 179 2240 60 5421
internal_value=0 0.00686413 0.0619824 0.123293 0.00657585 0.00981169 0.0019364 0.0128866 0.0418146 0.00833382 0.0132768 0.0776518 0.194172 0.0239792 0.244027 0.0493398 0.0503823 0.0610529 0.0125184 0.0158568 0.0220062 0.00391293 0.00481141 0.0188183 0.00610788 0.0278472 0.0377149 0.0777041 0.0247508 0.151991 0.107793 -0.00675802 -0.00863979 0.00483527 0.00787474 0.0108917 0.00313673 0.00444876 0.0141064 0.0260629 0.0509218 0.0862311 0.0199481 0.00283798 0.0621531 0.0406559 0.0260504 0.0318868 0.0384333 0.127442 0.0369389 0.050958 -0.00265886 0.00168723 0.0370669 0.029447 0.077382 -0.00653001 0.0315098 0.0493432 0.221681 -0.00786867
internal_weight=0 211221 1099 555 210122 123786 86336 25521 5464 118322 49038 571 315 12437 163 2103 4714 3431 48467 33818 20051 3663 14649 10334 4292 6042 4044 668 390 278 196 2849 2824 69284 1998 375 14198 68655 9814 5178 1804 843 961 58841 305 1897 16388 10634 8236 136 8100 3327 60815 28650 1188 1550 342 32165 1443 2809 277 30335
internal_count=352745 211221 1099 555 210122 123786 86336 25521 5464 118322 49038 571 315 12437 163 2103 4714 3431 48467 33818 20051 3663 14649 10334 4292 6042 4044 668 390 278 196 2849 2824 69284 1998 375 14198 68655 9814 5178 1804 843 961 58841 305 1897 16388 10634 8236 136 8100 3327 60815 28650 1188 1550 342 32165 1443 2809 277 30335
is_linear=0
shrinkage=0.1


Tree=13
num_leaves=63
num_cat=0
split_feature=0 16 11 16 0 5 3 0 3 12 0 0 12 11 12 0 0 2 2 16 0 0 8 13 11 5 15 12 4 5 13 13 2 16 3 12 12 0 11 0 13 13 4 15 4 4 0 16 3 2 1 5 12 0 2 18 11 13 1 8 0 11
split_gain=2009.43 305.287 223.42 205.535 186.058 282.535 463.222 277.616 153.608 133.977 167.893 129.03 213.247 142.67 115.516 199.578 125.24 121.717 109.658 102.928 138.488 131.998 99.3852 104.349 96.5998 91.4963 90.2641 86.9545 86.302 81.5405 76.7434 76.6828 75.0709 88.4818 69.3503 74.8348 69.0324 78.0349 93.8254 69.6901 103.465 67.9976 66.7986 109.972 63.5581 63.0382 62.576 62.0795 60.9242 60.6756 60.0765 59.8678 58.3559 57.9786 69.9689 55.8918 55.215 54.6243 53.4715 54.9765 52.4593 238.794
threshold=-0.2665352549132825 0.58333333333333337 0.90789473684210531 0.91666666666666674 0.59385463532488381 0.31250000000000006 2.8931116389548701 0.7627920615135616 0.098574821852731601 0.16621925025546594 2.6566760357853751 4.8358081542813336 0.62533800398021244 0.90789473684210531 0.83290193939598234 0.57797856246566004 -0.22355584431111156 1.4895833333333337 2.285714285714286 0.75000000000000011 -0.1771198053057875 0.59385463532488381 1.0000000180025095e-35 0.49999999999998584 0.72368421052631593 0.18750000000000003 0.68333333333333346 0.022003771856314035 -1.1349009900990095 0.64583333333333337 0.16666666666667143 0.61111111111110017 1.6383928571428574 0.75000000000000011 0.75178147268408557 0.021448411208939703 0.83290193939598234 -0.23648068187905194 0.90789473684210531 -0.076449582417435949 1.0000000180025095e-35 0.72222222222221444 0.41831683168316819 0.25000000000000011 0.40965346534653457 0.36633663366336627 -0.19697496539619361 0.25000000000000006 -0.66092636579572439 0.06622023809523811 1.6875000000000002 0.14583333333333334 0.39152102174102893 -0.20906551465659309 0.21205357142857145 0.0090277777777777787 0.17105263157894737 1.0000000180025095e-35 2.5625000000000004 0.30000000000000004 0.87181866472674485 0.85526315789473695
decision_type=2 2 2 2 2 2 2 2 2 2 2 2 2 2 2 2 2 2 2 2 2 2 2 2 2 2 2 2 2 2 2 2 2 2 2 2 2 2 2 2 2 2 2 2 2 2 2 2 2 2 2 2 2 2 2 2 2 2 2 2 2 2
left_child=-1 4 3 19 8 9 22 -8 30 10 31 50 13 52 -4 16 32 -17 -9 21 24 51 23 28 -21 58 -12 34 -7 -22 55 -6 33 -16 35 -10 -29 38 49 40 -39 -28 43 -40 -20 -45 -42 -30 -24 -38 -11 -3 -13 54 -5 -2 -49 -53 -23 -60 61 -50
right_child=1 2 14 53 5 6 7 18 27 11 26 12 -14 -15 15 17 -18 -19 44 20 29 25 48 -25 -26 -27 41 36 47 -31 -32 -33 -34 -35 -36 -37 37 39 42 -41 46 -43 -44 45 -46 -47 -48 56 60 -51 -52 57 -54 -55 -56 -57 -58 -59 59 -61 -62 -63
leaf_value=-0.0092053851661293325 0.24988780677317665 0.01938210301547242 0.029546380286181791 0.017145333249776903 0.0040386691342991343 0.33106518444769528 0.22218254479799382 -0.097684106106559435 0.019811163819144131 -0.002086105586389051 0.064460023755228593 0.01081514355194356 0.0058912918977618543 0.39775069632700516 -0.020391960785939144 -0.09017300327618917 -0.010253189158576884 0.20781976246983752 0.032134712077677256 0.064481274596869795 0.016206876190474753 0.012986337072911648 -0.024501642428722291 0.031634149449737796 0.26309724719478539 0.035175116098606303 0.3386115040216181 -0.00035617232091980205 0.031358168377443471 0.03281902196056926 -0.0042392941121482597 0.017781638969419932 0.33959842674872459 0.2914297787206514 0.0067380788465295147 0.061275571211636237 0.10146419852115643 0.25419068465630218 -0.0031953167915344236 0.020254687909565985 0.016815569768594187 0.087691770069715055 0.067780145761129021 0.18459798209369183 0.32324307660261792 0.46530734375119209 -0.024739527383579183 0.12461284676202289 0.020955287806386339 0.0077046924226075236 0.017238373624833995 0.10528261454030872 0.093549485902461108 0.0039716100794565728 0.11421569115390964 0.012987765292143051 0.38387770816683769 0.00050891935995575133 0.32750385381281377 0.063981554083722206 0.010487137916348671 0.18666159155663481
leaf_weight=141804 9.9999999999999982 2138 485 273 8734 17 178 48 2645 30936 89 112 1368 13.999999999999998 26 14.999999999999998 152 159 20 421 14130 7225 398 1844 26 2723 27 15672 74 3736 45485 7587 17 13.999999999999998 3922 521 87 14.999999999999998 14.999999999999998 2222 568 18 74 15.999999999999998 11.999999999999998 15.999999999999998 1001 46 3804 334 1697 50 357 28658 102 2432 9.9999999999999982 10370 9.9999999999999982 38 7659 89
leaf_count=141804 10 2138 485 273 8734 17 178 48 2645 30936 89 112 1368 14 26 15 152 159 20 421 14130 7225 398 1844 26 2723 27 15672 74 3736 45485 7587 17 14 3922 521 87 15 15 2222 568 18 74 16 12 16 1001 46 3804 334 1697 50 357 28658 102 2432 10 10370 10 38 7659 89
internal_value=0 0.00618827 0.0115424 0.0109163 0.00348519 0.00739546 0.0198697 0.152641 9.06715e-05 0.00391831 0.0113425 0.000375653 0.0260596 0.0831821 0.0619646 0.103016 0.0371508 0.182131 -0.00209032 0.0154868 0.0210562 0.0109646 0.0174126 0.0380979 0.0760339 0.0195393 0.12282 0.00610678 0.119181 0.0196807 -0.0033121 0.0104272 0.163561 0.0887456 0.0156253 0.0266346 0.00273681 0.0138852 0.0493857 0.00882968 -0.00719707 0.238244 0.126994 0.220225 0.1413 0.324953 -0.009696 0.0914729 0.0139662 0.0270802 -0.00108118 0.00413924 0.073792 0.0044828 0.0435485 0.0139579 0.17091 0.00101167 0.0136852 0.118882 0.0152915 0.0247436
internal_weight=0 210941 70768 69900 140173 65138 14199 258 75035 50939 16455 34484 1851 483 868 383 209 174 80 40867 18313 22554 13941 1991 447 9996 134 27108 147 17866 47927 16321 57 40 7088 3166 20020 4348 542 3806 1584 45 121 47 32 32 1569 130 11950 421 32633 12558 469 29033 375 2442 56 10420 7273 48 11552 3893
internal_count=352745 210941 70768 69900 140173 65138 14199 258 75035 50939 16455 34484 1851 483 868 383 209 174 80 40867 18313 22554 13941 1991 447 9996 134 27108 147 17866 47927 16321 57 40 7088 3166 20020 4348 542 3806 1584 45 121 47 32 32 1569 130 11950 421 32633 12558 469 29033 375 2442 56 10420 7273 48 11552 3893
is_linear=0
shrinkage=0.1


Tree=14
num_leaves=63
num_cat=0
split_feature=0 16 11 12 0 3 0 0 7 0 12 2 5 1 0 2 12 12 5 6 0 13 0 2 13 12 0 4 2 0 6 12 6 12 3 7 3 13 1 4 14 14 1 13 12 2 0 12 0 12 5 18 12 14 2 0 4 16 16 2 15 0
split_gain=1628.03 260.136 208.991 186.629 256.273 317.122 291.316 181.511 179.481 303.33 216.587 162.185 109.984 144.939 141.265 148.007 203.008 144.873 114.951 131.893 99.1501 97.1553 93.5984 127.62 89.1693 97.5026 85.1178 84.6264 81.9379 102.434 80.6392 80.3284 80.2311 96.4975 79.5299 76.4712 95.4943 76.0375 112.99 75.6399 91.8522 143.347 72.729 76.2585 71.4176 140.837 186.617 92.0812 128.933 70.4544 70.1974 85.8971 75.2344 69.911 69.0962 73.2971 69.0101 68.7506 126.261 87.8337 101.552 91.2981
threshold=-0.26970744607323316 0.41666666666666669 0.85526315789473695 0.83290193939598234 0.59385463532488381 1.824228028503563 0.88871857430020429 -0.21205950106211771 0.50000000000000011 3.101589930054804 0.83290193939598234 -0.54092261904761896 0.64583333333333337 2.0625000000000004 0.36960308694775862 -0.18824404761904759 0.044381358879412448 0.042294160363642502 0.14583333333333334 0.88725490196078438 0.45903314860996974 1.0000000180025095e-35 1.306569547709703 0.51860119047619058 1.0000000180025095e-35 0.20349218435215843 0.73559781334015562 -0.59777227722772264 -0.31770833333333326 5.3234935264519629 0.014705882352941178 0.091636996364494308 0.87745098039215697 0.50422820956323389 -0.59750593824228015 0.83333333333333337 -0.70011876484560565 1.0000000180025095e-35 1.8125000000000002 -1.4220297029702966 0.59090909090909116 0.86363636363636398 1.6875000000000002 0.83333333333332871 0.83290193939598234 2.0401785714285716 0.60813536605465124 0.075440764850343719 2.7941439025152932 0.38420979457018156 0.68750000000000011 0.69791666666666685 0.62533800398021244 0.68181818181818199 -0.47395833333333326 0.4132274215488479 -0.73267326732673244 0.75000000000000011 0.91666666666666674 0.9241071428571429 0.65000000000000024 0.87181866472674485
decision_type=2 2 2 2 2 2 2 2 2 2 2 2 2 2 2 2 2 2 2 2 2 2 2 2 2 2 2 2 2 2 2 2 2 2 2 2 2 2 2 2 2 2 2 2 2 2 2 2 2 2 2 2 2 2 2 2 2 2 2 2 2 2
left_child=-1 24 8 -4 5 -5 -6 -7 9 12 35 -12 18 14 -14 16 17 26 19 30 54 -13 37 32 25 34 -16 -19 -26 44 -3 -11 33 49 -2 -10 -37 38 -20 40 -15 -42 -38 -44 47 -46 -47 48 -30 -24 51 -31 -53 -41 55 -18 -27 -23 59 61 -61 -59
right_child=1 2 3 4 6 7 -8 -9 10 31 11 21 13 39 15 -17 20 27 22 -21 -22 57 23 -25 28 56 -28 -29 29 50 -32 -33 -34 -35 -36 36 42 -39 -40 53 41 -43 43 -45 45 46 -48 -49 -50 -51 -52 52 -54 -55 -56 -57 -58 58 -60 60 -62 -63
leaf_value=-0.008299552494513824 0.27314790735642114 -0.0040505862456095406 0.016636106241253553 0.51911324170919559 0.19775890325133511 0.1107752701767639 -0.018140903007553288 -0.021530475557673876 -0.0038617682837657624 0.09683384188778095 -0.0047629046061557342 0.14129778159891856 0.0082419007537841964 0.032307263139378407 0.38481722419912168 0.022957949935494024 0.1151853292156011 0.51034512708061619 0.044098060726503921 0.0048426553516467789 0.031824687186879322 0.014032657448325523 0.05532520402908904 0.00011808333684950605 -0.0016992266708300077 0.29956519976258278 0.08642191169911051 0.1982046109624207 0.006743283712740346 0.055874369433608476 0.02480803423174309 0.040806692375423358 0.011642239857472546 0.016574414372339013 0.013632591184857554 -0.011478421565604281 0.018783527490709977 0.0022709550749681882 0.33939583811110685 0.078572246121178024 0.50115144092303054 0.14035217371614028 0.27941218941575952 0.063020448359029035 0.010338472215094645 -0.0010380739578977228 0.16810904595636786 -0.0008602389001813749 0.16590139895093209 0.14777224503974948 -0.02077503940012275 0.46180051505565634 0.08281585140661761 0.0069444365976729025 0.060566733147089304 0.38945886527102347 0.081227285307096816 0.073066884112719055 0.017308775543724272 0.29265799917788671 0.0024476756390772372 0.0099635242285692205
leaf_weight=141524 11.999999999999998 1073 1337 12.999999999999998 253 149 83 341 23280 296 3066 68 5647 58 10.999999999999998 1900 20 19 174 7576 416 4961 981 2559 40020 15.999999999999998 73 15.999999999999998 25579 406 9920 1889 1355 764 741 1123 2038 27051 13.999999999999998 317 12.999999999999998 72 18 171 6988 128 133 34355 51 90 119 10.000000000000002 10.999999999999998 239 39 19 152 741 1873 33 19 332
leaf_count=141524 12 1073 1337 13 253 149 83 341 23280 296 3066 68 5647 58 11 1900 20 19 174 7576 416 4961 981 2559 40020 16 73 16 25579 406 9920 1889 1355 764 741 1123 2038 27051 14 317 13 72 18 171 6988 128 133 34355 51 90 119 10 11 239 39 19 152 741 1873 33 19 332
internal_value=0 0.00556093 0.00917525 0.0398354 0.076805 0.0316344 0.144427 0.0187013 0.00851024 0.0117936 0.00306152 0.0148017 0.0104698 0.0207628 0.0170192 0.0367427 0.0794685 0.196719 0.00870119 0.0149947 0.0512239 0.0222746 0.00515854 0.0167531 0.00215343 0.0331369 0.125497 0.367652 0.00188872 0.00400718 0.0219912 0.0483966 0.0300977 0.0437255 0.0177683 -0.00182897 0.0122975 0.00271141 0.0660883 0.0644653 0.12933 0.195533 0.0242868 0.0836292 0.00365685 0.0130323 0.0851557 0.00252386 0.00705999 0.0630939 0.0471461 0.0660749 0.263285 0.0477826 0.154686 0.248806 0.102021 0.0212577 0.0332135 0.059693 0.18662 0.0535419
internal_weight=0 211221 102500 2176 839 503 336 490 100324 62601 37723 11093 60416 8859 8160 2513 613 119 51557 18569 494 8027 32988 5749 108721 921 84 35 107800 67780 10993 2185 3190 1835 753 26630 3350 27239 188 699 143 85 2227 189 67234 7249 261 59985 25630 1071 546 427 21 556 78 39 168 7959 2998 1125 52 1073
internal_count=352745 211221 102500 2176 839 503 336 490 100324 62601 37723 11093 60416 8859 8160 2513 613 119 51557 18569 494 8027 32988 5749 108721 921 84 35 107800 67780 10993 2185 3190 1835 753 26630 3350 27239 188 699 143 85 2227 189 67234 7249 261 59985 25630 1071 546 427 21 556 78 39 168 7959 2998 1125 52 1073
is_linear=0
shrinkage=0.1


Tree=15
num_leaves=63
num_cat=0
split_feature=0 13 16 2 3 12 12 7 0 12 2 0 0 5 1 0 2 12 12 12 12 2 5 16 11 13 2 3 1 0 2 14 4 0 0 1 15 0 5 3 0 12 2 11 2 13 13 0 12 12 11 18 2 4 15 3 2 1 6 12 11 0
split_gain=1318.87 220.702 198.926 187.268 169.583 251.631 159.754 131.564 233.332 169.325 134.941 120.653 126.714 91.8657 121.451 121.296 118.211 157.977 120.682 99.6654 163.463 104.332 118.356 91.2238 82.8046 82.1178 129.536 96.7037 102.97 81.8478 89.4424 81.7312 95.78 79.2883 78.5331 78.0283 78.4413 77.7001 97.2116 217.858 133.513 109.149 92.5626 77.6976 101.934 76.7173 73.4592 72.4434 70.9041 91.734 68.6616 165.602 413.7 68.0676 98.5847 65.8281 87.4792 175.014 65.1785 64.6055 64.4908 72.492
threshold=-0.2665352549132825 1.0000000180025095e-35 0.41666666666666669 -0.64382440476190472 2.8693586698337294 0.83290193939598234 0.20349218435215843 0.50000000000000011 3.101589930054804 0.83290193939598234 -0.42336309523809518 0.59385463532488381 -0.20906551465659309 0.64583333333333337 2.0625000000000004 0.36960308694775862 -0.18824404761904759 0.044381358879412448 0.031330000658772637 0.022003771856314035 0.020146186242682652 -0.68876488095238086 0.31250000000000006 0.91666666666666674 0.90789473684210531 0.27777777777777152 0.072172619047619055 0.27197149643705471 -0.56249999999999989 1.4119526241327849 0.51860119047619058 0.50000000000000011 -0.3836633663366335 0.45903314860996974 0.82440862960975148 -0.68749999999999989 0.45000000000000018 0.54538899412133868 0.31250000000000006 2.8931116389548701 0.79249384044484705 0.0043854340775421356 2.285714285714286 0.77631578947368429 1.4002976190476193 0.61111111111110017 0.94444444444444298 0.77776440588759554 0.022003771856314035 0.018556705769163011 0.61842105263157898 0.27222222222222231 0.26562500000000006 -1.6076732673267322 0.88333333333333364 1.4976247030878864 0.5111607142857143 0.68750000000000011 0.23039215686274514 0.091636996364494308 0.69736842105263164 0.87181866472674485
decision_type=2 2 2 2 2 2 2 2 2 2 2 2 2 2 2 2 2 2 2 2 2 2 2 2 2 2 2 2 2 2 2 2 2 2 2 2 2 2 2 2 2 2 2 2 2 2 2 2 2 2 2 2 2 2 2 2 2 2 2 2 2 2
left_child=-1 3 37 -2 7 -6 -5 8 13 -9 -11 12 35 19 15 -15 17 18 47 20 -4 31 -23 -20 -13 26 -12 -28 -29 -21 -31 -22 -33 -19 -26 -7 -37 48 41 50 -41 -39 -42 -8 -45 -43 59 -17 49 -3 51 -40 -53 54 -16 56 -30 -58 -50 -10 -52 -62
right_child=1 2 4 6 5 11 43 9 46 10 25 24 -14 14 53 16 -18 33 23 29 21 22 -24 -25 34 -27 27 28 55 30 -32 32 -34 -35 -36 36 -38 38 39 40 42 45 -44 44 -46 -47 -48 -49 58 -51 60 52 -54 -55 -56 -57 57 -59 -60 -61 61 -63
leaf_value=-0.0074577424042343715 0.36917436999433184 -0.00051595042652168607 0.0076186706457272678 0.022298713176546192 0.015698819771982665 -0.0072810062340327684 0.081475173449833072 -0.0015150020380240905 0.091166936928459771 -0.0011615731229715352 0.020612746879901628 0.41925243681127378 -0.008904186793922509 0.006878509849698445 0.087760971026053958 0.31819892031225294 0.021007718782299199 0.13921762698640425 0.20900177104541889 0.0033037255124980232 0.049532455059163503 0.040141499650402354 -0.012950870771084972 0.50657630520207542 0.16699788339316526 0.017110783194424061 0.34454543312390645 0.31147347845529261 0.054300074265595605 0.030111190222172013 0.0045736071545488281 0.49717748016119007 0.13981672193855049 0.029285950337827112 0.019853604237238569 0.34336207921688378 0.095276959180831913 0.13067360994772931 0.013200760941142566 0.18034335723737394 -0.11347467249090022 -0.0019026123267935225 0.14462809065977733 0.37107428123073821 0.025902688902403628 0.006786428448219417 -0.042202831827560253 0.036644208789975562 0.002650913141003275 0.021192678728737899 -0.027123410799763804 0.60727521032094955 0.05589157985830373 0.044788130459176345 0.33728861306843005 -0.008138693678073395 0.078863882913924099 0.38416597320299067 -0.0051919143344984486 0.039447230880172476 0.043865529471019397 -0.0063631534270811169
leaf_weight=141804 17 5223 7179 1565 1199 21 304 27146 279 4221 622 10.999999999999998 137 5584 95 10.999999999999998 1875 78 39 34299 33 2736 496 13.999999999999998 187 6173 14.999999999999998 19 163 2560 2954 11.999999999999998 20 413 45 26 25 66 9032 123 33 22792 24 22 13.999999999999998 18336 98 54 16309 3103 824 15.999999999999998 91 577 19 78 57 28 30252 1798 404 995
leaf_count=141804 17 5223 7179 1565 1199 21 304 27146 279 4221 622 11 137 5584 95 11 1875 78 39 34299 33 2736 496 14 187 6173 15 19 163 2560 2954 12 20 413 45 26 25 66 9032 123 33 22792 24 22 14 18336 98 54 16309 3103 824 16 91 577 19 78 57 28 30252 1798 404 995
internal_value=0 0.00501343 0.00470325 0.0387451 0.00788156 0.0396688 0.0357964 0.00735541 0.0102363 0.00277688 0.0130184 0.103253 0.0475434 0.00905142 0.0185025 0.0150564 0.0334403 0.0717179 0.175611 0.00740529 0.0160839 0.0345164 0.0319937 0.287606 0.151168 0.0213837 0.0482437 0.0959838 0.0851767 0.00512168 0.01643 0.159954 0.273827 0.0467496 0.138457 0.154951 0.221752 0.00170885 0.00445004 0.0125612 0.121715 0.00217741 -0.00479982 0.0979257 0.236841 0.0019712 0.0424027 0.0842919 -0.000924918 0.00757459 0.0108319 0.0146659 0.138341 0.0587388 0.129349 0.0719877 0.0971887 0.179434 -0.00244479 0.0463947 -0.00492998 0.00814177
internal_weight=0 210941 209019 1922 101396 1651 1905 99745 61223 38522 11376 452 209 59048 8759 8068 2484 609 118 50289 10476 3297 3232 53 243 7155 982 360 345 39813 5514 65 32 491 232 72 51 107623 52736 11542 180 41194 57 340 36 41128 2175 65 54887 8326 11362 9139 107 691 114 326 248 85 46561 2077 2223 1399
internal_count=352745 210941 209019 1922 101396 1651 1905 99745 61223 38522 11376 452 209 59048 8759 8068 2484 609 118 50289 10476 3297 3232 53 243 7155 982 360 345 39813 5514 65 32 491 232 72 51 107623 52736 11542 180 41194 57 340 36 41128 2175 65 54887 8326 11362 9139 107 691 114 326 248 85 46561 2077 2223 1399
is_linear=0
shrinkage=0.1


Tree=16
num_leaves=63
num_cat=0
split_feature=0 13 0 5 3 12 13 3 2 5 0 12 12 5 8 13 18 6 14 11 1 5 4 14 14 16 0 2 1 0 12 4 12 0 6 6 12 12 0 13 0 0 11 5 0 3 13 11 0 4 11 6 11 0 13 0 11 11 2 7 1 4
split_gain=1068.53 179.966 174.518 366.219 403.847 210.04 198.393 176.661 151.62 150.292 130.119 146.636 129.023 116.256 112.172 123.127 120.836 112.518 111.323 103.272 101.604 99.6118 109.105 179.61 261.651 92.7745 88.1848 162.739 111.892 115.605 105.526 91.4722 83.5452 81.4202 80.7142 100.528 99.7257 95.4801 312.688 127.603 92.1694 85.0672 88.2062 79.1783 78.3615 76.4493 82.7153 73.3707 131.366 71.1918 70.183 71.5441 69.4177 68.3157 68.2951 66.4369 63.003 62.935 82.5664 61.4992 60.9555 60.3288
threshold=-0.26970744607323316 1.0000000180025095e-35 0.38319123936714461 0.31250000000000006 2.9168646080760099 0.0043854340775421356 0.61111111111110017 0.12470308788598576 -0.64382440476190472 0.14583333333333334 4.8358081542813336 0.62533800398021244 0.20349218435215843 1.0000000180025095e-35 1.0000000180025095e-35 0.49999999999998584 0.026388888888888896 0.024509803921568631 0.40909090909090923 0.64473684210526327 1.3125000000000002 0.43750000000000006 -1.3923267326732669 0.59090909090909116 0.86363636363636398 0.41666666666666669 5.3234935264519629 0.072172619047619055 -0.56249999999999989 6.8543683213776818 0.62533800398021244 -0.56930693069306915 0.14364000986626921 -1.0000000180025095e-35 0.83823529411764719 0.85784313725490213 0.83290193939598234 0.0043854340775421356 -0.15186665751010339 0.38888888888887158 0.10225115344706021 -0.25005530030724332 0.56578947368421062 0.10416666666666667 1.5808076286803645 -0.19358669833729214 0.83333333333332871 0.90789473684210531 0.88871857430020429 0.48391089108910884 0.82894736842105277 0.8970588235294118 0.14473684210526319 -0.090110837203862468 0.72222222222221444 0.59385463532488381 0.17105263157894737 0.77631578947368429 1.4002976190476193 0.83333333333333337 1.4375000000000002 -1.1769801980198016
decision_type=2 2 2 2 2 2 2 2 2 2 2 2 2 2 2 2 2 2 2 2 2 2 2 2 2 2 2 2 2 2 2 2 2 2 2 2 2 2 2 2 2 2 2 2 2 2 2 2 2 2 2 2 2 2 2 2 2 2 2 2 2 2
left_child=-1 8 7 5 14 45 10 20 -2 13 -7 50 -10 -8 15 56 -16 -18 -15 34 43 -22 23 -23 32 -19 -11 -28 -29 30 31 -30 -25 -34 36 40 37 38 39 -9 -36 42 -38 -3 54 -4 -47 -27 49 -49 51 -12 -17 -24 55 -6 61 60 -59 -54 -14 -5
right_child=1 2 3 4 44 6 9 19 12 26 11 -13 57 18 16 52 17 25 -20 -21 21 22 53 24 -26 47 27 28 29 -31 -32 -33 33 -35 35 -37 41 -39 -40 -41 -42 -43 -44 -45 -46 46 -48 48 -50 -51 -52 -53 59 -55 -56 -57 -58 58 -60 -61 -62 -63
leaf_value=-0.0067238232433122344 0.33225692685912639 0.010299867600505403 0.007448819110339339 0.23035198878496888 -0.1142306679061481 -0.0015994556810888438 0.013730227815613999 0.036380407349629836 0.020183751693643587 0.0044504193714068755 0.05660976318157699 0.0078529567622585075 0.052986715025118813 0.066917671589904387 -0.015731954617082367 0.015618103312634966 0.14909034389401637 0.0077009753469452552 0.020610930285473564 0.0012045715162261321 -0.0034393762394696668 0.010400358316681499 0.028512676294514872 0.15141951771719117 0.074000043452332923 0.019951292222477421 0.015675813934353074 0.34884602698031819 -0.011958783740798633 0.29627699628472332 -0.047435027802432028 0.23498552093282343 0.60776810129483538 0.2582967543353637 0.082172600574618254 0.0044776147445120722 0.33229200883823284 0.0049588960667834433 0.018948858698240319 0.32367836764225594 0.023141121368950829 0.027525404867987241 0.079693963251554895 -0.0055112482801986246 -0.071513902502400542 0.12435512481123517 0.35312113071742812 0.083232152291706635 -0.018743498729807989 0.28218321703575755 0.22634706258773807 0.2348515522045394 0.054137512668554058 0.003922926462456418 0.18820255405110559 0.10979829773981385 0.24072458640568786 0.33396684832193635 0.023312418615179405 0.0022143826222411926 0.17190299081401184 0.063418468268908457
