{"learner":{"attributes":{"best_iteration":"618","best_score":"0.3311101090140157"},"feature_names":[],"feature_types":[],"gradient_booster":{"model":{"gbtree_model_param":{"num_parallel_tree":"1","num_trees":"669"},"iteration_indptr":[0,1,2,3,4,5,6,7,8,9,10,11,12,13,14,15,16,17,18,19,20,21,22,23,24,25,26,27,28,29,30,31,32,33,34,35,36,37,38,39,40,41,42,43,44,45,46,47,48,49,50,51,52,53,54,55,56,57,58,59,60,61,62,63,64,65,66,67,68,69,70,71,72,73,74,75,76,77,78,79,80,81,82,83,84,85,86,87,88,89,90,91,92,93,94,95,96,97,98,99,100,101,102,103,104,105,106,107,108,109,110,111,112,113,114,115,116,117,118,119,120,121,122,123,124,125,126,127,128,129,130,131,132,133,134,135,136,137,138,139,140,141,142,143,144,145,146,147,148,149,150,151,152,153,154,155,156,157,158,159,160,161,162,163,164,165,166,167,168,169,170,171,172,173,174,175,176,177,178,179,180,181,182,183,184,185,186,187,188,189,190,191,192,193,194,195,196,197,198,199,200,201,202,203,204,205,206,207,208,209,210,211,212,213,214,215,216,217,218,219,220,221,222,223,224,225,226,227,228,229,230,231,232,233,234,235,236,237,238,239,240,241,242,243,244,245,246,247,248,249,250,251,252,253,254,255,256,257,258,259,260,261,262,263,264,265,266,267,268,269,270,271,272,273,274,275,276,277,278,279,280,281,282,283,284,285,286,287,288,289,290,291,292,293,294,295,296,297,298,299,300,301,302,303,304,305,306,307,308,309,310,311,312,313,314,315,316,317,318,319,320,321,322,323,324,325,326,327,328,329,330,331,332,333,334,335,336,337,338,339,340,341,342,343,344,345,346,347,348,349,350,351,352,353,354,355,356,357,358,359,360,361,362,363,364,365,366,367,368,369,370,371,372,373,374,375,376,377,378,379,380,381,382,383,384,385,386,387,388,389,390,391,392,393,394,395,396,397,398,399,400,401,402,403,404,405,406,407,408,409,410,411,412,413,414,415,416,417,418,419,420,421,422,423,424,425,426,427,428,429,430,431,432,433,434,435,436,437,438,439,440,441,442,443,444,445,446,447,448,449,450,451,452,453,454,455,456,457,458,459,460,461,462,463,464,465,466,467,468,469,470,471,472,473,474,475,476,477,478,479,480,481,482,483,484,485,486,487,488,489,490,491,492,493,494,495,496,497,498,499,500,501,502,503,504,505,506,507,508,509,510,511,512,513,514,515,516,517,518,519,520,521,522,523,524,525,526,527,528,529,530,531,532,533,534,535,536,537,538,539,540,541,542,543,544,545,546,547,548,549,550,551,552,553,554,555,556,557,558,559,560,561,562,563,564,565,566,567,568,569,570,571,572,573,574,575,576,577,578,579,580,581,582,583,584,585,586,587,588,589,590,591,592,593,594,595,596,597,598,599,600,601,602,603,604,605,606,607,608,609,610,611,612,613,614,615,616,617,618,619,620,621,622,623,624,625,626,627,628,629,630,631,632,633,634,635,636,637,638,639,640,641,642,643,644,645,646,647,648,649,650,651,652,653,654,655,656,657,658,659,660,661,662,663,664,665,666,667,668,669],"tree_info":[0,0,0,0,0,0,0,0,0,0,0,0,0,0,0,0,0,0,0,0,0,0,0,0,0,0,0,0,0,0,0,0,0,0,0,0,0,0,0,0,0,0,0,0,0,0,0,0,0,0,0,0,0,0,0,0,0,0,0,0,0,0,0,0,0,0,0,0,0,0,0,0,0,0,0,0,0,0,0,0,0,0,0,0,0,0,0,0,0,0,0,0,0,0,0,0,0,0,0,0,0,0,0,0,0,0,0,0,0,0,0,0,0,0,0,0,0,0,0,0,0,0,0,0,0,0,0,0,0,0,0,0,0,0,0,0,0,0,0,0,0,0,0,0,0,0,0,0,0,0,0,0,0,0,0,0,0,0,0,0,0,0,0,0,0,0,0,0,0,0,0,0,0,0,0,0,0,0,0,0,0,0,0,0,0,0,0,0,0,0,0,0,0,0,0,0,0,0,0,0,0,0,0,0,0,0,0,0,0,0,0,0,0,0,0,0,0,0,0,0,0,0,0,0,0,0,0,0,0,0,0,0,0,0,0,0,0,0,0,0,0,0,0,0,0,0,0,0,0,0,0,0,0,0,0,0,0,0,0,0,0,0,0,0,0,0,0,0,0,0,0,0,0,0,0,0,0,0,0,0,0,0,0,0,0,0,0,0,0,0,0,0,0,0,0,0,0,0,0,0,0,0,0,0,0,0,0,0,0,0,0,0,0,0,0,0,0,0,0,0,0,0,0,0,0,0,0,0,0,0,0,0,0,0,0,0,0,0,0,0,0,0,0,0,0,0,0,0,0,0,0,0,0,0,0,0,0,0,0,0,0,0,0,0,0,0,0,0,0,0,0,0,0,0,0,0,0,0,0,0,0,0,0,0,0,0,0,0,0,0,0,0,0,0,0,0,0,0,0,0,0,0,0,0,0,0,0,0,0,0,0,0,0,0,0,0,0,0,0,0,0,0,0,0,0,0,0,0,0,0,0,0,0,0,0,0,0,0,0,0,0,0,0,0,0,0,0,0,0,0,0,0,0,0,0,0,0,0,0,0,0,0,0,0,0,0,0,0,0,0,0,0,0,0,0,0,0,0,0,0,0,0,0,0,0,0,0,0,0,0,0,0,0,0,0,0,0,0,0,0,0,0,0,0,0,0,0,0,0,0,0,0,0,0,0,0,0,0,0,0,0,0,0,0,0,0,0,0,0,0,0,0,0,0,0,0,0,0,0,0,0,0,0,0,0,0,0,0,0,0,0,0,0,0,0,0,0,0,0,0,0,0,0,0,0,0,0,0,0,0,0,0,0,0,0,0,0,0,0,0,0,0,0,0,0,0,0,0,0,0,0,0,0,0,0,0,0,0,0,0,0,0,0,0,0,0,0,0,0,0,0,0,0,0,0,0,0,0,0,0,0,0,0,0,0,0,0,0,0,0,0,0,0,0,0,0,0,0,0,0,0,0,0,0,0,0,0,0,0,0,0,0,0,0,0,0,0,0,0,0,0,0,0,0,0,0,0,0,0],"trees":[{"base_weights":[-7.504196E-4,-6.1335266E-2,3.8761258E-1,2.476865E-1,-9.423161E-2,3.0443484E-1,6.893952E-1,-1.5408522E-1,3.1304172E-1,8.2382647E-4,-1.4641339E-1,4.7435564E-1,1.956926E-1,6.448083E-1,3.1906107E-1,-2.1817985E-1,-1.0138499E-1,8.7127453E-1,2.5176284E-1,-1.3182507E-1,1.6872177E-1,-4.6078794E-2,-2.5087103E-1,7.4219E-1,4.3780756E-1,2.901305E-1,-1.1781523E-2,5.8059233E-1,1.588005E0,-1.4741962E-1,-2.2843839E-1,-1.4521325E-1,1.6159208E-2,4.69239E-1,1.0035666E0,1.4052615E-1,5.3520703E-1,-2.2786934E-2,-2.2366275E-1,1.35631E-1,2.1428719E0,-6.543948E-2,5.3989377E-2,-1.24485455E-1,-2.675686E-1,2.1579752E0,6.9417536E-1,5.743991E-1,3.6427993E-1,4.457946E-1,2.0740336E-1,-3.768332E-2,1.7424949E-1,8.097224E-1,4.4015244E-1,2.6536171E0,2.2987136E-1,7.741873E-3,-8.929829E-3,-1.2305192E-2,-9.838207E-3,-1.9876775E-3,-8.686352E-3,1.3132784E-2,-2.4758081E-3,1.5202154E-2,3.6849774E-2,6.3794985E-2,3.7783854E-2,2.438118E-3,1.3629829E-2,7.834506E-3,3.259584E-2,-1.374506E-3,6.794145E-2,-1.2183684E-2,7.729278E-3,6.0506877E-3,5.9363395E-2,2.1299234E-1,5.2723836E-2,-3.8431527E-3,2.6109596E-3,1.4342061E-3,1.4593037E-2,-6.492009E-3,8.021567E-2,-1.36756515E-2,-3.1511367E-3,2.0056215E-1,3.30063E-2,3.3916093E-2,9.337988E-2,3.7287716E-2,1.5362427E-2,1.7789539E-2,3.8098536E-2,3.1296425E-2,9.926936E-3,2.4918748E-2,9.2555005E-3,2.5669191E-2,-2.3678332E-3,1.2298988E-2,-5.889784E-3,3.790687E-2,7.122686E-2,3.9368134E-2,1.8542124E-2,1.9620258E-1,6.677636E-2,-4.6408814E-3,1.9255705E-2],"categories":[],"categories_nodes":[],"categories_segments":[],"categories_sizes":[],"default_left":[0,0,0,0,0,0,0,0,0,0,0,0,0,0,0,0,0,0,0,0,0,0,0,0,0,0,0,0,0,0,0,0,0,0,0,0,0,0,0,0,0,0,0,0,0,0,0,0,0,0,0,0,0,0,0,0,0,0,0,0,0,0,0,0,0,0,0,0,0,0,0,0,0,0,0,0,0,0,0,0,0,0,0,0,0,0,0,0,0,0,0,0,0,0,0,0,0,0,0,0,0,0,0,0,0,0,0,0,0,0,0,0,0],"id":0,"left_children":[1,3,5,7,9,11,13,15,17,19,21,23,25,27,-1,29,31,33,35,37,39,41,43,45,47,49,51,53,55,57,59,61,63,65,67,69,71,73,75,77,79,81,83,85,87,89,91,93,95,97,99,101,103,105,107,109,111,-1,-1,-1,-1,-1,-1,-1,-1,-1,-1,-1,-1,-1,-1,-1,-1,-1,-1,-1,-1,-1,-1,-1,-1,-1,-1,-1,-1,-1,-1,-1,-1,-1,-1,-1,-1,-1,-1,-1,-1,-1,-1,-1,-1,-1,-1,-1,-1,-1,-1,-1,-1,-1,-1,-1,-1],"loss_changes":[4.995612E3,1.8671147E3,7.19001E2,4.6405115E2,8.2336743E2,4.1496875E2,1.5667874E3,8.331184E0,5.197063E2,1.3102755E3,1.1231648E3,8.547412E1,2.684137E2,3.7114917E2,0E0,7.756996E-1,7.003586E0,7.946777E1,4.317829E2,3.2910876E2,1.6959678E3,1.05906975E2,1.10767334E2,6.9947266E1,7.7274414E1,1.21137695E2,2.065882E1,1.8476941E2,5.652624E2,1.3846302E0,4.9544907E-1,2.9700794E0,6.0028424E0,1.6318794E1,7.532056E1,1.1921623E2,1.7041943E2,9.7682785E1,1.3507037E2,3.9244293E2,9.8166504E2,6.156569E1,5.3335506E1,5.6945885E1,5.6371582E1,9.1733215E1,1.7670898E1,1.2327899E2,1.6669922E1,1.4534058E2,3.9794678E1,2.0083584E1,1.1005978E1,6.821777E1,8.5596436E1,3.61485E2,8.702204E0,0E0,0E0,0E0,0E0,0E0,0E0,0E0,0E0,0E0,0E0,0E0,0E0,0E0,0E0,0E0,0E0,0E0,0E0,0E0,0E0,0E0,0E0,0E0,0E0,0E0,0E0,0E0,0E0,0E0,0E0,0E0,0E0,0E0,0E0,0E0,0E0,0E0,0E0,0E0,0E0,0E0,0E0,0E0,0E0,0E0,0E0,0E0,0E0,0E0,0E0,0E0,0E0,0E0,0E0,0E0,0E0],"parents":[2147483647,0,0,1,1,2,2,3,3,4,4,5,5,6,6,7,7,8,8,9,9,10,10,11,11,12,12,13,13,15,15,16,16,17,17,18,18,19,19,20,20,21,21,22,22,23,23,24,24,25,25,26,26,27,27,28,28,29,29,30,30,31,31,32,32,33,33,34,34,35,35,36,36,37,37,38,38,39,39,40,40,41,41,42,42,43,43,44,44,45,45,46,46,47,47,48,48,49,49,50,50,51,51,52,52,53,53,54,54,55,55,56,56],"right_children":[2,4,6,8,10,12,14,16,18,20,22,24,26,28,-1,30,32,34,36,38,40,42,44,46,48,50,52,54,56,58,60,62,64,66,68,70,72,74,76,78,80,82,84,86,88,90,92,94,96,98,100,102,104,106,108,110,112,-1,-1,-1,-1,-1,-1,-1,-1,-1,-1,-1,-1,-1,-1,-1,-1,-1,-1,-1,-1,-1,-1,-1,-1,-1,-1,-1,-1,-1,-1,-1,-1,-1,-1,-1,-1,-1,-1,-1,-1,-1,-1,-1,-1,-1,-1,-1,-1,-1,-1,-1,-1,-1,-1,-1,-1],"split_conditions":[8.333333E-1,8.3333336E-2,6.666667E-1,9.803922E-3,2.3529412E-1,1E0,3.095012E0,2.5555557E-1,3.7254903E-1,1.5686275E-1,6.666667E-1,3.6111113E-2,6.666667E-1,3.3333334E-1,3.1906107E-1,-4.9257424E-1,7.777778E-1,3.3333334E-1,4.1666668E-2,6.666667E-1,1E0,1.25E0,-5.7173395E-1,2.2222222E-1,1.6666667E-1,1.6666667E-1,1E0,1E0,7.5E-1,-8.75E-1,7.777778E-1,2.2222222E-1,-2.0023642E0,1.368171E0,6.666667E-1,6.666667E-1,4.2156863E-1,3.5E0,1E0,2.625E0,6.666667E-1,9.607843E-1,7.083333E-1,3.375E0,1E0,-6.8171024E-1,8.4158415E-1,8.5294116E-1,1E0,8.5294116E-1,-6.824228E-1,-6.209026E-1,9.2156863E-1,2E0,-5.9653467E-1,7.777778E-1,1E0,7.741873E-3,-8.929829E-3,-1.2305192E-2,-9.838207E-3,-1.9876775E-3,-8.686352E-3,1.3132784E-2,-2.4758081E-3,1.5202154E-2,3.6849774E-2,6.3794985E-2,3.7783854E-2,2.438118E-3,1.3629829E-2,7.834506E-3,3.259584E-2,-1.374506E-3,6.794145E-2,-1.2183684E-2,7.729278E-3,6.0506877E-3,5.9363395E-2,2.1299234E-1,5.2723836E-2,-3.8431527E-3,2.6109596E-3,1.4342061E-3,1.4593037E-2,-6.492009E-3,8.021567E-2,-1.36756515E-2,-3.1511367E-3,2.0056215E-1,3.30063E-2,3.3916093E-2,9.337988E-2,3.7287716E-2,1.5362427E-2,1.7789539E-2,3.8098536E-2,3.1296425E-2,9.926936E-3,2.4918748E-2,9.2555005E-3,2.5669191E-2,-2.3678332E-3,1.2298988E-2,-5.889784E-3,3.790687E-2,7.122686E-2,3.9368134E-2,1.8542124E-2,1.9620258E-1,6.677636E-2,-4.6408814E-3,1.9255705E-2],"split_indices":[22,8,8,9,9,22,3,24,9,9,10,24,10,24,0,6,17,17,8,10,24,1,3,17,8,8,10,22,8,1,17,17,4,3,17,17,9,1,10,1,17,9,8,1,10,3,6,9,10,9,3,3,9,1,6,17,13,0,0,0,0,0,0,0,0,0,0,0,0,0,0,0,0,0,0,0,0,0,0,0,0,0,0,0,0,0,0,0,0,0,0,0,0,0,0,0,0,0,0,0,0,0,0,0,0,0,0,0,0,0,0,0,0],"split_type":[0,0,0,0,0,0,0,0,0,0,0,0,0,0,0,0,0,0,0,0,0,0,0,0,0,0,0,0,0,0,0,0,0,0,0,0,0,0,0,0,0,0,0,0,0,0,0,0,0,0,0,0,0,0,0,0,0,0,0,0,0,0,0,0,0,0,0,0,0,0,0,0,0,0,0,0,0,0,0,0,0,0,0,0,0,0,0,0,0,0,0,0,0,0,0,0,0,0,0,0,0,0,0,0,0,0,0,0,0,0,0,0,0],"sum_hessian":[2.12316E5,1.83665E5,2.8651E4,1.767E4,1.65995E5,2.2462E4,6.189E3,2.472E3,1.5198E4,5.883E4,1.07165E5,8.764E3,1.3698E4,6.142E3,4.7E1,1.114E3,1.358E3,1.502E3,1.3696E4,3.2865E4,2.5965E4,5.4662E4,5.2503E4,1.05E3,7.714E3,9.413E3,4.285E3,5.752E3,3.9E2,1.43E2,9.71E2,9.89E2,3.69E2,3.73E2,1.129E3,9.837E3,3.859E3,1.5026E4,1.7839E4,2.5538E4,4.27E2,4.5801E4,8.861E3,6.128E3,4.6375E4,3.3E1,1.017E3,2.697E3,5.017E3,3.265E3,6.148E3,3.762E3,5.23E2,2.184E3,3.568E3,2.18E2,1.72E2,1.3E1,1.3E2,6.19E2,3.52E2,2.11E2,7.78E2,7.7E1,2.92E2,2.32E2,1.41E2,5.36E2,5.93E2,5.805E3,4.032E3,9.1E2,2.949E3,1.4976E4,5E1,1.6943E4,8.96E2,2.5189E4,3.49E2,1.44E2,2.83E2,4.1748E4,4.053E3,8.01E3,8.51E2,6.11E3,1.8E1,4.5065E4,1.31E3,1.4E1,1.9E1,1.005E3,1.2E1,1.642E3,1.055E3,4.914E3,1.03E2,1.888E3,1.377E3,4.36E2,5.712E3,6.4E1,3.698E3,4.2E2,1.03E2,2.017E3,1.67E2,5.92E2,2.976E3,1.1E2,1.08E2,5.6E1,1.16E2],"tree_param":{"num_deleted":"0","num_feature":"25","num_nodes":"113","size_leaf_vector":"1"}},{"base_weights":[3.2852535E-4,-5.812375E-2,3.7234965E-1,2.3364075E-1,-8.905994E-2,3.6023667E-1,3.6120918E0,1.5907735E-1,4.8989573E-1,-1.9859342E-2,-1.4607978E-1,5.402578E-1,2.4719155E-1,-4.26218E-2,3.3502147E-1,-4.834627E-2,1.9581673E-1,5.546124E-1,-1.8229645E-1,-3.9343648E-2,4.8988614E-2,-2.251974E-1,-2.2193238E-2,4.3955788E-1,9.04564E-1,1.9099383E-1,4.4711632E-1,-8.441601E-2,5.661593E-3,-1.030685E-1,5.588859E-2,1.2728311E-1,3.0007857E-1,2.9593134E-1,7.1609646E-1,-2.7618182E-1,3.22878E-1,2.689986E-3,-9.527034E-2,7.240905E-1,3.1772148E-2,-2.4008493E-1,-6.896762E-2,1.5013742E-1,-2.9213923E-1,7.071737E-1,4.0999517E-1,8.062502E-1,3.4694352E0,4.3403742E-1,1.1181331E-1,5.767681E-1,1.9155498E-1,4.6038823E-3,-1.5453696E-1,-8.096388E-3,-2.4410196E-4,-5.982976E-3,7.967596E-3,8.975343E-3,4.843173E-3,1.5436949E-2,-9.232625E-3,2.7307848E-2,1.3448912E-2,1.7399386E-2,4.163836E-2,-8.710739E-3,-1.6432008E-2,4.7612805E-2,2.0127378E-3,6.38453E-3,-6.854671E-4,-6.7903176E-3,-2.2501994E-3,3.923599E-2,-8.307427E-4,-2.2136913E-4,7.4946024E-3,-1.1345455E-2,-1.4637637E-2,5.4383487E-3,-8.510089E-3,5.965988E-3,1.2556253E-1,-1.50132775E-2,-3.2463183E-3,1.073244E-1,3.2807767E-2,2.8090615E-2,1.6565952E-2,4.780338E-2,2.602445E-2,2.3990607E-1,8.385157E-2,1.5010527E-2,3.5166748E-2,9.942387E-3,-8.09648E-4,2.573197E-2,7.656435E-2,-1.5659757E-3,2.9415974E-2,-5.6642494E-3,-1.05870785E-2],"categories":[],"categories_nodes":[],"categories_segments":[],"categories_sizes":[],"default_left":[0,0,0,0,0,0,0,0,0,0,0,0,0,0,0,0,0,0,0,0,0,0,0,0,0,0,0,0,0,0,0,0,0,0,0,0,0,0,0,0,0,0,0,0,0,0,0,0,0,0,0,0,0,0,0,0,0,0,0,0,0,0,0,0,0,0,0,0,0,0,0,0,0,0,0,0,0,0,0,0,0,0,0,0,0,0,0,0,0,0,0,0,0,0,0,0,0,0,0,0,0,0,0,0,0],"id":1,"left_children":[1,3,5,7,9,11,13,15,17,19,21,23,25,27,-1,29,31,33,35,37,39,41,43,45,47,49,51,53,-1,55,57,59,61,63,65,67,69,71,73,75,77,79,81,83,85,87,89,91,93,95,97,99,101,-1,103,-1,-1,-1,-1,-1,-1,-1,-1,-1,-1,-1,-1,-1,-1,-1,-1,-1,-1,-1,-1,-1,-1,-1,-1,-1,-1,-1,-1,-1,-1,-1,-1,-1,-1,-1,-1,-1,-1,-1,-1,-1,-1,-1,-1,-1,-1,-1,-1,-1,-1],"loss_changes":[4.604975E3,1.6519023E3,1.1271292E3,3.351587E2,6.52902E2,5.828884E2,1.2079935E3,1.0358887E2,1.721081E2,1.0027699E2,8.8917737E2,4.0497827E2,1.9765613E2,3.3524758E-1,0E0,1.167607E1,8.2470215E1,1.5046289E2,1.6594286E1,1.3696506E2,1.916265E2,1.2874854E2,1.6448506E3,6.821521E1,6.0037463E2,2.643684E2,1.2781976E2,5.0926554E-1,0E0,7.7548695E0,1.2823835E1,1.1053764E1,1.927945E1,9.214264E0,9.505359E1,1.5153599E0,9.744895E0,6.819049E1,5.0933823E1,1.8425491E1,6.875689E1,3.500879E1,8.670787E1,1.5700205E3,2.5418457E1,6.1742615E1,9.2980225E1,9.818396E1,2.0152917E2,1.214574E2,1.1547919E2,1.5108704E2,1.1506414E2,0E0,4.4447184E-2,0E0,0E0,0E0,0E0,0E0,0E0,0E0,0E0,0E0,0E0,0E0,0E0,0E0,0E0,0E0,0E0,0E0,0E0,0E0,0E0,0E0,0E0,0E0,0E0,0E0,0E0,0E0,0E0,0E0,0E0,0E0,0E0,0E0,0E0,0E0,0E0,0E0,0E0,0E0,0E0,0E0,0E0,0E0,0E0,0E0,0E0,0E0,0E0,0E0,0E0],"parents":[2147483647,0,0,1,1,2,2,3,3,4,4,5,5,6,6,7,7,8,8,9,9,10,10,11,11,12,12,13,13,15,15,16,16,17,17,18,18,19,19,20,20,21,21,22,22,23,23,24,24,25,25,26,26,27,27,29,29,30,30,31,31,32,32,33,33,34,34,35,35,36,36,37,37,38,38,39,39,40,40,41,41,42,42,43,43,44,44,45,45,46,46,47,47,48,48,49,49,50,50,51,51,52,52,54,54],"right_children":[2,4,6,8,10,12,14,16,18,20,22,24,26,28,-1,30,32,34,36,38,40,42,44,46,48,50,52,54,-1,56,58,60,62,64,66,68,70,72,74,76,78,80,82,84,86,88,90,92,94,96,98,100,102,-1,104,-1,-1,-1,-1,-1,-1,-1,-1,-1,-1,-1,-1,-1,-1,-1,-1,-1,-1,-1,-1,-1,-1,-1,-1,-1,-1,-1,-1,-1,-1,-1,-1,-1,-1,-1,-1,-1,-1,-1,-1,-1,-1,-1,-1,-1,-1,-1,-1,-1,-1],"split_conditions":[8.333333E-1,8.3333336E-2,1E0,4.1666668E-2,6.666667E-1,1E0,2.0833333E-1,2.9166666E-1,6.666667E-1,5E-1,4.5833334E-1,6.666667E-1,6.666667E-1,8.181818E-1,3.3502147E-1,1.03960395E-1,6.666667E-1,4.4444445E-1,1E0,2.9166666E-1,-6.706845E-1,1E0,7.5E-1,2.631579E-1,7.631579E-1,1.6666667E-1,7.5E-1,3.043478E-1,5.661593E-3,7.440476E-2,4.4444445E-1,2.970297E-2,3.3333334E-1,8.4745765E-2,1.5773809E-1,5.7894737E-1,3.043478E-1,1.6666667E-1,3.3333334E-1,1.8421052E-1,5.5263156E-1,3.3333334E-1,3.3333334E-1,2.2559524E0,1E0,2.2222222E-1,1.6666667E-1,6.956522E-1,7.777778E-1,4.1666668E-2,6.666667E-1,7.470238E-1,8.333333E-1,4.6038823E-3,-1.7326732E-1,-8.096388E-3,-2.4410196E-4,-5.982976E-3,7.967596E-3,8.975343E-3,4.843173E-3,1.5436949E-2,-9.232625E-3,2.7307848E-2,1.3448912E-2,1.7399386E-2,4.163836E-2,-8.710739E-3,-1.6432008E-2,4.7612805E-2,2.0127378E-3,6.38453E-3,-6.854671E-4,-6.7903176E-3,-2.2501994E-3,3.923599E-2,-8.307427E-4,-2.2136913E-4,7.4946024E-3,-1.1345455E-2,-1.4637637E-2,5.4383487E-3,-8.510089E-3,5.965988E-3,1.2556253E-1,-1.50132775E-2,-3.2463183E-3,1.073244E-1,3.2807767E-2,2.8090615E-2,1.6565952E-2,4.780338E-2,2.602445E-2,2.3990607E-1,8.385157E-2,1.5010527E-2,3.5166748E-2,9.942387E-3,-8.09648E-4,2.573197E-2,7.656435E-2,-1.5659757E-3,2.9415974E-2,-5.6642494E-3,-1.05870785E-2],"split_indices":[22,8,14,8,10,22,8,2,10,8,8,8,8,18,0,6,17,17,10,8,2,10,8,14,14,8,8,20,0,2,17,6,10,21,2,14,15,8,10,14,14,8,8,2,10,17,8,20,17,8,10,2,8,0,6,0,0,0,0,0,0,0,0,0,0,0,0,0,0,0,0,0,0,0,0,0,0,0,0,0,0,0,0,0,0,0,0,0,0,0,0,0,0,0,0,0,0,0,0,0,0,0,0,0,0],"split_type":[0,0,0,0,0,0,0,0,0,0,0,0,0,0,0,0,0,0,0,0,0,0,0,0,0,0,0,0,0,0,0,0,0,0,0,0,0,0,0,0,0,0,0,0,0,0,0,0,0,0,0,0,0,0,0,0,0,0,0,0,0,0,0,0,0,0,0,0,0,0,0,0,0,0,0,0,0,0,0,0,0,0,0,0,0,0,0,0,0,0,0,0,0,0,0,0,0,0,0,0,0,0,0,0,0],"sum_hessian":[2.11765E5,1.83011E5,2.8754E4,1.7544E4,1.65467E5,2.8648E4,1.06E2,1.3591E4,3.953E3,7.475E4,9.0717E4,1.1049E4,1.7599E4,4.9E1,5.7E1,2.045E3,1.1546E4,3.606E3,3.47E2,5.8262E4,1.6488E4,5.5361E4,3.5356E4,8.658E3,2.391E3,1.3739E4,3.86E3,3.9E1,1E1,1.341E3,7.04E2,6.968E3,4.578E3,1.387E3,2.219E3,2.93E2,5.4E1,3.3263E4,2.4999E4,4.09E2,1.6079E4,5.0544E4,4.817E3,2.158E4,1.3776E4,8.59E2,7.799E3,2.304E3,8.7E1,3.375E3,1.0364E4,2.56E3,1.3E3,1.1E1,2.8E1,8.38E2,5.03E2,2.61E2,4.43E2,2.563E3,4.405E3,4.498E3,8E1,1.33E2,1.254E3,5.35E2,1.684E3,1.01E2,1.92E2,1.6E1,3.8E1,3.857E3,2.9406E4,1.3838E4,1.1161E4,3.78E2,3.1E1,1.2308E4,3.771E3,4.0434E4,1.011E4,1.748E3,3.069E3,2.1303E4,2.77E2,1.33E4,4.76E2,2.8E1,8.31E2,2.66E3,5.139E3,1.51E3,7.94E2,4.9E1,3.8E1,2.256E3,1.119E3,6.169E3,4.195E3,2.405E3,1.55E2,8.33E2,4.67E2,1.8E1,1E1],"tree_param":{"num_deleted":"0","num_feature":"25","num_nodes":"105","size_leaf_vector":"1"}},{"base_weights":[2.6222408E-5,-5.6188386E-2,3.5733816E-1,2.1902303E-1,-8.566139E-2,3.4612077E-1,3.0612116E0,1.4666834E-1,4.671655E-1,-1.9468585E-2,-1.3982137E-1,5.319387E-1,2.2891903E-1,1.2221588E-1,6.3653994E0,-6.1764747E-2,1.7980817E-1,1.8607052E-1,6.500788E-1,-3.6634993E-2,4.9458366E-2,-2.1686482E-1,-1.9216143E-2,4.3002018E-1,8.7391067E-1,1.7605399E-1,4.1670296E-1,2.4806665E-2,-2.3737988E-3,2.1694863E-1,3.3558008E-1,-1.0069575E-1,4.889021E-2,9.934511E-2,2.568634E-1,2.3390165E-1,-1.8933451E-1,7.310442E-1,8.0908306E-2,6.3116886E-3,-9.014715E-2,5.67898E-1,2.706599E-2,-2.291354E-1,-8.930401E-2,-4.296005E-2,2.5031478E0,7.402016E-1,3.9419264E-1,8.004594E-1,3.0465672E0,3.8355955E-1,1.07250325E-1,2.1753739E-1,6.0108066E-1,-1.0730255E-1,1.650492E-2,-3.3805135E-3,-1.121275E-2,-5.6703156E-3,1.2802138E-2,7.943372E-3,2.9728897E-3,1.4985914E-2,7.346955E-3,6.60552E-4,1.4244663E-2,2.8917257E-2,-1.215209E-2,1.6928224E-2,3.937977E-2,5.7048865E-2,-1.9881097E-3,6.0168924E-3,-3.9082067E-4,3.9302423E-3,-4.970367E-3,2.3697512E-2,6.1397463E-2,5.3960327E-3,-1.1417166E-3,-1.0794727E-2,-1.4076486E-2,2.1647236E-3,-8.10403E-3,5.2866377E-3,-1.364739E-2,2.7992094E-1,4.6859156E-2,1.3354833E-1,3.3583492E-2,2.6283652E-2,1.6090738E-2,6.1211206E-2,3.660726E-2,2.2583964E-1,8.829017E-2,1.2950489E-2,3.1045238E-2,9.360472E-3,-3.2745418E-4,2.6729008E-2,4.660578E-3,4.1106425E-2,1.241699E-2,-8.004325E-3,-3.6725707E-3],"categories":[],"categories_nodes":[],"categories_segments":[],"categories_sizes":[],"default_left":[0,0,0,0,0,0,0,0,0,0,0,0,0,0,0,0,0,0,0,0,0,0,0,0,0,0,0,0,0,0,0,0,0,0,0,0,0,0,0,0,0,0,0,0,0,0,0,0,0,0,0,0,0,0,0,0,0,0,0,0,0,0,0,0,0,0,0,0,0,0,0,0,0,0,0,0,0,0,0,0,0,0,0,0,0,0,0,0,0,0,0,0,0,0,0,0,0,0,0,0,0,0,0,0,0,0,0],"id":2,"left_children":[1,3,5,7,9,11,13,15,17,19,21,23,25,27,29,31,33,35,37,39,41,43,45,47,49,51,53,-1,55,-1,-1,57,59,61,63,65,67,69,71,73,75,77,79,81,83,85,87,89,91,93,95,97,99,101,103,105,-1,-1,-1,-1,-1,-1,-1,-1,-1,-1,-1,-1,-1,-1,-1,-1,-1,-1,-1,-1,-1,-1,-1,-1,-1,-1,-1,-1,-1,-1,-1,-1,-1,-1,-1,-1,-1,-1,-1,-1,-1,-1,-1,-1,-1,-1,-1,-1,-1,-1,-1],"loss_changes":[4.260453E3,1.4866184E3,8.734866E2,3.1824268E2,5.934834E2,6.2526025E2,1.1548302E3,9.4836426E1,2.0564594E2,8.815113E1,8.4600854E2,3.8670483E2,1.7475458E2,2.9826977E0,1.01657715E1,8.121024E0,7.341464E1,2.8396889E1,1.1164636E2,1.3707492E2,1.7243773E2,8.694141E1,2.125751E3,9.48136E1,4.0434216E2,1.9618393E2,1.4190875E2,0E0,1.7448289E0,0E0,0E0,5.6835327E0,1.6536524E1,1.3751339E1,2.8456268E1,1.5762199E1,7.5207276E0,4.683142E1,3.8804836E1,5.330804E1,4.150618E1,3.7554382E1,5.7460255E1,3.5099854E1,4.707038E1,1.202482E3,1.5991384E3,1.15308014E2,7.285864E1,7.052136E1,1.4831421E2,1.00997925E2,9.393327E1,7.3304474E1,1.563648E2,5.6139737E-2,0E0,0E0,0E0,0E0,0E0,0E0,0E0,0E0,0E0,0E0,0E0,0E0,0E0,0E0,0E0,0E0,0E0,0E0,0E0,0E0,0E0,0E0,0E0,0E0,0E0,0E0,0E0,0E0,0E0,0E0,0E0,0E0,0E0,0E0,0E0,0E0,0E0,0E0,0E0,0E0,0E0,0E0,0E0,0E0,0E0,0E0,0E0,0E0,0E0,0E0,0E0],"parents":[2147483647,0,0,1,1,2,2,3,3,4,4,5,5,6,6,7,7,8,8,9,9,10,10,11,11,12,12,13,13,14,14,15,15,16,16,17,17,18,18,19,19,20,20,21,21,22,22,23,23,24,24,25,25,26,26,28,28,31,31,32,32,33,33,34,34,35,35,36,36,37,37,38,38,39,39,40,40,41,41,42,42,43,43,44,44,45,45,46,46,47,47,48,48,49,49,50,50,51,51,52,52,53,53,54,54,55,55],"right_children":[2,4,6,8,10,12,14,16,18,20,22,24,26,28,30,32,34,36,38,40,42,44,46,48,50,52,54,-1,56,-1,-1,58,60,62,64,66,68,70,72,74,76,78,80,82,84,86,88,90,92,94,96,98,100,102,104,106,-1,-1,-1,-1,-1,-1,-1,-1,-1,-1,-1,-1,-1,-1,-1,-1,-1,-1,-1,-1,-1,-1,-1,-1,-1,-1,-1,-1,-1,-1,-1,-1,-1,-1,-1,-1,-1,-1,-1,-1,-1,-1,-1,-1,-1,-1,-1,-1,-1,-1,-1],"split_conditions":[8.333333E-1,8.3333336E-2,1E0,4.1666668E-2,6.666667E-1,1E0,2.0833333E-1,2.3214285E-1,4.4444445E-1,6.666667E-1,5E-1,5E-1,6.666667E-1,2.6086956E-1,-9.929507E-1,2.1039604E-1,5.555556E-1,6.666667E-1,3.3333334E-1,2.9166666E-1,-6.824228E-1,1E0,2.2559524E0,-5.8313537E-1,7.894737E-1,1.6666667E-1,-3.184524E-1,2.4806665E-2,8.181818E-1,2.1694863E-1,3.3558008E-1,3.3333334E-1,6.666667E-1,4.2079207E-2,8.3806145E-1,1.22023806E-1,-1.4138973E0,4.473684E-1,-2.5130024E0,1.25E-1,9.722223E-3,6.666667E-1,-3.539604E-1,3.3333334E-1,3.3333334E-1,7.5E-1,6.666667E-1,2.2222222E-1,1.6666667E-1,-8.366337E-1,6.666667E-1,4.1666668E-2,6.666667E-1,6.666667E-1,7.5E-1,-5.0591016E-1,1.650492E-2,-3.3805135E-3,-1.121275E-2,-5.6703156E-3,1.2802138E-2,7.943372E-3,2.9728897E-3,1.4985914E-2,7.346955E-3,6.60552E-4,1.4244663E-2,2.8917257E-2,-1.215209E-2,1.6928224E-2,3.937977E-2,5.7048865E-2,-1.9881097E-3,6.0168924E-3,-3.9082067E-4,3.9302423E-3,-4.970367E-3,2.3697512E-2,6.1397463E-2,5.3960327E-3,-1.1417166E-3,-1.0794727E-2,-1.4076486E-2,2.1647236E-3,-8.10403E-3,5.2866377E-3,-1.364739E-2,2.7992094E-1,4.6859156E-2,1.3354833E-1,3.3583492E-2,2.6283652E-2,1.6090738E-2,6.1211206E-2,3.660726E-2,2.2583964E-1,8.829017E-2,1.2950489E-2,3.1045238E-2,9.360472E-3,-3.2745418E-4,2.6729008E-2,4.660578E-3,4.1106425E-2,1.241699E-2,-8.004325E-3,-3.6725707E-3],"split_indices":[22,8,14,8,10,22,8,2,17,8,8,8,8,20,5,6,17,10,10,8,3,10,2,3,14,8,2,0,18,0,0,10,17,6,4,2,5,14,4,8,24,22,6,8,8,8,17,17,8,6,17,8,10,10,8,4,0,0,0,0,0,0,0,0,0,0,0,0,0,0,0,0,0,0,0,0,0,0,0,0,0,0,0,0,0,0,0,0,0,0,0,0,0,0,0,0,0,0,0,0,0,0,0,0,0,0,0],"split_type":[0,0,0,0,0,0,0,0,0,0,0,0,0,0,0,0,0,0,0,0,0,0,0,0,0,0,0,0,0,0,0,0,0,0,0,0,0,0,0,0,0,0,0,0,0,0,0,0,0,0,0,0,0,0,0,0,0,0,0,0,0,0,0,0,0,0,0,0,0,0,0,0,0,0,0,0,0,0,0,0,0,0,0,0,0,0,0,0,0,0,0,0,0,0,0,0,0,0,0,0,0,0,0,0,0,0,0],"sum_hessian":[2.12107E5,1.83274E5,2.8833E4,1.7728E4,1.65546E5,2.8715E4,1.18E2,1.3727E4,4.001E3,7.4498E4,9.1048E4,1.1105E4,1.761E4,6.3E1,5.5E1,1.883E3,1.1844E4,1.578E3,2.423E3,5.9644E4,1.4854E4,5.5557E4,3.5491E4,8.557E3,2.548E3,1.3743E4,3.867E3,1.5E1,4.8E1,1E1,4.5E1,1.393E3,4.9E2,5.795E3,6.049E3,1.4E3,1.78E2,2.121E3,3.02E2,3.3089E4,2.6555E4,6.14E2,1.424E4,5.0681E4,4.876E3,3.5161E4,3.3E2,8.84E2,7.673E3,2.466E3,8.2E1,3.421E3,1.0322E4,1.86E3,2.007E3,3.7E1,1.1E1,1.1E3,2.93E2,2.75E2,2.15E2,2.324E3,3.471E3,4.351E3,1.698E3,2.63E2,1.137E3,1.1E1,1.67E2,2.68E2,1.853E3,3E1,2.72E2,3.647E3,2.9442E4,1.381E3,2.5174E4,5.39E2,7.5E1,5.434E3,8.806E3,4.0461E4,1.022E4,1.728E3,3.148E3,2.1355E4,1.3806E4,1.1E2,2.2E2,2.9E1,8.55E2,2.722E3,4.951E3,3.4E2,2.126E3,3.7E1,4.5E1,2.245E3,1.176E3,6.062E3,4.26E3,5.23E2,1.337E3,1.233E3,7.74E2,1.3E1,2.4E1],"tree_param":{"num_deleted":"0","num_feature":"25","num_nodes":"107","size_leaf_vector":"1"}},{"base_weights":[-5.59002E-5,-3.4354985E-1,2.3367858E-1,-3.440504E-1,4.8766506E-1,2.2547352E-1,2.197434E0,-3.827824E-1,-3.418609E-1,6.495495E-4,7.178499E-1,2.1155605E-1,1.0795803E0,-8.2678884E-2,4.2941046E0,-3.7609017E-1,-4.112539E-1,-3.3890897E-1,-3.715762E-1,6.991538E-2,3.0203253E-1,3.1999132E-1,1.2480823E-1,1.6828997E0,4.905952E-1,-1.1768782E-1,3.47517E-2,8.8444674E-1,6.2598925E0,-1.7672729E-2,-3.834011E-1,-3.9029616E-1,-4.284636E-1,-3.4746864E-1,-3.3370247E-1,-3.67959E-1,-5.989246E-1,-4.960179E-3,3.743816E-2,2.9409018E-1,1.2348609E0,2.4501337E-2,4.5284984E-1,1.3226273E0,2.845823E0,1.9648863E-1,7.71341E-1,-2.6087612E-1,-7.808845E-2,1.8921667E-1,4.130506E-1,6.9781713E0,2.0807518E-2,-1.8816134E-2,-1.9749885E-2,-1.9745072E-2,-1.3870314E-2,-1.9747006E-2,-2.2229394E-2,-1.797199E-2,-1.7251434E-2,-1.6858492E-2,-1.6420929E-2,-1.8452795E-2,-1.4099039E-2,-3.553901E-2,-2.8122086E-2,2.0319778E-2,1.0822452E-2,2.7654937E-1,5.8381297E-2,-3.0408443E-3,3.4648296E-3,1.0355616E-2,3.817069E-2,9.294828E-2,5.987267E-2,1.6311333E-1,6.62768E-2,6.149108E-2,4.061861E-3,2.403005E-2,1.184019E-1,-1.519232E-2,-6.73132E-3,-5.8157714E-3,5.7877006E-4,7.748811E-2,-8.59696E-3,3.5683832E-1,2.1338192E-1],"categories":[],"categories_nodes":[],"categories_segments":[],"categories_sizes":[],"default_left":[0,0,0,0,0,0,0,0,0,0,0,0,0,0,0,0,0,0,0,0,0,0,0,0,0,0,0,0,0,0,0,0,0,0,0,0,0,0,0,0,0,0,0,0,0,0,0,0,0,0,0,0,0,0,0,0,0,0,0,0,0,0,0,0,0,0,0,0,0,0,0,0,0,0,0,0,0,0,0,0,0,0,0,0,0,0,0,0,0,0,0],"id":3,"left_children":[1,3,5,7,9,11,13,15,17,-1,19,21,23,25,27,29,31,33,35,-1,37,39,41,43,45,47,-1,49,51,-1,53,55,57,59,61,63,65,-1,-1,67,69,71,73,75,77,79,81,83,85,-1,87,89,-1,-1,-1,-1,-1,-1,-1,-1,-1,-1,-1,-1,-1,-1,-1,-1,-1,-1,-1,-1,-1,-1,-1,-1,-1,-1,-1,-1,-1,-1,-1,-1,-1,-1,-1,-1,-1,-1,-1],"loss_changes":[1.69947E4,3.5831055E1,2.0291108E3,7.133789E0,5.6723404E0,1.4908779E3,2.5054128E3,7.17041E-1,6.986328E0,0E0,9.480776E0,1.1610078E3,7.1377515E2,6.942975E0,1.824291E3,4.7943115E-1,1.429596E-1,3.1728516E0,5.796936E0,0E0,4.1969023E0,1.2995356E3,2.2564053E3,4.1227246E2,8.398645E1,1.351809E0,0E0,1.3650342E2,7.2325244E2,0E0,8.093262E-2,9.788895E-2,7.4142456E-2,6.9018555E-1,7.2998047E-1,5.7543945E-1,6.1359406E-2,0E0,0E0,4.6508154E2,4.297058E2,2.007164E2,1.2253438E3,4.8796997E1,1.438241E2,5.9327538E1,2.4072247E2,2.411933E-1,6.560137E-1,0E0,5.8783356E1,3.574414E1,0E0,0E0,0E0,0E0,0E0,0E0,0E0,0E0,0E0,0E0,0E0,0E0,0E0,0E0,0E0,0E0,0E0,0E0,0E0,0E0,0E0,0E0,0E0,0E0,0E0,0E0,0E0,0E0,0E0,0E0,0E0,0E0,0E0,0E0,0E0,0E0,0E0,0E0,0E0],"parents":[2147483647,0,0,1,1,2,2,3,3,4,4,5,5,6,6,7,7,8,8,10,10,11,11,12,12,13,13,14,14,15,15,16,16,17,17,18,18,20,20,21,21,22,22,23,23,24,24,25,25,27,27,28,28,30,30,31,31,32,32,33,33,34,34,35,35,36,36,39,39,40,40,41,41,42,42,43,43,44,44,45,45,46,46,47,47,48,48,50,50,51,51],"right_children":[2,4,6,8,10,12,14,16,18,-1,20,22,24,26,28,30,32,34,36,-1,38,40,42,44,46,48,-1,50,52,-1,54,56,58,60,62,64,66,-1,-1,68,70,72,74,76,78,80,82,84,86,-1,88,90,-1,-1,-1,-1,-1,-1,-1,-1,-1,-1,-1,-1,-1,-1,-1,-1,-1,-1,-1,-1,-1,-1,-1,-1,-1,-1,-1,-1,-1,-1,-1,-1,-1,-1,-1,-1,-1,-1,-1],"split_conditions":[-2.601469E-1,8.333333E-1,1E0,8.3333336E-2,4.4444445E-1,5.0962424E0,6.6580385E-1,4.1666668E-2,1E0,6.495495E-4,-1.25E-1,1.6186465E-1,6.3416135E-1,4.207425E0,4.5101112E-1,2.3511904E-1,4.4444445E-1,1.6186465E-1,2.2559524E0,6.991538E-2,1.625E0,2.607446E0,1E0,8.035714E-2,6.311732E0,1.3172026E0,3.47517E-2,-2.4312998E-1,8.896337E-1,-1.7672729E-2,6.666667E-1,1E0,4.2156863E-1,2.5E-1,2.0833333E-1,8.5E-1,7.777778E-1,-4.960179E-3,3.743816E-2,1.6666667E-1,4.2130807E-3,3.9911848E-1,-2.0982143E-1,9.6343584E-2,3.75E-1,-5.0190026E-1,-5.952381E-2,-5E-1,6.666667E-1,1.8921667E-1,-3.9598107E-1,7.689E-1,2.0807518E-2,-1.8816134E-2,-1.9749885E-2,-1.9745072E-2,-1.3870314E-2,-1.9747006E-2,-2.2229394E-2,-1.797199E-2,-1.7251434E-2,-1.6858492E-2,-1.6420929E-2,-1.8452795E-2,-1.4099039E-2,-3.553901E-2,-2.8122086E-2,2.0319778E-2,1.0822452E-2,2.7654937E-1,5.8381297E-2,-3.0408443E-3,3.4648296E-3,1.0355616E-2,3.817069E-2,9.294828E-2,5.987267E-2,1.6311333E-1,6.62768E-2,6.149108E-2,4.061861E-3,2.403005E-2,1.184019E-1,-1.519232E-2,-6.73132E-3,-5.8157714E-3,5.7877006E-4,7.748811E-2,-8.59696E-3,3.5683832E-1,2.1338192E-1],"split_indices":[0,22,24,8,17,0,16,8,16,0,1,16,16,0,0,2,17,16,2,0,1,0,16,2,0,0,0,0,0,0,17,15,9,8,8,24,17,0,0,8,16,0,2,16,8,3,2,1,22,0,4,0,0,0,0,0,0,0,0,0,0,0,0,0,0,0,0,0,0,0,0,0,0,0,0,0,0,0,0,0,0,0,0,0,0,0,0,0,0,0,0],"split_type":[0,0,0,0,0,0,0,0,0,0,0,0,0,0,0,0,0,0,0,0,0,0,0,0,0,0,0,0,0,0,0,0,0,0,0,0,0,0,0,0,0,0,0,0,0,0,0,0,0,0,0,0,0,0,0,0,0,0,0,0,0,0,0,0,0,0,0,0,0,0,0,0,0,0,0,0,0,0,0,0,0,0,0,0,0,0,0,0,0,0,0],"sum_hessian":[2.11674E5,8.5712E4,1.25962E5,8.5661E4,5.1E1,1.25439E5,5.23E2,4.574E3,8.1087E4,1.7E1,3.4E1,1.23429E5,2.01E3,2.51E2,2.72E2,3.715E3,8.59E2,7.3771E4,7.316E3,1.2E1,2.2E1,5.4856E4,6.8573E4,9.92E2,1.018E3,2.41E2,1E1,1E2,1.72E2,9.19E2,2.796E3,3.98E2,4.61E2,2.7876E4,4.5895E4,7.204E3,1.12E2,1.2E1,1E1,5.3347E4,1.509E3,5.2516E4,1.6057E4,7.59E2,2.33E2,4.98E2,5.2E2,5.1E1,1.9E2,1.3E1,8.7E1,1.53E2,1.9E1,1.757E3,1.039E3,3.8E2,1.8E1,1.58E2,3.03E2,4.695E3,2.3181E4,2.7673E4,1.8222E4,7.11E3,9.4E1,2.3E1,8.9E1,2.1804E4,3.1543E4,2.2E1,1.487E3,1.808E4,3.4436E4,8.965E3,7.092E3,1.41E2,6.18E2,1.82E2,5.1E1,4.9E1,4.49E2,4.41E2,7.9E1,3.7E1,1.4E1,1.33E2,5.7E1,2.9E1,5.8E1,1.43E2,1E1],"tree_param":{"num_deleted":"0","num_feature":"25","num_nodes":"91","size_leaf_vector":"1"}},{"base_weights":[-9.171207E-4,-3.2618243E-1,2.1975504E-1,-3.2675686E-1,6.261117E-1,2.1086505E-1,1.9379613E0,-3.6333698E-1,-3.246664E-1,7.708913E-2,1.7631958E-1,1.9772093E-1,1.032183E0,-2.9642046E-3,3.878896E0,-3.5610554E-1,-3.9333567E-1,-3.2207137E-1,-3.5094625E-1,-6.9379616E-3,3.3964062E-1,3.0130464E-1,1.1429615E-1,1.5968245E0,4.9107128E-1,-6.778784E-2,9.297558E-2,8.435057E-1,6.0311813E0,-1.6705472E-2,-1.8176684E-2,-3.6490712E-1,-4.0651187E-1,-3.305868E-1,-3.1683904E-1,-3.4774324E-1,-5.6830156E-1,9.445425E-3,2.5030253E-2,2.7656993E-1,1.1346588E0,2.3089454E-2,4.11242E-1,1.2479064E0,2.2584312E0,1.9965494E-1,7.741456E-1,-3.0181223E-1,-4.3987513E-2,1.9762936E-1,4.543276E-1,6.749145E0,7.840506E-1,-1.7506083E-2,-1.9976357E-2,-2.044279E-2,-1.2898952E-2,-1.707138E-2,-1.641856E-2,-1.601125E-2,-1.5579611E-2,-1.6907854E-2,-1.7794572E-2,-2.0942247E-2,-2.9839097E-2,1.959006E-2,9.84923E-3,2.3745973E-1,5.4045793E-2,-9.085618E-4,5.512776E-3,1.0306955E-2,3.3687517E-2,9.812572E-2,5.0971467E-2,1.0411199E-1,2.5303164E-1,5.275336E-2,6.9455393E-3,2.0059237E-2,9.5824204E-2,-1.1346447E-2,-1.8291755E-2,-3.0977812E-3,1.7043648E-2,6.314435E-3,5.8807146E-2,3.443159E-1,2.4500191E-1,9.192297E-2,-2.1178154E-2],"categories":[],"categories_nodes":[],"categories_segments":[],"categories_sizes":[],"default_left":[0,0,0,0,0,0,0,0,0,0,0,0,0,0,0,0,0,0,0,0,0,0,0,0,0,0,0,0,0,0,0,0,0,0,0,0,0,0,0,0,0,0,0,0,0,0,0,0,0,0,0,0,0,0,0,0,0,0,0,0,0,0,0,0,0,0,0,0,0,0,0,0,0,0,0,0,0,0,0,0,0,0,0,0,0,0,0,0,0,0,0],"id":4,"left_children":[1,3,5,7,9,11,13,15,17,-1,19,21,23,25,27,29,31,33,35,-1,37,39,41,43,45,47,-1,49,51,-1,-1,53,55,57,59,61,63,-1,-1,65,67,69,71,73,75,77,79,81,83,-1,85,87,89,-1,-1,-1,-1,-1,-1,-1,-1,-1,-1,-1,-1,-1,-1,-1,-1,-1,-1,-1,-1,-1,-1,-1,-1,-1,-1,-1,-1,-1,-1,-1,-1,-1,-1,-1,-1,-1,-1],"loss_changes":[1.5216006E4,4.7078125E1,1.9288335E3,6.4296875E0,2.1144957E1,1.3562832E3,2.4486978E3,8.623657E-1,5.4121094E0,0E0,1.8996518E0,1.0686973E3,6.0386816E2,3.9484833E1,2.118146E3,4.8861694E-1,1.8429565E-1,3.1816406E0,4.8637085E0,0E0,4.8773193E-1,1.1369126E3,1.8553423E3,2.2064087E2,8.3327866E1,1.7467991E0,0E0,1.6276236E2,7.1048535E2,0E0,0E0,9.07135E-3,1.0270691E-1,5.6152344E-1,7.1191406E-1,4.3945312E-1,1.9272614E-1,0E0,0E0,4.913086E2,3.037334E2,1.8849265E2,8.665432E2,1.0184015E2,1.5387256E2,2.5834085E1,2.1779355E2,5.6014776E-2,2.0127008E0,0E0,2.8739056E1,8.616699E0,3.1338345E1,0E0,0E0,0E0,0E0,0E0,0E0,0E0,0E0,0E0,0E0,0E0,0E0,0E0,0E0,0E0,0E0,0E0,0E0,0E0,0E0,0E0,0E0,0E0,0E0,0E0,0E0,0E0,0E0,0E0,0E0,0E0,0E0,0E0,0E0,0E0,0E0,0E0,0E0],"parents":[2147483647,0,0,1,1,2,2,3,3,4,4,5,5,6,6,7,7,8,8,10,10,11,11,12,12,13,13,14,14,15,15,16,16,17,17,18,18,20,20,21,21,22,22,23,23,24,24,25,25,27,27,28,28,31,31,32,32,33,33,34,34,35,35,36,36,39,39,40,40,41,41,42,42,43,43,44,44,45,45,46,46,47,47,48,48,50,50,51,51,52,52],"right_children":[2,4,6,8,10,12,14,16,18,-1,20,22,24,26,28,30,32,34,36,-1,38,40,42,44,46,48,-1,50,52,-1,-1,54,56,58,60,62,64,-1,-1,66,68,70,72,74,76,78,80,82,84,-1,86,88,90,-1,-1,-1,-1,-1,-1,-1,-1,-1,-1,-1,-1,-1,-1,-1,-1,-1,-1,-1,-1,-1,-1,-1,-1,-1,-1,-1,-1,-1,-1,-1,-1,-1,-1,-1,-1,-1,-1],"split_conditions":[-2.601469E-1,8.333333E-1,1E0,8.3333336E-2,-5.7135534E-1,5.0962424E0,6.6580385E-1,4.1666668E-2,1E0,7.708913E-2,-6.230655E-1,1.6186465E-1,6.3416135E-1,4.207425E0,5.552129E-1,2.3214285E-1,4.2156863E-1,1.6186465E-1,2.2559524E0,-6.9379616E-3,3.3663365E-1,2.5260966E0,1E0,6.165147E-1,6.311732E0,8.1392026E-1,9.297558E-2,-2.4312998E-1,8.896337E-1,-1.6705472E-2,-1.8176684E-2,1.3928572E0,1.5961367E0,2.5E-1,2.0833333E-1,4.6666667E-1,9.2105263E-1,9.445425E-3,2.5030253E-2,1.6666667E-1,4.2130807E-3,6.666667E-1,-2.0982143E-1,9.6343584E-2,1.0059524E0,3.1578946E-1,-3.2440478E-1,1.7574258E-1,9.6666664E-1,1.9762936E-1,7.3333335E-1,7.605094E-1,1.1002784E0,-1.7506083E-2,-1.9976357E-2,-2.044279E-2,-1.2898952E-2,-1.707138E-2,-1.641856E-2,-1.601125E-2,-1.5579611E-2,-1.6907854E-2,-1.7794572E-2,-2.0942247E-2,-2.9839097E-2,1.959006E-2,9.84923E-3,2.3745973E-1,5.4045793E-2,-9.085618E-4,5.512776E-3,1.0306955E-2,3.3687517E-2,9.812572E-2,5.0971467E-2,1.0411199E-1,2.5303164E-1,5.275336E-2,6.9455393E-3,2.0059237E-2,9.5824204E-2,-1.1346447E-2,-1.8291755E-2,-3.0977812E-3,1.7043648E-2,6.314435E-3,5.8807146E-2,3.443159E-1,2.4500191E-1,9.192297E-2,-2.1178154E-2],"split_indices":[0,22,14,8,7,0,16,8,16,0,2,16,16,0,0,2,9,16,2,0,6,0,16,16,0,0,0,0,0,0,0,2,7,8,8,19,14,0,0,8,16,22,2,16,2,14,2,6,19,0,19,0,0,0,0,0,0,0,0,0,0,0,0,0,0,0,0,0,0,0,0,0,0,0,0,0,0,0,0,0,0,0,0,0,0,0,0,0,0,0,0],"split_type":[0,0,0,0,0,0,0,0,0,0,0,0,0,0,0,0,0,0,0,0,0,0,0,0,0,0,0,0,0,0,0,0,0,0,0,0,0,0,0,0,0,0,0,0,0,0,0,0,0,0,0,0,0,0,0,0,0,0,0,0,0,0,0,0,0,0,0,0,0,0,0,0,0,0,0,0,0,0,0,0,0,0,0,0,0,0,0,0,0,0,0],"sum_hessian":[2.11988E5,8.5687E4,1.26301E5,8.5636E4,5.1E1,1.25652E5,6.49E2,4.62E3,8.1016E4,1.6E1,3.5E1,1.23674E5,1.978E3,3.25E2,3.24E2,3.733E3,8.87E2,7.3747E4,7.269E3,1.2E1,2.3E1,5.517E4,6.8504E4,9.67E2,1.011E3,3.15E2,1E1,1.35E2,1.89E2,9.54E2,2.779E3,2.9E2,5.97E2,2.8044E4,4.5703E4,7.166E3,1.03E2,1.3E1,1E1,5.3581E4,1.589E3,5.2408E4,1.6096E4,6.35E2,3.32E2,4.99E2,5.12E2,2.8E1,2.87E2,1.4E1,1.21E2,1.66E2,2.3E1,2.11E2,7.9E1,5.86E2,1.1E1,4.733E3,2.3311E4,2.7741E4,1.7962E4,3.312E3,3.854E3,1.9E1,8.4E1,2.1887E4,3.1694E4,2.2E1,1.567E3,3.5571E4,1.6837E4,9.037E3,7.059E3,1.52E2,4.83E2,3.14E2,1.8E1,3.2E1,4.67E2,3.87E2,1.25E2,1.5E1,1.3E1,2.75E2,1.2E1,8.4E1,3.7E1,1.52E2,1.4E1,1.2E1,1.1E1],"tree_param":{"num_deleted":"0","num_feature":"25","num_nodes":"91","size_leaf_vector":"1"}},{"base_weights":[-1.1712187E-3,7.9828866E-2,-9.036448E-2,2.28213E-1,3.2307062E-2,-1.7206722E-1,2.0127498E-1,3.5610095E-1,8.912829E-2,1.7513903E-2,3.204624E-1,-1.8914309E-1,3.912663E-3,1.7028087E-1,2.513957E0,1.3288432E-1,6.221222E-1,-1.30281E-1,1.4987057E-1,7.752394E-3,3.2230955E-1,9.734339E-2,9.3646014E-1,-2.2338055E-1,-1.3796099E-1,-3.59771E-2,3.1499738E-1,1.4750403E-1,7.0009124E-1,4.9317546E0,1.2027504E0,1.2959689E0,1.15025505E-1,2.883954E-1,7.279574E-1,-1.5521063E-1,-7.047939E-2,8.3382145E-2,2.4900746E-1,2.6418278E-1,-4.876329E-4,8.669555E-2,3.135783E-1,2.5157622E-1,-5.522081E-2,1.4188473E0,5.153507E-1,3.346322E-2,-2.3109443E-1,-2.5030318E-1,-1.1619126E-1,3.3313212E-1,-6.407624E-2,-2.2316875E-1,5.5876946E-1,8.0508727E-1,1.3889243E-1,6.324361E-1,2.7723978E0,3.983405E0,2.95783E-1,7.3005366E-1,3.204563E0,2.2066472E-2,1.16145514E-1,2.6059648E-4,1.0891629E-2,2.1476079E-2,8.075667E-3,2.3130432E-2,4.11574E-2,-4.60606E-3,-8.579522E-3,-7.936944E-3,-7.8603096E-4,8.932476E-3,1.2516737E-4,1.5560624E-2,2.5980398E-3,-8.491888E-4,2.455565E-2,-8.032445E-4,4.5026015E-3,1.4910529E-2,5.1003944E-2,6.857054E-2,1.1696594E-2,2.1397024E-2,-3.9653536E-3,6.5873355E-2,1.796968E-1,3.339092E-2,1.1001802E-2,1.7341044E-2,-7.2315843E-3,-8.66898E-3,-1.2665974E-2,4.4318824E-3,-1.2707405E-2,-6.9489554E-3,-3.6247347E-3,7.98653E-3,3.890593E-2,-4.624494E-3,7.1547404E-3,-1.2105495E-2,-4.650081E-3,3.4985968E-3,3.5070557E-2,3.1209731E-2,8.34227E-2,7.778757E-4,8.417236E-3,2.4704134E-2,5.9470624E-2,2.128644E-1,4.9170785E-2,2.261018E-1,7.0889294E-2,2.4364108E-2,1.404338E-1,2.3133245E-1,3.196907E-2],"categories":[],"categories_nodes":[],"categories_segments":[],"categories_sizes":[],"default_left":[0,0,0,0,0,0,0,0,0,0,0,0,0,0,0,0,0,0,0,0,0,0,0,0,0,0,0,0,0,0,0,0,0,0,0,0,0,0,0,0,0,0,0,0,0,0,0,0,0,0,0,0,0,0,0,0,0,0,0,0,0,0,0,0,0,0,0,0,0,0,0,0,0,0,0,0,0,0,0,0,0,0,0,0,0,0,0,0,0,0,0,0,0,0,0,0,0,0,0,0,0,0,0,0,0,0,0,0,0,0,0,0,0,0,0,0,0,0,0,0,0,0,0],"id":5,"left_children":[1,3,5,7,9,11,13,15,17,19,21,23,25,27,29,31,33,35,37,39,41,43,45,47,49,51,53,55,57,59,61,63,65,67,69,71,73,75,77,79,81,-1,83,85,87,89,91,93,95,97,99,101,103,105,107,109,111,113,115,117,-1,119,121,-1,-1,-1,-1,-1,-1,-1,-1,-1,-1,-1,-1,-1,-1,-1,-1,-1,-1,-1,-1,-1,-1,-1,-1,-1,-1,-1,-1,-1,-1,-1,-1,-1,-1,-1,-1,-1,-1,-1,-1,-1,-1,-1,-1,-1,-1,-1,-1,-1,-1,-1,-1,-1,-1,-1,-1,-1,-1,-1,-1],"loss_changes":[1.5267083E3,7.80916E2,2.3964622E3,4.778053E2,3.5756476E2,2.3608618E2,1.5772375E3,8.3094556E2,1.7154343E2,2.3738802E2,5.6286633E2,1.2546338E2,8.625454E1,2.6200085E2,9.1660596E2,1.5794145E2,2.253086E2,4.149971E0,6.642113E1,1.6336197E2,2.9973083E1,7.079336E1,2.204859E2,8.5021484E1,7.017847E1,6.392108E1,1.0376472E2,1.1782266E2,1.2372763E2,7.1610596E1,1.7744803E2,9.990628E1,8.4637085E1,2.7488556E1,1.2204785E2,2.0189438E0,3.9750485E0,4.6499893E1,4.9576813E1,1.5358742E2,1.05647255E2,0E0,2.6426483E1,2.9238281E1,1.7641552E1,1.0706421E2,2.6103165E1,6.9921036E1,5.33916E1,6.0941467E0,2.3936768E1,3.351806E1,3.3719246E1,5.8646584E-1,3.7880173E1,4.0970093E1,7.4674194E1,6.630008E1,7.019371E1,6.959442E1,0E0,7.684908E1,1.2836652E2,0E0,0E0,0E0,0E0,0E0,0E0,0E0,0E0,0E0,0E0,0E0,0E0,0E0,0E0,0E0,0E0,0E0,0E0,0E0,0E0,0E0,0E0,0E0,0E0,0E0,0E0,0E0,0E0,0E0,0E0,0E0,0E0,0E0,0E0,0E0,0E0,0E0,0E0,0E0,0E0,0E0,0E0,0E0,0E0,0E0,0E0,0E0,0E0,0E0,0E0,0E0,0E0,0E0,0E0,0E0,0E0,0E0,0E0,0E0,0E0],"parents":[2147483647,0,0,1,1,2,2,3,3,4,4,5,5,6,6,7,7,8,8,9,9,10,10,11,11,12,12,13,13,14,14,15,15,16,16,17,17,18,18,19,19,20,20,21,21,22,22,23,23,24,24,25,25,26,26,27,27,28,28,29,29,30,30,31,31,32,32,33,33,34,34,35,35,36,36,37,37,38,38,39,39,40,40,42,42,43,43,44,44,45,45,46,46,47,47,48,48,49,49,50,50,51,51,52,52,53,53,54,54,55,55,56,56,57,57,58,58,59,59,61,61,62,62],"right_children":[2,4,6,8,10,12,14,16,18,20,22,24,26,28,30,32,34,36,38,40,42,44,46,48,50,52,54,56,58,60,62,64,66,68,70,72,74,76,78,80,82,-1,84,86,88,90,92,94,96,98,100,102,104,106,108,110,112,114,116,118,-1,120,122,-1,-1,-1,-1,-1,-1,-1,-1,-1,-1,-1,-1,-1,-1,-1,-1,-1,-1,-1,-1,-1,-1,-1,-1,-1,-1,-1,-1,-1,-1,-1,-1,-1,-1,-1,-1,-1,-1,-1,-1,-1,-1,-1,-1,-1,-1,-1,-1,-1,-1,-1,-1,-1,-1,-1,-1,-1,-1,-1,-1],"split_conditions":[6.666667E-1,1.6666667E-1,1E0,3.0066077E-2,2.125E0,1E0,2.2559524E0,2.029939E-2,9.803922E-3,6.6580385E-1,5.833333E-1,6.165147E-1,6.165147E-1,1.5416666E0,6.666667E-1,1.4515978E-3,5E-1,7.777778E-1,6.666667E-1,8.119755E-3,-6.863095E-1,3.3333334E-1,1.8627451E-1,-6.209026E-1,1.3725491E-1,2.3554951E-2,1.3725491E-1,1.1111111E-1,3.75E-1,2.3154762E0,-5E-1,7.777778E-1,5.555556E-1,2.2214426E-2,3.3333334E-1,2.2222222E-1,3.0403802E-1,4.7058824E-1,4.1666668E-2,3.2589287E-1,1.125E0,8.669555E-2,7.821782E-1,1.1111111E-1,2.2222222E-1,4.0625E-1,8.888889E-1,1.8168911E-1,1.6186465E-1,1.1111111E-1,6.994048E-2,-1.9494048E-1,1.375E0,7.1428573E-1,-8.5148513E-1,1.4394299E0,-5.3869045E-1,2.0625E0,6.25E-1,5.555556E-1,2.95783E-1,9.661017E-1,-2.5E-1,2.2066472E-2,1.16145514E-1,2.6059648E-4,1.0891629E-2,2.1476079E-2,8.075667E-3,2.3130432E-2,4.11574E-2,-4.60606E-3,-8.579522E-3,-7.936944E-3,-7.8603096E-4,8.932476E-3,1.2516737E-4,1.5560624E-2,2.5980398E-3,-8.491888E-4,2.455565E-2,-8.032445E-4,4.5026015E-3,1.4910529E-2,5.1003944E-2,6.857054E-2,1.1696594E-2,2.1397024E-2,-3.9653536E-3,6.5873355E-2,1.796968E-1,3.339092E-2,1.1001802E-2,1.7341044E-2,-7.2315843E-3,-8.66898E-3,-1.2665974E-2,4.4318824E-3,-1.2707405E-2,-6.9489554E-3,-3.6247347E-3,7.98653E-3,3.890593E-2,-4.624494E-3,7.1547404E-3,-1.2105495E-2,-4.650081E-3,3.4985968E-3,3.5070557E-2,3.1209731E-2,8.34227E-2,7.778757E-4,8.417236E-3,2.4704134E-2,5.9470624E-2,2.128644E-1,4.9170785E-2,2.261018E-1,7.0889294E-2,2.4364108E-2,1.404338E-1,2.3133245E-1,3.196907E-2],"split_indices":[10,8,16,16,1,10,2,16,9,16,8,16,16,2,17,16,14,17,17,16,2,8,9,3,9,16,9,17,1,2,1,17,17,16,17,17,3,9,8,2,1,0,6,17,17,2,17,16,16,17,2,2,1,2,6,3,2,2,1,17,0,21,1,0,0,0,0,0,0,0,0,0,0,0,0,0,0,0,0,0,0,0,0,0,0,0,0,0,0,0,0,0,0,0,0,0,0,0,0,0,0,0,0,0,0,0,0,0,0,0,0,0,0,0,0,0,0,0,0,0,0,0,0],"split_type":[0,0,0,0,0,0,0,0,0,0,0,0,0,0,0,0,0,0,0,0,0,0,0,0,0,0,0,0,0,0,0,0,0,0,0,0,0,0,0,0,0,0,0,0,0,0,0,0,0,0,0,0,0,0,0,0,0,0,0,0,0,0,0,0,0,0,0,0,0,0,0,0,0,0,0,0,0,0,0,0,0,0,0,0,0,0,0,0,0,0,0,0,0,0,0,0,0,0,0,0,0,0,0,0,0,0,0,0,0,0,0,0,0,0,0,0,0,0,0,0,0,0,0],"sum_hessian":[2.11317E5,1.10745E5,1.00572E5,2.6863E4,8.3882E4,7.8563E4,2.2009E4,1.3994E4,1.2869E4,7.9787E4,4.095E3,7.1614E4,6.949E3,2.1719E4,2.9E2,7.61E3,6.384E3,2.79E3,1.0079E4,7.7312E4,2.475E3,3.007E3,1.088E3,4.2908E4,2.8706E4,6.16E3,7.89E2,2.0825E4,8.94E2,1.01E2,1.89E2,1.14E2,7.496E3,1.538E3,4.846E3,1.968E3,8.22E2,6.034E3,4.045E3,2.406E3,7.4906E4,1.4E1,2.461E3,1.495E3,1.512E3,5.06E2,5.82E2,1.251E3,4.1657E4,4.658E3,2.4048E4,4.35E2,5.725E3,2.46E2,5.43E2,2.68E2,2.0557E4,8.67E2,2.7E1,5.4E1,4.7E1,1.54E2,3.5E1,6.3E1,5.1E1,3.625E3,3.871E3,7.27E2,8.11E2,1.281E3,3.565E3,4.07E2,1.561E3,3.14E2,5.08E2,2.77E3,3.264E3,3.074E3,9.71E2,1.075E3,1.331E3,6.3911E4,1.0995E4,2.41E3,5.1E1,2.2E1,1.473E3,7.1E1,1.441E3,4.85E2,2.1E1,3.83E2,1.99E2,4.53E2,7.98E2,1.1584E4,3.0073E4,5.2E1,4.606E3,1.5804E4,8.244E3,3.14E2,1.21E2,5.035E3,6.9E2,2.14E2,3.2E1,1.23E2,4.2E2,2.23E2,4.5E1,3.963E3,1.6594E4,6.96E2,1.71E2,1.4E1,1.3E1,4.4E1,1E1,1.39E2,1.5E1,2.2E1,1.3E1],"tree_param":{"num_deleted":"0","num_feature":"25","num_nodes":"123","size_leaf_vector":"1"}},{"base_weights":[2.1745052E-4,-3.0650637E-1,2.0832638E-1,-3.0701977E-1,4.0678477E-1,2.0102273E-1,1.6054126E0,-3.0309185E-1,-3.4926787E-1,2.691533E-1,5.1021297E-2,1.885833E-1,9.957748E-1,-8.635954E-3,3.2096756E0,-3.40926E-1,-2.994155E-1,-3.445228E-1,-5.752801E-1,4.679094E-2,4.5758206E-2,3.2990006E-1,1.3722023E-1,1.5866913E0,4.4341537E-1,-5.7814453E-2,7.069274E-2,2.8576466E-1,5.1923E0,-3.2510275E-1,-3.5178182E-1,-3.1044564E-1,-2.9316968E-1,8.0157164E-4,-3.4518433E-1,-4.39075E-2,-2.6054805E-2,-8.9836344E-2,2.0570084E-2,3.1450292E-1,1.3749583E0,8.117306E-2,4.0173358E-1,1.2533687E0,2.4598663E0,1.7021832E-1,6.9378155E-1,-1.0513064E-1,3.1574935E-1,1.2823115E-1,6.1113726E-2,6.0104322E0,6.884646E-2,-1.6382419E-2,-1.4693098E-2,-1.8183481E-2,-1.5878774E-2,-1.0827564E-2,-1.55619E-2,-1.48847E-2,-1.4313999E-2,-1.777198E-2,-1.6825577E-2,1.7336609E-3,-8.738451E-3,1.893581E-2,7.1704197E-3,2.011277E-1,5.3845417E-2,1.0695334E-2,1.2102803E-3,8.926096E-3,3.24939E-2,6.941194E-2,2.345645E-2,2.3850536E-1,1.1007146E-1,7.668511E-2,4.118079E-3,2.2108542E-2,1.0822606E-1,-1.3219029E-2,-3.7353237E-3,4.6614554E-2,-3.6632575E-3,-1.4248023E-2,2.7763823E-2,2.8030878E-1,3.725342E-1,2.7704379E-2,-1.6485743E-2],"categories":[],"categories_nodes":[],"categories_segments":[],"categories_sizes":[],"default_left":[0,0,0,0,0,0,0,0,0,0,0,0,0,0,0,0,0,0,0,0,0,0,0,0,0,0,0,0,0,0,0,0,0,0,0,0,0,0,0,0,0,0,0,0,0,0,0,0,0,0,0,0,0,0,0,0,0,0,0,0,0,0,0,0,0,0,0,0,0,0,0,0,0,0,0,0,0,0,0,0,0,0,0,0,0,0,0,0,0,0,0],"id":6,"left_children":[1,3,5,7,9,11,13,15,17,19,-1,21,23,25,27,29,31,33,35,-1,37,39,41,43,45,47,-1,49,51,53,55,57,59,-1,61,-1,-1,63,-1,65,67,69,71,73,75,77,79,81,83,-1,85,87,89,-1,-1,-1,-1,-1,-1,-1,-1,-1,-1,-1,-1,-1,-1,-1,-1,-1,-1,-1,-1,-1,-1,-1,-1,-1,-1,-1,-1,-1,-1,-1,-1,-1,-1,-1,-1,-1,-1],"loss_changes":[1.3517696E4,3.1473145E1,1.287065E3,1.4088867E1,4.9616413E0,1.2406562E3,1.6986467E3,1.0785645E1,7.5985107E0,7.7015285E0,0E0,8.969487E2,6.305508E2,2.3027296E1,1.9057351E3,1.0751953E0,4.8242188E0,1.7044067E0,1.97118E0,0E0,2.0201292E0,5.296338E2,1.343696E3,2.687566E2,6.8349594E1,5.6540403E0,0E0,6.844424E1,8.2115234E2,1.2884521E-1,1.5497131E0,1.8503418E0,1.3354492E0,0E0,5.126953E-1,0E0,0E0,3.2330763E-1,0E0,3.5662378E2,3.7286542E2,5.655342E2,8.7762915E2,7.1061035E1,1.429414E2,5.737348E1,1.9221104E2,1.3513973E0,8.702676E0,0E0,2.1193317E1,5.6626953E1,5.597845E0,0E0,0E0,0E0,0E0,0E0,0E0,0E0,0E0,0E0,0E0,0E0,0E0,0E0,0E0,0E0,0E0,0E0,0E0,0E0,0E0,0E0,0E0,0E0,0E0,0E0,0E0,0E0,0E0,0E0,0E0,0E0,0E0,0E0,0E0,0E0,0E0,0E0,0E0],"parents":[2147483647,0,0,1,1,2,2,3,3,4,4,5,5,6,6,7,7,8,8,9,9,11,11,12,12,13,13,14,14,15,15,16,16,17,17,18,18,20,20,21,21,22,22,23,23,24,24,25,25,27,27,28,28,29,29,30,30,31,31,32,32,34,34,37,37,39,39,40,40,41,41,42,42,43,43,44,44,45,45,46,46,47,47,48,48,50,50,51,51,52,52],"right_children":[2,4,6,8,10,12,14,16,18,20,-1,22,24,26,28,30,32,34,36,-1,38,40,42,44,46,48,-1,50,52,54,56,58,60,-1,62,-1,-1,64,-1,66,68,70,72,74,76,78,80,82,84,-1,86,88,90,-1,-1,-1,-1,-1,-1,-1,-1,-1,-1,-1,-1,-1,-1,-1,-1,-1,-1,-1,-1,-1,-1,-1,-1,-1,-1,-1,-1,-1,-1,-1,-1,-1,-1,-1,-1,-1,-1],"split_conditions":[-2.601469E-1,8.333333E-1,1E0,1E0,4.7277227E-1,5.0962424E0,1E0,1.6666667E-1,3.831354E0,-6.824228E-1,5.1021297E-2,4.612404E-2,6.3416135E-1,4.207425E0,4.3284523E-1,1.9607843E-1,1.6186465E-1,3.3333334E-1,6.666667E-1,4.679094E-2,1.25E0,1.9587873E0,1E0,0E0,6.311732E0,1E0,7.069274E-2,-2.4312998E-1,8.604062E-1,7.631579E-1,8.3333336E-2,-2.2475247E0,2.0833333E-1,8.0157164E-4,4.4444445E-1,-4.39075E-2,-2.6054805E-2,4.1666666E-1,2.0570084E-2,8.5294116E-1,4.2130807E-3,1.6186465E-1,-1.8527316E-1,7.083333E-1,-5E-1,3.1578946E-1,2.209026E-1,1.1532794E0,2.6086956E-1,1.2823115E-1,6.5217394E-1,7.777778E-1,3.831354E0,-1.6382419E-2,-1.4693098E-2,-1.8183481E-2,-1.5878774E-2,-1.0827564E-2,-1.55619E-2,-1.48847E-2,-1.4313999E-2,-1.777198E-2,-1.6825577E-2,1.7336609E-3,-8.738451E-3,1.893581E-2,7.1704197E-3,2.011277E-1,5.3845417E-2,1.0695334E-2,1.2102803E-3,8.926096E-3,3.24939E-2,6.941194E-2,2.345645E-2,2.3850536E-1,1.1007146E-1,7.668511E-2,4.118079E-3,2.2108542E-2,1.0822606E-1,-1.3219029E-2,-3.7353237E-3,4.6614554E-2,-3.6632575E-3,-1.4248023E-2,2.7763823E-2,2.8030878E-1,3.725342E-1,2.7704379E-2,-1.6485743E-2],"split_indices":[0,22,14,16,6,0,16,8,3,3,0,16,16,0,0,9,16,12,17,0,1,0,16,3,0,18,0,0,0,14,8,6,8,0,17,0,0,8,0,9,16,16,3,8,1,14,3,0,20,0,20,17,3,0,0,0,0,0,0,0,0,0,0,0,0,0,0,0,0,0,0,0,0,0,0,0,0,0,0,0,0,0,0,0,0,0,0,0,0,0,0],"split_type":[0,0,0,0,0,0,0,0,0,0,0,0,0,0,0,0,0,0,0,0,0,0,0,0,0,0,0,0,0,0,0,0,0,0,0,0,0,0,0,0,0,0,0,0,0,0,0,0,0,0,0,0,0,0,0,0,0,0,0,0,0,0,0,0,0,0,0,0,0,0,0,0,0,0,0,0,0,0,0,0,0,0,0,0,0,0,0,0,0,0,0],"sum_hessian":[2.11768E5,8.5602E4,1.26166E5,8.5541E4,6.1E1,1.25511E5,6.55E2,7.8272E4,7.269E3,5.1E1,1E1,1.23578E5,1.933E3,3.27E2,3.28E2,6.924E3,7.1348E4,7.122E3,1.47E2,1.2E1,3.9E1,3.2941E4,9.0637E4,9.33E2,1E3,3.17E2,1E1,1.33E2,1.95E2,2.83E3,4.094E3,2.5777E4,4.5571E4,1.3E1,7.109E3,2E1,1.27E2,2.9E1,1E1,3.2464E4,4.77E2,7.4791E4,1.5846E4,6.77E2,2.56E2,4.79E2,5.21E2,2.82E2,3.5E1,1.1E1,1.22E2,1.68E2,2.7E1,2.608E3,2.22E2,3.031E3,1.063E3,2.18E2,2.5559E4,2.7482E4,1.8089E4,3.239E3,3.87E3,1.2E1,1.7E1,2.3604E4,8.86E3,4.7E1,4.3E2,2.2459E4,5.2332E4,8.343E3,7.503E3,5.77E2,1E2,2.4E1,2.32E2,2.8E1,4.51E2,4.46E2,7.5E1,4.4E1,2.38E2,1.3E1,2.2E1,7.2E1,5E1,1.35E2,3.3E1,1.2E1,1.5E1],"tree_param":{"num_deleted":"0","num_feature":"25","num_nodes":"91","size_leaf_vector":"1"}},{"base_weights":[-1.1977047E-3,-4.80867E-2,2.9837728E-1,1.6953409E-1,-7.133355E-2,2.1830823E-1,5.8200204E-1,-1.5085807E-1,2.2078486E-1,-1.6130347E-2,-1.1672003E-1,3.4722373E-1,1.3625681E-1,5.3630346E-1,4.174987E0,-1.5331297E-1,1.5914977E-2,7.00779E-1,1.6790287E-1,-2.7571673E-2,2.110685E-1,-2.2011582E-2,-1.8652512E-1,5.778524E-1,3.2244927E-1,2.0725687E-1,-2.247357E-2,4.945878E-1,1.7525673E0,1.867568E-2,2.645305E-1,-1.764307E-1,-9.945715E-2,5.716982E-1,9.675035E-1,7.555369E-2,4.0210304E-1,1.0624498E-1,-3.4912396E-2,3.2542713E-2,7.100344E-1,-1.6086708E-1,1.1424996E-1,-1.0026757E-1,-1.9754621E-1,2.5290546E0,5.125024E-1,4.387899E-1,2.617E-1,1.3083457E0,2.0395534E-1,5.686925E-2,-2.5776595E-2,6.9950134E-1,3.6749327E-1,2.6917286E0,4.3702802E-1,-5.6428793E-3,-9.577773E-3,-8.739521E-3,-2.1718936E-3,1.4582372E-2,3.268898E-2,2.830495E-2,5.712071E-2,-3.8729148E-4,9.890943E-3,1.9974473E-3,2.5875533E-2,-1.2654783E-2,6.727904E-3,-2.3122884E-3,1.5533648E-3,-2.226764E-3,1.383874E-2,3.2563757E-2,1.3385989E-1,-8.8708475E-3,6.570334E-3,3.9698486E-3,6.59543E-2,-5.588277E-3,1.597668E-2,-1.0097494E-2,-2.6062774E-3,1.6517727E-1,5.5110034E-2,7.6268986E-2,2.4450665E-2,2.9856348E-2,8.996981E-3,1.5856085E-2,8.257362E-3,-2.0466938E-4,1.018853E-1,1.4259529E-2,7.963355E-3,2.8720077E-3,-3.5716859E-3,3.0028094E-2,6.587305E-2,1.0793834E-2,2.549485E-2,1.713789E-1,7.5762095E-3,3.4003153E-2,-6.4118705E-3],"categories":[],"categories_nodes":[],"categories_segments":[],"categories_sizes":[],"default_left":[0,0,0,0,0,0,0,0,0,0,0,0,0,0,0,0,0,0,0,0,0,0,0,0,0,0,0,0,0,0,0,0,0,0,0,0,0,0,0,0,0,0,0,0,0,0,0,0,0,0,0,0,0,0,0,0,0,0,0,0,0,0,0,0,0,0,0,0,0,0,0,0,0,0,0,0,0,0,0,0,0,0,0,0,0,0,0,0,0,0,0,0,0,0,0,0,0,0,0,0,0,0,0,0,0,0,0],"id":7,"left_children":[1,3,5,7,9,11,13,15,17,19,21,23,25,27,29,31,-1,33,35,37,39,41,43,45,47,49,51,53,55,-1,-1,57,59,61,63,65,67,69,71,73,75,77,79,81,83,85,87,89,91,93,95,-1,97,99,101,103,105,-1,-1,-1,-1,-1,-1,-1,-1,-1,-1,-1,-1,-1,-1,-1,-1,-1,-1,-1,-1,-1,-1,-1,-1,-1,-1,-1,-1,-1,-1,-1,-1,-1,-1,-1,-1,-1,-1,-1,-1,-1,-1,-1,-1,-1,-1,-1,-1,-1,-1],"loss_changes":[2.9713555E3,9.253281E2,6.5000244E2,2.8990167E2,4.1403613E2,2.3612097E2,1.032513E3,2.8532639E0,3.8618683E2,1.9383165E2,5.9955945E2,4.942578E1,1.5378195E2,3.14922E2,3.3306384E2,2.9991417E0,0E0,5.1434753E1,2.9649216E2,6.973799E1,3.184317E2,7.281235E2,4.9612793E1,1.05940796E2,5.5316406E1,3.4006622E1,1.6188656E1,1.5649817E2,2.5333734E2,0E0,0E0,1.6072083E0,3.073091E0,2.3256012E1,3.3826355E1,1.00157166E2,1.6201984E2,3.7596634E1,5.032576E1,4.959716E1,1.07141235E2,9.22182E1,8.155086E2,2.8596252E1,2.9634644E1,2.6196121E1,1.8644196E1,1.1010278E2,2.7532654E1,2.6811085E1,3.408264E1,0E0,1.5988335E1,1.4001562E2,8.014273E1,2.2378552E2,1.2039209E1,0E0,0E0,0E0,0E0,0E0,0E0,0E0,0E0,0E0,0E0,0E0,0E0,0E0,0E0,0E0,0E0,0E0,0E0,0E0,0E0,0E0,0E0,0E0,0E0,0E0,0E0,0E0,0E0,0E0,0E0,0E0,0E0,0E0,0E0,0E0,0E0,0E0,0E0,0E0,0E0,0E0,0E0,0E0,0E0,0E0,0E0,0E0,0E0,0E0,0E0],"parents":[2147483647,0,0,1,1,2,2,3,3,4,4,5,5,6,6,7,7,8,8,9,9,10,10,11,11,12,12,13,13,14,14,15,15,17,17,18,18,19,19,20,20,21,21,22,22,23,23,24,24,25,25,26,26,27,27,28,28,31,31,32,32,33,33,34,34,35,35,36,36,37,37,38,38,39,39,40,40,41,41,42,42,43,43,44,44,45,45,46,46,47,47,48,48,49,49,50,50,52,52,53,53,54,54,55,55,56,56],"right_children":[2,4,6,8,10,12,14,16,18,20,22,24,26,28,30,32,-1,34,36,38,40,42,44,46,48,50,52,54,56,-1,-1,58,60,62,64,66,68,70,72,74,76,78,80,82,84,86,88,90,92,94,96,-1,98,100,102,104,106,-1,-1,-1,-1,-1,-1,-1,-1,-1,-1,-1,-1,-1,-1,-1,-1,-1,-1,-1,-1,-1,-1,-1,-1,-1,-1,-1,-1,-1,-1,-1,-1,-1,-1,-1,-1,-1,-1,-1,-1,-1,-1,-1,-1,-1,-1,-1,-1,-1,-1],"split_conditions":[8.333333E-1,8.3333336E-2,6.666667E-1,9.803922E-3,6.666667E-1,1E0,2.8812351E0,2.375E0,3.7254903E-1,2.125E0,2.1568628E-1,2.631579E-1,6.666667E-1,7.894737E-1,2.920792E-1,7.777778E-1,1.5914977E-2,6.315789E-1,4.1666668E-2,1.6666667E-1,5.416667E-1,2.0588236E-1,-5.7743466E-1,2.2222222E-1,1.6666667E-1,-7.2209024E-1,1.1111111E-1,1E0,7.777778E-1,1.867568E-2,2.645305E-1,2.2222222E-1,3.1591448E-1,3.3333334E-1,3.3333334E-1,6.666667E-1,4.2156863E-1,4E-1,1.125E0,-1.4251782E-1,5.534442E-1,1E0,8E-1,2.375E0,1E0,1.8421052E-1,-2.4561934E0,8.5294116E-1,6.956522E-1,-6.646526E-2,1.25E-1,5.686925E-2,3.9130434E-1,6.052632E-1,-3.016627E-1,7.5E-1,7.3913044E-1,-5.6428793E-3,-9.577773E-3,-8.739521E-3,-2.1718936E-3,1.4582372E-2,3.268898E-2,2.830495E-2,5.712071E-2,-3.8729148E-4,9.890943E-3,1.9974473E-3,2.5875533E-2,-1.2654783E-2,6.727904E-3,-2.3122884E-3,1.5533648E-3,-2.226764E-3,1.383874E-2,3.2563757E-2,1.3385989E-1,-8.8708475E-3,6.570334E-3,3.9698486E-3,6.59543E-2,-5.588277E-3,1.597668E-2,-1.0097494E-2,-2.6062774E-3,1.6517727E-1,5.5110034E-2,7.6268986E-2,2.4450665E-2,2.9856348E-2,8.996981E-3,1.5856085E-2,8.257362E-3,-2.0466938E-4,1.018853E-1,1.4259529E-2,7.963355E-3,2.8720077E-3,-3.5716859E-3,3.0028094E-2,6.587305E-2,1.0793834E-2,2.549485E-2,1.713789E-1,7.5762095E-3,3.4003153E-2,-6.4118705E-3],"split_indices":[22,8,8,9,10,22,3,1,9,1,9,14,10,14,6,17,0,14,8,8,8,9,3,17,8,3,17,22,17,0,0,17,3,17,17,17,9,11,1,3,3,10,24,1,10,14,5,9,20,5,8,0,20,14,3,8,20,0,0,0,0,0,0,0,0,0,0,0,0,0,0,0,0,0,0,0,0,0,0,0,0,0,0,0,0,0,0,0,0,0,0,0,0,0,0,0,0,0,0,0,0,0,0,0,0,0,0],"split_type":[0,0,0,0,0,0,0,0,0,0,0,0,0,0,0,0,0,0,0,0,0,0,0,0,0,0,0,0,0,0,0,0,0,0,0,0,0,0,0,0,0,0,0,0,0,0,0,0,0,0,0,0,0,0,0,0,0,0,0,0,0,0,0,0,0,0,0,0,0,0,0,0,0,0,0,0,0,0,0,0,0,0,0,0,0,0,0,0,0,0,0,0,0,0,0,0,0,0,0,0,0,0,0,0,0,0,0],"sum_hessian":[2.11531E5,1.82904E5,2.8627E4,1.7652E4,1.65252E5,2.2326E4,6.301E3,2.434E3,1.5218E4,7.4563E4,9.0689E4,8.682E3,1.3644E4,6.223E3,7.8E1,2.422E3,1.2E1,1.509E3,1.3709E4,7.0989E4,3.574E3,3.8481E4,5.2208E4,8.4E2,7.842E3,9.427E3,4.217E3,6.018E3,2.05E2,1.8E1,6E1,1.693E3,7.29E2,1.019E3,4.9E2,9.833E3,3.876E3,3.691E3,6.7298E4,2.633E3,9.41E2,1.9059E4,1.9422E4,5.916E3,4.6292E4,2.6E1,8.14E2,2.688E3,5.154E3,2.7E1,9.4E3,1.1E1,4.206E3,2.302E3,3.716E3,1.19E2,8.6E1,3.27E2,1.366E3,3.1E2,4.19E2,2.32E2,7.87E2,1.5E2,3.4E2,5.849E3,3.984E3,9.37E2,2.939E3,2.69E2,3.422E3,5.7433E4,9.865E3,2.002E3,6.31E2,9.15E2,2.6E1,1.8038E4,1.021E3,1.8877E4,5.45E2,5.759E3,1.57E2,4.4931E4,1.361E3,1.6E1,1E1,1.7E1,7.97E2,1.667E3,1.021E3,3.273E3,1.881E3,1E1,1.7E1,3.334E3,6.066E3,1.49E3,2.716E3,1.986E3,3.16E2,1.801E3,1.915E3,9.2E1,2.7E1,6E1,2.6E1],"tree_param":{"num_deleted":"0","num_feature":"25","num_nodes":"107","size_leaf_vector":"1"}},{"base_weights":[-1.1315565E-3,-4.5974918E-2,2.8146806E-1,2.0962974E-2,-1.1291524E-1,2.3498538E-1,6.753155E-1,1.5570863E-1,-7.0729735E-3,-1.7016049E-1,1.0033102E-1,3.8490245E-1,1.4087452E-1,4.8378897E-1,2.580609E0,5.4542545E-2,4.2738548E-1,-1.1344492E-2,5.2032E-1,-1.8128747E-1,-4.791703E-2,7.1502104E-2,2.156742E0,3.699091E-1,1.1954815E0,2.2053449E-1,-3.6143895E-2,5.8200188E-2,7.218663E-1,2.0068207E0,4.780156E0,-6.342E-2,1.1986013E-1,1.5047559E0,4.0353653E-1,-1.8530523E-2,2.3103449E-1,4.0172803E-1,2.9582849E0,-2.0747876E-1,-1.3795935E-1,-7.856858E-2,2.1695381E-1,5.7014592E-2,3.870572E-1,5.0045294E-1,2.9820752E0,5.585593E-1,3.1479293E-1,1.027126E0,1.4337267E-1,3.935821E-1,1.603539E-1,3.1285936E-1,-5.0319824E-2,7.0525944E-2,3.1922374E-2,1.0402976E0,5.2768725E-1,2.8506124E0,1.4563338E0,1.63131E-1,2.5360593E-1,-4.2486503E-3,6.845288E-3,7.486121E-3,-2.8577463E-3,1.7870812E-2,8.8950425E-2,5.8200406E-3,2.6207728E-2,-2.5921355E-3,1.570461E-3,2.8547674E-2,9.126612E-3,3.1060323E-3,3.5924394E-2,1.6879816E-1,1.10832945E-1,4.5319553E-4,-1.0675599E-2,-7.0000254E-3,3.3793037E-3,-5.2196835E-3,5.1760594E-3,2.4329288E-2,-6.6389623E-3,4.4631367E-3,-6.002735E-4,1.6620686E-2,1.3596147E-1,1.11219816E-1,3.4257756E-3,1.04392506E-1,2.1989563E-1,1.9645354E-2,3.778868E-2,2.6513046E-2,1.3893484E-2,4.330854E-2,1.3563843E-1,1.28522115E-2,2.7281571E-2,7.317127E-3,3.0394895E-2,9.374298E-3,8.440423E-2,-3.6123514E-3,5.3707976E-3,2.0980215E-2,-6.304604E-4,7.816806E-2,4.1049805E-2,2.1572728E-2,4.4091925E-2,1.7302439E-2,1.6630997E-1,1.8721534E-1,6.134367E-2],"categories":[],"categories_nodes":[],"categories_segments":[],"categories_sizes":[],"default_left":[0,0,0,0,0,0,0,0,0,0,0,0,0,0,0,0,0,0,0,0,0,0,0,0,0,0,0,0,0,0,0,0,0,0,0,0,0,0,0,0,0,0,0,0,0,0,0,0,0,0,0,0,0,0,0,0,0,0,0,0,0,0,0,0,0,0,0,0,0,0,0,0,0,0,0,0,0,0,0,0,0,0,0,0,0,0,0,0,0,0,0,0,0,0,0,0,0,0,0,0,0,0,0,0,0,0,0,0,0,0,0,0,0,0,0,0,0,0,0],"id":8,"left_children":[1,3,5,7,9,11,13,15,17,19,21,23,25,27,29,31,33,35,37,39,41,43,45,47,49,51,53,55,57,59,61,63,65,67,69,71,73,75,77,79,81,83,85,87,89,91,93,95,97,99,-1,101,103,105,107,-1,109,111,113,115,117,-1,-1,-1,-1,-1,-1,-1,-1,-1,-1,-1,-1,-1,-1,-1,-1,-1,-1,-1,-1,-1,-1,-1,-1,-1,-1,-1,-1,-1,-1,-1,-1,-1,-1,-1,-1,-1,-1,-1,-1,-1,-1,-1,-1,-1,-1,-1,-1,-1,-1,-1,-1,-1,-1,-1,-1,-1,-1],"loss_changes":[2.6801912E3,8.1788635E2,5.3008765E2,3.4478247E2,1.1140953E3,3.6547717E2,1.1142943E3,4.3200525E2,1.7020036E2,9.78562E1,1.1449185E3,1.2098132E2,2.2447217E2,2.815348E2,3.4252563E2,8.82687E1,1.0897827E2,1.3053574E2,1.7430923E2,7.480835E1,4.876173E1,8.706249E1,3.6349402E2,1.0183594E2,4.8003693E1,1.1426294E2,2.446107E1,3.541988E1,1.096369E2,9.9431274E1,8.706299E0,1.7640478E1,3.898278E1,2.8312958E1,1.4450018E2,1.21088554E2,3.5474365E1,6.2348267E1,1.1899567E0,5.3695435E1,1.0434448E1,2.531958E1,5.881301E1,4.0541214E1,1.0563418E2,6.68648E1,2.1617957E2,7.213013E1,6.0276794E1,4.2688187E1,0E0,5.8653503E1,5.0998398E1,3.295992E1,1.6433147E1,0E0,1.6924099E1,7.603009E1,3.7415253E1,1.0247797E2,6.7331085E1,0E0,0E0,0E0,0E0,0E0,0E0,0E0,0E0,0E0,0E0,0E0,0E0,0E0,0E0,0E0,0E0,0E0,0E0,0E0,0E0,0E0,0E0,0E0,0E0,0E0,0E0,0E0,0E0,0E0,0E0,0E0,0E0,0E0,0E0,0E0,0E0,0E0,0E0,0E0,0E0,0E0,0E0,0E0,0E0,0E0,0E0,0E0,0E0,0E0,0E0,0E0,0E0,0E0,0E0,0E0,0E0,0E0,0E0],"parents":[2147483647,0,0,1,1,2,2,3,3,4,4,5,5,6,6,7,7,8,8,9,9,10,10,11,11,12,12,13,13,14,14,15,15,16,16,17,17,18,18,19,19,20,20,21,21,22,22,23,23,24,24,25,25,26,26,27,27,28,28,29,29,30,30,31,31,32,32,33,33,34,34,35,35,36,36,37,37,38,38,39,39,40,40,41,41,42,42,43,43,44,44,45,45,46,46,47,47,48,48,49,49,51,51,52,52,53,53,54,54,56,56,57,57,58,58,59,59,60,60],"right_children":[2,4,6,8,10,12,14,16,18,20,22,24,26,28,30,32,34,36,38,40,42,44,46,48,50,52,54,56,58,60,62,64,66,68,70,72,74,76,78,80,82,84,86,88,90,92,94,96,98,100,-1,102,104,106,108,-1,110,112,114,116,118,-1,-1,-1,-1,-1,-1,-1,-1,-1,-1,-1,-1,-1,-1,-1,-1,-1,-1,-1,-1,-1,-1,-1,-1,-1,-1,-1,-1,-1,-1,-1,-1,-1,-1,-1,-1,-1,-1,-1,-1,-1,-1,-1,-1,-1,-1,-1,-1,-1,-1,-1,-1,-1,-1,-1,-1,-1,-1],"split_conditions":[8.333333E-1,6.666667E-1,1E0,2.2214426E-2,1E0,1E0,7.368421E-1,2.029939E-2,3E0,1E0,2.2559524E0,2.625E0,6.666667E-1,-5.2090263E-1,3.095012E0,1.6369048E-1,1.3157895E-1,6.6580385E-1,5.029762E-1,6.165147E-1,6.165147E-1,1.5416666E0,-7.5E-1,3.0066077E-2,1.0869701E0,3.7814315E-2,2.2214426E-2,3.3333334E-1,1E0,1E0,3.069307E-1,1.9112067E-2,1.9992983E-2,-1.125E0,1.4732143E-1,5.263158E-1,-7.4752474E-1,1.5095699E-1,2.2419281E-1,-6.209026E-1,2.3534744E0,1.375E0,6.3416135E-1,6.5789473E-1,3.75E-1,-1.25E0,2.3154762E0,2.029939E-2,3.1578946E-1,1.1772407E0,1.4337267E-1,2.029939E-2,2.375E0,2.029939E-2,1E0,7.0525944E-2,-7.04038E-1,1.25E-1,2.6128265E-1,-1.0785499E0,5.0847456E-2,1.63131E-1,2.5360593E-1,-4.2486503E-3,6.845288E-3,7.486121E-3,-2.8577463E-3,1.7870812E-2,8.8950425E-2,5.8200406E-3,2.6207728E-2,-2.5921355E-3,1.570461E-3,2.8547674E-2,9.126612E-3,3.1060323E-3,3.5924394E-2,1.6879816E-1,1.10832945E-1,4.5319553E-4,-1.0675599E-2,-7.0000254E-3,3.3793037E-3,-5.2196835E-3,5.1760594E-3,2.4329288E-2,-6.6389623E-3,4.4631367E-3,-6.002735E-4,1.6620686E-2,1.3596147E-1,1.11219816E-1,3.4257756E-3,1.04392506E-1,2.1989563E-1,1.9645354E-2,3.778868E-2,2.6513046E-2,1.3893484E-2,4.330854E-2,1.3563843E-1,1.28522115E-2,2.7281571E-2,7.317127E-3,3.0394895E-2,9.374298E-3,8.440423E-2,-3.6123514E-3,5.3707976E-3,2.0980215E-2,-6.304604E-4,7.816806E-2,4.1049805E-2,2.1572728E-2,4.4091925E-2,1.7302439E-2,1.6630997E-1,1.8721534E-1,6.134367E-2],"split_indices":[22,10,16,16,16,22,14,16,1,10,2,1,10,3,3,2,14,16,2,16,16,2,1,16,7,16,16,10,22,22,6,16,16,1,2,14,6,16,7,3,5,1,16,14,1,1,2,16,14,5,0,16,1,16,10,0,3,1,3,5,21,0,0,0,0,0,0,0,0,0,0,0,0,0,0,0,0,0,0,0,0,0,0,0,0,0,0,0,0,0,0,0,0,0,0,0,0,0,0,0,0,0,0,0,0,0,0,0,0,0,0,0,0,0,0,0,0,0,0],"split_type":[0,0,0,0,0,0,0,0,0,0,0,0,0,0,0,0,0,0,0,0,0,0,0,0,0,0,0,0,0,0,0,0,0,0,0,0,0,0,0,0,0,0,0,0,0,0,0,0,0,0,0,0,0,0,0,0,0,0,0,0,0,0,0,0,0,0,0,0,0,0,0,0,0,0,0,0,0,0,0,0,0,0,0,0,0,0,0,0,0,0,0,0,0,0,0,0,0,0,0,0,0,0,0,0,0,0,0,0,0,0,0,0,0,0,0,0,0,0,0],"sum_hessian":[2.11491E5,1.82528E5,2.8963E4,9.1266E4,9.1262E4,2.5907E4,3.056E3,1.5718E4,7.5548E4,7.1948E4,1.9314E4,9.99E3,1.5917E4,2.778E3,2.78E2,1.1454E4,4.264E3,7.4942E4,6.06E2,6.5945E4,6.003E3,1.9048E4,2.66E2,9.81E3,1.8E2,1.0977E4,4.94E3,9.97E2,1.781E3,2.22E2,5.6E1,4.082E3,7.372E3,9.1E1,4.173E3,7.2785E4,2.157E3,5.79E2,2.7E1,4.1098E4,2.4847E4,5.381E3,6.22E2,1.8213E4,8.35E2,8.9E1,1.77E2,2.216E3,7.594E3,1.65E2,1.5E1,2.831E3,8.146E3,1.92E2,4.748E3,1.8E1,9.79E2,6.73E2,1.108E3,8.6E1,1.36E2,1.1E1,4.5E1,3.686E3,3.96E2,6.308E3,1.064E3,1.8E1,7.3E1,1.235E3,2.938E3,4.3661E4,2.9124E4,2.68E2,1.889E3,2.8E2,2.99E2,1.5E1,1.2E1,1.114E3,3.9984E4,2.4603E4,2.44E2,4.713E3,6.68E2,3.51E2,2.71E2,1.2413E4,5.8E3,8.17E2,1.8E1,1.7E1,7.2E1,1.1E2,6.7E1,1.206E3,1.01E3,1.109E3,6.485E3,1.52E2,1.3E1,1.493E3,1.338E3,7.9E3,2.46E2,1.77E2,1.5E1,4.169E3,5.79E2,1E2,8.79E2,1.97E2,4.76E2,8.73E2,2.35E2,1.4E1,7.2E1,1.1E1,1.25E2],"tree_param":{"num_deleted":"0","num_feature":"25","num_nodes":"119","size_leaf_vector":"1"}},{"base_weights":[-3.8530675E-4,-2.825608E-1,1.9060625E-1,-2.7773803E-1,-3.3454433E-1,1.7900628E-1,9.145423E-1,-2.967787E-1,-2.6421076E-1,-3.2743213E-1,-5.3786993E-1,1.7255448E-1,1.475474E0,1.4418991E0,3.9154905E-1,-3.0874917E-1,-2.8769994E-1,-2.8834915E-1,-2.618496E-1,5.780482E-3,-3.2821015E-1,-5.7029593E-1,-2.109152E-3,2.9708093E-1,1.2740585E-1,-4.4929933E-2,2.9763417E0,1.0585667E0,2.2147045E0,4.6667345E-2,5.4020625E-1,-1.7187408E-1,-3.0999285E-1,-1.6518255E-1,-2.8870207E-1,-2.8755158E-1,-2.0273803E-2,-2.7306864E-1,-2.567376E-1,-3.1575206E-1,-3.3651552E-1,-1.4500716E-1,-6.150112E-1,2.8214645E-1,1.5261078E0,8.06957E-2,3.4673753E-1,-7.50399E-2,2.822174E-1,1.2981157E-1,5.015634E0,3.0258784E0,9.8632526E-1,3.995159E0,1.9667723E0,8.2620405E-2,-3.1280886E-2,3.641417E-1,1.2650896E0,-1.2328669E-2,2.8538361E-2,-1.5281819E-2,-1.7153958E-2,-1.244226E-2,4.158094E-2,-1.4629053E-2,-1.3585073E-2,-1.4426204E-2,-8.736176E-3,-1.3407323E-2,-1.5136299E-2,-1.4747134E-2,-1.2740548E-2,-1.4632548E-2,-1.6373744E-2,-1.5922554E-2,-1.6977085E-2,-2.6215876E-2,1.5822558E-2,-2.344456E-2,-3.319187E-2,1.6902983E-2,6.6937427E-3,2.0030081E-1,6.553572E-2,9.639788E-3,1.6379064E-3,7.599053E-3,2.7105639E-2,-5.426151E-3,2.249075E-3,-6.3260566E-3,4.2554505E-2,1.0742565E-1,-1.7376099E-2,2.8296733E-1,6.768068E-3,8.3458975E-2,1.9705474E-1,7.9032786E-2,4.2178597E-2,8.001359E-2,2.6361427E-1,1.14872865E-1,6.5940164E-2,2.4996577E-2,-3.0071181E-3,7.7624083E-3,2.5085686E-2,3.4381762E-2,1.2705576E-1],"categories":[],"categories_nodes":[],"categories_segments":[],"categories_sizes":[],"default_left":[0,0,0,0,0,0,0,0,0,0,0,0,0,0,0,0,0,0,0,0,0,0,0,0,0,0,0,0,0,0,0,0,0,0,0,0,0,0,0,0,0,0,0,0,0,0,0,0,0,0,0,0,0,0,0,0,0,0,0,0,0,0,0,0,0,0,0,0,0,0,0,0,0,0,0,0,0,0,0,0,0,0,0,0,0,0,0,0,0,0,0,0,0,0,0,0,0,0,0,0,0,0,0,0,0,0,0,0,0,0,0],"id":9,"left_children":[1,3,5,7,9,11,13,15,17,19,21,23,25,27,29,31,33,35,37,-1,39,41,-1,43,45,47,49,51,53,55,57,59,61,63,65,67,-1,69,71,73,75,77,79,81,83,85,87,89,91,93,95,97,99,101,103,-1,105,107,109,-1,-1,-1,-1,-1,-1,-1,-1,-1,-1,-1,-1,-1,-1,-1,-1,-1,-1,-1,-1,-1,-1,-1,-1,-1,-1,-1,-1,-1,-1,-1,-1,-1,-1,-1,-1,-1,-1,-1,-1,-1,-1,-1,-1,-1,-1,-1,-1,-1,-1,-1,-1],"loss_changes":[1.1387457E4,2.128955E1,1.0580059E3,2.0025879E1,1.0287781E1,1.0371333E3,5.47458E2,3.433838E0,2.525879E0,2.4487915E0,3.8817139E0,6.9379175E2,1.4012358E3,2.9063843E2,5.1192673E1,2.3242188E0,2.2172852E0,2.6239014E-1,2.3149414E0,0E0,6.161499E-1,4.246666E0,0E0,6.0228784E2,9.278938E2,3.0353987E0,1.7930645E3,9.1242004E1,1.3649072E2,3.7851418E1,8.862248E1,7.2415113E0,1.8898926E0,1.2882992E1,1.1269531E0,3.9208984E-1,0E0,1.8168945E0,2.0290527E0,6.6485596E-1,1.2005615E-1,4.191747E0,1.158432E0,2.689265E2,2.0520697E2,4.0126645E2,6.0499805E2,1.1341339E0,6.153205E0,1.2601386E2,5.647036E2,2.1980072E1,5.305078E1,1.1084717E2,5.889514E1,0E0,4.4608917E0,1.6101547E1,9.846379E1,0E0,0E0,0E0,0E0,0E0,0E0,0E0,0E0,0E0,0E0,0E0,0E0,0E0,0E0,0E0,0E0,0E0,0E0,0E0,0E0,0E0,0E0,0E0,0E0,0E0,0E0,0E0,0E0,0E0,0E0,0E0,0E0,0E0,0E0,0E0,0E0,0E0,0E0,0E0,0E0,0E0,0E0,0E0,0E0,0E0,0E0,0E0,0E0,0E0,0E0,0E0,0E0],"parents":[2147483647,0,0,1,1,2,2,3,3,4,4,5,5,6,6,7,7,8,8,9,9,10,10,11,11,12,12,13,13,14,14,15,15,16,16,17,17,18,18,20,20,21,21,23,23,24,24,25,25,26,26,27,27,28,28,29,29,30,30,31,31,32,32,33,33,34,34,35,35,37,37,38,38,39,39,40,40,41,41,42,42,43,43,44,44,45,45,46,46,47,47,48,48,49,49,50,50,51,51,52,52,53,53,54,54,56,56,57,57,58,58],"right_children":[2,4,6,8,10,12,14,16,18,20,22,24,26,28,30,32,34,36,38,-1,40,42,-1,44,46,48,50,52,54,56,58,60,62,64,66,68,-1,70,72,74,76,78,80,82,84,86,88,90,92,94,96,98,100,102,104,-1,106,108,110,-1,-1,-1,-1,-1,-1,-1,-1,-1,-1,-1,-1,-1,-1,-1,-1,-1,-1,-1,-1,-1,-1,-1,-1,-1,-1,-1,-1,-1,-1,-1,-1,-1,-1,-1,-1,-1,-1,-1,-1,-1,-1,-1,-1,-1,-1,-1,-1,-1,-1,-1,-1],"split_conditions":[-2.601469E-1,1E0,5.0962424E0,1.6186465E-1,8E-1,1E0,6.3416135E-1,4.29627E-2,2.8947368E-1,4.166667E-3,1E0,4.612404E-2,6.6580385E-1,1.5277778E-1,5.522568E0,4.166667E-3,-2.2475247E0,3.125E0,3.4313726E-1,5.780482E-3,4E-1,4.347826E-2,-2.109152E-3,2.0562365E0,1E0,1E0,4.724912E-1,4.901961E-2,-5E-1,2.631579E-1,6.052632E-1,9.830508E-1,8.333333E-1,1.875E0,6.315789E-1,2.625E0,-2.0273803E-2,1.4705883E-1,1.8168911E-1,3.6363637E-1,7.777778E-2,-7.5E-1,1E0,8.5294116E-1,4.2130807E-3,1.6186465E-1,8.3333336E-2,8.3041906E-1,6.333333E-1,-2.2900309E-1,8.5094726E-1,1.25E-1,9.174941E-2,3.911003E-1,6.315789E-1,8.2620405E-2,3.1578946E-1,0E0,7.073182E0,-1.2328669E-2,2.8538361E-2,-1.5281819E-2,-1.7153958E-2,-1.244226E-2,4.158094E-2,-1.4629053E-2,-1.3585073E-2,-1.4426204E-2,-8.736176E-3,-1.3407323E-2,-1.5136299E-2,-1.4747134E-2,-1.2740548E-2,-1.4632548E-2,-1.6373744E-2,-1.5922554E-2,-1.6977085E-2,-2.6215876E-2,1.5822558E-2,-2.344456E-2,-3.319187E-2,1.6902983E-2,6.6937427E-3,2.0030081E-1,6.553572E-2,9.639788E-3,1.6379064E-3,7.599053E-3,2.7105639E-2,-5.426151E-3,2.249075E-3,-6.3260566E-3,4.2554505E-2,1.0742565E-1,-1.7376099E-2,2.8296733E-1,6.768068E-3,8.3458975E-2,1.9705474E-1,7.9032786E-2,4.2178597E-2,8.001359E-2,2.6361427E-1,1.14872865E-1,6.5940164E-2,2.4996577E-2,-3.0071181E-3,7.7624083E-3,2.5085686E-2,3.4381762E-2,1.2705576E-1],"split_indices":[0,16,0,16,24,14,16,16,14,24,20,16,16,24,0,24,6,1,9,0,19,20,0,0,16,18,0,9,1,14,14,21,9,1,14,1,0,9,16,18,24,1,24,9,16,16,24,7,19,0,0,1,16,16,14,0,14,1,0,0,0,0,0,0,0,0,0,0,0,0,0,0,0,0,0,0,0,0,0,0,0,0,0,0,0,0,0,0,0,0,0,0,0,0,0,0,0,0,0,0,0,0,0,0,0,0,0,0,0,0,0],"split_type":[0,0,0,0,0,0,0,0,0,0,0,0,0,0,0,0,0,0,0,0,0,0,0,0,0,0,0,0,0,0,0,0,0,0,0,0,0,0,0,0,0,0,0,0,0,0,0,0,0,0,0,0,0,0,0,0,0,0,0,0,0,0,0,0,0,0,0,0,0,0,0,0,0,0,0,0,0,0,0,0,0,0,0,0,0,0,0,0,0,0,0,0,0,0,0,0,0,0,0,0,0,0,0,0,0,0,0,0,0,0,0],"sum_hessian":[2.11295E5,8.5288E4,1.26007E5,7.8053E4,7.235E3,1.24021E5,1.986E3,3.2411E4,4.5642E4,6.993E3,2.42E2,1.23408E5,6.13E2,9.88E2,9.98E2,1.3965E4,1.8446E4,4.056E3,4.1586E4,1.2E1,6.981E3,2.27E2,1.5E1,3.2836E4,9.0572E4,3.05E2,3.08E2,6.62E2,3.26E2,3.01E2,6.97E2,1.27E2,1.3838E4,1.51E2,1.8295E4,4.032E3,2.4E1,1.3001E4,2.8585E4,2.808E3,4.173E3,2.2E1,2.05E2,3.2443E4,3.93E2,7.4671E4,1.5901E4,2.8E2,2.5E1,1.29E2,1.79E2,2.2E1,6.4E2,3.8E1,2.88E2,1.3E1,2.88E2,5.62E2,1.35E2,1.16E2,1.1E1,1.2237E4,1.601E3,1.4E2,1.1E1,1.4883E4,3.412E3,3.996E3,3.6E1,1.1159E4,1.842E3,1.365E3,2.722E4,9.54E2,1.854E3,6.14E2,3.559E3,1.2E1,1E1,5.4E1,1.51E2,2.3558E4,8.885E3,3E1,3.63E2,2.2366E4,5.2305E4,7.964E3,7.937E3,2.19E2,6.1E1,1.5E1,1E1,2.4E1,1.05E2,1.58E2,2.1E1,1E1,1.2E1,1.22E2,5.18E2,1.4E1,2.4E1,1.89E2,9.9E1,1.4E1,2.74E2,2.24E2,3.38E2,9.4E1,4.1E1],"tree_param":{"num_deleted":"0","num_feature":"25","num_nodes":"111","size_leaf_vector":"1"}},{"base_weights":[-1.6672912E-3,-2.690675E-1,1.7977239E-1,-2.9499257E-1,-2.4957152E-1,1.6810268E-1,9.1904277E-1,-2.9550093E-1,2.6127633E-1,-2.7453977E-1,-2.3499502E-1,1.6002741E-1,9.7816616E-1,1.6478871E0,5.27583E-1,-2.8942537E-1,-3.059548E-1,-7.34053E-2,4.4048823E-2,-2.4347316E-1,-3.225561E-1,-2.3238748E-1,-2.7115816E-1,2.2614212E-1,6.3557066E-2,1.6019877E0,2.7466872E-1,9.6442014E-1,2.1712687E0,3.147057E-1,8.500633E-1,-1.8924233E-1,-2.9001278E-1,-2.998659E-1,-3.1055522E-1,-9.845366E-3,2.8106906E-3,-2.4042533E-1,-3.2277045E-1,-3.1417108E-1,-5.9981334E-1,-1.2911898E-2,-2.3196235E-1,-2.6157466E-1,-2.8485042E-1,2.0455487E-1,1.0141882E0,1.873283E-1,-5.683078E-2,3.5052246E-1,4.3046637E0,-1.1738394E-1,4.9491882E-1,1.7644551E0,6.097682E-1,2.9851878E0,1.9815233E0,5.8609617E-1,2.06956E-1,2.3028176E-1,1.2477467E0,-1.4439689E-2,4.400569E-2,-1.45609155E-2,-1.2919298E-2,-1.4969855E-2,-1.692695E-2,-2.187777E-2,-1.5355644E-2,-1.1731736E-2,-1.2489383E-2,-1.4541037E-2,-1.8335281E-2,-1.5849907E-2,-1.273561E-2,-2.379687E-2,-3.4591053E-2,-1.1342533E-2,-1.16885295E-2,-1.00620445E-2,-1.3201003E-2,-1.4360771E-2,-1.199469E-2,7.7543706E-3,1.45213995E-2,4.3469977E-2,7.398908E-2,-3.3053043E-4,1.5551773E-2,-4.0182783E-3,4.946136E-3,7.44164E-2,1.2475815E-2,2.6624805E-1,1.0907707E-2,-3.32715E-3,-2.9598081E-2,9.319363E-2,2.1984668E-2,5.0972026E-2,1.4121106E-1,2.4345104E-2,1.2880032E-1,1.6580527E-1,6.268508E-2,7.235449E-2,1.188639E-1,8.2267225E-3,3.7818957E-2,3.2058317E-2,6.814066E-3,3.3173904E-2,-4.964631E-4,8.161043E-2,2.8958475E-2],"categories":[],"categories_nodes":[],"categories_segments":[],"categories_sizes":[],"default_left":[0,0,0,0,0,0,0,0,0,0,0,0,0,0,0,0,0,0,0,0,0,0,0,0,0,0,0,0,0,0,0,0,0,0,0,0,0,0,0,0,0,0,0,0,0,0,0,0,0,0,0,0,0,0,0,0,0,0,0,0,0,0,0,0,0,0,0,0,0,0,0,0,0,0,0,0,0,0,0,0,0,0,0,0,0,0,0,0,0,0,0,0,0,0,0,0,0,0,0,0,0,0,0,0,0,0,0,0,0,0,0,0,0,0,0],"id":10,"left_children":[1,3,5,7,9,11,13,15,17,19,21,23,25,27,29,31,33,35,-1,37,39,41,43,45,47,49,51,53,55,57,59,61,63,65,67,-1,-1,69,71,73,75,-1,77,79,81,83,85,87,89,91,93,95,97,99,101,103,105,107,109,111,113,-1,-1,-1,-1,-1,-1,-1,-1,-1,-1,-1,-1,-1,-1,-1,-1,-1,-1,-1,-1,-1,-1,-1,-1,-1,-1,-1,-1,-1,-1,-1,-1,-1,-1,-1,-1,-1,-1,-1,-1,-1,-1,-1,-1,-1,-1,-1,-1,-1,-1,-1,-1,-1,-1],"loss_changes":[1.0251499E4,4.3098145E1,1.0858389E3,1.0443115E1,1.768164E1,8.105095E2,5.5720337E2,2.2375488E0,7.1163445E0,2.67229E1,2.8405762E0,7.826116E2,5.3628186E2,2.4222461E2,8.719098E1,1.3093262E0,2.8344727E-1,3.7925795E-1,0E0,2.5598755E0,1.6213135E1,2.5598145E-1,1.9645691E-1,1.2383665E3,7.435332E2,2.1902246E3,4.9795494E1,8.347681E1,5.3697754E1,2.236599E1,1.244299E2,1.494509E1,8.033447E-1,4.0283203E-3,3.201294E0,0E0,0E0,5.1135254E-1,4.5624542E-1,1.0706177E0,2.018631E0,0E0,2.0825195E-1,1.2789917E-1,2.0309448E-2,3.0099268E2,1.295614E2,5.902923E2,9.273361E1,5.0655506E1,8.535769E2,4.979228E0,2.7077278E1,6.896912E1,4.8995216E1,3.652411E1,6.3395264E1,1.5524635E1,1.685222E1,2.0714237E1,7.8223816E1,0E0,0E0,0E0,0E0,0E0,0E0,0E0,0E0,0E0,0E0,0E0,0E0,0E0,0E0,0E0,0E0,0E0,0E0,0E0,0E0,0E0,0E0,0E0,0E0,0E0,0E0,0E0,0E0,0E0,0E0,0E0,0E0,0E0,0E0,0E0,0E0,0E0,0E0,0E0,0E0,0E0,0E0,0E0,0E0,0E0,0E0,0E0,0E0,0E0,0E0,0E0,0E0,0E0,0E0],"parents":[2147483647,0,0,1,1,2,2,3,3,4,4,5,5,6,6,7,7,8,8,9,9,10,10,11,11,12,12,13,13,14,14,15,15,16,16,17,17,19,19,20,20,21,21,22,22,23,23,24,24,25,25,26,26,27,27,28,28,29,29,30,30,31,31,32,32,33,33,34,34,37,37,38,38,39,39,40,40,42,42,43,43,44,44,45,45,46,46,47,47,48,48,49,49,50,50,51,51,52,52,53,53,54,54,55,55,56,56,57,57,58,58,59,59,60,60],"right_children":[2,4,6,8,10,12,14,16,18,20,22,24,26,28,30,32,34,36,-1,38,40,42,44,46,48,50,52,54,56,58,60,62,64,66,68,-1,-1,70,72,74,76,-1,78,80,82,84,86,88,90,92,94,96,98,100,102,104,106,108,110,112,114,-1,-1,-1,-1,-1,-1,-1,-1,-1,-1,-1,-1,-1,-1,-1,-1,-1,-1,-1,-1,-1,-1,-1,-1,-1,-1,-1,-1,-1,-1,-1,-1,-1,-1,-1,-1,-1,-1,-1,-1,-1,-1,-1,-1,-1,-1,-1,-1,-1,-1,-1,-1,-1,-1],"split_conditions":[-2.601469E-1,6.666667E-1,5.0962424E0,8.333333E-1,3.137255E-1,3.095012E0,6.666667E-1,1.1401425E-1,8E-1,1.9607843E-1,1E0,6.666667E-1,8.604062E-1,-5.3869045E-1,-3.0208334E-1,3.3333334E-1,3.627451E-1,-3.073286E-2,4.4048823E-2,1E0,2.0625E0,-6.327791E-1,-6.1258906E-1,2.959125E0,2.1568628E-1,6.0149306E-1,2.360119E0,4.509804E-1,-3.4916866E-1,-5.023753E-1,5.522568E0,9.830508E-1,1.9444444E0,2.125E0,3.7254903E-1,-9.845366E-3,2.8106906E-3,1.3725491E-1,1.3725491E-1,2.4509804E-1,2.2559524E0,-1.2911898E-2,4.117647E-1,3.529412E-1,1.6309524E0,6.666667E-1,4.509804E-1,1.8627451E-1,1E0,-2.206473E-1,2.1568628E-1,1.4705883E-1,1.0380204E0,1.691843E-1,8.555606E-1,8.187311E-1,1.0416667E-2,-6.1258906E-1,1.4705883E-1,1.4705883E-1,5E-1,-1.4439689E-2,4.400569E-2,-1.45609155E-2,-1.2919298E-2,-1.4969855E-2,-1.692695E-2,-2.187777E-2,-1.5355644E-2,-1.1731736E-2,-1.2489383E-2,-1.4541037E-2,-1.8335281E-2,-1.5849907E-2,-1.273561E-2,-2.379687E-2,-3.4591053E-2,-1.1342533E-2,-1.16885295E-2,-1.00620445E-2,-1.3201003E-2,-1.4360771E-2,-1.199469E-2,7.7543706E-3,1.45213995E-2,4.3469977E-2,7.398908E-2,-3.3053043E-4,1.5551773E-2,-4.0182783E-3,4.946136E-3,7.44164E-2,1.2475815E-2,2.6624805E-1,1.0907707E-2,-3.32715E-3,-2.9598081E-2,9.319363E-2,2.1984668E-2,5.0972026E-2,1.4121106E-1,2.4345104E-2,1.2880032E-1,1.6580527E-1,6.268508E-2,7.235449E-2,1.188639E-1,8.2267225E-3,3.7818957E-2,3.2058317E-2,6.814066E-3,3.3173904E-2,-4.964631E-4,8.161043E-2,2.8958475E-2],"split_indices":[0,10,0,22,9,3,10,3,19,9,10,10,0,2,2,12,9,4,0,10,2,3,3,0,9,0,2,9,3,3,0,21,4,1,9,0,0,9,9,9,2,0,9,9,2,22,9,9,10,0,9,9,0,5,7,5,2,3,9,9,1,0,0,0,0,0,0,0,0,0,0,0,0,0,0,0,0,0,0,0,0,0,0,0,0,0,0,0,0,0,0,0,0,0,0,0,0,0,0,0,0,0,0,0,0,0,0,0,0,0,0,0,0,0,0],"split_type":[0,0,0,0,0,0,0,0,0,0,0,0,0,0,0,0,0,0,0,0,0,0,0,0,0,0,0,0,0,0,0,0,0,0,0,0,0,0,0,0,0,0,0,0,0,0,0,0,0,0,0,0,0,0,0,0,0,0,0,0,0,0,0,0,0,0,0,0,0,0,0,0,0,0,0,0,0,0,0,0,0,0,0,0,0,0,0,0,0,0,0,0,0,0,0,0,0,0,0,0,0,0,0,0,0,0,0,0,0,0,0,0,0,0,0],"sum_hessian":[2.11295E5,8.5414E4,1.25881E5,3.6656E4,4.8758E4,1.23926E5,1.955E3,3.6623E4,3.3E1,1.7966E4,3.0792E4,1.22704E5,1.222E3,6.82E2,1.273E3,2.318E4,1.3443E4,2.2E1,1.1E1,1.0912E4,7.054E3,2.8728E4,2.064E3,7.2806E4,4.9898E4,6.47E2,5.75E2,2.97E2,3.85E2,7.68E2,5.05E2,1.37E2,2.3043E4,5.814E3,7.629E3,1.1E1,1.1E1,1.0512E4,4E2,6.849E3,2.05E2,4.55E2,2.8273E4,1.226E3,8.38E2,7.0866E4,1.94E3,2.4603E4,2.5295E4,4.43E2,2.04E2,2.07E2,3.68E2,9E1,2.07E2,7E1,3.15E2,2.17E2,5.51E2,1.98E2,3.07E2,1.26E2,1.1E1,2.2189E4,8.54E2,5.753E3,6.1E1,1.98E2,7.431E3,6.511E3,4.001E3,2.36E2,1.64E2,6.534E3,3.15E2,9E1,1.15E2,7.421E3,2.0852E4,5.1E1,1.175E3,7.91E2,4.7E1,4.4966E4,2.59E4,1.482E3,4.58E2,9.582E3,1.5021E4,2.1975E4,3.32E3,3.5E1,4.08E2,1.63E2,4.1E1,1.88E2,1.9E1,1.3E1,3.55E2,5.4E1,3.6E1,1.96E2,1.1E1,5.8E1,1.2E1,1.36E2,1.79E2,6.3E1,1.54E2,7.6E1,4.75E2,7E1,1.28E2,1.94E2,1.13E2],"tree_param":{"num_deleted":"0","num_feature":"25","num_nodes":"115","size_leaf_vector":"1"}},{"base_weights":[-7.3959236E-4,-3.9206773E-2,2.4540047E-1,2.032971E-2,-9.935166E-2,3.908338E-1,1.5305668E-1,-2.2110233E-2,7.658563E-2,-2.334295E-2,-1.5479557E-1,3.759524E-1,1.9962349E0,1.4696996E-1,1.6914856E0,-3.1035623E-2,1.2112021E-1,-4.833993E-3,1.1808023E-1,-1.2460799E-1,7.676167E-2,-1.5566142E-1,8.628662E-1,3.5859978E-1,8.178325E-1,6.11225E-1,3.5416372E0,1.9342327E-1,6.901725E-2,-1.0705558E-1,3.6567745E0,1.4734717E-1,-3.433007E-2,4.2033577E-1,1.5419808E-3,-1.0548864E-2,2.0565116E0,4.175295E-1,8.8210635E-2,-1.4199871E-1,1.6877986E-1,5.746913E-2,1.46619E0,-1.6144842E-1,-7.796923E-2,1.0924494E-1,1.9533864E-1,3.9533755E-1,1.962724E-1,1.0525658E0,4.0745723E-1,1.0178219E0,1.271938E-3,1.3038884E-1,3.8494687E0,1.8022534E-1,6.810753E-1,-2.6478566E-2,2.08418E-1,-7.295375E-3,-2.6382317E-3,2.879838E0,2.4744223E-1,2.3825641E-3,1.7229667E-2,-2.5930668E-3,-2.2024049E-4,-3.3737316E-3,4.2300805E-2,5.974451E-3,-1.7947305E-3,-1.1057708E-3,9.367617E-3,1.7279324E-1,1.9344599E-4,4.1857716E-3,3.1496E-2,1.1686033E-3,7.311193E-3,-9.7409375E-3,-4.6628234E-3,-5.7787535E-4,1.7852744E-2,2.1407602E-3,1.9174013E-2,1.7274351E-1,2.2897428E-2,-8.328514E-3,-5.586703E-3,8.624733E-3,-4.68344E-3,-1.30682485E-2,3.842881E-2,1.8793939E-2,4.365187E-2,3.836042E-2,9.244706E-3,4.320883E-2,8.7636635E-2,8.298263E-3,3.2182876E-2,4.0899697E-3,8.5160874E-2,6.0729845E-3,-5.026161E-3,1.4815691E-1,2.387306E-1,1.07852155E-2,4.813009E-3,7.771541E-2,1.3815059E-2,-8.04066E-5,-8.882666E-3,-4.0439535E-3,1.671624E-2,1.6609903E-1,1.0477513E-1],"categories":[],"categories_nodes":[],"categories_segments":[],"categories_sizes":[],"default_left":[0,0,0,0,0,0,0,0,0,0,0,0,0,0,0,0,0,0,0,0,0,0,0,0,0,0,0,0,0,0,0,0,0,0,0,0,0,0,0,0,0,0,0,0,0,0,0,0,0,0,0,0,0,0,0,0,0,0,0,0,0,0,0,0,0,0,0,0,0,0,0,0,0,0,0,0,0,0,0,0,0,0,0,0,0,0,0,0,0,0,0,0,0,0,0,0,0,0,0,0,0,0,0,0,0,0,0,0,0,0,0,0,0,0,0,0,0],"id":11,"left_children":[1,3,5,7,9,11,13,15,17,19,21,23,25,27,29,31,33,35,37,39,41,43,45,47,49,51,53,55,57,59,61,63,65,67,69,71,73,75,77,79,81,83,85,87,89,-1,91,93,95,97,99,101,103,-1,105,107,109,111,113,-1,-1,115,-1,-1,-1,-1,-1,-1,-1,-1,-1,-1,-1,-1,-1,-1,-1,-1,-1,-1,-1,-1,-1,-1,-1,-1,-1,-1,-1,-1,-1,-1,-1,-1,-1,-1,-1,-1,-1,-1,-1,-1,-1,-1,-1,-1,-1,-1,-1,-1,-1,-1,-1,-1,-1,-1,-1],"loss_changes":[2.0079363E3,6.56745E2,3.8488025E2,2.2005737E2,3.8448907E2,2.651759E2,1.639303E2,6.7166405E1,1.3390306E2,3.9011548E2,4.6619263E1,8.428247E1,2.1615579E2,6.3230255E1,2.4428252E2,2.9068989E1,1.1027229E2,1.576542E2,2.3479016E2,9.763464E1,5.1868445E2,2.3686523E1,3.9285393E1,6.322534E1,3.964386E1,1.3638981E1,3.7600708E0,7.03064E1,8.684091E1,7.034561E-2,1.8875427E1,1.7622755E1,2.5475689E1,1.8279019E2,9.731713E0,3.0551304E1,1.06264404E2,1.6875754E2,8.979849E1,4.648108E1,3.6367805E1,9.117828E1,5.2976135E2,1.2472534E1,1.4392195E1,0E0,8.3166685E0,8.012402E1,1.2597351E1,3.3308014E1,8.620369E0,2.1031685E1,2.9360372E-1,0E0,1.3731567E1,3.172345E1,1.01367584E2,1.4557589E1,9.662472E1,0E0,0E0,1.0148926E0,0E0,0E0,0E0,0E0,0E0,0E0,0E0,0E0,0E0,0E0,0E0,0E0,0E0,0E0,0E0,0E0,0E0,0E0,0E0,0E0,0E0,0E0,0E0,0E0,0E0,0E0,0E0,0E0,0E0,0E0,0E0,0E0,0E0,0E0,0E0,0E0,0E0,0E0,0E0,0E0,0E0,0E0,0E0,0E0,0E0,0E0,0E0,0E0,0E0,0E0,0E0,0E0,0E0,0E0,0E0],"parents":[2147483647,0,0,1,1,2,2,3,3,4,4,5,5,6,6,7,7,8,8,9,9,10,10,11,11,12,12,13,13,14,14,15,15,16,16,17,17,18,18,19,19,20,20,21,21,22,22,23,23,24,24,25,25,26,26,27,27,28,28,29,29,30,30,31,31,32,32,33,33,34,34,35,35,36,36,37,37,38,38,39,39,40,40,41,41,42,42,43,43,44,44,46,46,47,47,48,48,49,49,50,50,51,51,52,52,54,54,55,55,56,56,57,57,58,58,61,61],"right_children":[2,4,6,8,10,12,14,16,18,20,22,24,26,28,30,32,34,36,38,40,42,44,46,48,50,52,54,56,58,60,62,64,66,68,70,72,74,76,78,80,82,84,86,88,90,-1,92,94,96,98,100,102,104,-1,106,108,110,112,114,-1,-1,116,-1,-1,-1,-1,-1,-1,-1,-1,-1,-1,-1,-1,-1,-1,-1,-1,-1,-1,-1,-1,-1,-1,-1,-1,-1,-1,-1,-1,-1,-1,-1,-1,-1,-1,-1,-1,-1,-1,-1,-1,-1,-1,-1,-1,-1,-1,-1,-1,-1,-1,-1,-1,-1,-1,-1],"split_conditions":[8.333333E-1,6.666667E-1,1E0,1.75E-1,2.1568628E-1,9.2105263E-1,1E0,2.125E0,3.4313726E-1,2.0588236E-1,3.375E0,2.125E0,1.4705883E-1,6.666667E-1,1.4705883E-1,-6.863095E-1,2.4509804E-1,3.375E0,3.7254903E-1,1E0,2.2559524E0,1.75E0,5.555556E-1,8.72549E-1,5.4166667E-2,2.904988E0,1.6309524E0,2.375E0,-2.0684524E-1,5.4545456E-1,7.3913044E-1,-6.924107E-1,5E-1,1.3725491E-1,4.4444445E-1,1.625E0,5.882353E-2,3.627451E-1,5.555556E-1,1.3725491E-1,1.3725491E-1,1.5416666E0,6.666667E-1,1E0,3.3333334E-1,1.0924494E-1,3.625E0,8.4313726E-1,-7.125891E-1,3E0,1.25E-1,2.6674585E0,3.043478E-1,1.3038884E-1,6.666667E-1,3E-1,1.9607843E-1,9.130435E-1,1.8627451E-1,-7.295375E-3,-2.6382317E-3,5.555556E-1,2.4744223E-1,2.3825641E-3,1.7229667E-2,-2.5930668E-3,-2.2024049E-4,-3.3737316E-3,4.2300805E-2,5.974451E-3,-1.7947305E-3,-1.1057708E-3,9.367617E-3,1.7279324E-1,1.9344599E-4,4.1857716E-3,3.1496E-2,1.1686033E-3,7.311193E-3,-9.7409375E-3,-4.6628234E-3,-5.7787535E-4,1.7852744E-2,2.1407602E-3,1.9174013E-2,1.7274351E-1,2.2897428E-2,-8.328514E-3,-5.586703E-3,8.624733E-3,-4.68344E-3,-1.30682485E-2,3.842881E-2,1.8793939E-2,4.365187E-2,3.836042E-2,9.244706E-3,4.320883E-2,8.7636635E-2,8.298263E-3,3.2182876E-2,4.0899697E-3,8.5160874E-2,6.0729845E-3,-5.026161E-3,1.4815691E-1,2.387306E-1,1.07852155E-2,4.813009E-3,7.771541E-2,1.3815059E-2,-8.04066E-5,-8.882666E-3,-4.0439535E-3,1.671624E-2,1.6609903E-1,1.0477513E-1],"split_indices":[22,10,22,24,9,14,14,1,9,9,1,1,9,10,9,2,9,1,9,10,2,1,17,9,24,3,2,1,2,18,20,2,22,9,17,1,9,9,17,9,9,2,17,10,9,0,1,9,3,1,2,3,20,0,17,24,9,20,9,0,0,17,0,0,0,0,0,0,0,0,0,0,0,0,0,0,0,0,0,0,0,0,0,0,0,0,0,0,0,0,0,0,0,0,0,0,0,0,0,0,0,0,0,0,0,0,0,0,0,0,0,0,0,0,0,0,0],"split_type":[0,0,0,0,0,0,0,0,0,0,0,0,0,0,0,0,0,0,0,0,0,0,0,0,0,0,0,0,0,0,0,0,0,0,0,0,0,0,0,0,0,0,0,0,0,0,0,0,0,0,0,0,0,0,0,0,0,0,0,0,0,0,0,0,0,0,0,0,0,0,0,0,0,0,0,0,0,0,0,0,0,0,0,0,0,0,0,0,0,0,0,0,0,0,0,0,0,0,0,0,0,0,0,0,0,0,0,0,0,0,0,0,0,0,0,0,0],"sum_hessian":[2.12067E5,1.83405E5,2.8662E4,9.2169E4,9.1236E4,1.113E4,1.7532E4,5.2536E4,3.9633E4,3.8482E4,5.2754E4,1.1029E4,1.01E2,1.7464E4,6.8E1,4.9455E4,3.081E3,1.338E4,2.6253E4,1.913E4,1.9352E4,5.271E4,4.4E1,1.0614E4,4.15E2,5.4E1,4.7E1,1.0942E4,6.522E3,3.6E1,3.2E1,8.96E2,4.8559E4,8.79E2,2.202E3,1.3344E4,3.6E1,2.38E3,2.3873E4,1.806E4,1.07E3,1.9088E4,2.64E2,4.9055E4,3.655E3,1.4E1,3E1,8.654E3,1.96E3,2.63E2,1.52E2,3.2E1,2.2E1,1.4E1,3.3E1,1.0655E4,2.87E2,3.871E3,2.651E3,2E1,1.6E1,2.2E1,1E1,5.96E2,3E2,3.062E4,1.7939E4,4.1E2,4.69E2,5.3E2,1.672E3,1.2608E4,7.36E2,2.1E1,1.5E1,9.26E2,1.454E3,1.1274E4,1.2599E4,8.666E3,9.394E3,5.47E2,5.23E2,1.8268E4,8.2E2,8.8E1,1.76E2,4.4471E4,4.584E3,2.15E2,3.44E3,1.7E1,1.3E1,8.317E3,3.37E2,3.7E1,1.923E3,2.09E2,5.4E1,7.6E1,7.6E1,1.4E1,1.8E1,1E1,1.2E1,1.9E1,1.4E1,7.489E3,3.166E3,9E1,1.97E2,3.325E3,5.46E2,8.04E2,1.847E3,1.2E1,1E1],"tree_param":{"num_deleted":"0","num_feature":"25","num_nodes":"117","size_leaf_vector":"1"}},{"base_weights":[1.8435034E-3,-2.521469E-1,1.7370212E-1,-2.8050947E-1,-2.3088956E-1,1.6298527E-1,8.5264295E-1,-2.8121603E-1,6.869499E-1,-2.5645632E-1,-2.1582395E-1,1.2254019E-1,2.7813113E-1,1.5722624E0,4.722892E-1,-3.10007E-1,-2.7598408E-1,9.341176E-2,-5.8909934E-3,-2.2446184E-1,-3.0573E-1,-2.1306035E-1,-2.5316453E-1,1.918981E-1,-2.7892755E-2,1.442338E-1,5.6787175E-1,1.9229972E0,1.0637814E0,2.7675498E-1,7.7772254E-1,-2.6971188E-1,-3.2554877E-1,-2.76157E-1,9.650207E-3,-2.2103247E-1,-3.1346908E-1,-3.0772865E-1,4.056787E-2,-2.1610019E-1,-2.0982659E-1,-1.3716385E-2,-2.4762617E-1,1.6895086E-1,8.706482E-1,-4.9094524E-2,1.3048543E-1,7.0641077E-1,1.07368104E-1,4.65978E-1,2.5931256E0,2.4124086E0,1.2113359E0,9.541301E-1,1.6170108E-1,6.455071E-1,1.9986051E-1,1.9664238E-1,1.1663907E0,-1.1856368E-2,-1.3671204E-2,-1.6806906E-2,-1.5197304E-2,-7.7937976E-3,-1.3842585E-2,-1.0671548E-2,-1.1652557E-2,-1.3896383E-2,-1.830774E-2,-1.4706234E-2,-1.805359E-2,-8.948606E-3,-1.0817859E-2,-1.1766563E-2,-1.0459272E-2,-1.2195111E-2,-1.317735E-2,1.5353458E-2,4.7234446E-3,3.5676185E-2,6.9372E-2,-1.0875945E-2,-1.9833841E-3,4.432747E-3,5.6355305E-2,2.5122678E-2,1.0246328E-1,9.810013E-3,-6.3219847E-4,8.7833755E-2,2.1996824E-2,2.1173708E-1,1.4911468E-2,5.958105E-2,1.2990318E-1,4.449336E-2,1.06579654E-1,5.9386563E-2,2.1998772E-2,2.5193011E-2,7.418897E-2,7.0604347E-3,3.8241684E-2,3.8862098E-2,-4.863219E-3,7.930388E-2,2.13529E-2],"categories":[],"categories_nodes":[],"categories_segments":[],"categories_sizes":[],"default_left":[0,0,0,0,0,0,0,0,0,0,0,0,0,0,0,0,0,0,0,0,0,0,0,0,0,0,0,0,0,0,0,0,0,0,0,0,0,0,0,0,0,0,0,0,0,0,0,0,0,0,0,0,0,0,0,0,0,0,0,0,0,0,0,0,0,0,0,0,0,0,0,0,0,0,0,0,0,0,0,0,0,0,0,0,0,0,0,0,0,0,0,0,0,0,0,0,0,0,0,0,0,0,0,0,0,0,0],"id":12,"left_children":[1,3,5,7,9,11,13,15,17,19,21,23,25,27,29,31,33,-1,-1,35,37,39,41,43,45,47,49,51,53,55,57,59,61,63,-1,65,67,69,-1,71,73,-1,75,77,79,81,83,85,87,89,91,93,95,97,-1,99,101,103,105,-1,-1,-1,-1,-1,-1,-1,-1,-1,-1,-1,-1,-1,-1,-1,-1,-1,-1,-1,-1,-1,-1,-1,-1,-1,-1,-1,-1,-1,-1,-1,-1,-1,-1,-1,-1,-1,-1,-1,-1,-1,-1,-1,-1,-1,-1,-1,-1],"loss_changes":[9.24154E3,5.1449707E1,9.186526E2,2.5210938E1,1.8758057E1,5.789065E2,5.3627625E2,5.423828E0,2.5888004E1,2.8473755E1,3.1182861E0,9.599175E2,1.2535554E3,1.1887024E2,7.652841E1,3.4292603E0,2.5639648E0,0E0,0E0,3.2824707E0,1.615747E1,2.3620605E-1,1.7973328E-1,9.806223E2,9.749626E1,4.5798907E2,2.1063542E3,1.3639587E2,6.330786E1,2.212965E1,1.12920135E2,1.24946594E-1,8.23822E-1,2.5429688E0,0E0,9.16626E-1,6.5660477E-1,5.055481E0,0E0,1.01745605E-1,1.7822266E-1,0E0,3.5621643E-2,6.265819E2,1.6620215E2,4.0646282E1,1.4281041E2,3.7145392E2,2.2114218E2,3.2610107E2,1.8409656E3,5.0392334E1,4.691577E1,3.1546036E1,0E0,1.5282101E1,2.1463991E1,3.454531E1,9.240918E1,0E0,0E0,0E0,0E0,0E0,0E0,0E0,0E0,0E0,0E0,0E0,0E0,0E0,0E0,0E0,0E0,0E0,0E0,0E0,0E0,0E0,0E0,0E0,0E0,0E0,0E0,0E0,0E0,0E0,0E0,0E0,0E0,0E0,0E0,0E0,0E0,0E0,0E0,0E0,0E0,0E0,0E0,0E0,0E0,0E0,0E0,0E0,0E0],"parents":[2147483647,0,0,1,1,2,2,3,3,4,4,5,5,6,6,7,7,8,8,9,9,10,10,11,11,12,12,13,13,14,14,15,15,16,16,19,19,20,20,21,21,22,22,23,23,24,24,25,25,26,26,27,27,28,28,29,29,30,30,31,31,32,32,33,33,35,35,36,36,37,37,39,39,40,40,42,42,43,43,44,44,45,45,46,46,47,47,48,48,49,49,50,50,51,51,52,52,53,53,55,55,56,56,57,57,58,58],"right_children":[2,4,6,8,10,12,14,16,18,20,22,24,26,28,30,32,34,-1,-1,36,38,40,42,44,46,48,50,52,54,56,58,60,62,64,-1,66,68,70,-1,72,74,-1,76,78,80,82,84,86,88,90,92,94,96,98,-1,100,102,104,106,-1,-1,-1,-1,-1,-1,-1,-1,-1,-1,-1,-1,-1,-1,-1,-1,-1,-1,-1,-1,-1,-1,-1,-1,-1,-1,-1,-1,-1,-1,-1,-1,-1,-1,-1,-1,-1,-1,-1,-1,-1,-1,-1,-1,-1,-1,-1,-1],"split_conditions":[-2.601469E-1,6.666667E-1,5.0962424E0,1E0,3.137255E-1,6.666667E-1,6.666667E-1,1.6666667E-1,4.347826E-1,1.9607843E-1,1E0,6.666667E-1,4.1599584E-1,4.6078432E-1,6.666667E-1,9.803922E-3,8.333333E-1,9.341176E-2,-5.8909934E-3,1E0,8.333333E-1,3.3333334E-1,2.9166666E-1,2.768538E0,1E0,-2.1205042E-1,1E0,3.75E-1,1.3323263E0,1.7391305E-1,5.522568E0,6.666667E-1,8.3333336E-2,-2.2475247E0,9.650207E-3,1.3725491E-1,1.3725491E-1,1E0,4.056787E-2,-1.779703E0,5E-1,-1.3716385E-2,4.5833334E-1,1.6666667E-1,4.509804E-1,-1.8829265E-1,4.0454965E0,8.333333E-1,7.5E-1,5.882353E-2,8.604062E-1,1.3725491E-1,7.3333335E-1,8.333333E-1,1.6170108E-1,4.7029704E-1,1E0,1.4705883E-1,2.3267327E-1,-1.1856368E-2,-1.3671204E-2,-1.6806906E-2,-1.5197304E-2,-7.7937976E-3,-1.3842585E-2,-1.0671548E-2,-1.1652557E-2,-1.3896383E-2,-1.830774E-2,-1.4706234E-2,-1.805359E-2,-8.948606E-3,-1.0817859E-2,-1.1766563E-2,-1.0459272E-2,-1.2195111E-2,-1.317735E-2,1.5353458E-2,4.7234446E-3,3.5676185E-2,6.9372E-2,-1.0875945E-2,-1.9833841E-3,4.432747E-3,5.6355305E-2,2.5122678E-2,1.0246328E-1,9.810013E-3,-6.3219847E-4,8.7833755E-2,2.1996824E-2,2.1173708E-1,1.4911468E-2,5.958105E-2,1.2990318E-1,4.449336E-2,1.06579654E-1,5.9386563E-2,2.1998772E-2,2.5193011E-2,7.418897E-2,7.0604347E-3,3.8241684E-2,3.8862098E-2,-4.863219E-3,7.930388E-2,2.13529E-2],"split_indices":[0,10,0,22,9,8,10,8,20,9,10,10,0,9,12,9,22,0,0,10,22,8,8,0,10,0,12,8,5,20,0,12,8,6,0,9,9,12,0,6,13,0,8,8,9,0,0,22,8,9,0,9,19,22,0,6,10,9,6,0,0,0,0,0,0,0,0,0,0,0,0,0,0,0,0,0,0,0,0,0,0,0,0,0,0,0,0,0,0,0,0,0,0,0,0,0,0,0,0,0,0,0,0,0,0,0,0],"split_type":[0,0,0,0,0,0,0,0,0,0,0,0,0,0,0,0,0,0,0,0,0,0,0,0,0,0,0,0,0,0,0,0,0,0,0,0,0,0,0,0,0,0,0,0,0,0,0,0,0,0,0,0,0,0,0,0,0,0,0,0,0,0,0,0,0,0,0,0,0,0,0,0,0,0,0,0,0,0,0,0,0,0,0,0,0,0,0,0,0,0,0,0,0,0,0,0,0,0,0,0,0,0,0,0,0,0,0],"sum_hessian":[2.11715E5,8.5441E4,1.26274E5,3.6598E4,4.8843E4,1.24313E5,1.961E3,3.6572E4,2.6E1,1.8104E4,3.0739E4,9.2E4,3.2313E4,6.77E2,1.284E3,5.615E3,3.0957E4,1E1,1.6E1,1.098E4,7.124E3,2.8627E4,2.112E3,6.2968E4,2.9032E4,2.2101E4,1.0212E4,3.99E2,2.78E2,7.84E2,5E2,1.568E3,4.047E3,3.0946E4,1.1E1,1.0576E4,4.04E2,7.112E3,1.2E1,1.4722E4,1.3905E4,4.28E2,1.684E3,6.091E4,2.058E3,2.5605E4,3.427E3,1.359E3,2.0742E4,9.724E3,4.88E2,2.35E2,1.64E2,2.66E2,1.2E1,1.34E2,6.5E2,2.01E2,2.99E2,1.67E2,1.401E3,2.706E3,1.341E3,1.79E2,3.0767E4,6.49E3,4.086E3,2.45E2,1.59E2,5.672E3,1.44E3,1.06E2,1.4616E4,3.32E2,1.3573E4,1.378E3,3.06E2,2.1338E4,3.9572E4,1.58E3,4.78E2,1.356E3,2.4249E4,3.29E3,1.37E2,1.181E3,1.78E2,1.1919E4,8.823E3,1.91E2,9.533E3,2.84E2,2.04E2,3.2E1,2.03E2,1.23E2,4.1E1,1.82E2,8.4E1,1.16E2,1.8E1,5.9E2,6E1,6.7E1,1.34E2,1.9E2,1.09E2],"tree_param":{"num_deleted":"0","num_feature":"25","num_nodes":"107","size_leaf_vector":"1"}},{"base_weights":[-6.945447E-4,5.72125E-2,-6.423088E-2,1.6770199E-1,2.1772968E-2,-1.20356955E-1,1.3565816E-1,2.6933306E-1,5.783075E-2,1.2273063E-2,2.8529817E-1,-1.3078585E-1,-1.2214322E-2,1.07598335E-1,1.992226E0,7.252182E-2,5.0041705E-1,-1.0646915E-1,1.0361939E-1,3.988226E-3,2.765601E-1,9.099857E-2,7.730444E-1,-1.553358E-1,-9.4228335E-2,-1.3395484E-1,5.0887365E-2,8.979775E-2,5.367209E-1,4.1297585E-1,2.6316097E0,-1.2387861E-2,1.9573463E-1,2.2836363E-1,5.8854735E-1,1.9700028E-2,-1.1001223E-1,1.8153203E-1,4.110948E-2,2.382611E-1,-3.4658513E-3,4.9173495E-1,2.121912E-1,2.9574614E-2,5.4378897E-1,1.1844083E0,2.92178E-1,3.6589105E-2,-1.6274947E-1,-1.8286979E-1,-7.75622E-2,-1.4211853E-1,4.6541512E-1,4.8512462E-1,1.954501E-2,2.7063368E-3,1.3507167E-1,4.8306602E-1,2.25367E0,9.383056E-2,7.426176E-2,9.14605E-1,3.046863E0,-3.2626763E-3,2.6910251E-3,4.321548E-2,8.44989E-3,1.8459009E-2,4.938717E-3,2.7027622E-2,4.394385E-2,-7.2081904E-3,-3.4055728E-3,6.709686E-3,2.4515731E-2,2.8013098E-3,-1.4128724E-2,3.228334E-3,2.907531E-2,-9.5470453E-4,3.9021221E-3,2.208439E-2,6.697946E-2,6.756283E-3,1.8287133E-2,8.673388E-4,9.4388984E-2,9.0973405E-3,4.996859E-2,6.533259E-2,-1.23751E-2,5.3727734E-3,3.2405596E-2,1.821171E-2,-3.9703855E-3,-5.9882337E-3,-8.948385E-3,-9.218821E-3,7.15116E-5,-4.90817E-3,-1.9156147E-3,1.1827277E-2,-7.441363E-3,9.1275595E-2,-1.1789424E-2,1.1324219E-1,1.8974384E-2,-6.4272527E-4,1.2927431E-2,-4.4956105E-3,1.8018967E-3,5.8469004E-3,2.7303848E-2,-2.4484864E-2,2.6482573E-2,4.296462E-2,1.6937363E-1,-1.1304464E-2,8.082562E-2,1.31990835E-2,1.395129E-1,1.6055645E-1,1.8501814E-2],"categories":[],"categories_nodes":[],"categories_segments":[],"categories_sizes":[],"default_left":[0,0,0,0,0,0,0,0,0,0,0,0,0,0,0,0,0,0,0,0,0,0,0,0,0,0,0,0,0,0,0,0,0,0,0,0,0,0,0,0,0,0,0,0,0,0,0,0,0,0,0,0,0,0,0,0,0,0,0,0,0,0,0,0,0,0,0,0,0,0,0,0,0,0,0,0,0,0,0,0,0,0,0,0,0,0,0,0,0,0,0,0,0,0,0,0,0,0,0,0,0,0,0,0,0,0,0,0,0,0,0,0,0,0,0,0,0,0,0,0,0,0,0],"id":13,"left_children":[1,3,5,7,9,11,13,15,17,19,21,23,25,27,29,31,33,35,37,39,41,43,45,47,49,51,53,55,57,59,61,63,65,67,69,-1,71,73,75,77,79,81,83,85,87,89,91,93,95,97,99,101,103,105,107,109,111,113,115,-1,117,119,121,-1,-1,-1,-1,-1,-1,-1,-1,-1,-1,-1,-1,-1,-1,-1,-1,-1,-1,-1,-1,-1,-1,-1,-1,-1,-1,-1,-1,-1,-1,-1,-1,-1,-1,-1,-1,-1,-1,-1,-1,-1,-1,-1,-1,-1,-1,-1,-1,-1,-1,-1,-1,-1,-1,-1,-1,-1,-1,-1,-1],"loss_changes":[7.7785675E2,4.3311145E2,1.1310023E3,2.9993445E2,2.0965912E2,8.876819E1,1.1511364E3,6.345906E2,9.712633E1,1.7699538E2,2.7608624E2,6.441321E1,5.3197205E1,1.6626776E2,3.3111987E2,7.885422E1,1.537445E2,5.0331497E0,4.9163208E1,1.3687491E2,3.392653E1,5.7972298E1,1.6383713E2,6.1110962E1,4.2595886E1,1.1633362E1,6.2065815E1,8.24353E1,7.878169E1,4.745301E1,1.6405334E2,1.5624679E1,5.482135E1,2.864988E1,6.70647E1,0E0,3.9897575E0,6.5624115E1,2.7068802E1,1.440634E2,9.67668E1,2.3382782E1,2.235144E1,4.1707256E1,4.0865585E1,7.856708E1,2.5177982E1,6.076217E1,2.880371E1,1.2675476E0,1.9628937E1,5.9618454E0,3.0948984E1,5.6857758E1,3.2952347E1,2.2082348E1,1.0246004E2,3.841594E1,3.8193848E1,0E0,3.695959E1,5.661957E1,8.1477295E1,0E0,0E0,0E0,0E0,0E0,0E0,0E0,0E0,0E0,0E0,0E0,0E0,0E0,0E0,0E0,0E0,0E0,0E0,0E0,0E0,0E0,0E0,0E0,0E0,0E0,0E0,0E0,0E0,0E0,0E0,0E0,0E0,0E0,0E0,0E0,0E0,0E0,0E0,0E0,0E0,0E0,0E0,0E0,0E0,0E0,0E0,0E0,0E0,0E0,0E0,0E0,0E0,0E0,0E0,0E0,0E0,0E0,0E0,0E0,0E0],"parents":[2147483647,0,0,1,1,2,2,3,3,4,4,5,5,6,6,7,7,8,8,9,9,10,10,11,11,12,12,13,13,14,14,15,15,16,16,17,17,18,18,19,19,20,20,21,21,22,22,23,23,24,24,25,25,26,26,27,27,28,28,29,29,30,30,31,31,32,32,33,33,34,34,36,36,37,37,38,38,39,39,40,40,41,41,42,42,43,43,44,44,45,45,46,46,47,47,48,48,49,49,50,50,51,51,52,52,53,53,54,54,55,55,56,56,57,57,58,58,60,60,61,61,62,62],"right_children":[2,4,6,8,10,12,14,16,18,20,22,24,26,28,30,32,34,36,38,40,42,44,46,48,50,52,54,56,58,60,62,64,66,68,70,-1,72,74,76,78,80,82,84,86,88,90,92,94,96,98,100,102,104,106,108,110,112,114,116,-1,118,120,122,-1,-1,-1,-1,-1,-1,-1,-1,-1,-1,-1,-1,-1,-1,-1,-1,-1,-1,-1,-1,-1,-1,-1,-1,-1,-1,-1,-1,-1,-1,-1,-1,-1,-1,-1,-1,-1,-1,-1,-1,-1,-1,-1,-1,-1,-1,-1,-1,-1,-1,-1,-1,-1,-1,-1,-1,-1,-1,-1,-1],"split_conditions":[6.666667E-1,1.6666667E-1,1E0,3.0066077E-2,2.375E0,1E0,2.2559524E0,2.029939E-2,9.803922E-3,6.6580385E-1,6.666667E-1,6.165147E-1,-6.706845E-1,1.5416666E0,-8.75E-1,4.1666668E-2,2.767857E-1,-2.876133E0,4.7058824E-1,8.119755E-3,-2.6980197E-1,3.9194176E-1,1.8627451E-1,-6.041667E-1,1.3725491E-1,2.3479576E-1,2.3554951E-2,7.2222225E-2,3.75E-1,-1.25E0,-6.958711E-1,3.2920793E-1,1.4515978E-3,2.2214426E-2,4.4059405E-1,1.9700028E-2,6.3244045E-1,7.470238E-1,4.1666668E-2,3.8235295E-1,1.125E0,2.0833333E-1,7.565012E-2,1.5961367E0,-5.952381E-2,1.6186465E-1,2.600473E-1,3.9215687E-1,1.6186465E-1,2.125E0,6.994048E-2,1.1764706E-1,3.3333334E-1,1.3888889E-2,9.746634E-1,-3.75E-1,1E0,-1.125E0,1.7648809E0,9.383056E-2,3.0297618E0,2.3154762E0,2.702381E0,-3.2626763E-3,2.6910251E-3,4.321548E-2,8.44989E-3,1.8459009E-2,4.938717E-3,2.7027622E-2,4.394385E-2,-7.2081904E-3,-3.4055728E-3,6.709686E-3,2.4515731E-2,2.8013098E-3,-1.4128724E-2,3.228334E-3,2.907531E-2,-9.5470453E-4,3.9021221E-3,2.208439E-2,6.697946E-2,6.756283E-3,1.8287133E-2,8.673388E-4,9.4388984E-2,9.0973405E-3,4.996859E-2,6.533259E-2,-1.23751E-2,5.3727734E-3,3.2405596E-2,1.821171E-2,-3.9703855E-3,-5.9882337E-3,-8.948385E-3,-9.218821E-3,7.15116E-5,-4.90817E-3,-1.9156147E-3,1.1827277E-2,-7.441363E-3,9.1275595E-2,-1.1789424E-2,1.1324219E-1,1.8974384E-2,-6.4272527E-4,1.2927431E-2,-4.4956105E-3,1.8018967E-3,5.8469004E-3,2.7303848E-2,-2.4484864E-2,2.6482573E-2,4.296462E-2,1.6937363E-1,-1.1304464E-2,8.082562E-2,1.31990835E-2,1.395129E-1,1.6055645E-1,1.8501814E-2],"split_indices":[10,8,16,16,1,10,2,16,9,16,8,16,2,2,1,8,2,5,9,16,6,16,9,2,9,16,16,24,1,1,5,6,16,16,6,0,2,2,8,9,1,8,4,7,2,16,4,9,16,1,2,9,19,24,7,1,10,1,2,0,2,2,2,0,0,0,0,0,0,0,0,0,0,0,0,0,0,0,0,0,0,0,0,0,0,0,0,0,0,0,0,0,0,0,0,0,0,0,0,0,0,0,0,0,0,0,0,0,0,0,0,0,0,0,0,0,0,0,0,0,0,0,0],"split_type":[0,0,0,0,0,0,0,0,0,0,0,0,0,0,0,0,0,0,0,0,0,0,0,0,0,0,0,0,0,0,0,0,0,0,0,0,0,0,0,0,0,0,0,0,0,0,0,0,0,0,0,0,0,0,0,0,0,0,0,0,0,0,0,0,0,0,0,0,0,0,0,0,0,0,0,0,0,0,0,0,0,0,0,0,0,0,0,0,0,0,0,0,0,0,0,0,0,0,0,0,0,0,0,0,0,0,0,0,0,0,0,0,0,0,0,0,0,0,0,0,0,0,0],"sum_hessian":[2.11418E5,1.10609E5,1.00809E5,2.6861E4,8.3748E4,7.8709E4,2.21E4,1.3953E4,1.2908E4,8.0835E4,2.913E3,7.1786E4,6.923E3,2.1772E4,3.28E2,7.536E3,6.417E3,2.813E3,1.0095E4,7.8379E4,2.456E3,2.084E3,8.29E2,4.2944E4,2.8842E4,2.363E3,4.56E3,2.0906E4,8.66E2,9.5E1,2.33E2,4.462E3,3.074E3,1.571E3,4.846E3,1.9E1,2.794E3,4.493E3,5.602E3,2.416E3,7.5963E4,5.64E2,1.892E3,1.836E3,2.48E2,4.46E2,3.83E2,1.597E3,4.1347E4,4.563E3,2.4279E4,2.332E3,3.1E1,3.06E2,4.254E3,7.151E3,1.3755E4,8.41E2,2.5E1,1.7E1,7.8E1,4.6E1,1.87E2,2.481E3,1.981E3,1.17E2,2.957E3,7.52E2,8.19E2,4.161E3,6.85E2,1.538E3,1.256E3,3.897E3,5.96E2,5.356E3,2.46E2,1.605E3,8.11E2,6.3742E4,1.2221E4,5.34E2,3E1,1.261E3,6.31E2,1.825E3,1.1E1,1.39E2,1.09E2,4.11E2,3.5E1,2.53E2,1.3E2,4.17E2,1.18E3,1.1329E4,3.0018E4,4.526E3,3.7E1,1.5921E4,8.358E3,4E1,2.292E3,1E1,2.1E1,1.6E1,2.9E2,3.747E3,5.07E2,1.892E3,5.259E3,1.3175E4,5.8E2,3.8E1,8.03E2,1.2E1,1.3E1,6.6E1,1.2E1,3.5E1,1.1E1,1.76E2,1.1E1],"tree_param":{"num_deleted":"0","num_feature":"25","num_nodes":"123","size_leaf_vector":"1"}},{"base_weights":[1.948259E-3,-2.3725805E-1,1.6444586E-1,-2.380104E-1,7.723508E-1,1.5867066E-1,1.2923589E0,-2.3169596E-1,-3.0652037E-1,1.1060715E-1,4.317875E-1,1.488169E-1,7.6602054E-1,-3.243092E-2,2.609021E0,-2.5395104E-1,-2.158583E-1,-2.9753464E-1,-6.0206956E-1,5.2438904E-2,1.6063917E-1,3.1162423E-1,1.24546684E-1,1.2170964E0,3.7513083E-1,-7.893668E-2,6.4268105E-2,5.943618E-1,4.097745E0,-2.959568E-1,-2.4716471E-1,-2.456301E-1,-2.1298502E-1,-2.9318944E-1,-3.3312806E-1,5.9199193E-3,-6.383224E-1,3.451621E-2,-5.318852E-2,1.9198757E-1,6.191042E-1,9.397536E-2,2.9926226E-1,9.484772E-1,1.7253484E0,1.1134296E-1,6.328841E-1,-1.7523335E-1,-4.6500456E-2,2.0100997E-1,1.121192E-1,4.606662E0,-9.602009E-2,-1.6615434E-2,-1.320574E-2,-1.408459E-2,-1.2231749E-2,-1.2236435E-2,-1.827507E-2,-1.1036953E-2,-9.975051E-3,-1.47631755E-2,-1.3888213E-2,-1.6326861E-2,-2.1733308E-2,-2.6306188E-2,-3.980497E-2,-1.2886462E-2,7.063103E-3,9.145121E-3,1.3359956E-1,3.606967E-2,1.609637E-2,8.9384075E-3,1.5191109E-3,1.7999484E-3,2.0468907E-2,7.300989E-2,3.9360773E-2,7.9745695E-2,1.6701557E-1,5.4347493E-2,2.3365112E-3,2.1954652E-2,8.359551E-2,-3.9478145E-3,-9.663703E-3,-3.276261E-3,9.271849E-3,-1.7762234E-2,4.8951298E-2,2.460054E-1,1.7520703E-1,-3.3368703E-2,2.420315E-2],"categories":[],"categories_nodes":[],"categories_segments":[],"categories_sizes":[],"default_left":[0,0,0,0,0,0,0,0,0,0,0,0,0,0,0,0,0,0,0,0,0,0,0,0,0,0,0,0,0,0,0,0,0,0,0,0,0,0,0,0,0,0,0,0,0,0,0,0,0,0,0,0,0,0,0,0,0,0,0,0,0,0,0,0,0,0,0,0,0,0,0,0,0,0,0,0,0,0,0,0,0,0,0,0,0,0,0,0,0,0,0,0,0,0,0],"id":14,"left_children":[1,3,5,7,9,11,13,15,17,-1,19,21,23,25,27,29,31,33,35,-1,37,39,41,43,45,47,-1,49,51,53,55,57,59,61,63,-1,65,-1,67,69,71,73,75,77,79,81,83,85,87,-1,89,91,93,-1,-1,-1,-1,-1,-1,-1,-1,-1,-1,-1,-1,-1,-1,-1,-1,-1,-1,-1,-1,-1,-1,-1,-1,-1,-1,-1,-1,-1,-1,-1,-1,-1,-1,-1,-1,-1,-1,-1,-1,-1,-1],"loss_changes":[8.228292E3,6.5228516E1,8.208999E2,3.6945312E1,3.0426609E1,7.5044336E2,1.1199255E3,2.7561523E1,1.8989807E1,0E0,8.698211E0,4.8760767E2,3.5253784E2,1.9773933E1,9.633296E2,9.211182E0,3.8640137E0,9.86084E-1,5.612816E0,0E0,4.340648E0,5.888231E2,5.736422E2,1.2519641E2,7.2953125E1,9.632604E-1,0E0,2.2753696E2,3.9528394E2,5.1500244E0,2.3807373E0,3.4524536E-1,4.3220215E0,1.1804199E-1,3.6332703E-1,0E0,3.1570206E0,0E0,1.150053E0,2.592287E2,1.3607227E2,4.9289923E2,4.636427E2,4.9188232E1,6.207953E1,3.348469E1,1.08601074E2,1.2021828E-1,1.0446885E0,0E0,4.9777424E1,3.9780273E1,7.283139E0,0E0,0E0,0E0,0E0,0E0,0E0,0E0,0E0,0E0,0E0,0E0,0E0,0E0,0E0,0E0,0E0,0E0,0E0,0E0,0E0,0E0,0E0,0E0,0E0,0E0,0E0,0E0,0E0,0E0,0E0,0E0,0E0,0E0,0E0,0E0,0E0,0E0,0E0,0E0,0E0,0E0,0E0],"parents":[2147483647,0,0,1,1,2,2,3,3,4,4,5,5,6,6,7,7,8,8,10,10,11,11,12,12,13,13,14,14,15,15,16,16,17,17,18,18,20,20,21,21,22,22,23,23,24,24,25,25,27,27,28,28,29,29,30,30,31,31,32,32,33,33,34,34,36,36,38,38,39,39,40,40,41,41,42,42,43,43,44,44,45,45,46,46,47,47,48,48,50,50,51,51,52,52],"right_children":[2,4,6,8,10,12,14,16,18,-1,20,22,24,26,28,30,32,34,36,-1,38,40,42,44,46,48,-1,50,52,54,56,58,60,62,64,-1,66,-1,68,70,72,74,76,78,80,82,84,86,88,-1,90,92,94,-1,-1,-1,-1,-1,-1,-1,-1,-1,-1,-1,-1,-1,-1,-1,-1,-1,-1,-1,-1,-1,-1,-1,-1,-1,-1,-1,-1,-1,-1,-1,-1,-1,-1,-1,-1,-1,-1,-1,-1,-1,-1],"split_conditions":[-2.601469E-1,1E0,1E0,1E0,2.173913E-1,5.0962424E0,1E0,1.6186465E-1,1E0,1.1060715E-1,2.3333333E-1,2.2214426E-2,6.3416135E-1,4.207425E0,4.1599584E-1,8.3333336E-2,2.8947368E-1,9.2105263E-1,-8.936616E-1,5.2438904E-2,2.6086956E-1,2.029939E-2,1E0,3.911003E-1,6.311732E0,1.5968388E0,6.4268105E-2,-2.4312998E-1,8.896337E-1,3.0066077E-2,1.3366956E-2,2.875E0,2.0833333E-1,9.130435E-1,1E0,5.9199193E-3,-7.5E-1,3.451621E-2,9.108645E-2,3.0470226E0,8.3333336E-2,1.6186465E-1,3.4210527E-1,9.6343584E-2,8E-1,3.1578946E-1,5.7894737E-1,1.6666667E-1,1.2863835E0,2.0100997E-1,6.779661E-1,1E0,-5.8249165E-3,-1.6615434E-2,-1.320574E-2,-1.408459E-2,-1.2231749E-2,-1.2236435E-2,-1.827507E-2,-1.1036953E-2,-9.975051E-3,-1.47631755E-2,-1.3888213E-2,-1.6326861E-2,-2.1733308E-2,-2.6306188E-2,-3.980497E-2,-1.2886462E-2,7.063103E-3,9.145121E-3,1.3359956E-1,3.606967E-2,1.609637E-2,8.9384075E-3,1.5191109E-3,1.7999484E-3,2.0468907E-2,7.300989E-2,3.9360773E-2,7.9745695E-2,1.6701557E-1,5.4347493E-2,2.3365112E-3,2.1954652E-2,8.359551E-2,-3.9478145E-3,-9.663703E-3,-3.276261E-3,9.271849E-3,-1.7762234E-2,4.8951298E-2,2.460054E-1,1.7520703E-1,-3.3368703E-2,2.420315E-2],"split_indices":[0,23,14,16,20,0,16,16,11,0,19,16,16,0,0,8,14,14,7,0,15,16,16,16,0,0,0,0,0,16,16,1,8,15,14,0,1,0,7,0,8,16,14,16,11,14,14,19,7,0,21,23,7,0,0,0,0,0,0,0,0,0,0,0,0,0,0,0,0,0,0,0,0,0,0,0,0,0,0,0,0,0,0,0,0,0,0,0,0,0,0,0,0,0,0],"split_type":[0,0,0,0,0,0,0,0,0,0,0,0,0,0,0,0,0,0,0,0,0,0,0,0,0,0,0,0,0,0,0,0,0,0,0,0,0,0,0,0,0,0,0,0,0,0,0,0,0,0,0,0,0,0,0,0,0,0,0,0,0,0,0,0,0,0,0,0,0,0,0,0,0,0,0,0,0,0,0,0,0,0,0,0,0,0,0,0,0,0,0,0,0,0,0],"sum_hessian":[2.11683E5,8.563E4,1.26053E5,8.5567E4,6.3E1,1.25412E5,6.41E2,7.835E4,7.217E3,1.1E1,5.2E1,1.23411E5,2.001E3,3.2E2,3.21E2,3.2569E4,4.5781E4,7.006E3,2.11E2,1.5E1,3.7E1,1.6009E4,1.07402E5,9.28E2,1.073E3,3.1E2,1E1,1.37E2,1.84E2,4.524E3,2.8045E4,4.022E3,4.1759E4,6.252E3,7.54E2,1E1,2.01E2,1E1,2.7E1,1.1526E4,4.483E3,9.1409E4,1.5993E4,6.09E2,3.19E2,5.31E2,5.42E2,7.7E1,2.33E2,1.6E1,1.21E2,1.64E2,2E1,2.108E3,2.416E3,1.907E3,2.6138E4,3.995E3,2.7E1,2.6503E4,1.5256E4,5.495E3,7.57E2,7.12E2,4.2E1,1.2E2,8.1E1,1.3E1,1.4E1,1.1485E4,4.1E1,3.334E3,1.149E3,3.9174E4,5.2235E4,4.717E3,1.1276E4,1.44E2,4.65E2,2.97E2,2.2E1,3.2E1,4.99E2,4.58E2,8.4E1,1.3E1,6.4E1,2.16E2,1.7E1,7.9E1,4.2E1,1.25E2,3.9E1,1E1,1E1],"tree_param":{"num_deleted":"0","num_feature":"25","num_nodes":"95","size_leaf_vector":"1"}},{"base_weights":[2.3702888E-3,-2.2505996E-1,1.5702306E-1,-2.8193834E-1,-2.2188906E-1,1.517905E-1,1.3508712E0,-2.675752E-1,-3.4228295E-1,-2.0748957E-1,-2.3090665E-1,1.4184994E-1,7.603771E-1,-3.2271754E-2,2.6001189E0,-2.3746786E-1,-2.794126E-1,-3.285637E-1,-3.761041E-1,-2.3066345E-1,-1.9181898E-1,-2.2177117E-1,-2.4996454E-1,6.3924976E-2,1.8408811E-1,5.9982157E-1,1.3311355E0,-7.2985426E-2,4.11006E-2,5.328477E-1,3.9437537E0,-2.3140386E-1,-1.3175773E-2,-1.3465439E-2,-2.8668457E-1,-3.4207267E-1,-2.8240138E-1,-1.727487E-2,-4.009031E-1,-1.9740759E-1,-2.3270153E-1,6.7348816E-3,-1.9219232E-1,-2.3601258E-1,-2.071238E-1,-2.4589616E-1,-5.3846556E-1,3.0518302E-3,1.4570677E-1,1.5020517E-1,3.4704962E-1,9.054715E-1,4.749543E-1,1.964714E0,9.317234E-1,-9.250636E-2,1.320418E-2,1.1843392E0,-2.7923504E-1,4.404643E0,3.5415417E-1,-7.795126E-3,-1.1614895E-2,-1.5475255E-2,-1.4103894E-2,-1.7336441E-2,-1.05670495E-2,-1.0159793E-2,-1.8959804E-2,-1.598958E-2,-2.0736035E-2,-1.110436E-2,-4.451602E-3,-1.1939426E-2,