tree
version=v4
num_class=1
num_tree_per_iteration=1
label_index=0
max_feature_idx=24
objective=regression
feature_names=Column_0 Column_1 Column_2 Column_3 Column_4 Column_5 Column_6 Column_7 Column_8 Column_9 Column_10 Column_11 Column_12 Column_13 Column_14 Column_15 Column_16 Column_17 Column_18 Column_19 Column_20 Column_21 Column_22 Column_23 Column_24
feature_infos=[-0.26971253759149577:7.5138080368411648] [-1.625:7.25] [-0.70386904761904767:5.3065476190476186] [-0.72565320665083133:4.9002375296912115] [-8.9704491725768296:6.3628841607565008] [-6.1812688821752264:8.9697885196374632] [-3.5767326732673266:1.9257425742574255] [-1.3615242708816866:4.8505280725781272] [0:1] [0:1] [0:1] [0:1] [0:1] [0:1] [0:1] [0:1] [0:1.0000000000000002] [0:1] [0:1] [0:1] [0:1] [0:1] [0:1] [0:1] [0:1]
tree_sizes=8634 8504 8648 8729 8523 8439 8491 8469 8667 8500 8566 8527 8665 8584 8553 8491 8591 8559 8531 8562 8629 8583 8614 8596 8629 8547 8546 8490 8535 8504 8610 8539 8521 8565 8560 8469 8535 8526 8606 8563 8547 8555 8534 8558 8609 8538 8547 8533 8609 8472 8551 8570 8597 8602 8516 8553 8519 8595 8521 8525 8548 8699 8564 8638 8566 8638 8571 8600 8539 8562 8493 8531 8413 8521 8548 8598 8498 8629 8593 8443 8436 8617 8520 8449 8568 8499 8504 8486 8624 8541 8450

Tree=0
num_leaves=95
num_cat=0
split_feature=23 16 16 2 16 2 11 2 16 1 2 1 2 9 16 16 1 9 9 9 16 9 9 6 9 20 6 1 9 16 16 2 19 6 2 16 16 16 16 5 11 6 16 2 2 19 11 9 9 9 20 1 2 9 9 9 16 2 9 16 2 16 2 20 19 2 9 16 2 2 6 9 4 16 6 16 16 9 5 16 16 21 7 7 2 2 2 1 11 16 16 16 16 16
split_gain=8471.63 2331.54 3096.74 2999.62 1672.54 2935.52 1455.61 1354.59 1146 1139.62 951.805 716.886 400.972 348.7 335.697 303.092 302.569 291.39 844.959 276.71 243.579 223.371 347.598 224.024 235.243 207.125 204.688 192.327 190.279 186.301 203.892 173.813 168.71 149.616 145.049 139.791 165.956 135.383 130.28 126.179 150.723 123.677 119.028 112.225 112.214 110.694 105.236 104.784 105.562 103.131 98.4657 98.2942 96.6937 90.7475 88.4273 248.017 109.804 86.5579 104.205 83.421 83.0668 82.9816 87.817 82.2355 79.424 76.7425 75.2235 72.7309 66.6047 70.131 66.3952 64.9528 62.6062 69.882 62.0855 61.604 65.5442 61.3823 61.2143 59.9772 59.9174 59.5644 80.7586 59.4559 75.5966 56.6174 55.1476 54.7184 54.1111 53.7969 55.9428 53.2066 135.01 87.479
threshold=1.0000000180025095e-35 0.83290193939598234 0.041089985277197746 2.0401785714285716 0.83290193939598234 1.8467261904761907 0.50000000000000011 0.38467261904761912 0.15641081520814923 -0.81249999999999989 2.4270833333333335 2.0625000000000004 -0.42782738095238088 0.88725490196078438 0.15641081520814923 0.13549765676107547 2.9375000000000004 0.35784313725490197 0.36764705882352949 0.33823529411764713 0.02949156541229209 0.88725490196078438 0.83823529411764719 0.38118811881188103 0.74019607843137269 0.93478260869565222 -1.5334158415841579 1.5625000000000002 0.13235294117647062 0.18953980135707169 0.39152102174102893 1.5342261904761907 0.083333333333333384 -2.0012376237623757 -0.066220238095238082 0.020146186242682652 0.022003771856314035 0.14364000986626921 0.002470397362458234 -0.50100704934541784 0.90000000000000013 0.43193069306930693 0.024952928397543244 0.93898809523809534 0.96875000000000011 0.4833333333333335 0.70000000000000018 0.83823529411764719 0.88725490196078438 0.05392156862745099 0.41304347826086957 0.18750000000000003 0.061755952380952391 0.75980392156862753 0.18137254901960786 0.13235294117647062 0.044381358879412448 -0.60066964285714275 0.2990196078431373 0.17164320874359809 -0.62090773809523803 0.039988264655009979 0.78050595238095244 0.32608695652173919 0.18333333333333343 0.83482142857142871 0.12254901960784315 0.015933105469498065 1.8913690476190477 -0.61197916666666663 -0.62747524752475237 0.55392156862745112 -1.560283687943262 0.018556705769163011 0.39480198019801976 0.14364000986626921 0.044381358879412448 0.96568627450980404 -0.075528700906344379 0.039326236462605475 0.022003771856314035 0.94067796610169496 -0.41214389454345074 0.0072379775048922431 0.50074404761904778 -0.67775297619047603 2.285714285714286 2.5625000000000004 0.70000000000000018 0.011451919556201734 0.0010647604135866494 0.056466389573620913 0.075440764850343719 0.054553650902595119
decision_type=2 2 2 2 2 2 2 2 2 2 2 2 2 2 2 2 2 2 2 2 2 2 2 2 2 2 2 2 2 2 2 2 2 2 2 2 2 2 2 2 2 2 2 2 2 2 2 2 2 2 2 2 2 2 2 2 2 2 2 2 2 2 2 2 2 2 2 2 2 2 2 2 2 2 2 2 2 2 2 2 2 2 2 2 2 2 2 2 2 2 2 2 2 2
left_child=1 2 7 31 8 6 12 47 13 45 39 14 -6 20 15 88 17 67 65 28 35 22 23 61 -25 32 37 70 34 -21 68 46 -8 -29 66 71 -37 -13 -15 -11 -41 -12 -38 -24 81 86 -3 49 -49 -1 -42 -33 -14 -26 55 -28 -56 58 -30 85 80 -20 -63 -10 -54 -19 -16 -9 69 -31 -22 -2 73 -62 -44 76 -35 -23 -46 -74 -51 82 -34 -84 -85 -39 -5 -77 91 90 -50 93 -93 -4
right_child=4 3 11 9 5 -7 25 16 63 10 41 26 52 38 19 -17 -18 18 21 29 27 77 43 24 53 -27 54 33 57 30 -32 51 44 75 -36 36 42 59 -40 40 50 -43 74 -45 78 -47 -48 48 89 60 -52 -53 64 -55 56 -57 -58 -59 -60 -61 72 62 -64 -65 -66 -67 -68 -69 -70 -71 -72 -73 79 -75 -76 87 -78 -79 -80 -81 -82 -83 83 84 -86 -87 -88 -89 -90 -91 -92 92 -94 -95
leaf_value=0.024586136376483048 0.045633111502413594 0.014565280655810496 -0.013442632076276329 0.07623727705905177 0.028288825400735088 0.62455071784444838 0.37711664513051318 0.014892631582378807 0.025032397534510534 0.12372361863417296 0.44451600203239766 0.016411476006022663 0.08138696447463678 0.1333887360200226 0.020648490045683272 0.0098430866090925655 0.2536075317105656 0.0718327024245516 0.013116297900706574 -0.0099191627678333529 0.053480324206612383 0.012345910929022976 0.10784038757700698 0.026442001431916377 0.096949665158451714 0.089718790456731104 -0.0035359327583070932 0.2349612992528721 0.071166815672412995 -0.015084882233822577 -0.016674259697013971 0.046028806676983142 0.26895151653387983 0.11854644958162308 -0.011026874936688597 0.10312080042663525 0.037856831884164888 0.083009916172785997 0.026429797422216402 0.16508454213792959 0.22685132686839568 0.65169502538764323 0.061774370557379076 0.051839060726606274 0.20938889626957502 0.01888686303162055 -0.0035201934251950649 0.042689887351014137 -0.029643839953354571 0.01572267229683692 0.39914143834463506 0.18555716008241516 0.24463397152475638 -0.0012411304512128397 0.097755142232075223 0.073508396352250177 0.0023062825309969094 -0.0078434046577336332 -0.020235703350008256 0.034290440630855297 -0.014443091117680844 0.022424720420600328 0.069261751963129378 0.01123218526491645 0.11684643868623354 0.10869819026223171 -0.028351159535095909 -0.0088321259012806557 -0.0097038312947264563 -0.02898759035916711 0.034446348666009687 0.080906015299387221 -0.014678665873174495 0.027812765678541972 0.11427481189906374 0.082319730540684477 0.046204679726197045 0.064212398446303359 0.34333304911932544 0.0062209282894584283 -0.005887582186417625 0.10067063960270983 0.11654233318014325 0.16163747097651521 0.31150034357034273 0.18956652944689731 0.18544776844729358 0.18362273208833013 -0.024932775127315569 -0.0086412022619843671 0.071662225647902714 0.0017221847580444543 -0.012813597577519181 -0.035510544269019458
leaf_weight=1003 2226 28928 15147 91 2108 102 69 2652 6232 82 50 209 1751 116 322 6971 58 1457 6251 11458 2715 11020 701 1475 991 127 908 64 303 3932 28225 1066 125 162 10792 1984 993 76 6228 87 54 68 450 731 57 164 3620 873 78 2169 86 53 61 104 124 774 4301 27112 212 81 739 1268 585 14060 240 922 11603 2520 2091 46987 5639 682 16118 832 451 133 552 233 85 1501 3141 67 113 99 51 145 94 89 3190 1337 181 8465 26065 2038
leaf_count=1003 2226 28928 15147 91 2108 102 69 2652 6232 82 50 209 1751 116 322 6971 58 1457 6251 11458 2715 11020 701 1475 991 127 908 64 303 3932 28225 1066 125 162 10792 1984 993 76 6228 87 54 68 450 731 57 164 3620 873 78 2169 86 53 61 104 124 774 4301 27112 212 81 739 1268 585 14060 240 922 11603 2520 2091 46987 5639 682 16118 832 451 133 552 233 85 1501 3141 67 113 99 51 145 94 89 3190 1337 181 8465 26065 2038
internal_value=4.8908e-09 -0.00613788 -0.00925837 0.0183664 0.0391279 0.0935246 0.0825889 0.0110126 0.0326997 0.212747 0.322307 -0.0149066 0.05892 0.0482492 -0.0159528 -0.00979885 0.0254206 0.0249924 0.0293448 -0.0186149 0.0560568 0.0235625 0.0329905 0.026784 0.0525097 0.206754 0.017487 0.0455933 -0.0126468 -0.0218563 -0.02354 0.0138861 0.229071 0.087038 -0.0194265 0.07048 0.0829087 0.0782846 0.0283855 0.230045 0.268452 0.563907 0.0617361 0.0792531 0.21196 0.0787024 0.0125538 -0.00493863 0.0147321 -0.00684299 0.332687 0.0526374 0.0903871 0.0876238 0.0123998 0.0319173 0.00498101 -0.00707195 0.0335409 0.121104 -0.00812966 0.0186257 0.0372114 0.0154705 0.142744 0.0861202 -0.0270281 0.003333 -0.0271957 -0.027914 0.0406323 0.0539055 -0.0111926 0.00793557 0.0880537 0.0769236 0.0626184 0.0134198 0.289567 -0.0128982 0.00293966 0.18774 0.202775 0.171323 0.212591 0.152923 0.131728 0.122932 -0.0122927 -0.000560554 0.0411531 -0.011513 -0.00925016 -0.0160597
internal_weight=0 304914 270471 34443 47831 5055 4953 58940 42776 776 427 211531 4160 22484 204913 61876 30968 30910 25738 143037 16140 23359 12106 10674 2570 793 6618 9354 50344 92693 81235 33667 666 1000 22717 6786 3878 511 6344 309 227 118 1894 1432 597 349 32548 27972 2469 25503 140 1119 2052 1095 6107 1682 4425 27627 515 302 24500 8104 1853 20292 301 2379 11925 5172 53010 50919 8354 2908 19190 1571 901 936 714 11253 142 17619 5310 455 388 263 150 221 185 222 54905 1596 259 51715 34530 17185
internal_count=352745 304914 270471 34443 47831 5055 4953 58940 42776 776 427 211531 4160 22484 204913 61876 30968 30910 25738 143037 16140 23359 12106 10674 2570 793 6618 9354 50344 92693 81235 33667 666 1000 22717 6786 3878 511 6344 309 227 118 1894 1432 597 349 32548 27972 2469 25503 140 1119 2052 1095 6107 1682 4425 27627 515 302 24500 8104 1853 20292 301 2379 11925 5172 53010 50919 8354 2908 19190 1571 901 936 714 11253 142 17619 5310 455 388 263 150 221 185 222 54905 1596 259 51715 34530 17185
is_linear=0
shrinkage=1


Tree=1
num_leaves=95
num_cat=0
split_feature=0 14 0 0 0 22 3 22 9 0 6 3 1 0 3 3 14 1 0 9 9 0 9 9 9 23 0 0 6 11 3 14 0 14 3 13 3 9 0 3 0 0 0 9 9 3 14 3 6 14 14 0 11 9 0 20 9 14 0 0 14 9 9 0 6 6 11 9 9 9 11 9 9 14 9 0 3 3 3 9 9 9 9 3 9 9 0 14 14 0 3 0 1 0
split_gain=28983.5 3627.14 4257.82 5205.67 2398.18 1751.22 852.599 769.607 599.173 373.69 354.561 324.524 309.14 278.593 729.539 274.482 257.191 243.532 232.919 209.406 429.425 284.282 208.534 206.654 274.394 201.148 401.005 309.111 279.23 289.748 234.122 197.752 190.345 178.211 301.519 268.081 175.113 179.609 200.004 185.233 172.545 273.338 750.403 1126.93 170.329 185.983 204.53 163.119 158.65 158.271 157.436 156.637 152.217 147.063 138.725 134.893 132.631 130.252 153.131 130.09 192.498 127.552 123.654 108.949 108.834 102.527 101.31 101.216 137.905 241.116 499.09 142.17 139.393 132.054 98.9438 96.6938 102.145 146.081 95.1403 119.012 342.545 94.4635 94.1872 92.6497 90.9779 415.378 85.3347 84.7436 82.6767 151.645 82.0818 173.235 80.6718 78.4209
threshold=-0.26707898222574811 0.96052631578947378 0.87359882906059683 0.58035696730265851 5.3545648829478987 0.58333333333333337 -0.21496437054631826 0.91666666666666674 0.20098039215686278 -0.19580321985360596 0.26237623762376239 2.4893111638954877 2.0625000000000004 0.39947038036023802 -0.70011876484560565 0.26484560570071264 0.30263157894736847 2.9375000000000004 1.6545140635312989 0.2990196078431373 0.15196078431372553 0.32320831105384207 0.43627450980392163 0.20098039215686278 0.16176470588235295 1.0000000180025095e-35 -0.17588795941009125 0.59540097117022583 0.30693069306930681 0.50000000000000011 0.11995249406175773 0.17105263157894737 -0.20719935404586923 0.61842105263157898 0.13657957244655586 0.75000000000000011 -0.23159144893111636 0.60294117647058831 6.7939225703159156 0.17220902612826605 -0.23222122124311945 0.61008014461844706 0.87359882906059683 0.64215686274509809 0.13235294117647062 0.01306413301662708 0.61842105263157898 -0.71116389548693582 0.35148514851485141 0.88157894736842113 0.30263157894736847 0.6804863076218971 1.0000000180025095e-35 0.12254901960784315 4.2105825985053436 0.41304347826086957 0.21078431372549022 0.48684210526315791 1.5193058278284475 2.9893065157616872 0.53947368421052644 0.34803921568627455 0.60294117647058831 0.98266259517471644 -0.03465346534653465 0.2772277227722772 0.90000000000000013 0.86764705882352955 0.15196078431372553 0.22058823529411767 0.50000000000000011 0.73039215686274517 0.20098039215686278 0.27631578947368424 0.17156862745098042 0.90659669812755028 1.4572446555819478 1.5190023752969124 -0.21496437054631826 0.15196078431372553 0.24019607843137256 0.073529411764705899 0.37745098039215691 0.12470308788598576 0.35784313725490197 0.36764705882352949 2.549922621079499 0.64473684210526327 0.77631578947368429 0.31205154829784237 -0.56282660332541556 3.1280686172390268 3.1875000000000004 0.094394117970219529
decision_type=2 2 2 2 2 2 2 2 2 2 2 2 2 2 2 2 2 2 2 2 2 2 2 2 2 2 2 2 2 2 2 2 2 2 2 2 2 2 2 2 2 2 2 2 2 2 2 2 2 2 2 2 2 2 2 2 2 2 2 2 2 2 2 2 2 2 2 2 2 2 2 2 2 2 2 2 2 2 2 2 2 2 2 2 2 2 2 2 2 2 2 2 2 2
left_child=-1 4 3 32 5 6 12 17 44 15 33 19 13 56 31 -9 18 25 -16 20 -12 83 54 24 -14 27 28 30 -27 -30 -7 63 -3 34 57 -35 50 38 -38 -40 -13 -42 43 -43 53 -46 -47 -26 -17 52 -10 -5 -29 -6 74 -54 -2 58 -8 92 -61 -21 -24 -15 -41 -51 -44 68 -28 70 73 -71 -72 -70 -20 76 -23 -78 90 -80 88 -18 -63 -22 -37 -86 -69 -75 -81 -90 91 -11 -36 -34
right_child=1 2 -4 51 8 7 10 9 36 78 11 40 23 14 16 48 81 -19 22 61 21 75 62 -25 47 26 67 49 29 -31 -32 -33 93 35 59 84 37 -39 39 64 41 42 66 -45 45 46 -48 -49 -50 65 -52 -53 55 -55 -56 -57 -58 -59 -60 60 -62 82 -64 -65 -66 -67 -68 86 69 71 72 -73 -74 87 -76 -77 77 -79 79 80 -82 -83 -84 -85 85 -87 -88 -89 89 -91 -92 -93 -94 -95
leaf_value=-0.034965540307870149 0.0064417785719483485 0.22431582762901461 0.0018619716441779491 0.72202683855163852 0.21041685118246822 0.015036186612750855 0.012616560030708216 0.058012597552059508 0.11335490708915825 0.017918991851672998 0.0044078540409747949 0.20108168247868036 0.011110436085980377 0.03541357227596089 0.013642639969632366 0.1267898191916354 0.060520300543696698 0.1329113060508389 0.012599128629211512 0.0011736341484356672 0.010121845760181733 0.076792056820292276 0.017530004723392022 0.019579905841765749 -0.0037344590038189602 0.085035164116128645 0.032828373183855071 0.10726685319942252 0.15759519822751319 0.44554798185971434 0.042989754011448694 0.22818778309039775 -0.03377495831010318 -0.0061101775399922988 0.030662102462720605 0.0079605740853992864 0.053621723551029947 0.26641961772894035 0.079051103957513136 0.37593183806345154 0.021245711144165267 0.57858869747111674 -0.0092110951160475681 0.076923288953482022 0.1759672936203121 0.41589623165599421 0.20938432782691405 0.14626270823137857 0.33313688706147715 0.068304510867676221 0.044046930650137289 0.54107568393150973 0.033350965453715575 0.063552098771246776 0.2294844936579466 0.057599417929357723 -0.0077250017331785825 -0.0061773162407594874 0.042669853398953156 0.22401346927615762 0.040376863937757641 0.062462866515426152 0.117975451177414 0.088346536268285702 0.18047078155010704 0.23421226497491202 0.081950351208357211 0.029333345620430114 0.034715803062559773 0.043050712952931475 0.056544819476082919 0.07619738983605065 0.24021687630775285 0.081766666972508201 0.13271318336647658 0.050090120358880254 0.23492782874014773 0.06731184961895148 0.0083080602227871923 0.061378492692872592 0.022520184364732947 -0.0019976919157563629 0.022814513464507958 0.042355381605949038 0.11353065853585816 0.018555874733607456 0.12861888412741965 0.21195583689528019 0.03511906002066098 0.24112121239432122 0.0050863623407926854 0.10013051107047465 0.1566722104718507 0.09057038506636253
leaf_weight=141781 9829 67 533 236 125 7754 12812 323 507 3772 2732 102 399 649 4594 81 246 300 107 2790 1261 2065 713 3093 87 297 3069 414 111 51 4883 80 99 7299 13323 6095 271 87 93 52 685 76 191 109 269 89 104 435 69 74 927 60 4664 150 93 4515 20169 3027 1954 87 166 628 148 970 63 75 337 3167 762 7148 50 1580 238 1299 191 1397 103 105 3599 1862 12662 13786 13046 3045 488 8171 89 52 70 73 6016 275 51 104
leaf_count=141781 9829 67 533 236 125 7754 12812 323 507 3772 2732 102 399 649 4594 81 246 300 107 2790 1261 2065 713 3093 87 297 3069 414 111 51 4883 80 99 7299 13323 6095 271 87 93 52 685 76 191 109 269 89 104 435 69 74 927 60 4664 150 93 4515 20169 3027 1954 87 166 628 148 970 63 75 337 3167 762 7148 50 1580 238 1299 191 1397 103 105 3599 1862 12662 13786 13046 3045 488 8171 89 52 70 73 6016 275 51 104
internal_value=0 0.023499 0.204695 0.395703 0.0225502 0.0213213 0.0147947 0.0342755 0.115544 0.0217734 0.0212669 0.030239 0.0052305 0.00315007 0.011816 0.109925 0.00644027 0.0431464 0.0240629 0.0277394 0.0386248 0.0503451 0.0622984 0.0319614 0.0735423 0.042478 0.0503754 0.0361566 0.142639 0.248247 0.0258376 0.0747113 0.0781658 0.0164561 0.0212926 0.00956534 0.0871412 0.13424 0.110232 0.18399 0.0755193 0.0663581 0.109699 0.283013 0.19262 0.22971 0.304615 0.121263 0.221709 0.0495421 0.0685512 0.685348 0.0479536 0.130309 0.12286 0.0452784 -0.00308318 0.0127197 0.0165935 0.0324865 0.103525 0.0206596 0.0347959 0.0671276 0.268853 0.151815 0.0489734 0.0479491 0.0515958 0.0567713 0.084835 0.0490511 0.208329 0.0680029 0.089585 0.0707948 0.08352 0.150314 0.0203016 0.024603 0.0286015 -0.000901667 0.0246354 0.0329159 0.0173202 0.0239084 0.0320472 0.0867776 0.067006 0.140281 0.0124939 0.0235054 0.0311426 0.0299291
internal_weight=0 210964 1099 566 209865 207128 137734 69394 2737 28802 82145 28672 55589 51575 21577 473 19878 40592 5846 27172 10708 7976 1252 4014 921 40292 17913 22379 459 162 12637 1699 270 53473 31420 22053 2000 566 479 208 1500 1398 713 185 737 462 193 522 150 9742 1434 296 9593 275 391 9179 29998 17793 14766 13627 253 16464 861 1619 115 149 528 17454 14198 11129 2401 8728 288 2113 298 3670 2273 208 28329 18266 14667 14032 13674 4306 14754 8659 3256 1351 2005 143 10063 4047 13374 203
internal_count=352745 210964 1099 566 209865 207128 137734 69394 2737 28802 82145 28672 55589 51575 21577 473 19878 40592 5846 27172 10708 7976 1252 4014 921 40292 17913 22379 459 162 12637 1699 270 53473 31420 22053 2000 566 479 208 1500 1398 713 185 737 462 193 522 150 9742 1434 296 9593 275 391 9179 29998 17793 14766 13627 253 16464 861 1619 115 149 528 17454 14198 11129 2401 8728 288 2113 298 3670 2273 208 28329 18266 14667 14032 13674 4306 14754 8659 3256 1351 2005 143 10063 4047 13374 203
is_linear=0
shrinkage=0.1


Tree=2
num_leaves=95
num_cat=0
split_feature=22 8 8 3 8 24 17 8 2 8 22 8 24 8 8 17 24 22 17 22 2 2 2 24 24 8 3 2 8 2 17 2 2 3 6 3 2 24 3 8 8 6 8 8 20 17 7 3 3 24 17 20 22 22 2 2 2 20 22 2 6 17 24 8 8 17 24 22 4 6 3 20 20 7 2 3 6 24 11 17 11 8 3 2 2 2 20 7 3 2 4 24 2 2
split_gain=5557.65 2096.9 980.854 2108.41 883.447 1970.56 1516.89 1262.6 596.507 527.099 489.209 408.663 396.4 615.381 343.259 339.104 682.257 264.402 239.257 233.019 186.018 178.218 162.503 448.07 295.057 188.989 157.223 145.341 139.964 126.616 127.581 112.892 108.035 137.702 118.926 104.883 104.227 133.098 101.932 123.854 101.151 96.394 86.0425 85.7943 76.0769 74.6373 72.3698 71.5073 79.7798 69.753 69.4657 68.8537 68.114 66.9396 65.8897 64.7433 99.0266 71.6993 64.1403 63.2733 63.1106 62.1038 61.5337 64.8188 59.2027 59.1055 67.8264 58.2539 58.1544 55.5113 54.5593 53.4545 53.3863 54.9392 50.5389 96.8356 49.5561 48.9096 47.3822 47.2508 46.3649 46.3503 44.9509 44.6733 49.2904 43.6603 42.7743 42.3701 40.0699 39.8095 39.6723 38.9919 67.5851 38.3077
threshold=0.75000000000000011 0.062500000000000014 0.64583333333333337 3.2019002375296917 0.47916666666666669 0.95000000000000007 0.61111111111110017 0.77083333333333337 2.285714285714286 1.0000000180025095e-35 0.91666666666666674 0.81250000000000011 0.20972222222222225 0.77083333333333337 0.14583333333333334 0.72222222222221444 0.32777777777777789 0.91666666666666674 0.38888888888887158 0.91666666666666674 2.4270833333333335 1.5342261904761907 -0.066220238095238082 0.19583333333333339 0.036805555555555564 0.27083333333333337 -0.66092636579572439 2.0401785714285716 1.0000000180025095e-35 0.20758928571428573 0.61111111111110017 1.8169642857142858 0.36309523809523814 0.48812351543943 0.40346534653465332 0.50475059382422816 -0.64367559523809514 0.0048611111111111121 -0.56282660332541556 0.14583333333333334 0.14583333333333334 -0.82054455445544539 0.062500000000000014 1.0000000180025095e-35 0.76086956521739135 1.0000000180025095e-35 0.47215471628468764 -0.6580760095011875 -0.69109263657957232 0.12361111111111113 0.72222222222221444 0.58695652173913049 0.58333333333333337 0.91666666666666674 -0.54092261904761896 0.06622023809523811 0.96875000000000011 0.5434782608695653 0.41666666666666669 1.7574404761904765 -0.10643564356435654 0.72222222222221444 0.034722222222222231 0.77083333333333337 0.68750000000000011 0.27777777777777152 0.76041666666666685 0.41666666666666669 -0.083924349881796659 0.46287128712871256 -0.55546318289786212 0.282608695652174 0.10869565217391305 -0.22508645844175362 -0.31770833333333326 -0.12945368171021374 -0.62747524752475237 0.95000000000000007 0.70000000000000018 1.0000000180025095e-35 1.0000000180025095e-35 0.10416666666666667 -0.61923990498812342 -0.66495535714285703 -0.68333333333333324 0.4129464285714286 0.63043478260869579 -1.3469929305167636 -0.71769596199524932 0.78050595238095244 0.082742316784870026 0.32777777777777789 0.5111607142857143 -0.29985119047619041
decision_type=2 2 2 2 2 2 2 2 2 2 2 2 2 2 2 2 2 2 2 2 2 2 2 2 2 2 2 2 2 2 2 2 2 2 2 2 2 2 2 2 2 2 2 2 2 2 2 2 2 2 2 2 2 2 2 2 2 2 2 2 2 2 2 2 2 2 2 2 2 2 2 2 2 2 2 2 2 2 2 2 2 2 2 2 2 2 2 2 2 2 2 2 2 2
left_child=1 9 10 12 22 7 8 21 27 29 38 26 19 15 28 16 35 -18 -11 41 -8 36 24 25 54 81 -9 -7 -12 -1 -31 -25 -20 -34 -35 53 37 -6 -2 43 -33 90 61 -40 -19 64 -32 48 83 50 -13 76 -47 -14 88 -17 -57 -58 -23 -28 -45 -30 80 -64 -38 -60 -67 -22 -55 -37 -26 -16 -68 -74 -72 -76 -21 -42 85 -73 -43 -24 -81 84 -39 -54 89 -36 -3 -66 -4 92 -51 -53
right_child=2 4 3 -5 5 6 20 11 -10 18 14 49 13 -15 71 55 17 44 32 51 67 58 23 31 70 -27 59 -29 42 30 46 40 33 34 87 69 45 47 39 -41 77 62 -44 60 -46 52 -48 -49 -50 91 -52 93 78 68 -56 56 57 -59 65 -61 -62 -63 63 -65 86 66 72 -69 -70 -71 74 79 73 -75 75 -77 -78 -79 -80 82 -82 -83 -84 -85 -86 -87 -88 -89 -90 -91 -92 -93 -94 -95
leaf_value=-0.0054250669239528518 0.062573536400074833 0.0063115068452733979 0.080916182637362902 0.54607697688043122 0.0023561622416196117 0.13837117147250252 0.029283342039178362 0.032325352026058733 0.59718079181053696 0.02198445742296886 0.025331337609386464 0.040033509190201703 0.16113201300399976 0.02751790227760359 0.017041466439252802 0.14849333925680683 0.48208464336287427 0.31176969737021465 0.038012191319235958 0.0701341312384232 0.11161158523211877 0.025749732797863464 0.015231446624725618 -0.017774948020190494 0.061911414284259086 -0.01194150733668156 -0.022732672711991687 0.33498536637242959 0.062261057464116865 0.0097118125261409158 0.035124147466433046 0.024156661651314831 0.10787114933996662 0.039537540277162116 0.17118080511136213 0.14096783122119025 0.0039106251197262394 0.092208784758219975 0.038639895854518262 0.028367279025785737 -0.0079175430657804045 0.070446337469768042 0.034905007282141631 0.048550947370948901 0.15303592297893306 0.0050034125786482036 0.015910655426950943 0.13635314713988919 0.022479977645395329 -0.0051459435205854949 0.0031047179067783415 0.0087453431417615687 0.015535447164878048 0.11630660475824367 0.011530731005941857 0.02864916156288861 0.19063351915482385 0.053982137306912308 0.00097122179281155943 0.011356886010993904 0.088206222933705225 0.11598386226360401 0.083670925498875171 0.042881954969606201 0.066734656601366169 0.031858586587689142 0.19351254147395755 0.24081153183391224 0.028805054269190652 0.25109257140775793 -0.020905483334697196 0.094610692431010182 0.1381507518840587 0.051852073897184298 -0.0086611748961393648 -0.021975753656093337 0.035233871389511048 -0.026377414250468148 -0.0086814490054540581 0.019977377414703044 0.021766907058884608 0.0024811013135952772 0.0018625144749480306 0.15763852198421957 0.034958112270573931 0.041544916812949508 0.023782281521707777 0.085033958738129273 -0.0090601088739595045 0.16412820005241563 0.13712812552620818 -0.017904336642086571 0.018748265318773844 0.035546658606767555
leaf_weight=3130 1564 1784 289 88 1347 61 381 543 78 2595 3725 945 109 916 4729 99 76 72 1330 500 90 1046 3216 34814 84 10207 26267 98 725 11965 4176 932 790 1193 64 120 319 262 2902 8403 14750 284 827 843 52 36767 3695 80 1051 3694 1105 1505 5511 143 1757 328 81 73 118 556 766 306 1091 606 237 198 57 57 162 74 38806 58 127 176 11657 10279 2184 1590 710 1567 629 25126 10887 50 353 731 200 529 34307 51 222 1130 1742 826
leaf_count=3130 1564 1784 289 88 1347 61 381 543 78 2595 3725 945 109 916 4729 99 76 72 1330 500 90 1046 3216 34814 84 10207 26267 98 725 11965 4176 932 790 1193 64 120 319 262 2902 8403 14750 284 827 843 52 36767 3695 80 1051 3694 1105 1505 5511 143 1757 328 81 73 118 556 766 306 1091 606 237 198 57 57 162 74 38806 58 127 176 11657 10279 2184 1590 710 1567 629 25126 10887 50 353 731 200 529 34307 51 222 1130 1742 826
internal_value=0 -0.00497143 0.031692 0.0586458 -0.0076838 0.000711954 0.160494 -0.000719798 0.370672 0.0203828 0.0240839 -0.0149678 0.0545375 0.0911447 0.0149629 0.133104 0.175003 0.335219 0.0455208 0.0441664 0.066152 0.00966006 -0.011504 -0.00844695 -0.0143119 -0.000274001 -0.0209476 0.259555 0.0365137 0.013267 0.0162165 -0.0144958 0.0611575 0.0731075 0.0577306 0.1223 0.00851836 0.0261181 0.0384627 0.0355426 -0.00788616 0.065619 0.0589326 0.0489088 0.245204 0.00727603 0.0261045 0.0439396 0.0396313 0.00402517 0.020128 0.0308158 0.00671977 0.0938687 -0.00737967 0.0748361 0.0597073 0.125857 0.0412649 -0.022026 0.0674297 0.0782059 0.0578428 0.0691052 0.0374109 0.0652721 0.0788698 0.16171 0.0698304 0.182974 -0.0186254 0.00798435 0.104726 0.0880235 -0.0187368 -0.0149003 0.0417354 -0.00971382 0.0157971 0.00456115 0.0369092 0.0039279 0.00414178 0.0667381 0.0593478 0.0185814 0.0593096 0.0943314 -0.00830028 0.0839814 0.105337 -0.00100237 0.0025111 0.0182425
internal_weight=0 304914 47831 10529 275447 86138 765 85373 237 29467 37302 35982 10441 2305 22824 1389 808 200 6501 8136 528 49391 189309 90635 98674 38549 27366 159 5583 22966 19836 52086 3906 2576 1786 608 47669 3143 14478 12914 17272 3121 1858 4511 124 44526 7871 1796 1716 8616 2050 5015 43719 414 37848 581 482 154 1722 26823 1609 1031 2610 1697 807 676 558 147 305 194 60826 17241 360 303 60742 21936 2684 16340 6952 12512 913 28342 12454 665 615 6242 488 593 36091 288 511 6566 5436 2331
internal_count=352745 304914 47831 10529 275447 86138 765 85373 237 29467 37302 35982 10441 2305 22824 1389 808 200 6501 8136 528 49391 189309 90635 98674 38549 27366 159 5583 22966 19836 52086 3906 2576 1786 608 47669 3143 14478 12914 17272 3121 1858 4511 124 44526 7871 1796 1716 8616 2050 5015 43719 414 37848 581 482 154 1722 26823 1609 1031 2610 1697 807 676 558 147 305 194 60826 17241 360 303 60742 21936 2684 16340 6952 12512 913 28342 12454 665 615 6242 488 593 36091 288 511 6566 5436 2331
is_linear=0
shrinkage=0.1


Tree=3
num_leaves=95
num_cat=0
split_feature=8 16 2 1 16 8 24 2 16 1 16 16 16 16 8 8 1 16 2 1 16 2 24 24 6 2 16 2 24 2 1 2 24 8 24 2 24 16 6 2 24 2 24 2 24 11 24 2 2 16 2 24 1 6 19 21 6 2 16 2 7 24 24 12 16 16 1 1 21 7 24 8 8 1 2 1 1 24 1 24 8 8 2 19 16 2 16 24 24 1 1 2 16 16
split_gain=2201.14 2565.21 2484.04 905.575 882.608 687.353 573.64 673.743 435.013 415.886 389.194 302.891 274.038 1016.74 263.647 242.438 236.911 216.655 207.207 168.528 164.605 158.259 184.355 147.099 143.51 140.641 138.958 133.661 180.939 124.085 145.765 123.084 306.528 119.933 111.8 111.405 111.428 103.163 99.8437 99.8029 94.7941 148.835 89.7958 82.7282 216.281 215.371 141.009 92.7618 83.4585 81.8838 142.728 77.7077 74.1529 73.9606 71.3415 93.3412 71.0102 69.2596 75.5534 69.0765 67.5692 65.7046 63.9925 113.911 58.8363 87.9376 58.1089 57.7649 57.0205 56.7556 52.7282 52.5487 80.687 73.1853 51.9969 324.745 91.072 104.579 51.7006 81.4131 74.7369 48.9964 77.3481 61.5167 48.4434 48.0607 47.9036 47.7462 46.3684 46.2744 57.8669 46.2305 50.1522 98.5147
threshold=0.062500000000000014 0.83290193939598234 2.0401785714285716 -0.81249999999999989 0.15641081520814923 1.0000000180025095e-35 0.95000000000000007 2.4270833333333335 0.13549765676107547 2.0625000000000004 0.041089985277197746 0.014209572425922551 0.020146186242682652 0.023229395353967734 0.47916666666666669 0.31250000000000006 2.9375000000000004 0.021448411208939703 0.16889880952380956 2.5625000000000004 0.003542817922905219 -0.674032738095238 0.013194444444444448 0.034722222222222231 -1.3700495049504948 0.41741071428571436 0.022003771856314035 -0.68876488095238086 0.0076388888888888904 1.5342261904761907 0.18750000000000003 -0.066220238095238082 0.19583333333333339 0.14583333333333334 0.036805555555555564 0.38467261904761912 0.32777777777777789 0.017694939247375256 0.38118811881188103 0.46651785714285721 0.011805555555555557 -0.57953869047619044 0.32777777777777789 -0.20312499999999997 0.28333333333333338 0.50000000000000011 0.18055555555555561 -0.14062499999999997 -0.15252976190476189 0.039988264655009979 0.78050595238095244 0.27222222222222231 1.6875000000000002 0.44059405940594049 0.65000000000000024 0.90677966101694929 0.45668316831683159 1.8913690476190477 0.50422820956323389 -0.19866071428571427 -0.24411947659023611 0.31666666666666671 0.034722222222222231 1.0000000180025095e-35 0.50422820956323389 0.62533800398021244 1.5625000000000002 -0.93749999999999989 0.7033898305084747 0.61773151063560727 0.081250000000000031 0.27083333333333337 0.35416666666666669 1.0625000000000002 0.36309523809523814 1.1875000000000002 0.68750000000000011 0.37638888888888894 1.8125000000000002 0.023611111111111114 0.77083333333333337 0.81250000000000011 -0.40252976190476186 0.51666666666666694 0.013232903701229761 2.3229166666666674 0.39152102174102893 0.95000000000000007 0.034722222222222231 1.0625000000000002 1.1875000000000002 -0.53497023809523803 0.62533800398021244 0.50422820956323389
decision_type=2 2 2 2 2 2 2 2 2 2 2 2 2 2 2 2 2 2 2 2 2 2 2 2 2 2 2 2 2 2 2 2 2 2 2 2 2 2 2 2 2 2 2 2 2 2 2 2 2 2 2 2 2 2 2 2 2 2 2 2 2 2 2 2 2 2 2 2 2 2 2 2 2 2 2 2 2 2 2 2 2 2 2 2 2 2 2 2 2 2 2 2 2 2
left_child=5 4 29 54 8 10 38 -8 11 -10 12 18 -1 61 21 19 42 37 84 31 39 22 26 78 40 -18 27 28 -13 43 -31 34 64 51 86 -25 -37 -7 -5 60 -11 69 66 -3 45 46 59 48 -47 -15 -51 -23 -29 -19 55 67 -49 58 -34 -45 -20 -14 63 -26 -33 -66 -16 -4 -61 -42 81 -35 73 -73 -46 76 -76 -78 -17 80 -80 -68 -83 -84 -2 -38 -6 -59 -74 -28 -91 92 93 -88
right_child=1 2 3 6 15 17 7 -9 9 24 -12 14 13 49 16 23 25 53 20 -21 -22 33 -24 35 62 -27 89 52 -30 30 -32 32 57 71 -36 36 85 -39 -40 -41 41 -43 -44 44 74 47 -48 56 -50 50 -52 -53 -54 -55 -56 -57 -58 87 -60 68 -62 -63 -64 -65 65 -67 70 -69 -70 -71 -72 72 88 -75 75 -77 77 -79 79 -81 -82 82 83 -85 -86 -87 91 -89 -90 90 -92 -93 -94 -95
leaf_value=0.0047420866318234013 -0.006370240697485559 0.011404194764627788 0.031178370482139006 -0.00050689971446990967 -0.011196606550450672 0.090342298711812694 0.24417808690531687 0.5364117401644467 0.012960735303247529 0.061392313384396192 -0.010871202203377513 -0.0029461935833318253 0.067154688861110881 0.010858341270102843 0.0049957954973420763 -0.0091404939053782216 0.058093472360784021 0.052020040219819701 0.12380255916305888 0.035574936198929256 0.01803805386979666 0.010963259474422712 0.13517937345959999 -0.021876266603574758 -0.013415204194219163 0.22203067026086273 -0.003290608203911759 -0.00011337853958809496 0.18507648887866326 0.040554118746562819 0.19135931745609816 2.189045191316937e-05 -0.020115907721054399 -0.01772900092118097 -0.014276459379231799 0.0080301606320577028 -0.023705272444111757 0.012857306443141515 0.17227696839830664 0.039118382212679131 0.17444667546794967 0.076526573622175076 -0.023352939389183314 0.10824493838580114 -0.0017938641343873897 0.066577272372924615 0.018154204353522507 0.085744186596964145 0.20002208675700006 0.01766111757588373 0.063580847181752081 -0.013246897133511879 0.0846528402871084 0.080081066541482115 0.0064455515039818631 0.22271948713064194 0.029611918942327006 -0.0020475721444789116 -0.0096371580728694811 0.028240120471824566 0.035706842854444878 0.096910003012963972 0.023649745616906637 0.10290016186529044 0.031870272357865569 0.005303931330906707 0.023036363720385339 0.14533243819848815 0.059885631284422952 0.30874416684029532 0.0066397743669329911 -0.0080928898640997594 -0.0066581572802236304 0.0047303988248975975 0.0092078554098245675 0.25890021202740848 0.031808329516727678 0.14674305605260948 -0.0009517086730126969 -0.0051425278310362667 0.076114516586681433 0.03716656954493374 0.21627444473429108 0.067837687764885066 0.014512120206346499 0.0043773683791381536 -0.0014244565085057537 -0.021335988584123913 -0.020075622429827342 0.10987669860403385 0.011511128142576999 0.041121738949009258 -0.0063730475511540865 0.047794364962810809
leaf_weight=7630 3799 17831 131 50 3065 189 220 123 8831 136 4692 84 2219 10043 16916 9159 309 5207 298 871 4806 4875 109 32260 108 63 6598 449 131 1116 68 15385 10608 7271 43000 2693 3196 1891 101 904 65 101 1036 167 2677 89 6484 485 99 3025 872 1821 134 1146 119 50 421 10660 19583 1342 123 1115 408 382 1568 6067 641 67 989 61 972 26258 3842 5359 6245 54 475 95 220 1091 294 236 53 59 1570 753 1220 1459 7814 62 1690 326 2756 610
leaf_count=7630 3799 17831 131 50 3065 189 220 123 8831 136 4692 84 2219 10043 16916 9159 309 5207 298 871 4806 4875 109 32260 108 63 6598 449 131 1116 68 15385 10608 7271 43000 2693 3196 1891 101 904 65 101 1036 167 2677 89 6484 485 99 3025 872 1821 134 1146 119 50 421 10660 19583 1342 123 1115 408 382 1568 6067 641 67 989 61 972 26258 3842 5359 6245 54 475 95 220 1091 294 236 53 59 1570 753 1220 1459 7814 62 1690 326 2756 610
internal_value=0 -0.00274594 0.0210857 0.189079 -0.00616614 0.0227246 0.277475 0.348973 0.000860345 0.0206317 0.0155482 -0.00116986 0.0205256 0.0274973 -0.00319074 -0.0107302 0.00678878 0.0479105 0.0140802 -0.0082485 0.0266415 -0.00623501 0.00589601 -0.0165854 0.074353 0.085857 0.00435558 0.0442232 0.111616 0.017342 0.0492152 -0.00857669 -0.00570308 -0.00819687 -0.0122594 -0.0194481 -0.00765442 0.019898 0.115064 0.0578476 0.127413 0.166967 0.00531169 0.0163344 0.0208146 0.0310335 0.0259312 0.0729251 0.136849 0.0156325 0.0279362 0.00437922 0.0193698 0.0570819 0.0700944 0.100636 0.0596606 -0.0107556 -0.013319 0.0461177 0.0980644 0.0771059 0.0529044 0.0772633 0.00358333 0.0107599 0.00688485 0.0698063 0.0416667 0.239464 0.0231802 -0.00986293 -0.00854123 -0.00591938 0.0100284 0.0146358 0.0127003 0.0509641 -0.00623932 0.0103164 0.043129 0.0394364 0.0696445 0.13808 -0.000263832 -0.0183504 -0.0013864 -0.00436969 -0.015653 0.000545477 0.0149921 0.00473499 0.00214841 0.0149818
internal_weight=0 314716 39498 861 275218 38029 494 343 108374 10092 29596 98282 24904 17274 86782 166844 20285 8433 11500 117178 6131 66497 9257 49666 1261 372 9148 798 215 38637 1184 116307 65330 57240 50977 38902 6642 2080 151 1325 363 227 19913 37453 19622 10076 8982 1094 188 13940 3897 6696 583 6353 367 248 906 42310 30191 2498 421 3334 898 490 23020 7635 18877 198 2331 126 1961 50544 43273 31617 9546 6869 6815 570 10764 1605 514 989 348 112 5369 3949 7977 12119 11656 8350 1752 4912 4586 1830
internal_count=352745 314716 39498 861 275218 38029 494 343 108374 10092 29596 98282 24904 17274 86782 166844 20285 8433 11500 117178 6131 66497 9257 49666 1261 372 9148 798 215 38637 1184 116307 65330 57240 50977 38902 6642 2080 151 1325 363 227 19913 37453 19622 10076 8982 1094 188 13940 3897 6696 583 6353 367 248 906 42310 30191 2498 421 3334 898 490 23020 7635 18877 198 2331 126 1961 50544 43273 31617 9546 6869 6815 570 10764 1605 514 989 348 112 5369 3949 7977 12119 11656 8350 1752 4912 4586 1830
is_linear=0
shrinkage=0.1


Tree=4
num_leaves=95
num_cat=0
split_feature=0 0 3 10 0 9 9 2 0 0 10 17 2 0 0 22 22 9 9 22 0 0 0 0 0 2 10 2 9 17 10 0 3 3 2 17 2 9 9 9 9 0 22 2 0 22 22 3 2 9 0 9 4 6 0 0 9 0 9 21 2 2 22 2 9 9 0 2 3 2 3 0 9 17 22 2 9 0 17 9 9 9 9 17 0 0 0 0 2 0 17 2 0 3
split_gain=21288.5 2002.42 1733.93 1616.5 2496.4 1603.55 1457.34 1614.47 1337.72 4569.54 774.898 579.91 439.055 1241 897.604 449.406 432.331 362.136 610.096 311.025 288.311 279.715 245.512 219.696 214.461 211.406 241.856 207.593 238.209 199.074 188.625 187.617 175.13 174.802 169.321 151.799 150.584 147.743 182.314 141.493 267.832 141.38 305.932 281.67 154.202 189.723 142.115 136.243 136.025 135.074 134.989 131.482 130.416 129.818 167.013 119.818 119.652 118.896 118.612 115.283 114.858 106.413 115.29 104.53 103.632 259.292 107.247 106.348 100.809 98.8297 98.4575 269.1 97.9632 95.3494 202.158 116.688 86.7752 125.03 86.6477 85.0825 82.6487 186.019 80.6 78.3898 77.8537 77.1879 76.3338 75.8013 75.3945 74.413 74.3815 73.9614 72.6028 88.6105
threshold=-0.26707898222574811 5.3545648829478987 3.2019002375296917 0.50000000000000011 2.6826780362351186 0.22058823529411767 0.20098039215686278 -0.20312499999999997 0.87359882906059683 0.59540097117022583 1.0000000180025095e-35 1.0000000180025095e-35 1.4747023809523812 0.61008014461844706 0.81195111880994209 0.58333333333333337 0.58333333333333337 0.44607843137254904 0.5931372549019609 0.91666666666666674 4.2105825985053436 0.69454121657244638 4.8522831802939592 -0.23222122124311945 0.068993194651870135 0.06622023809523811 0.50000000000000011 -0.015624999999999998 0.43627450980392163 1.0000000180025095e-35 0.83333333333333337 0.92478377724703997 -0.51460807600950109 -0.71722090261282645 0.38020833333333337 1.0000000180025095e-35 0.15848214285714288 0.86764705882352955 0.83823529411764719 0.85784313725490213 0.33823529411764713 -0.21274058857799708 0.75000000000000011 0.38020833333333337 -0.08350412608724557 0.91666666666666674 0.75000000000000011 -0.51460807600950109 -0.19866071428571427 0.36764705882352949 -0.22961648438722446 0.97549019607843146 -0.87411347517730464 -0.10643564356435654 -0.15087400848833357 -0.23725512737617863 0.83823529411764719 0.38341613520700951 0.74019607843137269 0.68644067796610175 -0.54092261904761896 -0.53497023809523803 0.58333333333333337 2.4270833333333335 0.22058823529411767 0.17156862745098042 0.51370618973972515 -0.31770833333333326 0.83966745843230417 0.83482142857142871 -0.6248218527315913 1.5193058278284475 0.35784313725490197 0.27777777777777152 0.41666666666666669 -0.12574404761904759 0.92647058823529427 1.5193058278284475 0.83333333333332871 0.4754901960784314 0.35784313725490197 0.36764705882352949 0.72058823529411775 0.16666666666667143 0.56385605994232313 1.3727413413989964 6.7939225703159156 1.9589514642368919 -0.60066964285714275 4.0708654143271543 0.72222222222221444 -0.69263392857142847 0.58035696730265851 -0.61923990498812342
decision_type=2 2 2 2 2 2 2 2 2 2 2 2 2 2 2 2 2 2 2 2 2 2 2 2 2 2 2 2 2 2 2 2 2 2 2 2 2 2 2 2 2 2 2 2 2 2 2 2 2 2 2 2 2 2 2 2 2 2 2 2 2 2 2 2 2 2 2 2 2 2 2 2 2 2 2 2 2 2 2 2 2 2 2 2 2 2 2 2 2 2 2 2 2 2
left_child=-1 2 3 4 16 6 20 29 9 55 86 -9 15 23 -15 24 31 22 -19 37 78 63 27 -14 50 26 60 28 33 -8 35 34 -22 -6 64 -7 -27 38 80 40 -36 42 -17 -44 46 -46 -43 -20 -26 72 -13 -49 -38 -51 -55 -4 84 88 -10 73 79 85 -63 -11 65 -2 -66 -67 76 -54 71 -37 -42 74 -50 -75 77 -33 -5 -12 91 -82 -79 -47 -56 -31 -3 -84 -32 -29 -35 -18 -83 -94
right_child=1 10 8 5 17 30 7 11 58 21 25 12 13 14 -16 41 19 18 47 -21 32 -23 -24 -25 48 36 -28 89 -30 61 57 68 -34 90 39 70 52 -39 -40 -41 49 44 43 -45 45 83 -48 51 59 53 -52 -53 69 54 56 -57 -58 -59 -60 -61 -62 62 -64 -65 66 67 -68 -69 -70 -71 -72 -73 -74 75 -76 -77 -78 82 -80 -81 81 92 87 -85 -86 -87 -88 -89 -90 -91 -92 -93 93 -95
leaf_value=-0.029966596030741761 0.0079439226928087817 0.24802894886460997 0.18761101514846087 -0.0076359034263377718 0.071406493949550523 0.11259113494125964 0.15743934641407881 0.30826936121453946 0.00052105272259589863 0.60233561812152336 0.17872817584735706 0.065973400485251618 0.20179204914388779 0.61554849587380889 0.16514027594315886 0.067649641779436692 0.14147009731211244 0.49572070046674971 0.11678723682325082 0.020539722733095574 0.20214226993557532 0.29947323382162211 0.20276182517181845 0.016563866396996706 0.19481677090128263 0.30442081318998881 0.046882481375753751 0.043964459313717369 0.062239324440241897 0.0018449435165473064 -0.0072066943618050577 0.031416230423368323 0.04473392317460767 0.2154293740804484 0.010729565510040605 0.0022971676356597966 0.26921885482528629 0.024068908282897775 0.082404059880376579 0.0098632372377289237 0.028693343026137453 -0.018044441438323424 0.15351613792287105 0.44122661906811927 0.11634136940364732 0.17667989318293553 0.10848325917830887 0.13155447848679899 0.050674662997369613 0.016262977457824339 0.013013659237536852 0.29333051513466568 0.040282793265565504 0.1891436011567712 0.021542047232603712 0.026196125202550574 0.076748063071312114 0.03095509249086122 0.072706279208371902 0.077627252289207749 0.23757781482767315 0.013214491833137646 0.040660132073413686 0.47772527898850969 0.0042291698868701603 0.064595766932386264 0.021381644472397578 0.025589562890232079 0.01751494879272162 0.17104898458634765 -0.009891582300949173 0.15365118701711186 0.071785910068112121 0.092815304047260919 0.21589093161256692 0.02710852860300288 0.017470227502274383 0.051652896368729578 0.010197649141986427 0.078496123904672768 0.093837546774263911 0.033521820012333316 0.08207191640947345 0.052886642453923209 0.050028766988446022 0.079117134595854274 0.16110604042538176 0.20548312677927907 0.028409554303535922 0.11929082512359775 0.14265942160472447 0.032772730440786123 0.12515168832152249 0.049291875279326526
leaf_weight=141781 5625 328 50 12523 249 103 96 97 559 142 118 604 79 80 99 191 63 51 636 17392 96 57 174 338 72 55 1430 1216 689 6254 2821 6425 268 232 6651 1006 51 5971 1058 7129 794 263 92 54 1367 54 134 102 336 3717 2369 99 143 75 2564 573 707 1958 384 1597 80 5406 2135 128 19565 1406 4480 1390 6580 97 36023 133 1572 312 95 2021 2676 1655 3482 300 767 4339 237 970 1533 132 146 63 753 147 356 9833 161 3531
leaf_count=141781 5625 328 50 12523 249 103 96 97 559 142 118 604 79 80 99 191 63 51 636 17392 96 57 174 338 72 55 1430 1216 689 6254 2821 6425 268 232 6651 1006 51 5971 1058 7129 794 263 92 54 1367 54 134 102 336 3717 2369 99 143 75 2564 573 707 1958 384 1597 80 5406 2135 128 19565 1406 4480 1390 6580 97 36023 133 1572 312 95 2021 2676 1655 3482 300 767 4339 237 970 1533 132 146 63 753 147 356 9833 161 3531
internal_value=0 0.0201394 0.0190202 0.0181461 0.0255115 0.00750885 0.0214858 0.0365538 0.11429 0.198044 0.104944 0.0648193 0.062697 0.146196 0.36644 0.0579714 0.0228926 0.103701 0.159929 0.030869 -0.00175465 0.500766 0.0874001 0.0516551 0.0445525 0.0807003 0.0677837 0.0804521 0.105786 0.0139302 -0.0060824 0.0182977 0.0862482 0.141633 0.0155178 -0.00864031 0.152675 0.0378529 0.0420197 0.0217497 0.0265609 0.0897732 0.150952 0.25993 0.0823782 0.0919613 0.0246626 0.139468 0.0584883 0.0361662 0.0237731 0.211235 0.123994 0.0303425 0.0410688 0.0391508 0.038757 0.0111483 0.0299157 0.0562375 0.127801 0.012941 0.0209849 0.543261 0.0107685 0.0203154 0.00742497 0.0452043 0.0273152 0.0931341 -0.00897632 0.0199706 0.0573246 0.0438788 0.0870912 0.0358957 0.0331478 0.0381541 -0.00375609 0.106791 0.0397342 0.046786 0.0602977 0.0594148 0.0322011 0.00344218 0.221255 0.107988 0.000297233 0.0520884 0.171371 0.0334647 0.0422924 0.0526
internal_weight=0 210964 208216 206323 121910 84413 41616 25247 1893 950 2748 11224 11127 596 179 10531 117959 3951 888 43115 16369 327 3063 417 7406 2274 1928 2889 1526 14023 42797 74844 364 837 57208 37265 346 25723 19752 24742 17613 3125 337 146 2788 2391 397 837 4433 10962 2973 201 291 8596 4879 623 4804 5532 943 4361 498 13927 7541 270 32466 8421 24045 2796 17636 240 37162 1139 2366 2764 431 2333 11056 8380 16005 418 18694 8798 1955 1024 4097 6386 474 300 3574 1363 588 9896 8031 3692
internal_count=352745 210964 208216 206323 121910 84413 41616 25247 1893 950 2748 11224 11127 596 179 10531 117959 3951 888 43115 16369 327 3063 417 7406 2274 1928 2889 1526 14023 42797 74844 364 837 57208 37265 346 25723 19752 24742 17613 3125 337 146 2788 2391 397 837 4433 10962 2973 201 291 8596 4879 623 4804 5532 943 4361 498 13927 7541 270 32466 8421 24045 2796 17636 240 37162 1139 2366 2764 431 2333 11056 8380 16005 418 18694 8798 1955 1024 4097 6386 474 300 3574 1363 588 9896 8031 3692
is_linear=0
shrinkage=0.1


Tree=5
num_leaves=95
num_cat=0
split_feature=0 14 0 0 0 10 0 17 6 2 10 0 0 2 23 0 0 1 0 0 14 2 2 17 14 0 2 1 0 2 10 1 2 2 2 17 0 17 2 2 14 10 10 0 1 1 0 0 0 0 14 14 2 2 14 0 2 18 1 6 0 6 2 14 6 23 18 0 2 14 0 17 17 2 2 17 1 0 14 2 18 13 0 6 0 2 2 0 1 1 0 17 1 0
split_gain=17243.8 1821.72 2148.13 2952.51 1634.14 1342.21 2023.26 905.243 750.115 987.545 631.306 457.624 572.152 956.386 447.706 466.462 272.914 278.673 228.866 229.614 218.9 216.931 189.469 296.248 294.19 188.685 187.797 180.522 166.704 163.738 197.913 164.985 163.153 153.89 255.548 191.84 160.262 151.723 141.403 132.049 253.196 128.104 127.402 149.343 124.533 150.679 124.336 110.598 107.364 106.743 155.792 102.429 102.197 93.0353 87.0542 78.8571 115.88 77.506 76.8446 115.159 75.1874 111.304 78.8698 75.0295 73.974 72.1226 71.3731 70.3507 69.8075 299.673 229.148 68.9777 67.8003 90.7962 66.4753 66.0239 65.4403 65.1202 63.8226 63.7409 86.5857 77.4028 70.6174 63.4183 63.1588 61.9126 63.5892 61.8304 87.6628 60.2214 59.94 59.9301 59.5085 58.315
threshold=-0.26969979068767275 0.96052631578947378 0.85766853095097562 0.58035696730265851 5.3545648829478987 0.50000000000000011 2.9893065157616872 1.0000000180025095e-35 0.21782178217821799 -0.20312499999999997 1.0000000180025095e-35 1.1557990360633885 0.38341613520700951 1.4747023809523812 1.0000000180025095e-35 -0.18819395644548995 1.3090851731391668 2.9375000000000004 0.85766853095097562 0.63826322401660052 0.72368421052631593 0.21205357142857145 0.49181547619047622 0.27777777777777152 0.51315789473684226 4.8522831802939592 0.043898809523809527 0.56250000000000011 0.7793962126686399 0.061755952380952391 0.50000000000000011 0.43750000000000006 -0.60706845238095231 0.38467261904761912 1.8169642857142858 1.0000000180025095e-35 0.39947038036023802 0.72222222222221444 -0.15550595238095236 0.78050595238095244 0.51315789473684226 0.83333333333333337 0.83333333333333337 0.7962231522660933 0.93750000000000011 0.56250000000000011 -0.20719935404586923 6.7939225703159156 2.549922621079499 -0.22961648438722446 0.90789473684210531 0.17105263157894737 -0.35639880952380948 -0.54092261904761896 0.46052631578947373 0.085914810516777809 -0.68028273809523798 0.50000000000000011 1.6875000000000002 -1.1621287128712869 -0.098310751467755503 -0.03465346534653465 0.42187500000000006 0.69736842105263164 0.017326732673267266 1.0000000180025095e-35 0.40909090909090923 0.66697188219913173 0.076636904761904781 0.61842105263157898 0.62509446705050398 0.16666666666667143 0.72222222222221444 -0.078124999999999986 0.15401785714285718 0.61111111111110017 -0.93749999999999989 0.44379954805375005 0.25000000000000006 3.7366071428571432 0.40909090909090923 0.75000000000000011 1.9589514642368919 0.46287128712871278 0.59540097117022583 0.06622023809523811 0.029017857142857147 6.7939225703159156 0.93750000000000011 1.1875000000000002 0.094394117970219529 0.61111111111110017 0.18750000000000003 -0.10231260069358153
decision_type=2 2 2 2 2 2 2 2 2 2 2 2 2 2 2 2 2 2 2 2 2 2 2 2 2 2 2 2 2 2 2 2 2 2 2 2 2 2 2 2 2 2 2 2 2 2 2 2 2 2 2 2 2 2 2 2 2 2 2 2 2 2 2 2 2 2 2 2 2 2 2 2 2 2 2 2 2 2 2 2 2 2 2 2 2 2 2 2 2 2 2 2 2 2
left_child=-1 4 3 46 5 6 16 21 42 66 87 12 14 22 49 20 17 33 19 -15 -16 -7 24 83 44 39 48 63 32 30 53 47 55 35 60 52 65 67 89 40 58 -13 -9 -44 45 54 -3 -31 -18 50 -11 -27 -2 -12 76 56 -19 -29 -8 -60 61 -35 -63 -25 -42 -37 -10 -5 77 70 -70 -68 73 -17 -71 -36 -14 -26 -50 81 82 -28 -81 -24 -76 86 -74 88 -6 -38 -48 -83 -65 -51
right_child=1 2 -4 37 10 7 25 8 9 11 29 41 13 18 15 72 26 28 -20 -21 -22 -23 23 27 68 51 79 57 -30 31 -32 -33 -34 34 75 36 38 -39 -40 -41 64 -43 43 -45 -46 -47 90 -49 78 93 -52 -53 -54 -55 -56 -57 -58 -59 59 -61 -62 62 -64 92 -66 -67 71 -69 69 74 -72 -73 85 -75 84 -77 -78 -79 -80 80 -82 91 -84 -85 -86 -87 -88 -89 -90 -91 -92 -93 -94 -95
leaf_value=-0.027010744940335216 0.21206899810020091 0.16248885499897289 0.0032254535730914281 0.49400853930904881 0.25210279033938421 0.12709011058323158 0.084388831737627609 -0.0053484366931819518 0.010175800274187187 0.033828942774323661 0.096112167094379489 2.6058667587444832e-07 0.2142996772251865 0.2037253916466778 0.15938379460054897 -0.0017823011482901434 0.049720691177757979 0.065646216030939522 0.11410086412126055 0.46914890713989738 0.39090854607779407 0.31915031385509984 0.1616603562854371 0.1366913078165839 0.11494574688374998 0.072639794052977644 0.035246044634197518 0.24746572662416044 0.17598513946304042 0.14349577063801644 0.041748311184781492 0.0363688512845377 0.023628712523298016 0.032208355978252098 0.01197323083450081 0.0078528115028906522 0.027261243674429864 0.63887610174715526 0.014815515281265033 0.03076141737754487 0.16271247535215125 0.071645622158314937 0.00068514467276893469 0.03839954414061611 0.044977734196227748 0.26985818819921409 -0.050311821623884069 0.30193102032546015 0.1646910826444514 -0.0014511319792541895 0.15131167208039487 0.21191219376443429 0.063519175011886711 0.21382003534119579 0.067426368140993453 0.052244900372319339 0.22342308456745916 0.098759926119375799 0.27033060115568763 0.110746637664058 0.02891694089507111 0.17225147647391026 0.071243731639606053 0.01909492051095835 0.2925254232132099 0.019066535053534839 0.025375801286008737 0.35984318488836292 0.060600477239152177 0.094867700094373675 0.34945513970757786 -0.0027898997905292764 0.034340336082593327 0.11622037522361749 0.079714604249501927 0.022449961070402827 0.11427231673324525 0.016199822415703183 0.07108111077549388 0.063767496273782462 0.02875444901763452 0.0088790812704220082 0.18352171098979722 0.30537239137577687 0.013900042718633389 -0.0033120205709180695 0.15093134992491844 0.14499543602259396 0.13067241272745797 0.048183967735203725 0.058398818482573216 0.028091470926887709 0.090756242607227144 0.019844688948601964
leaf_weight=141525 53 67 536 179 250 260 2195 37241 8396 903 418 3822 94 55 138 85 2639 83 52 80 58 76 53 99 70 70 5539 79 132 174 1419 113 571 956 16168 26816 5999 64 12223 310 115 267 3687 1468 286 64 99 59 133 1791 129 215 367 80 276 127 106 63 53 308 21197 95 415 364 71 7296 922 50 53 169 57 15269 155 280 181 9579 215 1454 161 119 300 3030 84 73 750 246 67 146 78 1785 104 3498 170 4559
leaf_count=141525 53 67 536 179 250 260 2195 37241 8396 903 418 3822 94 55 138 85 2639 83 52 80 58 76 53 99 70 70 5539 79 132 174 1419 113 571 956 16168 26816 5999 64 12223 310 115 267 3687 1468 286 64 99 59 133 1791 129 215 367 80 276 127 106 63 53 308 21197 95 415 364 71 7296 922 50 53 169 57 15269 155 280 181 9579 215 1454 161 119 300 3030 84 73 750 246 67 146 78 1785 104 3498 170 4559
internal_value=0 0.0180982 0.146511 0.282926 0.0174265 0.0164134 0.0230897 0.00671921 0.00606583 0.0155642 0.094191 0.0339014 0.0429758 0.0706933 0.0272997 0.0890945 0.0209445 0.0190989 0.292353 0.361013 0.227896 0.170532 0.0616232 0.102712 0.051533 0.0998904 0.0333217 0.0795913 0.071137 0.0722109 0.0607832 0.135526 0.0555339 0.0185838 0.0226876 0.0149412 0.0144188 0.502757 0.0215244 0.0926239 0.0996179 0.0046785 -0.00330891 0.0114252 0.099954 0.124181 0.044368 0.183615 0.0561067 0.018686 0.0485143 0.177705 0.0822647 0.115021 0.108243 0.113185 0.154135 0.181491 0.0914206 0.134176 0.0304317 0.0523337 0.0900589 0.0567323 0.212265 0.0102512 0.00269384 0.464715 0.0349735 0.0529064 0.21028 -0.001186 0.0564353 0.0887403 0.0371691 0.015871 0.144701 0.0207354 0.113428 0.0280052 0.0628837 0.0265514 0.113321 0.244922 0.0266954 0.0312402 0.0695277 0.19913 0.223226 0.0320592 0.0053823 0.019174 0.0419085 0.0138383
internal_weight=0 211220 1099 563 210121 207384 122808 84576 84240 41844 2737 17257 13168 4757 8411 1029 119471 103968 187 135 196 336 4570 901 3669 3337 15503 775 1019 2263 1917 346 887 102949 48410 54539 54119 293 20007 3052 2742 4089 42396 5155 935 649 270 233 2933 7382 1032 285 420 498 585 316 189 142 2556 361 22663 1466 510 633 186 34112 24587 229 2734 1210 110 16191 833 365 1100 25747 309 1524 294 12570 503 12067 203 126 931 468 222 474 328 7784 203 6528 534 6350
internal_count=352745 211220 1099 563 210121 207384 122808 84576 84240 41844 2737 17257 13168 4757 8411 1029 119471 103968 187 135 196 336 4570 901 3669 3337 15503 775 1019 2263 1917 346 887 102949 48410 54539 54119 293 20007 3052 2742 4089 42396 5155 935 649 270 233 2933 7382 1032 285 420 498 585 316 189 142 2556 361 22663 1466 510 633 186 34112 24587 229 2734 1210 110 16191 833 365 1100 25747 309 1524 294 12570 503 12067 203 126 931 468 222 474 328 7784 203 6528 534 6350
is_linear=0
shrinkage=0.1


Tree=6
num_leaves=95
num_cat=0
split_feature=0 24 0 0 0 10 0 9 9 2 10 2 0 22 22 0 9 9 9 9 0 2 24 0 9 0 3 3 0 10 3 0 0 0 2 0 22 22 3 9 2 0 10 3 2 2 0 22 9 3 0 9 2 3 0 0 9 9 9 22 0 2 9 2 9 9 6 0 9 0 0 3 19 2 0 2 3 19 2 24 4 0 7 22 6 0 15 0 0 0 0 2 3 0
split_gain=13972.5 1447.97 1625.02 1922.49 1332.19 1058.65 1638.34 1214.49 1077.83 1164.06 508.188 397.366 670.146 362.246 318.873 228.672 219.161 490.631 185.696 261.998 185.338 271.216 203.986 177.181 166.782 141.898 137.626 136.034 134.026 130.572 130.095 193.206 293.137 257.487 126.884 124.051 109.836 120.616 103.677 102.866 171.783 100.662 99.0655 97.5189 119.634 95.2928 90.952 87.8298 87.2445 83.3935 219.409 83.2492 83.0773 81.3434 278.239 78.8221 97.0722 77.3948 304.195 76.5611 73.1661 72.6732 72.5987 72.3285 115.898 115.523 72.2618 71.1136 70.8406 70.5907 68.3046 66.3052 65.7982 65.7658 65.1642 65.1511 76.5108 62.2061 73.647 90.3177 89.6576 62.129 60.2443 58.5873 66.5983 63.3911 58.5393 58.3348 58.2641 58.1107 57.9692 57.5545 62.4554 56.0143
threshold=-0.26707898222574811 0.95000000000000007 0.88950444927121708 0.58035696730265851 5.3545648829478987 0.50000000000000011 2.9893065157616872 0.22058823529411767 0.20098039215686278 -0.20312499999999997 1.0000000180025095e-35 1.7574404761904765 0.61008014461844706 0.41666666666666669 0.58333333333333337 4.2105825985053436 0.44607843137254904 0.70098039215686281 0.86764705882352955 0.74019607843137269 0.32320831105384207 1.4747023809523812 0.18055555555555561 -0.21274058857799708 0.20098039215686278 4.8522831802939592 -0.51460807600950109 -0.51460807600950109 1.3090851731391668 0.83333333333333337 1.0653206650831357 0.56385605994232313 0.75116999613411373 -0.21274058857799708 0.076636904761904781 0.87359882906059683 0.91666666666666674 0.58333333333333337 1.0855106888361048 0.43627450980392163 0.68229166666666685 0.99969790090149968 0.50000000000000011 -0.71722090261282645 -0.030505952380952377 -0.53497023809523803 -0.20719935404586923 0.58333333333333337 0.83823529411764719 -0.6248218527315913 3.6211332416720716 0.75000000000000011 -0.60066964285714275 0.21971496437054636 6.7939225703159156 -0.17828860833454516 0.84803921568627461 0.84803921568627461 0.83823529411764719 1.0000000180025095e-35 -0.22961648438722446 -0.54092261904761896 0.13235294117647062 0.41741071428571436 0.33823529411764713 0.36764705882352949 0.38861386138613857 1.6545140635312989 0.20098039215686278 -0.13549482671835397 -0.19580321985360596 0.01306413301662708 0.75000000000000033 -0.68876488095238086 0.56385605994232313 0.93898809523809534 0.22684085510688839 0.15000000000000005 0.061755952380952391 0.29444444444444451 -0.35697399527186746 -0.070855700409880318 0.10124564144990177 0.41666666666666669 -0.62747524752475237 3.5004909735038603 0.1521739130434783 2.2257667944172437 1.3727413413989964 1.1861882391428504 1.2784029330233997 1.1175595238095239 1.4382422802850356 1.3385749119585562
decision_type=2 2 2 2 2 2 2 2 2 2 2 2 2 2 2 2 2 2 2 2 2 2 2 2 2 2 2 2 2 2 2 2 2 2 2 2 2 2 2 2 2 2 2 2 2 2 2 2 2 2 2 2 2 2 2 2 2 2 2 2 2 2 2 2 2 2 2 2 2 2 2 2 2 2 2 2 2 2 2 2 2 2 2 2 2 2 2 2 2 2 2 2 2 2
left_child=-1 4 3 46 5 6 13 8 15 45 62 14 23 41 20 -7 25 -18 19 36 60 22 59 -13 34 39 -17 -19 48 49 77 33 -33 -32 -12 38 37 -15 -24 40 43 57 61 -8 83 88 -3 -47 51 50 -9 -21 87 -44 -55 -50 75 58 63 -22 -11 -26 -6 -2 -65 -66 -23 -49 -27 70 -62 -64 -40 -39 -67 76 -57 78 -16 80 -80 -35 -36 84 -45 -85 -37 -31 -10 -58 -51 92 -83 -20
right_child=1 2 -4 -5 10 7 16 29 9 11 24 12 -14 18 30 26 17 27 93 28 21 66 35 -25 42 68 -28 -29 -30 52 31 32 -34 81 82 86 -38 73 72 -41 -42 -43 53 44 -46 47 -48 67 55 90 -52 -53 -54 54 -56 56 89 -59 -60 -61 69 -63 71 64 65 74 -68 -69 -70 -71 -72 -73 -74 -75 -76 -77 -78 -79 79 -81 -82 91 -84 85 -86 -87 -88 -89 -90 -91 -92 -93 -94 -95
leaf_value=-0.024277336269193199 0.0083062981431799559 0.15455521666536146 0.0022614337276291039 0.44696800210791188 0.1076010117260312 -0.0033206278882657266 0.049916830551106205 0.0071849327929987177 0.0016834561810219507 0.058361776613950367 0.088323138360854703 0.22103833395701189 0.42080877709992326 0.01969761693382853 0.062193823778493841 0.17951169313334203 0.39413956968641994 0.091213235903061851 0.01055013212394231 0.052512033469734647 0.1665158577174127 0.12422142352980491 0.047326553158962614 -0.0011043574275641605 0.076006920008395595 0.23926716012434224 0.040040317020590202 0.19988672771986285 0.091225616586106326 -0.0039184889230618964 0.20880312110520594 0.32615137014221007 0.10205410438553467 -0.0060518259873742581 0.13857252105312831 0.072585149554390757 0.016112664591987704 0.091727651288594184 0.086047173233525079 0.044950687558727942 0.018583245505029305 0.021243823341271069 0.028155647646398014 0.18606531610605362 0.07608003753054772 0.012875239940558418 0.00022632424278478874 0.032736672459786856 0.1564024153655689 -0.012050898735629123 0.18304801054396674 0.020255871993429597 0.028152210120077958 0.0071171799727055606 0.22555437668376774 0.058431511640733097 0.022806031049228185 0.0030123824128002832 0.06305679415673153 0.084557811997462484 0.032030034912807502 0.18767692609823178 0.16737153743648092 0.0054234874781044461 0.047776955774146382 0.0096187462349712968 0.284666688604372 0.11950887910588975 0.10943924482296973 0.032009183097869369 -0.015832092321231981 0.25526726088567597 0.19195599084770359 0.032256423322697687 0.031170750410629219 0.041069910852869124 0.11870977473814992 0.060199444082938695 0.29456290389196232 0.046280042643821434 0.12894221260635691 0.027301663703850062 0.28209198537836627 0.1484451432832547 0.074189659639050928 0.25185208679807453 0.008635404669519833 0.030914925267310794 0.068323225596808465 0.12864585924216293 -0.0039638107699693096 0.0093096186253395705 0.15409102839565725 0.02612601057750363
leaf_weight=141781 23614 51 430 268 109 16101 238 1066 6279 649 326 52 79 11557 220 96 67 610 10546 1223 167 52 1334 116 348 71 269 142 593 3398 121 94 154 159 59 167 11716 188 283 1020 286 12496 1158 87 325 5457 152 2054 76 20523 76 2314 1577 151 95 441 913 9369 1184 359 487 70 227 4683 1773 3369 61 99 103 2389 769 138 74 17018 2404 480 403 2075 52 63 88 61 58 155 137 96 1002 560 134 55 15602 91 107 2956
leaf_count=141781 23614 51 430 268 109 16101 238 1066 6279 649 326 52 79 11557 220 96 67 610 10546 1223 167 52 1334 116 348 71 269 142 593 3398 121 94 154 159 59 167 11716 188 283 1020 286 12496 1158 87 325 5457 152 2054 76 20523 76 2314 1577 151 95 441 913 9369 1184 359 487 70 227 4683 1773 3369 61 99 103 2389 769 138 74 17018 2404 480 403 2075 52 63 88 61 58 155 137 96 1002 560 134 55 15602 91 107 2956
internal_value=0 0.0163159 0.142815 0.271134 0.0157733 0.014858 0.0207919 0.00625277 0.0183738 0.0313139 0.0850579 0.05516 0.180606 0.0188599 0.052363 -0.00154631 0.0899013 0.134837 0.0242959 0.0272666 0.0413478 0.0584318 0.0533457 0.0676541 0.0653531 0.0752857 0.0767232 0.111734 0.045906 -0.00558852 0.0784944 0.113949 0.186994 0.08034 0.120385 0.0428196 0.0242745 0.027599 0.0601358 0.0688179 0.0872051 0.0132775 0.0519728 0.106112 0.122831 0.0120558 0.0389986 0.0196232 0.0413548 -0.0077171 0.0188886 0.0314092 0.00874316 0.0392497 0.091473 0.0562103 0.052888 0.0111319 0.0131863 0.110579 0.0274268 0.0947076 0.179217 0.011539 0.0177812 0.0254504 0.210833 0.0367267 0.162415 0.0219187 0.00272591 0.200603 0.108 0.0329062 0.0185935 0.0704848 0.0872137 0.0673244 0.102275 0.145713 0.190458 0.0431533 0.209719 0.154818 0.117641 0.187995 0.0177711 0.00100994 0.0030759 0.0288197 -0.00855817 0.0733603 0.108054 0.0139602
internal_weight=0 210964 901 471 210063 207324 122708 84616 41814 25348 2739 11325 247 119371 11078 16466 3337 819 60479 46977 7793 3499 3386 168 2265 2518 365 752 6498 42802 3285 787 248 539 443 2860 40479 28763 1691 2344 1324 58892 1822 1038 800 14023 203 7610 5905 37267 1142 3537 5535 1404 246 2368 2292 46396 37027 526 4294 418 474 35843 12229 7546 113 2153 174 3645 1256 365 357 17206 5773 1324 844 2498 423 203 140 418 117 475 224 251 1169 3958 6413 968 36125 259 168 13502
internal_count=352745 210964 901 471 210063 207324 122708 84616 41814 25348 2739 11325 247 119371 11078 16466 3337 819 60479 46977 7793 3499 3386 168 2265 2518 365 752 6498 42802 3285 787 248 539 443 2860 40479 28763 1691 2344 1324 58892 1822 1038 800 14023 203 7610 5905 37267 1142 3537 5535 1404 246 2368 2292 46396 37027 526 4294 418 474 35843 12229 7546 113 2153 174 3645 1256 365 357 17206 5773 1324 844 2498 423 203 140 418 117 475 224 251 1169 3958 6413 968 36125 259 168 13502
is_linear=0
shrinkage=0.1


Tree=7
num_leaves=95
num_cat=0
split_feature=0 24 0 0 0 10 0 9 9 3 10 22 22 3 0 24 0 1 0 9 9 9 0 9 9 0 22 0 3 24 1 24 9 9 9 3 1 22 0 9 9 10 0 3 3 24 0 3 24 1 10 0 9 0 10 0 4 9 9 10 0 22 0 1 3 0 3 1 3 6 0 0 0 3 0 3 0 3 9 0 9 9 9 1 9 6 10 3 20 6 1 0 9 0
split_gain=11317.7 1172.86 1318.65 1578.01 1079.07 857.505 1341.88 983.734 873.671 904.513 411.632 319.37 292.376 270.611 267.177 261.925 186.066 161.665 151.047 150.196 386.591 166.977 193.146 161.59 154.824 138.114 266.571 270.542 264.149 367.185 144.136 143.699 135.801 232.772 135.093 129.781 118.582 117.883 115.544 114.471 111.509 105.764 89.1504 183.26 116.422 107.935 104.348 179.871 98.6183 140.882 88.2367 108.301 84.851 84.0289 104.102 83.6447 82.6819 81.7115 81.2502 80.243 75.1309 82.0521 78.5206 74.5621 74.5402 73.6711 71.6268 99.0301 70.9467 69.9564 69.3842 81.5091 67.7727 67.5487 187.571 65.8881 225.374 65.4246 107.384 133.577 114.037 86.6829 83.1111 116.788 126.702 74.6468 64.4468 64.3541 96.1356 63.232 62.193 61.5666 61.1454 61.096
threshold=-0.26707898222574811 0.95000000000000007 0.87359882906059683 0.58035696730265851 5.3545648829478987 0.50000000000000011 2.549922621079499 0.22058823529411767 0.18137254901960786 -0.15795724465558192 1.0000000180025095e-35 0.41666666666666669 0.41666666666666669 2.8693586698337294 0.61008014461844706 0.28333333333333338 4.2105825985053436 2.9375000000000004 -0.18591332453785522 0.44607843137254904 0.5931372549019609 0.43627450980392163 3.9560955389697043 0.15196078431372553 0.13235294117647062 0.36978952730804387 0.75000000000000011 -0.18819395644548995 1.0653206650831357 0.36111111111111122 -0.43749999999999994 0.76041666666666685 0.86764705882352955 0.74019607843137269 0.20098039215686278 0.9216152019002376 0.18750000000000003 0.91666666666666674 1.6545140635312989 0.22058823529411767 0.13235294117647062 0.83333333333333337 0.41371190384419587 2.8693586698337294 -0.11520190023752967 0.17013888888888892 0.87359882906059683 1.4619952494061759 0.28333333333333338 -1.0000000180025095e-35 1.0000000180025095e-35 4.0708654143271543 0.12254901960784315 0.54723183003173581 0.83333333333333337 0.33494814373663601 -0.19385342789598101 0.83823529411764719 0.81862745098039225 0.50000000000000011 1.3727413413989964 0.58333333333333337 -0.215724049750326 -0.31249999999999994 -0.25771971496437046 -0.20719935404586923 -0.68230403800475048 1.6875000000000002 0.29334916864608079 -1.048267326732673 -0.070855700409880318 -0.25383231894487851 -0.22961648438722446 -0.6248218527315913 1.5193058278284475 0.21971496437054636 6.7939225703159156 0.098574821852731601 0.33823529411764713 -0.15087400848833357 0.36764705882352949 0.35784313725490197 0.23039215686274514 2.0625000000000004 0.13235294117647062 -1.293316831683168 0.83333333333333337 1.5142517814726844 0.32608695652173919 -0.34034653465346543 -0.18749999999999997 0.65302403386731356 0.97549019607843146 1.1861882391428504
decision_type=2 2 2 2 2 2 2 2 2 2 2 2 2 2 2 2 2 2 2 2 2 2 2 2 2 2 2 2 2 2 2 2 2 2 2 2 2 2 2 2 2 2 2 2 2 2 2 2 2 2 2 2 2 2 2 2 2 2 2 2 2 2 2 2 2 2 2 2 2 2 2 2 2 2 2 2 2 2 2 2 2 2 2 2 2 2 2 2 2 2 2 2 2 2
left_child=-1 4 3 65 5 6 12 8 16 60 -6 42 91 25 18 19 -7 32 -15 21 -21 22 23 24 52 26 70 35 30 -30 -27 87 33 55 68 -28 -25 -29 57 69 -18 73 72 44 45 -44 47 48 49 -46 51 92 -8 56 -55 77 -32 58 -35 -36 62 -62 -10 -49 -57 -3 -43 -68 -12 -19 71 -13 -11 74 -9 -61 -77 82 -79 -80 81 -81 83 -14 -85 -86 -48 88 -31 -66 -24 -2 -22 -59
right_child=1 2 -4 -5 10 7 15 41 9 11 34 13 17 14 -16 -17 40 39 -20 20 50 -23 90 36 -26 28 27 37 29 31 53 -33 -34 38 59 -37 -38 -39 -40 -41 -42 66 43 -45 46 -47 86 63 -50 -51 -52 -53 -54 54 -56 64 -58 93 -60 75 61 -63 -64 -65 89 -67 67 -69 -70 -71 -72 -73 -74 -75 -76 76 -78 78 79 80 -82 -83 -84 84 85 -87 -88 -89 -90 -91 -92 -93 -94 -95
leaf_value=-0.021849602683327935 0.0091199097696388533 0.13909969294772428 0.0027624282972953298 0.40561405483281843 0.16129506028518631 -0.0031600744728494286 0.071137519506737593 0.0022232401930176414 0.04499888256937272 0.05575406269433926 0.085345739894756328 0.10057902865962165 0.018382559962884206 0.21976950390666139 0.31995210252702239 0.014877911686411741 -0.0043834495287614341 0.22256890218399589 -0.0026975227715937719 0.38638588791968775 0.058004787292807031 0.042916902650766149 0.094738486064346261 0.07957627033483039 0.0058038558633184845 0.12048433320847454 0.14123087800074396 0.12021350645035021 0.33761173623682161 0.039079185106289431 0.20590825183599284 0.23415330094950543 0.012238587939325668 0.034117917578194608 0.085236875281076541 0.31619445002469865 0.1617476722883229 0.031972988081189889 0.10571172354286816 0.039477067604059453 0.11065316029940234 -0.0043943230390493682 0.06895458688529249 0.21584471983294332 0.14733281197563916 0.22060763209112111 0.0083816943742944568 0.05623610489841166 -0.0033595854806609919 0.040619626299788554 0.082912284572499384 0.26026125713184045 0.21411023162353526 0.037561087371082512 0.15008069558641821 0.039841428873917895 0.053378039656521437 0.049095343831290078 -0.015305928384278192 0.025340082774469381 0.020797256407590368 0.10755200741621547 0.0063529307211412193 0.19490245382627872 0.015696933375679064 0.00020369107982045728 0.014000259270422675 0.093713757017006474 0.17797527427700433 0.096265109460382983 0.046357063711456245 0.0024644633825287501 0.01725006579272528 -0.0077023549480251035 0.12815434652860208 0.0064054621981814615 0.20299893917197265 0.011554336960469966 0.14639167902902481 0.023935850945271141 0.016884188545925275 0.07104093205640867 0.0057493179758308574 -0.0056511401412410482 0.21066421849626893 0.084322236326733857 0.11832673138539707 0.025864346124704035 0.18829159187773864 0.028100850412206779 0.20338005367844603 0.01580387490825386 0.17999216711327232 0.12087394711002708
leaf_weight=141781 36139 51 433 265 474 15940 146 1008 550 530 333 92 3619 51 80 656 132 61 76 51 94 1158 74 499 425 353 139 230 82 83 66 70 13388 3374 418 61 271 443 267 353 233 2560 184 62 149 63 1112 58 361 729 613 69 58 1498 87 3027 77 2310 369 1158 362 156 11922 117 7184 152 2810 165 110 156 990 1063 3325 36125 134 151 95 3851 105 655 2141 968 8050 109 71 137 56 142 90 9604 183 22275 73 125
leaf_count=141781 36139 51 433 265 474 15940 146 1008 550 530 333 92 3619 51 80 656 132 61 76 51 94 1158 74 499 425 353 139 230 82 83 66 70 13388 3374 418 61 271 443 267 353 233 2560 184 62 149 63 1112 58 361 729 613 69 58 1498 87 3027 77 2310 369 1158 362 156 11922 117 7184 152 2810 165 110 156 990 1063 3325 36125 134 151 95 3851 105 655 2141 968 8050 109 71 137 56 142 90 9604 183 22275 73 125
internal_value=0 0.0146843 0.128534 0.244899 0.014196 0.0133722 0.0187127 0.00562749 0.0165365 0.028093 0.0765521 0.0472744 0.0167031 0.0645401 0.176809 0.0731307 -0.00154358 0.0216107 0.0866396 0.0834198 0.118979 0.072047 0.092417 0.0777793 0.0401766 0.0603648 0.0458908 0.0924766 0.0775086 0.145476 0.0622559 0.104554 0.0211017 0.0236832 0.0588178 0.194595 0.108496 0.0621295 0.041305 0.0746131 0.0690509 -0.00502967 0.032499 0.0457737 0.0420465 0.107635 0.0357721 0.054043 0.0406388 0.0587293 0.102915 0.154872 0.111787 0.0503609 0.0437372 0.0208095 0.123777 0.0385214 0.0292455 0.0467755 0.00960706 0.0469242 0.00805717 0.148944 0.0253973 0.0350987 0.00786884 0.0184213 0.108346 0.13177 0.0269308 0.0102796 0.0225437 -0.00694539 0.0169997 0.0353247 0.0823257 0.0161963 0.0233758 0.0351424 0.032039 0.0520306 0.011572 0.0234806 0.0816824 0.127449 0.013653 0.0757541 0.116704 0.0227929 0.172098 0.0116687 0.111329 0.0527801
internal_weight=0 210964 901 468 210063 207324 122708 84616 41814 25509 2739 12519 118338 5773 207 4370 16305 59924 127 3714 900 2814 1656 1399 629 5566 3018 873 2548 467 2081 385 59354 45966 2265 200 770 673 6445 570 365 42802 6746 2891 2829 247 2582 1414 1239 878 849 236 204 1728 1585 39521 143 6178 3743 1822 12990 518 12472 175 19815 203 5535 2975 443 217 2145 1155 3855 37267 1142 1404 246 19706 7720 3869 3764 1623 11986 3936 317 208 1168 315 173 16788 257 58414 167 2435
internal_count=352745 210964 901 468 210063 207324 122708 84616 41814 25509 2739 12519 118338 5773 207 4370 16305 59924 127 3714 900 2814 1656 1399 629 5566 3018 873 2548 467 2081 385 59354 45966 2265 200 770 673 6445 570 365 42802 6746 2891 2829 247 2582 1414 1239 878 849 236 204 1728 1585 39521 143 6178 3743 1822 12990 518 12472 175 19815 203 5535 2975 443 217 2145 1155 3855 37267 1142 1404 246 19706 7720 3869 3764 1623 11986 3936 317 208 1168 315 173 16788 257 58414 167 2435
is_linear=0
shrinkage=0.1


Tree=8
num_leaves=95
num_cat=0
split_feature=22 8 8 14 8 24 17 8 22 8 22 2 8 8 2 17 9 9 17 17 9 17 3 2 17 17 20 8 14 9 9 24 3 20 14 3 9 2 3 3 17 11 2 8 9 9 17 2 9 11 22 20 9 17 9 14 3 8 9 8 9 9 2 9 14 2 3 4 24 3 17 24 8 2 17 9 9 20 2 3 5 17 14 17 17 9 24 2 9 2 3 2 14 9
split_gain=1935.77 742.97 481.256 708.377 315.846 510.442 478.277 316.662 251.415 227.094 221.13 210.74 166.093 165.901 161.746 157.545 138.875 451.339 150.648 127.029 119.286 115.351 85.2625 84.5148 82.1532 157.135 81.4519 81.2317 79.0776 76.7079 74.2834 71.8579 67.2931 66.0868 58.8464 57.3423 54.9556 53.7965 75.2647 59.976 53.1432 50.064 48.7355 48.1704 73.9899 45.4319 45.0241 48.3068 44.0801 40.853 45.994 39.2865 37.8957 36.8558 61.9049 39.6992 37.1869 35.432 40.9266 33.8685 33.1667 33.1535 37.4404 32.3128 31.5477 38.438 79.6927 40.0811 31.0492 126.78 30.8649 29.9706 89.1315 51.2692 43.5901 31.8824 52.1912 29.6258 29.0099 28.9587 56.0874 28.9544 43.9348 28.7705 28.2898 28.0908 30.3954 26.9249 49.9986 65.4094 29.8642 26.7748 43.691 26.0432
threshold=0.75000000000000011 0.062500000000000014 0.64583333333333337 0.82894736842105277 0.43750000000000006 0.95000000000000007 0.61111111111110017 0.72916666666666674 0.91666666666666674 1.0000000180025095e-35 0.91666666666666674 1.6086309523809528 0.81250000000000011 0.14583333333333334 2.285714285714286 0.38888888888887158 0.35784313725490197 0.45588235294117652 0.61111111111110017 1.0000000180025095e-35 0.88725490196078438 0.72222222222221444 -0.69109263657957232 2.4270833333333335 0.27777777777777152 0.61111111111110017 0.67391304347826098 0.14583333333333334 0.77631578947368429 0.5931372549019609 0.74019607843137269 0.12361111111111113 1.0653206650831357 0.63043478260869579 0.75000000000000011 -0.56282660332541556 0.21078431372549022 -0.64367559523809514 -0.71769596199524932 -0.6580760095011875 0.38888888888887158 0.30000000000000004 0.09747023809523811 0.14583333333333334 0.88725490196078438 0.40686274509803927 1.0000000180025095e-35 1.4747023809523812 0.014705882352941178 0.70000000000000018 0.58333333333333337 0.282608695652174 0.74019607843137269 0.61111111111110017 0.97549019607843146 0.14473684210526319 -0.56282660332541556 0.31250000000000006 0.073529411764705899 0.31250000000000006 0.25000000000000006 0.54411764705882371 -0.19568452380952378 0.74019607843137269 0.17105263157894737 -0.33258928571428564 -0.32660332541567688 -0.64539007092198553 0.21388888888888893 0.19596199524940619 1.0000000180025095e-35 0.21944444444444447 0.77083333333333337 0.15401785714285718 0.61111111111110017 0.48529411764705888 0.5931372549019609 0.67391304347826098 1.1175595238095239 -0.71769596199524932 -2.0689828801611276 0.61111111111110017 0.51315789473684226 1.0000000180025095e-35 0.16666666666667143 0.18137254901960786 0.17013888888888892 0.12276785714285716 0.52450980392156876 1.8467261904761907 0.45724465558194777 0.36309523809523814 0.72368421052631593 0.97549019607843146
decision_type=2 2 2 2 2 2 2 2 2 2 2 2 2 2 2 2 2 2 2 2 2 2 2 2 2 2 2 2 2 2 2 2 2 2 2 2 2 2 2 2 2 2 2 2 2 2 2 2 2 2 2 2 2 2 2 2 2 2 2 2 2 2 2 2 2 2 2 2 2 2 2 2 2 2 2 2 2 2 2 2 2 2 2 2 2 2 2 2 2 2 2 2 2 2
left_child=1 9 8 10 27 7 14 37 35 16 28 21 22 20 40 63 -1 24 -19 -12 36 78 -9 -8 -18 32 71 34 33 31 68 64 -26 -4 41 -2 -10 38 -6 -40 -7 -3 -32 44 48 -38 60 49 -37 50 -48 -15 -47 54 56 -56 70 58 -55 -57 -39 -35 -63 -11 -14 -66 -67 -68 69 -17 -29 75 73 -73 -75 -21 -77 -45 -5 80 -59 -22 -83 -53 -58 86 -43 -20 89 90 -89 -24 -93 -60
right_child=2 4 3 11 5 6 23 12 13 15 19 -13 29 51 -16 30 17 18 87 26 81 -23 91 -25 25 -27 -28 53 -30 -31 42 -33 -34 61 -36 43 45 46 39 -41 -42 85 -44 77 -46 52 47 -49 -50 -51 -52 83 -54 57 55 59 84 79 93 -61 -62 62 -64 -65 65 66 67 -69 -70 -71 -72 72 -74 74 -76 76 -78 -79 -80 -81 -82 82 -84 -85 -86 -87 -88 88 -90 -91 -92 92 -94 -95
leaf_value=-0.0093057941349622888 0.041766624248680682 -0.02153655801972067 0.060607988383100511 0.23211457833310525 -0.011972330159158618 0.20010223754599124 0.0039417876561326304 0.047287748217485458 0.012288384427507673 -0.0090556492441491322 0.17736737594868129 0.29641938546415547 0.10337655302432797 0.0097490605329472058 0.31773511171340946 -0.0046811453717802267 0.019633667732221818 -0.0028209731128827336 -0.00080814784979604142 0.022066222137463634 -0.0049390651132018466 0.012927029315652629 -0.01291179705746898 0.093202895645787126 0.072983374588974678 0.033379865708695826 0.00585490035981123 0.054375675645148017 0.15886870673583711 -0.0066476859149705711 0.026503909474585197 0.0062651890212671139 0.1321810123974651 0.028341667586200631 -0.020759877862418615 0.0023298692109944698 0.06782240040380258 0.038800281522305073 0.022753765814428676 0.11075675670988859 0.084474024437367914 0.054291062775260052 0.055909328285058339 0.021379172716743017 0.013628312389434098 0.02080525095152326 0.0023597313941233142 0.017894348663623279 0.044173538741519906 -0.0077901272029933955 0.011767804604720126 0.069316608425237819 0.049234536593614493 0.026118857942517334 0.051451742748137234 0.0082054815712610599 -0.0055684213196686531 0.088391695517164318 -0.0049965591019934773 -0.011460347683255632 -0.0078658094924717852 0.1468683298019802 0.044713984422331821 0.016248453369954088 0.013883526868543212 0.15950547820888461 0.093589542313405369 0.019851259829470815 0.0039159844877080076 0.15266188828666744 -0.0025072206141808621 0.17563108003364419 0.012648380060592816 0.11952951818059843 0.037697184775773995 0.14125239004798493 0.036194337132201326 0.0089342267904292273 0.12925290549084401 -0.0090739347566445149 0.00044723246770739418 0.092272540550417448 0.011632187192340084 -0.0012774733935565115 -0.010640665783590396 0.005922993753169745 0.012004125787145124 0.045597035261685126 0.014882650404582141 0.093379683621637732 0.0068039260808049895 0.0067873892317464784 -0.012453334151467751 0.0057500862910538058
leaf_weight=4055 1564 618 2332 58 679 79 381 249 847 686 52 116 63 4729 78 157 638 9796 774 2921 1351 62 23156 147 616 973 2383 97 68 3455 747 4005 279 1327 945 280 528 619 2423 80 80 257 2296 5458 1735 965 33393 2273 2496 3280 6154 58 912 439 165 2517 13111 76 52607 1343 202 51 121 1909 609 60 95 329 630 76 5746 53 341 104 174 58 256 2945 52 32010 1583 73 907 12454 68160 6101 502 419 4855 184 377 1961 2964 2356
leaf_count=4055 1564 618 2332 58 679 79 381 249 847 686 52 116 63 4729 78 157 638 9796 774 2921 1351 62 23156 147 616 973 2383 97 68 3455 747 4005 279 1327 945 280 528 619 2423 80 80 257 2296 5458 1735 965 33393 2273 2496 3280 6154 58 912 439 165 2517 13111 76 52607 1343 202 51 121 1909 609 60 95 329 630 76 5746 53 341 104 174 58 256 2945 52 32010 1583 73 907 12454 68160 6101 502 419 4855 184 377 1961 2964 2356
internal_value=0 -0.00293402 0.0187038 0.037584 -0.00454855 0.00044297 0.0817673 -0.000280027 0.0133747 0.012158 0.0332343 0.192257 -0.00727353 0.00683601 0.199786 0.0286582 0.00748732 0.0110882 0.00505014 0.0217126 0.0218182 0.122007 -0.0109711 0.0287929 0.050615 0.0611964 0.0204258 -0.00684578 0.0519751 0.00488446 0.0413468 0.0126046 0.0914372 0.0500778 0.00275286 0.0236826 0.0341936 0.00498202 0.0175562 0.0255665 0.141925 0.00572419 0.0486908 0.0214924 0.0298281 0.0419082 0.00411072 0.00368824 0.039953 0.00293427 0.00382374 0.00198446 0.0346185 -0.00729442 -0.00870819 0.00341652 -0.0092684 -0.00584782 -0.004293 0.0013632 0.0273185 0.0336958 0.0750039 0.0095592 0.0345676 0.0306015 0.0516372 0.0363728 0.0154513 0.046641 -0.0015629 0.029313 0.0485297 0.0854949 0.0683107 0.0253211 0.0556 0.0170176 0.183489 -0.00840628 0.00447603 0.00455324 0.0176391 -0.000950231 -0.00982239 0.00818004 0.0263226 0.0167169 0.0190415 0.039645 0.0272239 -0.0114877 -0.00479221 -0.0045359
internal_weight=0 304914 47831 10529 275447 86814 765 86049 37302 29467 10241 288 36946 22824 237 6501 22966 18911 16405 6342 5583 172 28330 528 2506 1868 6290 188633 3899 8616 3906 5161 895 3831 8423 14478 3252 49103 3182 2503 159 7478 3043 12914 4511 2405 45921 45100 2776 42827 39547 17241 1877 180210 91139 4025 87114 89071 55402 3860 821 1499 172 2595 1156 1093 484 424 863 233 5843 3907 672 331 278 3235 314 8403 110 33669 1659 2331 980 12512 81271 6860 759 6609 5835 980 796 28081 4925 54963
internal_count=352745 304914 47831 10529 275447 86814 765 86049 37302 29467 10241 288 36946 22824 237 6501 22966 18911 16405 6342 5583 172 28330 528 2506 1868 6290 188633 3899 8616 3906 5161 895 3831 8423 14478 3252 49103 3182 2503 159 7478 3043 12914 4511 2405 45921 45100 2776 42827 39547 17241 1877 180210 91139 4025 87114 89071 55402 3860 821 1499 172 2595 1156 1093 484 424 863 233 5843 3907 672 331 278 3235 314 8403 110 33669 1659 2331 980 12512 81271 6860 759 6609 5835 980 796 28081 4925 54963
is_linear=0
shrinkage=0.1


Tree=9
num_leaves=95
num_cat=0
split_feature=0 0 8 0 12 0 8 2 9 0 9 0 0 8 1 22 0 2 2 8 17 2 8 17 9 9 9 2 9 9 0 0 9 2 1 17 17 8 0 17 1 0 2 17 17 2 22 17 8 0 17 22 2 2 9 0 2 22 0 2 17 1 17 17 9 2 2 1 2 0 18 17 18 2 2 8 0 18 1 22 2 9 7 0 9 9 0 9 2 9 21 17 17 9
split_gain=8684.66 876.283 665.368 1073.4 1831.33 1712.88 1064.44 646.036 550.435 456.03 452.204 335.826 312.198 733.863 309.619 289.984 276.676 269.909 260.596 218.212 186.879 185.074 182.827 166.065 162.042 147.145 686.847 242.961 145.879 202.231 142.063 139.815 139.349 137.355 136.641 134.431 131.893 130.219 357.372 129.597 115.276 115.224 112.41 109.812 105.178 113.246 104.724 102.726 102.72 102.263 100.95 102.599 98.2565 94.6132 94.4234 203.047 94.2826 90.2048 91.1365 179.13 252.374 88.5802 87.6116 86.315 81.8116 81.0901 108.266 80.7579 80.7347 89.8464 79.2215 93.5232 79.3631 74.9126 74.1369 72.7743 88.4123 68.6317 82.3309 68.5228 68.3061 68.1378 67.9479 66.0842 71.7736 85.9948 64.9047 63.6633 62.7421 74.6812 61.0581 60.3783 58.8172 68.6305
threshold=-0.26969979068767275 5.3545648829478987 0.43750000000000006 0.41371190384419587 0.83333333333333337 0.87359882906059683 0.14583333333333334 1.4747023809523812 0.88725490196078438 -0.20117983854055324 0.063725490196078441 0.61008014461844706 0.49704032680904536 0.31250000000000006 2.0625000000000004 0.75000000000000011 2.4368021636438497 -0.33258928571428564 -0.31770833333333326 0.72916666666666674 0.16666666666667143 0.34449404761904767 0.68750000000000011 1.0000000180025095e-35 0.21078431372549022 0.5931372549019609 0.54411764705882371 -0.12574404761904759 0.40686274509803927 0.74019607843137269 1.2128051670486031 0.42863309366918884 0.31862745098039219 0.13764880952380956 -1.0000000180025095e-35 0.72222222222221444 0.83333333333332871 0.81250000000000011 0.87359882906059683 0.72222222222221444 1.3125000000000002 1.3727413413989964 -0.5290178571428571 1.0000000180025095e-35 0.38888888888887158 -0.15252976190476189 0.58333333333333337 0.61111111111110017 1.0000000180025095e-35 -0.22961648438722446 1.0000000180025095e-35 0.41666666666666669 0.99851190476190488 0.1629464285714286 0.97549019607843146 2.549922621079499 2.3824404761904767 0.91666666666666674 0.82734458032399472 0.13020833333333337 0.27777777777777152 -0.31249999999999994 0.72222222222221444 0.16666666666667143 0.12254901960784315 -0.12574404761904759 -0.18229166666666663 0.18750000000000003 -0.60364583333333321 -0.23222122124311945 0.40909090909090923 0.49999999999998584 0.13636363636363641 1.7574404761904765 0.029017857142857147 0.27083333333333337 -0.12473131924083335 0.50000000000000011 0.56250000000000011 0.58333333333333337 -0.62090773809523803 0.23039215686274514 -1.3469929305167636 -0.068973742219020764 0.20098039215686278 0.17156862745098042 0.59540097117022583 0.073529411764705899 -0.67983630952380947 0.24019607843137256 0.53389830508474589 0.83333333333332871 0.72222222222221444 0.54411764705882371
decision_type=2 2 2 2 2 2 2 2 2 2 2 2 2 2 2 2 2 2 2 2 2 2 2 2 2 2 2 2 2 2 2 2 2 2 2 2 2 2 2 2 2 2 2 2 2 2 2 2 2 2 2 2 2 2 2 2 2 2 2 2 2 2 2 2 2 2 2 2 2 2 2 2 2 2 2 2 2 2 2 2 2 2 2 2 2 2 2 2 2 2 2 2 2 2
left_child=-1 2 6 9 10 7 8 -6 24 15 33 -9 20 43 19 68 42 37 64 23 75 -17 34 81 -2 26 32 -28 31 53 -10 -26 50 36 74 52 -5 41 -39 73 -35 -12 63 -14 45 -18 -25 54 -32 -23 -19 65 -31 -30 -45 -56 -7 58 59 61 -61 -53 -55 -15 -3 66 67 -52 69 -4 71 -54 -73 -13 90 -8 -77 78 -62 -43 -21 -11 -74 84 85 -16 -64 -49 -46 -90 -20 -67 93 -70
right_child=1 18 3 4 5 56 12 11 30 14 17 39 13 16 83 21 44 25 22 80 -22 49 -24 46 28 -27 27 -29 29 35 48 -33 -34 40 -36 -37 -38 38 -40 -41 -42 79 -44 47 88 -47 -48 87 -50 -51 51 57 70 62 55 -57 -58 -59 -60 60 77 -63 86 -65 -66 91 -68 -69 92 -71 -72 72 82 -75 -76 76 -78 -79 -80 -81 -82 -83 -84 -85 -86 -87 -88 -89 89 -91 -92 -93 -94 -95
leaf_value=-0.019168890510082793 0.019012684416665489 0.1516535751083318 0.051839607247652922 0.30152129065633443 0.036772918246396176 -0.027614237090295302 0.0066332427195013302 0.11124182623975419 0.0043093685208832107 0.15416925288736821 0.0099755473226805971 0.4601459119834152 0.095588651982213113 0.16466867989410872 0.0066926920586930852 0.078953683064901276 0.17874674647482494 0.15950744510406542 0.19053461017028894 0.026753720847923976 -0.0039949979104173692 0.28772150186520506 0.024321691724231265 0.0073639672241570635 0.047649787544956745 0.017809218457077437 0.42574009700220516 0.15201676810910514 -0.0012791904484203245 0.051839405348988038 0.027844042301823885 0.1016490178942592 0.016694180545206088 0.035668583793957376 0.096036054138191204 0.069737209439375197 0.1232347573312681 0.31327670344066894 0.022207746709547733 0.48710504193459792 0.21512392780184744 0.030965510308426508 0.010983360315799589 -0.00065540990400866613 0.040613702419917581 0.024838457615388668 0.023202793706851157 0.063871296249950929 0.12577510726507427 0.10968545636592003 0.096159570578868703 0.13987623391159137 0.02812003686729013 0.018957596459744989 0.015414014110472713 0.21327803002775841 0.10181882583986138 0.037306624926188629 0.056317319417451488 0.32744458511249341 0.10476758174815225 0.041805421801021439 0.022292869306365964 0.040519344295549674 0.039664830595259132 0.019769908617830061 0.12383228459600813 0.024044721328913377 0.03503782303543429 0.1989456349892206 0.0082238874824258467 0.033053666881496614 0.2484894615506717 0.32596891474934808 0.21586988256451223 0.14025894529453811 0.035402649387959721 0.059962962791323661 0.2572134859075218 0.096414599157077202 -0.0049852179388356387 0.02750521383018914 0.090883224733742107 0.035527731615524138 0.043629794637520425 0.1473658452415359 0.064397286717076882 0.0086087837957089571 0.020404323776290201 0.087743812617113337 0.055394315156154339 0.060014225264442049 -0.0027928684218709232 0.14342721244320275
leaf_weight=141525 5837 68 130 84 77 235 1019 51 12453 116 6096 51 133 58 56 288 161 84 64 715 43446 85 213 13967 3048 1980 59 72 1464 2240 1771 569 1479 126 528 1757 82 55 181 93 50 501 2364 30866 838 68 5954 210 114 52 214 116 587 3548 2419 53 74 1029 1333 67 103 447 609 1625 1603 1985 216 566 2215 61 1437 80 51 226 202 87 1062 135 54 235 13128 67 59 1443 306 194 918 28471 198 979 70 459 421 60
leaf_count=141525 5837 68 130 84 77 235 1019 51 12453 116 6096 51 133 58 56 288 161 84 64 715 43446 85 213 13967 3048 1980 59 72 1464 2240 1771 569 1479 126 528 1757 82 55 181 93 50 501 2364 30866 838 68 5954 210 114 52 214 116 587 3548 2419 53 74 1029 1333 67 103 447 609 1625 1603 1985 216 566 2215 61 1437 80 51 226 202 87 1062 135 54 235 13128 67 59 1443 306 194 918 28471 198 979 70 459 421 60
internal_value=0 0.0128438 0.0121043 0.0212177 0.0409954 0.188336 0.0086022 0.303096 0.0234552 0.0118397 0.0343184 0.351806 0.00384354 0.00811463 0.0085682 0.0473466 0.0406616 0.0320886 0.0689448 0.00631606 -0.00256516 0.124467 0.107303 0.012969 0.0333177 0.0423377 0.048107 0.275297 0.0384193 0.0333909 0.00818208 0.0561446 0.0445156 0.148197 0.12776 0.0463133 0.213452 0.0170107 0.0900416 0.384965 0.0866502 0.014488 0.0250456 0.00482024 0.0688248 0.133045 0.0120979 0.00462558 0.0337667 0.220146 0.0505597 0.0491986 0.0370732 0.0211167 0.000850692 0.0196562 0.00338268 0.0618412 0.0730368 0.0972094 0.152408 0.0620118 0.0275773 0.0447978 0.0442221 0.0371294 0.06118 0.0438301 0.0359936 0.0988211 0.0221335 0.0478582 0.108839 0.350673 0.177612 0.0260883 0.0433422 0.112245 0.157201 0.051863 -0.00334588 0.107795 0.163955 0.0468139 0.0761052 0.115855 0.0476052 0.00901341 0.0615263 0.0764157 0.119939 0.0273281 0.0315425 0.0378964
internal_weight=0 211220 208472 57873 18615 807 150599 498 36542 39258 17808 421 114057 68443 35946 3312 6291 17466 2748 33947 45614 425 1077 20104 22204 10398 8418 131 16367 12750 14338 3617 8287 342 864 6211 166 7068 236 370 176 6832 4047 62152 2244 229 19921 62019 1885 137 6808 6724 4454 6539 33338 2472 309 3284 2255 922 359 563 5075 1683 1671 3440 996 780 2887 191 2214 777 190 277 336 2168 1149 292 157 736 13843 183 110 1999 556 250 1527 28681 2015 1177 134 2444 2696 2275
internal_count=352745 211220 208472 57873 18615 807 150599 498 36542 39258 17808 421 114057 68443 35946 3312 6291 17466 2748 33947 45614 425 1077 20104 22204 10398 8418 131 16367 12750 14338 3617 8287 342 864 6211 166 7068 236 370 176 6832 4047 62152 2244 229 19921 62019 1885 137 6808 6724 4454 6539 33338 2472 309 3284 2255 922 359 563 5075 1683 1671 3440 996 780 2887 191 2214 777 190 277 336 2168 1149 292 157 736 13843 183 110 1999 556 250 1527 28681 2015 1177 134 2444 2696 2275
is_linear=0
shrinkage=0.1


Tree=10
num_leaves=95
num_cat=0
split_feature=23 10 8 14 8 9 9 11 3 1 8 1 9 9 9 8 9 3 1 3 10 1 10 11 3 9 1 8 3 3 8 3 10 8 3 3 14 3 8 19 3 8 9 9 10 21 9 1 14 14 9 9 3 1 3 3 1 11 10 1 3 1 14 8 9 3 1 8 3 8 3 9 14 21 19 9 5 5 14 3 19 1 9 10 14 3 10 13 3 8 9 21 21 3
split_gain=1282.69 520.421 321.702 457.583 316.06 267.282 328.725 352.884 209.708 176.491 174.975 175.532 152.033 147.38 187.936 135.48 127.715 127.622 128.665 111.812 95.928 87.966 96.8553 81.1271 80.3658 74.4588 69.7298 63.5144 157.314 115.806 94.3748 106.958 148.664 128.831 73.1537 72.0884 68.111 63.4 55.9394 52.2112 53.5689 51.171 59.7977 63.1895 48.8496 45.6778 40.8959 39.6562 44.8992 78.8466 39.3412 73.8691 51.0917 63.977 38.9193 38.669 43.3516 36.4295 40.737 34.4597 34.3146 33.2701 32.6006 32.5647 32.0117 31.3916 30.9283 30.704 92.8402 30.5677 30.101 29.8098 29.6781 29.1426 29.0513 28.922 28.394 30.8067 40.9241 27.8107 27.6123 36.9217 27.307 27.1154 38.5311 35.3851 26.9462 61.0199 35.2848 35.3622 57.5729 29.0386 26.7531 26.5352
threshold=1.0000000180025095e-35 0.50000000000000011 0.43750000000000006 0.82894736842105277 0.14583333333333334 0.22058823529411767 0.20098039215686278 0.90000000000000013 3.9144893111638956 1.4375000000000002 0.64583333333333337 2.0625000000000004 0.33823529411764713 0.014705882352941178 0.88725490196078438 0.14583333333333334 0.88725490196078438 3.8669833729216156 -0.68749999999999989 0.12945368171021379 0.83333333333333337 2.4375000000000004 0.50000000000000011 0.50000000000000011 2.9168646080760099 0.014705882352941178 -1.0000000180025095e-35 0.77083333333333337 0.25771971496437057 0.27434679334916873 0.81250000000000011 -0.17458432304038002 1.0000000180025095e-35 0.85416666666666674 -0.58087885985748211 -0.68159144893111623 0.5921052631578948 -0.56282660332541556 0.68750000000000011 0.45000000000000018 4.2945368171021387 0.062500000000000014 0.40686274509803927 0.74019607843137269 0.50000000000000011 0.75423728813559332 0.18137254901960786 1.4375000000000002 0.64473684210526327 0.67105263157894746 0.20098039215686278 0.16176470588235295 -0.6580760095011875 2.8125000000000004 -0.71769596199524932 -0.72197149643705449 -0.68749999999999989 0.50000000000000011 0.83333333333333337 3.1875000000000004 0.75178147268408557 0.93750000000000011 0.11842105263157895 0.31250000000000006 0.74019607843137269 1.0653206650831357 2.5625000000000004 0.64583333333333337 -0.69109263657957232 1.0000000180025095e-35 -0.65237529691211393 0.13235294117647062 0.19736842105263161 0.51694915254237295 0.68333333333333346 0.13235294117647062 -0.77593152064451143 1.0000000180025095e-35 0.72368421052631593 2.9168646080760099 0.58333333333333359 2.4375000000000004 0.50490196078431382 1.0000000180025095e-35 0.19736842105263161 -0.31947743467933487 0.50000000000000011 0.75000000000000011 1.8954869358669837 0.27083333333333337 0.38725490196078433 0.72033898305084754 0.95762711864406791 -0.49798099762470305
decision_type=2 2 2 2 2 2 2 2 2 2 2 2 2 2 2 2 2 2 2 2 2 2 2 2 2 2 2 2 2 2 2 2 2 2 2 2 2 2 2 2 2 2 2 2 2 2 2 2 2 2 2 2 2 2 2 2 2 2 2 2 2 2 2 2 2 2 2 2 2 2 2 2 2 2 2 2 2 2 2 2 2 2 2 2 2 2 2 2 2 2 2 2 2 2
left_child=1 4 15 21 13 6 20 45 17 67 63 62 24 -1 19 16 25 -9 -19 46 71 27 38 50 26 -2 -5 28 34 -30 35 32 33 -32 44 -29 82 55 70 40 -10 42 65 92 61 54 -15 48 73 -50 51 -13 -53 80 -8 56 -17 58 -36 -7 -45 -4 -12 72 -48 -21 75 -6 -69 -18 -23 -3 -11 -38 83 -22 -51 78 -78 -47 81 -54 -31 85 -85 -52 87 -39 89 -88 91 -91 -44 -60
right_child=2 5 3 12 9 59 7 8 39 10 11 23 -14 14 -16 37 69 18 -20 41 66 22 -24 -25 -26 -27 -28 30 29 36 31 -33 -34 -35 57 -37 47 86 -40 -41 -42 -43 43 60 -46 79 64 -49 49 76 74 52 53 -55 -56 -57 -58 -59 93 -61 -62 -63 -64 -65 -66 -67 -68 68 -70 -71 -72 -73 -74 -75 -76 -77 77 -79 -80 -81 -82 -83 -84 84 -86 -87 88 -89 -90 90 -92 -93 -94 -95
leaf_value=-0.0079290295221296388 -0.0025909693734718527 -0.013409905226320476 0.01602067612653256 0.073213692763820296 -0.0031471550932792424 -0.010175437007299261 -0.030730685074052012 0.071979424422068047 -0.02597119464324071 -0.014018961772867298 0.073553549966368925 0.0047507042712014586 -0.0079113083332777029 0.048189586792951045 0.0027519744403445992 0.13718227248050666 0.0046749693448800067 0.095526724342595459 0.26335000929079561 0.032756338221996473 0.0052958856442004354 0.10400404661583405 0.011516776245490121 0.1785234989781006 0.25377198396896827 0.03356134506126851 0.20789544614082256 0.11344375970931549 0.18023818212791118 -0.00045536442184931203 0.27511791478589936 0.017041241493000726 0.030236560284094355 0.074518311588825395 0.026433040265697628 -0.0048866035922999597 0.17675720158160901 0.01123786384367274 0.059927955874241892 -0.027914188047985972 0.10126245614591536 0.012179012579107357 0.012822989730210269 0.045803596728002244 -0.0018173835805407183 0.0086974062053525748 0.00063209430012478455 0.15572429472208024 -0.029762104810359555 0.023546824361181867 0.13953090954285402 0.056033158810115863 0.11014665000570507 0.19227061678655447 0.0017381392128173274 0.016517422895791865 0.012732818508520722 0.096433835894596295 0.022416217538729771 0.055485715810209515 0.025114098104420914 0.077130424010434323 0.0077126243887744531 -0.0025045532305593724 0.018402581464848567 0.056933814606418533 -0.033881195795536043 0.059286602079349396 0.00037707715781227504 0.041979483167377062 0.20306878611970114 -0.0071190064165065382 0.0098958004847804031 0.080025378698483113 0.0055125706590329997 0.032164469698457723 0.073643928685530283 0.055505939200211844 0.16487956976929269 0.064213439281825185 0.13535247869671338 -0.010205591758247465 0.05652319101823701 0.06343875563768453 0.0017177604841000123 0.039628947739346103 -0.0030389508456353052 -0.0042169475578381545 0.028822424355157878 0.045054928585886958 0.0023795752024549682 0.13696571934316309 0.042936625631318177 0.086419042453933989
leaf_weight=4012 637 14479 245 80 81054 87760 376 242 52 566 78 144 50 230 12130 57 3835 88 95 1582 864 54 148 51 98 5392 74 53 77 253 59 1035 213 70 3898 1800 51 10425 100 162 91 2945 4082 1316 1454 10735 4007 50 97 118 65 274 52 80 20337 4124 55 82 97 80 2051 140 2097 5379 1357 813 125 271 20866 233 71 15700 6239 80 234 747 136 264 77 91 63 50 126 215 191 78 7389 3384 411 110 384 50 318 195
leaf_count=4012 637 14479 245 80 81054 87760 376 242 52 566 78 144 50 230 12130 57 3835 88 95 1582 864 54 148 51 98 5392 74 53 77 253 59 1035 213 70 3898 1800 51 10425 100 162 91 2945 4082 1316 1454 10735 4007 50 97 118 65 274 52 80 20337 4124 55 82 97 80 2051 140 2097 5379 1357 813 125 271 20866 233 71 15700 6239 80 234 747 136 264 77 91 63 50 126 215 191 78 7389 3384 411 110 384 50 318 195
internal_value=0 -0.00238834 0.0152252 0.0299325 0.00173126 -0.00653141 -0.00162616 0.00549102 0.0742273 -0.000738901 0.0090773 0.0282126 0.151376 0.0101001 0.0124462 0.0106521 0.0205033 0.119632 0.182648 0.0187342 -0.00882228 0.0266114 0.0743469 0.0545665 0.18298 0.0297416 0.137931 0.0249426 0.0300262 0.0612072 0.0132331 0.033062 0.0815457 0.166265 0.0232451 -0.00150209 0.0538866 0.00688285 0.115675 0.0109583 0.0549957 0.0237857 0.0271493 0.0228896 0.00656925 0.00390006 0.00689823 0.0692547 0.0640014 0.0538388 0.0501946 0.0681197 0.0857019 0.118882 0.00114874 0.018092 0.0760687 0.0304236 0.0291318 -0.0101156 0.0332006 0.0382424 0.0100738 0.00331034 0.00512772 0.0409636 0.0140365 -0.00226199 0.00113236 0.00681163 0.160273 -0.0101372 0.00790671 0.117684 0.0350165 0.0177545 0.0674679 0.0783331 0.106626 0.00916406 0.0833003 0.0511505 0.0184874 0.047592 0.0344025 0.0850389 0.00473949 0.00745055 0.000252792 -0.00122737 0.0233788 0.0737771 0.0149994 0.0651578
internal_weight=0 304914 47831 11345 152890 152024 64184 32269 730 118047 15856 3672 302 34843 30831 36486 10097 425 183 18701 31915 11043 373 1497 252 6029 154 10670 7440 1329 3230 1377 342 129 6111 1853 1252 26389 225 305 143 13107 10162 7767 1839 31539 5594 873 823 692 1446 663 519 245 20713 4236 112 4272 4190 87840 3367 385 2175 12184 5364 2395 1736 102191 21137 4068 125 30179 6805 131 783 1611 595 477 213 10826 165 102 379 549 406 143 22153 13809 8344 7933 544 160 4400 292
internal_count=352745 304914 47831 11345 152890 152024 64184 32269 730 118047 15856 3672 302 34843 30831 36486 10097 425 183 18701 31915 11043 373 1497 252 6029 154 10670 7440 1329 3230 1377 342 129 6111 1853 1252 26389 225 305 143 13107 10162 7767 1839 31539 5594 873 823 692 1446 663 519 245 20713 4236 112 4272 4190 87840 3367 385 2175 12184 5364 2395 1736 102191 21137 4068 125 30179 6805 131 783 1611 595 477 213 10826 165 102 379 549 406 143 22153 13809 8344 7933 544 160 4400 292
is_linear=0
shrinkage=0.1


Tree=11
num_leaves=95
num_cat=0
split_feature=0 0 16 2 0 10 0 16 2 0 16 9 16 2 0 16 9 0 0 16 8 2 0 22 0 2 0 24 0 16 8 0 0 24 10 2 8 0 8 8 2 16 10 16 15 9 2 22 2 16 16 9 2 8 0 0 22 24 8 10 6 9 21 2 8 2 2 20 6 22 16 16 24 2 8 2 9 21 0 0 2 6 0 0 2 2 6 16 9 2 0 24 24 24
split_gain=6657.94 722.556 637.865 1297.15 1223.82 1150.7 1006.78 583.194 515.114 389.958 361.192 330.386 297.227 200.149 191.51 203.272 284.581 168.232 163.882 220.643 234.711 162.327 153.18 197.77 168.341 166.728 222.095 186.453 174.542 147.541 142.123 241.768 171.78 231.655 130.992 128.958 126.039 125.668 125.348 953.589 439.707 135.505 123.479 122.659 117.833 114.198 113.674 111.482 111.171 138.661 188.472 194.643 106.871 103.726 103.123 102.576 97.6826 213.14 97.0933 96.8964 91.933 91.1371 86.9051 82.7817 78.8227 122.935 78.087 76.883 97.8529 74.9455 74.3974 73.7654 73.6858 107.592 72.2203 86.666 136.166 70.6646 70.4782 70.3382 150.503 70.2773 68.3209 68.1214 67.9936 89.6103 71.8063 67.507 65.7481 91.4 142.184 65.522 65.4738 309.547
threshold=-0.26707898222574811 5.3545648829478987 0.83290193939598234 1.7574404761904765 0.56385605994232313 0.50000000000000011 2.549922621079499 0.045962030184042699 -0.21056547619047616 0.7651132916388681 0.62533800398021244 0.88725490196078438 0.024646522523129818 0.076636904761904781 4.3858439614245173 0.38420979457018156 0.13235294117647062 -0.23465098072391341 0.59540097117022583 0.022003771856314035 0.27083333333333337 -0.68876488095238086 0.32320831105384207 0.75000000000000011 -0.18819395644548995 1.4747023809523812 0.88950444927121708 0.17638888888888893 0.87359882906059683 0.008253808242011617 0.64583333333333337 -0.13549482671835397 1.3090851731391668 0.071527777777777787 1.0000000180025095e-35 0.47991071428571436 0.31250000000000006 0.61008014461844706 0.72916666666666674 0.85416666666666674 -0.12574404761904759 0.039988264655009979 0.83333333333333337 0.83290193939598234 0.63043478260869579 0.24019607843137256 -0.65319940476190463 0.75000000000000011 0.51562500000000011 0.17164320874359809 0.39152102174102893 0.60294117647058831 0.54985119047619058 0.14583333333333334 0.38341613520700951 3.2533240944980681 0.41666666666666669 0.36111111111111122 1.0000000180025095e-35 0.50000000000000011 0.46905940594059403 0.72058823529411775 0.44915254237288144 -0.046874999999999993 0.64583333333333337 -0.59516369047619044 2.3526785714285716 0.80434782608695665 0.55940594059405946 0.91666666666666674 0.020146186242682652 0.0028534047054750143 0.28333333333333338 0.93898809523809534 0.27083333333333337 -0.21056547619047616 0.85784313725490213 0.94067796610169496 1.9589514642368919 1.2784029330233997 -0.674032738095238 -0.850247524752475 0.72401618706782578 -0.10034440874712115 -0.67983630952380947 0.67633928571428592 -1.1621287128712869 0.13549765676107547 0.43627450980392163 -0.31770833333333326 6.7939225703159156 0.011805555555555557 0.28333333333333338 0.25000000000000006
decision_type=2 2 2 2 2 2 2 2 2 2 2 2 2 2 2 2 2 2 2 2 2 2 2 2 2 2 2 2 2 2 2 2 2 2 2 2 2 2 2 2 2 2 2 2 2 2 2 2 2 2 2 2 2 2 2 2 2 2 2 2 2 2 2 2 2 2 2 2 2 2 2 2 2 2 2 2 2 2 2 2 2 2 2 2 2 2 2 2 2 2 2 2 2 2
left_child=43 2 5 8 17 6 7 11 34 47 13 18 44 -3 15 84 -17 -5 19 20 71 70 23 67 52 27 60 -24 35 -13 32 77 53 81 82 92 72 -37 41 40 62 58 79 59 -8 -16 -33 66 49 -35 51 -51 -25 -9 -55 91 -39 -58 -20 -1 -27 -53 -40 -47 -23 -66 -6 -10 -69 -26 -22 -2 -15 -74 -56 76 -76 -32 -60 -7 -81 -34 -4 -70 -14 86 -86 -88 -12 -90 -91 -44 93 -29
right_child=1 10 3 4 9 42 12 30 22 -11 88 29 14 36 45 16 -18 -19 38 -21 21 64 25 24 69 26 -28 28 -30 -31 31 46 33 48 -36 37 -38 56 39 -41 -42 -43 55 -45 -46 63 -48 -49 -50 50 -52 61 -54 54 74 -57 57 -59 78 -61 -62 -63 -64 -65 65 -67 -68 68 83 -71 -72 -73 73 -75 75 -77 -78 -79 -80 80 -82 -83 -84 -85 85 -87 87 -89 89 90 -92 -93 -94 -95
