tree
version=v4
num_class=1
num_tree_per_iteration=1
label_index=0
max_feature_idx=18
objective=regression
feature_names=Column_0 Column_1 Column_2 Column_3 Column_4 Column_5 Column_6 Column_7 Column_8 Column_9 Column_10 Column_11 Column_12 Column_13 Column_14 Column_15 Column_16 Column_17 Column_18
feature_infos=[-0.26971253759149577:7.5138080368411648] [-1.625:8.375] [-0.70386904761904767:5.3065476190476186] [-0.72565320665083133:4.9002375296912115] [-4:1.9257425742574255] [0:1] [0:1] [0:1] [0:1] [0:1] [0:1] [0:1] [0:1.0000000000000002] [0:1] [0:1] [0:1] [0:1] [0:1] [0:1]
tree_sizes=8493 8456 8510 8496 8573 8598 8643 8542 8734 8660 8787 8696 8673 8743 8769 8645 8864 8812 8745 8860 8850 8710 8815 8809 8929 8881 8938 8871 8883 8883 8960 8796 8911 8805 8942 9014 8992 8947 8892 8973 8935 9043 8939 9051 8842 8880 9033 8766 8869 9001 8967 8864 8959 8902 8995 8904 8957 8876 8900 8836 8851 8821 8804 9036 8826 9090 9065 8831 8912 8932 8793 8898 8886 8925 8730 8747 8958 8992 8951 8850 8899 9008 9024 9029 8992 8902 9039 8999 9132 8888 8910 9011 9023 8953 8857 8878 8793 8978 8932 8885 9042 8932 8992 8849 8912 8972 8930 8933 8830 8910 9099 9038 8818 9076 8942 9009 8907 8831 9038 8970 8920 8876 9119 9243 8940 8894 9035 9081 8818 8792 9092 9175 9075 9092 9036 8888 9004 9006 8858 8861 9064 9056 8934 9024 8992 8933 9044 8874 8894 9028 8767 8865 8865 8992

Tree=0
num_leaves=95
num_cat=0
split_feature=0 18 12 0 7 12 0 2 12 0 0 16 11 12 5 2 0 0 16 12 0 0 13 0 18 7 5 1 0 6 2 0 1 2 13 0 12 18 13 11 0 6 1 6 12 16 5 2 16 0 6 11 11 0 5 12 13 0 6 12 0 13 2 12 5 2 16 16 12 0 6 16 2 0 12 0 3 1 2 4 6 10 5 3 12 1 12 5 12 14 0 3 0 0
split_gain=31051.3 4150.75 5282.34 3501.49 2340.22 4714.88 4606.22 2071.07 1742.19 1170.59 1164.15 1062.91 956.108 679.01 1796.15 678.684 1585.13 1225.18 651.223 623.717 581.691 569.36 559.913 522.573 470.509 460.4 459.997 499.877 420.56 373.906 368.019 350.18 336.29 314.98 328.284 282.515 418.06 274.97 272.395 269.429 268.95 294.96 413.128 319.978 248.049 240.949 231.563 264.6 228.415 225.326 220.963 205.026 203.105 209.311 198.782 250.521 196.511 193.119 186.739 186.144 183.816 183.253 185.074 183.235 178.284 193.723 172.08 165.875 155.907 154.038 149.362 145.275 159.987 143.248 143.232 140.234 483.344 140.217 142.116 140.166 139.61 141.578 137.057 177.102 275.46 134.849 134.708 134.337 132.316 130.93 127.299 124.651 124.026 121.946
threshold=-0.26970744607323316 0.95000000000000007 0.83290193939598234 0.57404044509283525 0.50000000000000011 0.83290193939598234 3.0100705288608665 -0.20610119047619044 0.035204119933387373 5.3468524620142519 0.88388881878144987 0.75000000000000011 0.72368421052631593 0.020146186242682652 0.22916666666666669 1.4895833333333337 0.60544052718457897 0.88388881878144987 0.58333333333333337 0.006472824096983589 0.60544052718457897 4.8310626800666592 1.0000000180025095e-35 -0.21268237270024101 0.22361111111111115 0.83333333333333337 0.64583333333333337 2.0625000000000004 0.068174420032004093 0.31862745098039219 -0.5513392857142857 -0.24228770594028448 -0.68749999999999989 1.6383928571428574 0.49999999999998584 0.37889216989472391 0.044381358879412448 0.073611111111111127 1.0000000180025095e-35 0.40789473684210531 0.58975473953301383 0.24019607843137256 2.0625000000000004 0.17156862745098042 0.38420979457018156 0.41666666666666669 1.0000000180025095e-35 0.16889880952380956 0.91666666666666674 0.4884808476809675 0.13235294117647062 0.51315789473684226 0.82894736842105277 0.77370469738159031 0.31250000000000006 0.044381358879412448 1.0000000180025095e-35 0.80456742775345502 0.85784313725490213 0.13549765676107547 6.7450774712643673 0.27777777777777152 0.072172619047619055 0.023229395353967734 0.81250000000000011 -0.28199404761904756 0.75000000000000011 0.91666666666666674 0.075440764850343719 -0.0016863771666758914 0.17156862745098042 0.58333333333333337 -0.42038690476190471 1.7608375059020343 0.0080623045705032273 1.2615361653843113 -0.6661520190023752 3.4375000000000004 0.13913690476190479 0.39480198019801976 0.33823529411764713 1.0000000180025095e-35 0.64583333333333337 -0.72197149643705449 0.021448411208939703 -0.43749999999999994 0.62533800398021244 0.68750000000000011 0.16621925025546594 0.50000000000000011 1.3875605122847088 -0.18408551068883608 0.42189880272466701 -0.20699565470536982
decision_type=2 2 2 2 2 2 2 2 2 2 2 2 2 2 2 2 2 2 2 2 2 2 2 2 2 2 2 2 2 2 2 2 2 2 2 2 2 2 2 2 2 2 2 2 2 2 2 2 2 2 2 2 2 2 2 2 2 2 2 2 2 2 2 2 2 2 2 2 2 2 2 2 2 2 2 2 2 2 2 2 2 2 2 2 2 2 2 2 2 2 2 2 2 2
left_child=-1 4 -3 31 6 9 8 56 13 25 -5 15 69 46 57 22 -17 52 40 39 82 44 -9 -14 -11 38 48 35 93 37 -23 -4 -26 34 -25 -28 89 -22 -6 -8 41 42 70 -44 59 51 -2 73 -20 -27 -46 92 -18 -54 88 64 -7 63 -57 -21 86 62 -47 -15 -56 -66 75 -68 -43 -13 -10 -58 90 -48 -49 -40 -77 78 -39 -65 81 -38 83 84 -16 -71 -34 -32 -42 91 -73 -37 -30 -24
right_child=1 2 3 10 5 7 19 11 18 24 -12 12 23 14 20 16 17 -19 26 21 29 30 28 33 32 49 27 -29 45 -31 87 -33 60 -35 -36 36 80 77 66 -41 54 68 43 -45 50 61 47 74 -50 -51 -52 -53 53 -55 55 58 71 -59 -60 -61 -62 -63 -64 79 65 -67 67 -69 -70 85 -72 72 -74 -75 -76 76 -78 -79 -80 -81 -82 -83 -84 -85 -86 -87 -88 -89 -90 -91 -92 -93 -94 -95
leaf_value=-0.072492880820777969 0.038256379138718419 -0.0070690293098181747 1.0094395748252289 1.5112042071013452 0.26185109794436334 0.32102226538083123 0.41560214591843969 0.65627307926362921 0.00983820790009814 0.11104768622592692 0.17523158031895197 0.34905641381176938 1.1706199232358583 0.19454862468347156 0.44548611615678996 0.11535203589558719 0.50062803735083505 0.24810907174127234 0.070680939091625317 0.24064447120945695 1.0962635590110834 0.24740305000324267 0.11326759753406129 0.72477972332347362 1.3920931491727251 0.0070251551658824336 0.071464811219199134 0.3423027537341769 0.085623320382506821 0.12683923757066906 0.51054616376435347 0.11708311508799657 0.44232636911133161 1.1016492054834581 0.26661351474682821 0.88885057406159129 0.043234456754514108 0.6187715170637893 -0.036407442254974158 1.2655587785630329 0.053796102786912964 0.033995910090622389 -0.005138556369532604 0.30997698087235359 0.58478181199066959 0.14766379911657856 0.041891228782758236 0.16409740361152195 0.033500325281920595 0.081429505784051934 0.13942798875071288 0.094709343970917403 1.649362333816297 1.0060385087231414 0.13229699277745485 0.064775530861044345 0.026186577087474926 0.2574536487281589 0.26835210560811718 0.44447397631096119 0.6537613821004622 0.18252186855570249 0.50175566050616605 0.093024727657147407 1.0087546820516007 0.33536296722295988 0.048051444465854756 -0.012081616328978069 -0.0045877641930544555 0.35278096773926909 0.071000961821446856 0.036500592736690568 0.1284166305246352 0.24759780877827001 0.095083402291825714 0.41248574961439277 -0.015750565065179755 0.72352351978169049 0.15410664332765744 0.18958312595716328 0.11543188921043936 0.35574345059091794 0.067616847235180397 -0.0053730757498878347 -0.018470559091576206 0.16581504937305133 0.11165863399601809 0.29058709593750504 0.023360779908508444 1.0454952742344297 0.27194056516228388 0.093145430360779116 0.27160776038555279 0.036029639071700759
leaf_weight=141523 6259 455 20 260 137 100 26 76 3576 1307 29 314 52 5195 91 386 10.999999999999998 78 16166 1295 24 532 1194 94 12.999999999999998 4322 2938 386 204 420 569 146 88 30 187 13.999999999999998 78 36 23233 35 10808 5574 188 410 46 95 4131 1637 11180 2612 1426 2861 55 32 86 2725 9686 1257 193 208 61 1437 156 1604 25 54 2508 6837 16860 180 2886 2779 1319 140 4536 106 19481 36 98 962 768 226 2245 3546 117 1081 112 138 12122 26 95 18 483 2594
leaf_count=141523 6259 455 20 260 137 100 26 76 3576 1307 29 314 52 5195 91 386 11 78 16166 1295 24 532 1194 94 13 4322 2938 386 204 420 569 146 88 30 187 14 78 36 23233 35 10808 5574 188 410 46 95 4131 1637 11180 2612 1426 2861 55 32 86 2725 9686 1257 193 208 61 1437 156 1604 25 54 2508 6837 16860 180 2886 2779 1319 140 4536 106 19481 36 98 962 768 226 2245 3546 117 1081 112 138 12122 26 95 18 483 2594
internal_value=3.45172e-10 0.0485717 0.474793 0.956654 0.0467275 0.0214611 0.0643436 0.0935037 0.0570546 -0.0088393 1.37714 0.155977 0.291155 0.0967128 0.126673 0.128863 0.342159 0.839589 0.0423672 0.268334 0.0475023 0.259143 0.11569 0.583768 0.161003 -0.0133724 0.065188 0.124791 0.111138 0.232912 0.373059 0.224596 0.399296 0.485645 0.419879 0.104152 0.189138 0.462554 -0.0197924 0.903282 0.0292932 0.0162188 0.0518718 0.210911 0.211701 0.147862 0.0686756 0.0869056 0.0554802 0.0350529 0.153345 0.118269 1.31036 1.41274 0.0441171 0.0917974 0.0416622 0.184729 0.0782403 0.268852 0.349846 0.210063 0.367737 0.172951 0.331552 0.548462 -0.0205321 0.00405682 0.00499882 0.223715 0.0371542 0.0396494 0.0707491 0.0486341 0.113385 -0.0258984 -0.0134331 0.373089 0.278942 0.129225 0.160841 0.27556 0.0285256 0.00514791 0.18451 0.192503 0.257152 0.467612 0.0377064 0.712128 0.0442831 0.441266 0.216381 0.0603755
internal_weight=0 211222 910 455 210312 86396 123916 25579 119641 60817 289 11600 1938 32334 15631 9662 562 176 87307 4275 6613 4214 9100 363 1581 59236 31800 4454 9024 614 1239 166 274 311 281 4068 1130 194 52302 61 55507 29494 7060 598 2975 5236 16703 10444 27346 6934 1472 3548 98 87 26013 3083 13979 9018 2918 1503 261 1688 251 7761 165 79 52165 9345 22434 1575 6462 13879 4193 4271 6173 42820 19587 170 134 2566 1072 304 5999 3754 208 1261 200 707 22930 58 2874 32 687 3788
internal_count=352745 211222 910 455 210312 86396 123916 25579 119641 60817 289 11600 1938 32334 15631 9662 562 176 87307 4275 6613 4214 9100 363 1581 59236 31800 4454 9024 614 1239 166 274 311 281 4068 1130 194 52302 61 55507 29494 7060 598 2975 5236 16703 10444 27346 6934 1472 3548 98 87 26013 3083 13979 9018 2918 1503 261 1688 251 7761 165 79 52165 9345 22434 1575 6462 13879 4193 4271 6173 42820 19587 170 134 2566 1072 304 5999 3754 208 1261 200 707 22930 58 2874 32 687 3788
is_linear=0
shrinkage=1


Tree=1
num_leaves=95
num_cat=0
split_feature=0 18 12 0 16 0 5 12 7 0 12 12 2 0 0 2 12 6 0 12 0 2 0 0 7 5 1 16 0 6 0 0 5 0 12 12 5 1 16 13 0 12 11 2 5 2 13 0 2 2 0 2 13 0 4 7 0 3 13 13 12 18 0 6 2 13 13 12 6 0 3 12 12 7 0 3 18 12 13 0 3 2 4 11 12 2 6 13 1 3 8 13 0 7
split_gain=19892.3 2663.42 3397.05 2229.01 1588.52 1048.35 1073.82 1042.33 1138.73 1322.79 885.626 1280.95 910.224 773.706 704.798 574.318 533.128 496.958 474.198 339.77 332.125 804.1 338.257 648.047 329.195 324.288 486.3 313.868 380.57 303.205 284.788 387.192 278.854 264.255 257.681 297.74 255.465 282.731 254.863 428.795 246.218 234.562 233.275 230.877 227.466 223.804 215.169 206.814 204.888 181.307 170.387 166.562 155.191 152.294 149.268 148.506 146.248 148.442 144.334 142.831 138.822 129.616 127.181 138.8 176.962 126.542 126.264 125.517 128.065 150.734 124.792 121.088 121 120.907 138.67 116.257 148.551 114.235 199.962 114.189 144.944 117.018 132.136 113.728 112.266 110.599 110.503 109.733 128.063 117.169 109.244 107.806 107.494 106.168
threshold=-0.26633405140552918 0.95000000000000007 0.83290193939598234 0.58975473953301383 0.58333333333333337 5.3468524620142519 0.14583333333333334 0.83290193939598234 0.50000000000000011 2.5741316470054221 0.83290193939598234 0.15641081520814923 0.060267857142857144 0.85147889707256652 2.5741316470054221 -0.20312499999999997 0.62533800398021244 0.88725490196078438 5.3468524620142519 0.006472824096983589 0.32038696294648356 1.4895833333333337 0.60544052718457897 0.81991744893367557 0.50000000000000011 0.43750000000000006 2.0625000000000004 0.75000000000000011 -0.20392554785313804 0.88725490196078438 0.60544052718457897 0.74632965264091788 0.062500000000000014 3.2734758197884397 0.038530921714831128 0.020146186242682652 0.64583333333333337 2.0625000000000004 0.91666666666666674 0.61111111111110017 -0.24228770594028448 0.039988264655009979 0.51315789473684226 -0.42038690476190471 0.27083333333333337 0.076636904761904781 1.0000000180025095e-35 0.3932509169505119 0.52752976190476197 0.50074404761904778 2.0696050246286224 -0.11235119047619047 0.61111111111110017 -0.0812396073342012 -0.03465346534653465 0.50000000000000011 0.8677183386591476 1.0688836104513066 1.0000000180025095e-35 0.61111111111110017 0.079278498427371863 0.37638888888888894 0.58975473953301383 0.063725490196078441 0.14657738095238099 0.27777777777777152 1.0000000180025095e-35 0.38420979457018156 0.13235294117647062 4.3782172492361342 1.0961995249406178 0.020146186242682652 0.0088857703579893043 0.83333333333333337 3.0100705288608665 0.8325415676959621 0.35000000000000003 0.64998261146662717 0.72222222222221444 -0.24602961847669422 2.6318289786223281 1.5714285714285716 0.40965346534653457 0.56578947368421062 0.008253808242011617 1.4895833333333337 0.43627450980392163 0.16666666666667143 0.68750000000000011 2.9168646080760099 0.50000000000000011 0.38888888888887158 4.3782172492361342 1.0000000180025095e-35
decision_type=2 2 2 2 2 2 2 2 2 2 2 2 2 2 2 2 2 2 2 2 2 2 2 2 2 2 2 2 2 2 2 2 2 2 2 2 2 2 2 2 2 2 2 2 2 2 2 2 2 2 2 2 2 2 2 2 2 2 2 2 2 2 2 2 2 2 2 2 2 2 2 2 2 2 2 2 2 2 2 2 2 2 2 2 2 2 2 2 2 2 2 2 2 2
left_child=-1 4 -3 40 5 6 17 8 9 25 11 14 43 -5 29 66 45 34 24 -11 46 42 -23 -24 33 47 62 30 48 32 -14 52 41 -13 35 93 -34 -38 39 70 -4 71 -22 50 -16 -7 53 72 -29 67 -12 -20 75 -17 -28 -39 57 -44 -10 -19 -46 -41 -27 64 -64 -59 -9 91 -69 -70 -30 -6 -8 -60 -75 -32 -77 78 -35 80 -48 82 -82 -33 -31 -85 -71 88 -40 -89 -45 92 -21 -2
right_child=1 2 3 13 10 16 7 15 58 19 12 18 27 -15 44 20 -18 59 51 49 21 22 23 -25 -26 26 54 28 38 84 31 83 36 77 -36 -37 37 55 87 61 -42 -43 56 90 60 -47 79 -49 -50 -51 -52 -53 -54 -55 -56 -57 -58 65 73 -61 -62 -63 63 -65 -66 -67 -68 68 69 86 -72 -73 -74 74 -76 76 -78 -79 -80 -81 81 -83 -84 85 -86 -87 -88 89 -90 -91 -92 -93 -94 -95
leaf_value=-0.057923908861251219 0.076355328085939186 -0.0056552237738947296 0.86443329986773054 1.2260374062617307 0.07920274832834423 0.23629446494154671 0.096585741502071776 0.29364968494210447 0.24556478408378252 0.950281869281422 0.041217328437491624 0.034190748412368077 0.09642007573891212 0.20988423307152357 0.50828748111337141 1.0252479221423467 0.069881814037937501 0.0049277287455011679 0.11383492710695514 0.31456729800408256 0.22663390989349802 0.050107511478226369 1.1204037941578362 0.25615854948314271 -0.0041921998729826581 0.025483895088247655 0.25374856232565696 0.41797501572336143 0.56309631605495203 0.19780778912528665 0.50947038803030464 0.83818560920655727 0.056691845239934757 0.62038573573247113 0.052488703103358486 0.136974476021087 0.09570937958862516 0.32779621269275322 0.26214748345888578 0.17375933398432725 0.099646132504819226 0.067367118613692115 0.10278949500771423 0.11945623041432485 0.33119957850999793 0.47648097108235787 0.099771340143377504 0.02378987360575438 0.94780258153969388 0.041033843357041147 0.35033772516332262 0.30720363846113391 0.33497192249805841 0.22498867809772494 0.081827927518730303 0.072959429686516517 0.042132196799637034 0.49074082007442699 -0.022214807168699616 0.057170851021317221 0.16394594753065864 0.53172943794502403 0.64934807536927497 0.068109607492049584 0.083810387256572833 0.19016969210980772 0.026041515294708845 0.43097775343838818 0.078418325532690403 0.54523981352647144 1.0049994190308182 0.16294843683981924 -0.0072708689128260619 0.0013719611451472734 0.12334611101300319 1.7520657712763008 0.84479382236798617 0.11958279464237705 0.14520089284690854 0.047791136951575913 1.222026305894057 0.19438760280609133 0.39007677095276971 0.078245010257375486 0.040348434053680868 0.533275674700737 0.19424456509493165 0.15828182630402277 1.0309519643966969 0.84929656565189371 0.34826449544797111 0.20608365180405464 0.76361449804902082 -0.020398177354831876
leaf_weight=141812 2353 455 19 253 849 629 460 71 83 22 3108 14628 731 34 108 14.999999999999998 840 5158 668 145 682 41 72 67 13249 8556 560 65 61 185 17 9.9999999999999982 11403 58 5196 5417 4455 341 26 171 148 2166 1312 2834 261 206 295 22231 53 420 73 243 27 26 316 125 1170 69 36965 3523 829 53 38 2292 53 298 10534 56 773 45 44 3702 18301 4112 410 10.999999999999998 21 334 91 4070 11.999999999999998 44 21 147 8642 25 177 531 12.999999999999998 9.9999999999999982 86 847 25 562
leaf_count=141812 2353 455 19 253 849 629 460 71 83 22 3108 14628 731 34 108 15 840 5158 668 145 682 41 72 67 13249 8556 560 65 61 185 17 10 11403 58 5196 5417 4455 341 26 171 148 2166 1312 2834 261 206 295 22231 53 420 73 243 27 26 316 125 1170 69 36965 3523 829 53 38 2292 53 298 10534 56 773 45 44 3702 18301 4112 410 11 21 334 91 4070 12 44 21 147 8642 25 177 531 13 10 86 847 25 562
internal_value=0 0.0389427 0.380553 0.767611 0.0374642 0.0251062 0.0231958 0.0154629 0.00710053 0.0258966 0.0619455 0.053854 0.124086 1.10566 0.0808284 0.0585609 0.182379 0.0634766 0.0233825 0.167755 0.0983301 0.142586 0.554923 0.703825 0.01882 0.0191539 0.0483471 0.240596 0.318037 0.075167 0.160179 0.340831 0.0872417 0.0389967 0.0874425 0.10924 0.073128 0.111214 0.274172 0.414782 0.186658 0.121542 0.121566 0.0855873 0.231427 0.29555 0.0616953 0.0107396 0.655948 0.160836 0.0483113 0.165414 0.719982 0.517766 0.191732 0.259439 0.0964149 0.134242 -0.0179114 0.0261295 0.203995 0.258458 0.0368649 0.0777274 0.319969 0.24668 0.0278331 0.185167 0.136698 0.120135 0.748275 0.147325 -0.00472441 -0.0184385 0.0124311 0.93213 1.15667 0.184547 0.330172 0.0574857 0.163552 0.407909 0.692604 0.182504 0.0436485 0.144383 0.265392 0.194412 0.518416 0.171055 0.126195 0.235256 0.380604 0.0577017
internal_weight=0 210933 909 454 210024 139570 137895 115686 96887 55317 70454 62337 8117 287 33066 18799 1675 22209 29271 2510 8194 3711 180 139 28360 52807 11815 2016 1027 31868 989 258 23041 15111 13528 8332 16324 4921 909 329 167 6717 3531 6101 1198 835 4483 40992 118 2488 3181 911 76 41 876 466 2849 1679 41570 8681 1090 224 10939 2383 91 367 10605 2068 1051 995 105 4551 18761 41487 4522 49 32 483 149 4442 372 77 33 182 8827 172 222 580 39 541 2920 1017 170 2915
internal_count=352745 210933 909 454 210024 139570 137895 115686 96887 55317 70454 62337 8117 287 33066 18799 1675 22209 29271 2510 8194 3711 180 139 28360 52807 11815 2016 1027 31868 989 258 23041 15111 13528 8332 16324 4921 909 329 167 6717 3531 6101 1198 835 4483 40992 118 2488 3181 911 76 41 876 466 2849 1679 41570 8681 1090 224 10939 2383 91 367 10605 2068 1051 995 105 4551 18761 41487 4522 49 32 483 149 4442 372 77 33 182 8827 172 222 580 39 541 2920 1017 170 2915
is_linear=0
shrinkage=0.2


Tree=2
num_leaves=95
num_cat=0
split_feature=0 11 12 0 7 0 12 3 12 0 0 16 6 5 0 16 12 12 0 6 3 0 2 0 0 1 2 16 13 16 12 6 6 7 12 3 6 13 13 5 12 16 7 1 0 11 0 13 16 3 2 6 13 12 0 0 2 0 3 1 0 1 0 2 5 1 11 0 14 0 12 14 13 12 13 2 13 16 11 3 2 16 13 3 11 1 13 2 13 2 12 6 5 11
split_gain=12731.1 1705.4 2276.16 1767.92 1037.27 2003.94 1869.64 867.604 838.37 720.943 455.257 436.665 391.716 355.454 361.111 323.96 300.465 298.979 297.116 294.298 292.779 276.805 308.941 369.823 399.998 276.775 251.187 232.387 223.823 222.427 219.991 230.221 210.981 198.183 190.263 181.031 179.077 177.909 169.609 164.177 162.961 151.985 150.718 142.727 142.108 138.865 137.709 135.041 134.695 132.532 131.128 134.697 129.868 129.653 288.41 128.57 131.107 128.01 153.383 123.496 121.063 120.99 120.896 140.194 116.682 120.633 115.218 113.946 108.998 155.006 119.744 110.538 100.472 99.0377 98.3765 98.1133 96.4658 96.3143 96.045 96.0427 94.6453 93.9629 93.1558 89.1927 88.2759 112.072 90.0236 88.2652 86.2235 127.006 85.3538 274.171 241.851 226.233
threshold=-0.26633405140552918 0.96052631578947378 0.83290193939598234 0.60544052718457897 0.50000000000000011 2.7033506962121949 0.83290193939598234 -0.15083135391923988 0.045962030184042699 0.88388881878144987 5.3468524620142519 0.75000000000000011 0.88725490196078438 0.14583333333333334 0.52484989904720469 0.91666666666666674 0.038530921714831128 0.006472824096983589 4.3782172492361342 0.05392156862745099 1.0961995249406178 0.068174420032004093 1.4895833333333337 0.60544052718457897 0.88388881878144987 2.9375000000000004 -0.16592261904761901 0.75000000000000011 1.0000000180025095e-35 0.58333333333333337 0.38420979457018156 0.13235294117647062 0.15196078431372553 0.83333333333333337 0.008253808242011617 -0.1555819477434679 0.13235294117647062 0.72222222222221444 0.72222222222221444 0.64583333333333337 0.020146186242682652 0.91666666666666674 0.83333333333333337 0.93750000000000011 0.88388881878144987 0.40789473684210531 -0.19539014900591078 0.61111111111110017 0.58333333333333337 -0.68230403800475048 -0.53794642857142849 0.64215686274509809 0.38888888888887158 0.15641081520814923 3.7457964265860855 6.7450774712643673 0.89434523809523825 -0.22970396302333157 2.8931116389548701 1.6875000000000002 4.2076237921905655 1.6875000000000002 1.2949497609817657 0.51562500000000011 0.64583333333333337 2.0625000000000004 0.82894736842105277 1.2949497609817657 0.40909090909090923 0.63395067023611185 0.023229395353967734 0.13636363636363641 0.61111111111110017 0.83290193939598234 1.0000000180025095e-35 5.2544642857142865 0.72222222222221444 0.58333333333333337 0.61842105263157898 1.3859857482185276 0.091517857142857165 0.75000000000000011 1.0000000180025095e-35 -0.11520190023752967 0.77631578947368429 -0.43749999999999994 0.16666666666667143 0.076636904761904781 0.16666666666667143 0.76860119047619058 0.035204119933387373 0.62254901960784326 0.81250000000000011 0.40789473684210531
decision_type=2 2 2 2 2 2 2 2 2 2 2 2 2 2 2 2 2 2 2 2 2 2 2 2 2 2 2 2 2 2 2 2 2 2 2 2 2 2 2 2 2 2 2 2 2 2 2 2 2 2 2 2 2 2 2 2 2 2 2 2 2 2 2 2 2 2 2 2 2 2 2 2 2 2 2 2 2 2 2 2 2 2 2 2 2 2 2 2 2 2 2 2 2 2
left_child=-1 4 -3 27 5 8 10 82 12 76 33 21 13 16 77 20 40 45 30 35 -13 28 44 -24 66 29 -12 -4 -9 62 43 -32 36 53 -14 -16 -20 -18 -22 -27 -2 73 55 -19 48 -7 80 -36 83 -35 -34 -52 -42 54 -6 56 -28 58 -30 -37 61 -51 64 -64 -10 74 -25 -55 69 -54 72 -71 -70 -31 -66 -73 -5 -15 -46 -39 -17 -53 -8 -23 -85 -86 -87 -44 89 -48 -21 92 -92 -94
right_child=1 2 3 9 6 17 7 11 25 -11 26 15 34 14 19 46 37 18 32 90 38 22 23 24 -26 39 42 -29 57 41 31 -33 50 49 47 59 -38 79 -40 -41 52 -43 87 -45 78 -47 88 -49 -50 60 51 81 68 67 -56 -57 -58 -59 -60 -61 -62 -63 63 -65 65 -67 -68 -69 70 71 -72 75 -74 -75 -76 -77 -78 -79 -80 -81 -82 -83 -84 84 85 86 -88 -89 -90 -91 91 -93 93 -95
leaf_value=-0.046339123286573691 0.069450064998105826 -0.0066915128633127921 0.094327378054277614 0.92472734240304055 0.0049418865781802037 0.25668362820377716 0.22548144612875254 0.55947781512231543 0.0028643817802841017 0.04337479713800791 0.048672629536387318 0.22623266703264028 0.15482723675941715 0.01764411110929091 0.65805797766821061 0.095437309964510955 0.026180312206906503 0.14393057736975082 0.21178283639424064 0.066916965000318518 0.76817229835050449 0.23424380266725431 0.023832000046968463 0.22776591987772421 0.17425198699746813 0.058023132039292075 0.071585915435304626 0.86207277205060517 0.089715463974049711 0.047052242846467862 0.51585493003544602 0.062000165608222448 0.11951261380196042 -0.010314935801059848 0.0082073274269297489 0.12191954178051052 0.45214383417353876 0.086631272547572691 0.32630804826815929 0.26601516373403788 0.087555905035884743 0.017404049879728767 0.34058788223908487 0.28046792102214718 0.10231007297510031 0.86688148975372314 0.2062703707133946 0.047708308883518701 0.21639380567193225 0.030133130620588245 0.19652046263094736 0.53099996939453542 0.14152892635868417 -0.029239840962447389 0.34483653240500595 0.36896669402598375 0.42500112509727483 0.01892875163045837 0.55766027590324141 0.53690889116964846 0.20631846074635785 0.18585094288874293 0.06568183875863369 0.0062174268026368015 0.41244254453251 0.12628523369420724 0.92473755608434272 -0.0085574911233216849 0.20104881897130503 0.14858512273492 0.069836815746088451 0.31442324585576126 0.10895978361475732 0.16262181654584784 0.022633489570704792 0.89679512729247424 1.2200755240700463 0.05506575492311927 0.010812007536682863 0.23269828990216573 0.49390931539237504 0.14924298665353231 0.02130161172928835 0.083318465615571866 -0.038425594177097087 0.59668254792923114 0.19683506805755077 1.0927863967255689 0.087893863129169469 0.95676499009132387 0.13291713207674977 0.069560226500671993 0.82007016709037872 0.29490364537290903
leaf_weight=141812 3917 558 218 226 8829 26 90 33 30722 37 1120 591 464 8507 51 38 4050 1193 233 2748 70 202 98 10.999999999999998 70 321 262 17 828 14046 46 1590 599 2839 8298 117 265 1228 69 288 3409 10032 13.000000000000002 412 841 35 92 5940 502 3690 378 98 1679 19073 101 124 50 3350 29 38 180 211 3403 2970 26 498 69 24142 797 204 1405 324 1169 303 6529 11.999999999999998 55 4066 1010 211 64 35 12992 2711 80 24 366 11.999999999999998 1137 9.9999999999999982 178 796 51 92
leaf_count=141812 3917 558 218 226 8829 26 90 33 30722 37 1120 591 464 8507 51 38 4050 1193 233 2748 70 202 98 11 70 321 262 17 828 14046 46 1590 599 2839 8298 117 265 1228 69 288 3409 10032 13 412 841 35 92 5940 502 3690 378 98 1679 19073 101 124 50 3350 29 38 180 211 3403 2970 26 498 69 24142 797 204 1405 324 1169 303 6529 12 55 4066 1010 211 64 35 12992 2711 80 24 366 12 1137 10 178 796 51 92
internal_value=0 0.0311542 0.278292 0.565852 0.0298456 0.0415675 0.0129761 0.058557 0.0363964 0.873262 -0.00609694 0.0967025 0.056195 0.0676888 0.046509 0.180448 0.0868422 0.166779 0.161243 0.0982805 0.287659 0.0797389 0.10744 0.32599 0.5234 0.0221495 0.0998177 0.149866 0.040644 0.0209566 0.126372 0.0747614 0.231528 -0.00893197 0.0287942 0.331204 0.339686 0.0476431 0.54883 0.156384 0.103501 0.0362892 0.224075 0.178979 0.0979906 0.606797 0.122086 0.0246869 0.11972 0.0228698 0.183004 0.257429 0.118322 -0.0131523 0.00878616 0.196691 0.128223 0.0365743 0.10555 0.223659 0.0459552 0.0385557 0.0124891 0.0379697 0.00819026 0.0313891 0.828904 -0.0176857 0.137085 0.171507 0.114426 0.264715 0.146292 0.0494927 0.0241796 0.335222 0.982536 0.0297459 0.0523841 0.108049 0.345459 0.430538 0.0227063 0.105374 0.0971909 0.177208 0.221441 0.701643 0.103696 0.279848 0.0858659 0.132483 0.288517 0.482201
internal_weight=0 210933 1111 553 209822 123799 86023 25377 118889 318 60646 12295 49751 35049 16644 2071 18405 4910 4849 4071 730 10224 5984 248 150 69138 1581 235 4240 68529 3241 1636 1608 59065 14702 206 498 5489 139 609 12916 24381 461 1605 5736 61 1341 14238 3885 6920 1110 511 8999 52145 8930 436 312 4207 857 155 4081 3901 44148 6373 37775 7053 80 43215 5590 2219 3371 540 1966 14349 6555 336 281 12573 1851 1439 102 133 13082 3383 3181 470 390 25 1239 102 3865 1117 321 143
internal_count=352745 210933 1111 553 209822 123799 86023 25377 118889 318 60646 12295 49751 35049 16644 2071 18405 4910 4849 4071 730 10224 5984 248 150 69138 1581 235 4240 68529 3241 1636 1608 59065 14702 206 498 5489 139 609 12916 24381 461 1605 5736 61 1341 14238 3885 6920 1110 511 8999 52145 8930 436 312 4207 857 155 4081 3901 44148 6373 37775 7053 80 43215 5590 2219 3371 540 1966 14349 6555 336 281 12573 1851 1439 102 133 13082 3383 3181 470 390 25 1239 102 3865 1117 321 143
is_linear=0
shrinkage=0.2


Tree=3
num_leaves=95
num_cat=0
split_feature=0 18 12 0 16 7 0 12 16 0 5 2 12 12 6 0 2 16 0 3 0 0 5 1 0 3 0 0 13 0 12 3 2 12 0 0 0 3 13 5 1 0 3 3 0 3 0 1 12 12 0 3 12 18 13 4 0 2 7 0 13 6 4 3 13 13 7 0 1 3 0 2 0 6 6 2 13 12 2 0 13 13 2 2 2 0 14 4 0 16 13 0 16 11
split_gain=8151.03 1092.09 1384.55 936.033 773.963 428.909 823.334 622.54 416.608 319.659 316.983 281.242 251.823 356.774 247.151 246.497 222.924 212.659 202.882 193.76 184.993 179.771 165.698 180.662 163.843 163.195 180.879 217.32 164.408 152.616 157.347 148.963 190.353 138.876 133.179 130.214 126.841 126.188 120.799 116.688 163.517 110.43 146.65 162.675 128.292 320.212 138.099 107.025 106.127 124.639 102.975 102.243 102.169 116.401 101.605 101.646 100.599 95.2743 94.2489 159.298 165.04 119.529 91.1254 90.1759 85.2299 84.1616 81.408 111.897 80.5108 80.0995 79.0333 87.0837 78.908 91.1612 140.936 150.996 78.3622 77.4942 78.7425 255.342 164.699 110.403 76.1143 75.7203 75.493 74.3262 74.3203 132.89 73.9008 110.642 73.7797 73.5814 73.1404 106.459
threshold=-0.26970744607323316 0.95000000000000007 0.83290193939598234 0.57404044509283525 0.58333333333333337 0.50000000000000011 2.8375181239273513 0.83290193939598234 0.91666666666666674 0.85147889707256652 0.14583333333333334 -0.20312499999999997 0.83290193939598234 0.15641081520814923 0.88725490196078438 2.4577500208534375 -0.27752976190476186 0.75000000000000011 5.3468524620142519 1.0961995249406178 -0.070025956133173986 -0.20076554069672051 0.43750000000000006 2.0625000000000004 4.8310626800666592 2.8931116389548701 0.4884808476809675 0.77370469738159031 1.0000000180025095e-35 4.8310626800666592 0.006472824096983589 0.27434679334916873 0.15997023809523811 0.02949156541229209 -0.24228770594028448 1.6819138760793333 0.37889216989472391 1.9904988123515441 0.72222222222221444 0.64583333333333337 1.8125000000000002 0.36567202271070093 -0.1033254156769596 -0.12232779097387171 0.88388881878144987 2.3942992874109268 0.60544052718457897 1.0625000000000002 0.022003771856314035 0.020146186242682652 1.2949497609817657 -0.65771971496437043 0.83290193939598234 0.071527777777777787 0.38888888888887158 0.18069306930693083 2.2528695781534336 0.89434523809523825 0.50000000000000011 3.5191476940063358 0.38888888888887158 0.43627450980392163 -0.03465346534653465 -0.70130641330166255 0.72222222222221444 1.0000000180025095e-35 0.50000000000000011 0.9005103934762877 1.0000000180025095e-35 -0.55498812351543936 0.52484989904720469 -0.35044642857142849 0.3932509169505119 0.5931372549019609 0.54411764705882371 -0.28348214285714279 0.38888888888887158 0.010302897527151392 0.072172619047619055 -0.15040546955310638 0.38888888888887158 0.38888888888887158 0.06622023809523811 1.6383928571428574 -0.5513392857142857 -0.20699565470536982 0.13636363636363641 -1.5631188118811876 -0.23515977235236488 0.25000000000000006 0.72222222222221444 0.18668730683177712 0.25000000000000006 0.51315789473684226
decision_type=2 2 2 2 2 2 2 2 2 2 2 2 2 2 2 2 2 2 2 2 2 2 2 2 2 2 2 2 2 2 2 2 2 2 2 2 2 2 2 2 2 2 2 2 2 2 2 2 2 2 2 2 2 2 2 2 2 2 2 2 2 2 2 2 2 2 2 2 2 2 2 2 2 2 2 2 2 2 2 2 2 2 2 2 2 2 2 2 2 2 2 2 2 2
left_child=-1 4 -3 34 5 6 10 18 12 -5 14 -9 13 15 54 39 56 20 65 68 85 37 36 72 -15 28 88 -28 -13 30 -8 -20 -33 35 -4 -23 77 -10 -21 48 -41 -30 43 47 45 92 -47 64 49 -6 -16 -42 58 -54 -2 82 -14 -34 59 -35 61 -61 86 -38 -43 -7 67 -55 90 -31 -50 -72 -24 74 -74 -76 -48 78 81 80 -80 -12 -56 -68 -58 -18 -25 91 89 -27 -19 -88 93 -44
right_child=1 2 3 9 8 7 29 11 21 -11 22 25 16 24 50 -17 17 19 31 38 -22 33 23 62 -26 26 27 -29 41 69 -32 32 57 52 -36 -37 63 -39 -40 40 51 42 44 -45 -46 46 76 -49 70 -51 -52 -53 53 66 55 -57 84 -59 -60 60 -62 -63 -64 -65 -66 -67 83 -69 -70 -71 71 -73 73 -75 75 -77 -78 -79 79 -81 -82 -83 -84 -85 -86 -87 87 -89 -90 -91 -92 -93 -94 -95
leaf_value=-0.037141697155579211 0.036683801184687934 -0.003185876143692 0.59571994185447696 0.78442163841397161 0.056864628221548454 0.1719478785841152 0.64824290878715973 0.011383254773567804 0.12700218333993862 0.13157295163939983 0.58462310830752062 0.36214836369667736 0.049970650590878372 0.021613486575069826 0.0073037454805785235 0.17042205285610496 0.088933210926182782 0.39620103323304989 0.043221702184785188 0.610310886181891 0.14929908558025767 0.045313713601094374 0.016119115741897727 0.029653920584577855 0.11934676727958118 -0.1723492044210434 0.84049903353055333 0.118086729703411 0.033466571730442776 0.12850990704059401 0.097934254889876157 0.84415357112884526 0.086732701808214185 0.016022058784676944 0.04540643264373688 0.21603108872208865 0.10104443499128779 0.65398040758936027 0.24763172591725985 0.079042568923009038 0.092700787003134721 0.89230088103901262 0.20813363596486548 0.83443213760852819 0.028537665163575067 0.079571711570024503 0.98429566513408318 -0.061704485501561851 0.025191935764558512 0.12300798827264486 0.072347081006608832 0.29837478493178676 0.008584576736326956 0.16223736440851577 -0.00025959069948731911 0.10810341325291767 0.6264239058878861 0.45011522550331923 -0.0080497667472149391 0.72226828619837757 0.082817023192713946 0.20454857166517867 0.043172110076246349 0.014918107218331089 0.23185138774138914 -0.012671354846390077 0.07428380193301895 0.81513484216162146 0.12690737178621236 0.2624069595509137 0.15347087256602832 0.052904740277876665 0.067759257974774389 0.0073800566724867914 0.94294135315077643 0.20988041231768176 0.48373351261533543 -0.007911400672279266 -0.024676091621558257 0.060490436896793821 0.81950364504009487 -0.034832339713953143 0.067949358125531351 0.4762319727947838 0.16897300263245901 -0.056774505858193151 0.53103494287440278 0.15112571306838837 0.035947138674814132 0.6299815405498852 0.16185832199461145 0.10868526940995998 0.1365439840356184 0.028505971755445558
leaf_weight=141523 4850 455 20 255 3565 99 21 9839 419 34 11.999999999999998 70 2656 15456 7539 863 249 106 797 75 1021 4563 8658 123 718 9.9999999999999982 36 31 4430 296 2010 19 120 13045 146 186 497 19 72 2531 161 10.999999999999998 156 20 1403 20 22 35 5105 1675 1118 242 1405 42 758 2371 19 38 7618 30 318 44 405 22526 27 42312 1408 13.999999999999998 420 451 367 5599 2029 1149 13.999999999999998 57 29 17745 12.999999999999998 266 32 281 4788 19 60 320 66 358 116 22 109 22 819 857
leaf_count=141523 4850 455 20 255 3565 99 21 9839 419 34 12 70 2656 15456 7539 863 249 106 797 75 1021 4563 8658 123 718 10 36 31 4430 296 2010 19 120 13045 146 186 497 19 72 2531 161 11 156 20 1403 20 22 35 5105 1675 1118 242 1405 42 758 2371 19 38 7618 30 318 44 405 22526 27 42312 1408 14 420 451 367 5599 2029 1149 14 57 29 17745 13 266 32 281 4788 19 60 320 66 358 116 22 109 22 819 857
internal_value=0 0.0248857 0.243511 0.490208 0.0239397 0.0153225 0.0251179 0.0027935 0.0410221 0.707616 0.0211924 0.0341156 0.0539185 0.0480656 0.0417906 0.0658527 0.0954997 0.140369 -0.0101678 0.225759 0.0983716 0.0226984 0.0130584 0.0328671 0.0259521 0.0616806 0.233603 0.506249 0.0570012 0.132054 0.103624 0.080081 0.246052 0.0207571 0.111709 0.0520001 0.00689108 0.149862 0.432672 0.0611635 0.0978828 0.0542728 0.0813901 0.329078 0.0744224 0.108251 0.524989 0.190625 0.0545585 0.0780078 0.0157037 0.216207 0.0145602 0.0498363 0.0594795 0.0734442 0.0565859 0.174128 0.00972162 0.019797 0.145418 0.414435 0.115682 0.0167773 0.423034 -0.0122404 0.0889183 0.325462 0.17786 0.20935 0.0434597 0.0590911 0.0260928 0.0526708 0.0774514 0.354428 0.699662 -0.00551346 0.064936 0.135028 0.575629 -0.00946215 0.0586269 0.0796356 0.278993 0.00698863 0.167293 0.205252 0.110175 0.379253 0.277395 0.425448 0.0921004 0.0561683
internal_weight=0 211222 910 455 210312 139793 78455 61338 70519 289 75677 17953 41389 36282 21424 20108 5107 2372 43385 782 1590 29130 54253 12881 16174 8114 215 67 7899 2778 2031 974 177 28692 166 4749 41372 438 147 19245 2934 7829 3399 93 3306 1903 71 73 16311 5240 8657 403 23943 2888 12767 7917 2735 158 21055 13437 392 74 974 23023 38 42411 1483 56 635 747 11071 5966 11907 3249 2100 71 51 18349 604 311 45 293 5546 1427 79 569 569 446 148 32 215 88 1832 1013
internal_count=352745 211222 910 455 210312 139793 78455 61338 70519 289 75677 17953 41389 36282 21424 20108 5107 2372 43385 782 1590 29130 54253 12881 16174 8114 215 67 7899 2778 2031 974 177 28692 166 4749 41372 438 147 19245 2934 7829 3399 93 3306 1903 71 73 16311 5240 8657 403 23943 2888 12767 7917 2735 158 21055 13437 392 74 974 23023 38 42411 1483 56 635 747 11071 5966 11907 3249 2100 71 51 18349 604 311 45 293 5546 1427 79 569 569 446 148 32 215 88 1832 1013
is_linear=0
shrinkage=0.2


Tree=4
num_leaves=95
num_cat=0
split_feature=0 18 12 0 16 7 0 12 16 12 0 2 16 0 5 5 0 0 5 10 16 0 3 0 0 2 13 18 7 1 12 0 2 6 6 0 0 1 18 12 0 13 11 4 3 0 0 2 13 3 3 12 4 3 11 1 11 3 5 13 13 0 11 12 0 5 0 4 14 14 4 14 5 0 12 0 3 0 12 18 2 15 1 2 4 0 18 6 0 5 0 2 13 7
split_gain=5219.94 702.83 892.699 591.307 491.56 271.633 543.291 408.861 268.422 209.098 208.108 185.522 183.813 260.044 232.577 188.434 173.542 129.959 129.101 115.891 110.514 109.735 107.552 118.816 162.792 107.51 104.469 100.92 96.5165 90.8879 88.8807 91.2748 87.1824 195.494 88.8373 102.494 85.5547 87.8644 85.307 84.606 85.0246 82.4877 121.194 106.261 81.53 79.6728 103.821 98.1921 119.735 97.4612 98.9316 79.3709 77.1397 76.7446 76.108 75.8592 75.5773 73.7101 72.4886 89.8114 69.1684 68.879 68.6378 68.617 69.8729 68.5997 76.6844 69.9817 113.962 261.451 69.7843 89.6566 68.0796 66.4972 65.7849 112.102 65.509 66.4805 65.3883 93.0403 116.153 126.09 63.8305 63.6815 63.2561 94.1705 62.8279 112.853 81.0659 78.0968 70.1569 67.8913 62.1484 60.3193
threshold=-0.26633405140552918 0.95000000000000007 0.83290193939598234 0.60544052718457897 0.58333333333333337 0.50000000000000011 2.5741316470054221 0.83290193939598234 0.91666666666666674 0.041089985277197746 0.85147889707256652 -0.20312499999999997 0.75000000000000011 0.60544052718457897 0.64583333333333337 0.18750000000000003 -0.18043025116003955 5.3468524620142519 0.10416666666666667 0.75000000000000011 0.75000000000000011 -0.20076554069672051 2.8931116389548701 0.60544052718457897 0.77370469738159031 -0.18229166666666663 1.0000000180025095e-35 0.4694444444444445 0.83333333333333337 1.4375000000000002 0.02949156541229209 3.0100705288608665 0.32068452380952389 0.88725490196078438 0.05392156862745099 0.4366243801743141 6.7450774712643673 0.31250000000000006 0.034722222222222231 0.006472824096983589 4.8310626800666592 0.16666666666667143 0.19736842105263161 0.025990099009900829 -0.32660332541567688 3.5191476940063358 0.36567202271070093 1.4895833333333337 0.61111111111110017 -0.1033254156769596 -0.12232779097387171 0.64998261146662717 0.048267326732673164 0.039192399049881248 0.82894736842105277 1.9375000000000002 0.17105263157894737 2.6555819477434683 0.062500000000000014 0.83333333333332871 0.27777777777777152 -0.24228770594028448 0.72368421052631593 0.037822932641264607 1.9068688608555777 0.64583333333333337 0.80456742775345502 -0.96905940594059381 0.50000000000000011 0.77272727272727304 -1.6076732673267322 0.86363636363636398 0.35416666666666669 0.81991744893367557 0.15641081520814923 2.8375181239273513 2.6318289786223281 1.0835736248610146 0.83290193939598234 0.22916666666666671 0.15550595238095241 0.15000000000000005 1.0625000000000002 0.42633928571428575 0.3143564356435643 -0.0812396073342012 0.19583333333333339 0.40686274509803927 0.45341156684837369 1.0000000180025095e-35 1.9864776427915771 5.2544642857142865 1.0000000180025095e-35 0.50000000000000011
decision_type=2 2 2 2 2 2 2 2 2 2 2 2 2 2 2 2 2 2 2 2 2 2 2 2 2 2 2 2 2 2 2 2 2 2 2 2 2 2 2 2 2 2 2 2 2 2 2 2 2 2 2 2 2 2 2 2 2 2 2 2 2 2 2 2 2 2 2 2 2 2 2 2 2 2 2 2 2 2 2 2 2 2 2 2 2 2 2 2 2 2 2 2 2 2
left_child=-1 4 -3 20 5 6 9 17 12 32 -5 60 13 18 38 -15 62 74 -6 39 61 27 26 -24 -25 -19 84 -10 36 51 31 -23 34 58 35 -2 57 -38 41 44 -41 42 43 -14 -8 46 -28 49 -49 50 82 -11 -37 -42 55 -18 -33 -27 59 86 -9 -4 -16 64 -40 66 -31 68 -67 -70 71 -71 83 -50 75 -7 -17 -78 93 -80 81 -81 -48 -55 -13 -86 89 88 -88 -34 -89 -92 -20 -32
right_child=1 2 3 10 8 7 19 11 21 29 -12 22 14 15 16 76 54 25 92 -21 -22 30 23 24 -26 28 45 -29 -30 65 78 56 33 -35 -36 52 37 -39 63 40 53 -43 -44 -45 -46 -47 47 48 73 -51 -52 -53 -54 72 -56 -57 -58 -59 -60 -61 -62 -63 -64 -65 -66 67 -68 -69 69 70 -72 -73 -74 -75 -76 -77 77 -79 79 80 -82 -83 -84 -85 85 -87 87 90 -90 -91 91 -93 -94 -95
leaf_value=-0.02967208284966473 0.059329423029702802 -0.0025487012954449259 0.45820490201314296 0.63251309375838938 0.056948288339943899 -0.00017174633630244609 -0.033023002371191983 0.054339825753250838 0.094161948551372374 0.0035276374959851784 0.10525836944580079 0.68782390814561112 0.31345952274898681 0.038661158234734198 0.23406043484817843 0.096681522371262263 0.080040457918476596 0.018663239064458086 0.22154359800669435 0.0016592357167744725 0.65769663040454573 0.038711140381003789 0.093488241682116613 0.73754299134016044 0.094469381916907527 0.044853387963800617 0.028117362072616815 0.50086180339925568 0.62460887773948559 0.0023808444650270568 0.015837568832464524 0.087058123680097729 0.058038555350133386 0.014241183753842524 0.010579802648737384 0.22866976159151464 0.53209349499329139 0.10200324262443342 0.062060107698371052 0.091239960179970409 0.13888006015383644 0.081069564381456391 -0.0016058065135785865 1.155127501487732 0.62036889266967776 -0.065208704314459159 0.33842729898659807 0.56495209501849286 0.30746876320668631 0.064004053563844684 0.66754569768905636 0.067559537431814629 0.78339116772015893 0.30949404790629576 0.33892874688062136 0.19051612159515274 0.57634966745972638 0.60080653667449957 0.034625457718280322 0.12343486303882439 0.0030462866396879628 0.0074084028337441437 0.56667901700812162 0.032174838566320259 0.29577134125507792 0.03089079148848782 0.057585084250799591 0.040857833702272424 1.0725687967879434 0.84001415595412254 0.068662626692956238 0.2336110989714778 0.079276740245330032 -0.20891801063951695 -0.014107410756187095 0.10037971507386173 0.63959314856264327 0.1213190611790527 0.023861790553950032 1.0289391779899597 0.083104135128080417 0.25097341966629028 -0.044949840012122877 0.70032093084993818 0.67186138263115525 0.059190896288915121 0.080313842252585449 0.022318146611540853 0.2417903832141185 0.14487872259904519 0.13041133971677885 0.63951451136515702 0.0023648538461878265 -0.0064398130639108063
leaf_weight=141812 350 455 14.999999999999998 251 2167 9186 10.999999999999998 1198 398 39048 34 12.999999999999998 15.000000000000002 7269 172 2665 3438 664 52 406 12.999999999999998 4698 149 32 31 207 4375 26 17 3439 13437 28 1139 8091 9327 61 38 38 3203 2015 558 1651 21 9.9999999999999982 25 257 38 36 21 2976 20 790 11.999999999999998 81 49 268 23 9.9999999999999982 4249 995 8604 141 29 9563 52 213 1423 1170 13.999999999999998 10.999999999999998 108 86 39 19 32709 466 18 22 2409 9.9999999999999982 419 50 32 21 12.999999999999998 44 752 3076 149 651 54 12.999999999999998 10674 7618
leaf_count=141812 350 455 15 251 2167 9186 11 1198 398 39048 34 13 15 7269 172 2665 3438 664 52 406 13 4698 149 32 31 207 4375 26 17 3439 13437 28 1139 8091 9327 61 38 38 3203 2015 558 1651 21 10 25 257 38 36 21 2976 20 790 12 81 49 268 23 10 4249 995 8604 141 29 9563 52 213 1423 1170 14 11 108 86 39 19 32709 466 18 22 2409 10 419 50 32 21 13 44 752 3076 149 651 54 13 10674 7618
internal_value=0 0.0199488 0.195432 0.393849 0.0191893 0.0123148 0.020111 0.00232932 0.0328077 0.0167002 0.569613 0.0277959 0.0431681 0.0311819 0.0580071 0.0554307 0.100995 -0.00816524 0.012423 0.101404 0.0974421 0.0180983 0.0502817 0.190848 0.42111 0.0640648 0.0464826 0.119101 0.161312 0.00836673 0.0166057 0.0416 0.0300429 0.0378746 0.0146454 0.10429 0.134431 0.317048 0.0462909 0.11613 0.11209 0.0884298 0.352597 0.650127 0.420721 0.0442924 0.0480362 0.0757716 0.300338 0.0702051 0.275253 0.00479741 0.319857 0.172193 0.0913036 0.0880295 0.307719 0.0704733 0.0551356 0.067897 0.00931538 0.0507542 0.28205 0.040712 0.0657937 0.0303646 0.0185379 0.0662582 0.135051 0.236357 0.17925 0.302378 0.304025 0.062185 -0.00982602 0.00468289 0.100495 0.354542 0.0116482 0.039869 0.120373 0.380634 0.163169 0.389958 0.289719 0.198923 0.058425 0.0446165 0.107018 0.0896212 0.0267281 0.229193 0.00342744 0.00777729
internal_weight=0 210933 909 454 210024 139570 78377 61193 70454 75221 285 17858 41338 22867 18471 9974 3956 43335 12893 3156 169 29116 8056 212 63 974 7844 424 310 46302 28692 4749 28919 19169 9750 423 293 76 14515 2750 2714 1697 46 25 36 7774 7517 3142 76 3066 90 39838 73 699 3755 3706 51 217 11078 6829 9802 156 201 12818 3255 6464 4862 1602 432 219 205 97 141 40 42361 9652 2705 40 23943 2888 479 60 70 102 70 57 5834 4044 901 1790 3143 67 10726 21055
internal_count=352745 210933 909 454 210024 139570 78377 61193 70454 75221 285 17858 41338 22867 18471 9974 3956 43335 12893 3156 169 29116 8056 212 63 974 7844 424 310 46302 28692 4749 28919 19169 9750 423 293 76 14515 2750 2714 1697 46 25 36 7774 7517 3142 76 3066 90 39838 73 699 3755 3706 51 217 11078 6829 9802 156 201 12818 3255 6464 4862 1602 432 219 205 97 141 40 42361 9652 2705 40 23943 2888 479 60 70 102 70 57 5834 4044 901 1790 3143 67 10726 21055
is_linear=0
shrinkage=0.2


Tree=5
num_leaves=95
num_cat=0
split_feature=0 18 12 0 12 12 0 0 6 2 6 16 16 5 13 2 0 0 7 0 2 6 12 0 12 0 13 2 0 1 1 11 0 6 5 0 12 11 5 5 0 3 2 13 1 6 2 3 4 6 0 13 7 2 0 1 7 4 14 1 0 0 0 4 11 6 7 12 12 0 7 0 11 1 3 16 0 13 4 7 15 15 0 0 8 11 11 13 4 18 6 13 7 1
split_gain=3340.98 446.804 566.573 388.944 355.852 533.429 515.512 345.683 289.185 259.584 239.763 177.942 177.488 177.368 163.22 157.118 175.132 148.354 146.779 143.106 206.898 146.664 258.974 136.498 134.023 133.39 133.044 194.805 197.315 145.828 127.662 122.813 121.858 112.156 166.421 160.535 135.662 135.016 141.106 324.631 156.991 110.008 188.425 105.372 139.3 104.951 104.942 117.655 143.603 100.485 161.555 103.108 99.5021 95.0793 89.5244 86.5954 88.4276 98.3591 118.964 99.1016 82.387 82.2313 82.2189 100.888 138.078 80.0431 79.9193 79.7197 79.0583 76.9976 76.9339 150.039 77.9011 74.8382 74.382 73.5011 70.4645 67.8104 85.1971 64.0039 100.984 63.6997 63.4951 63.31 62.0841 124.224 94.6342 74.8912 86.1273 61.9522 61.8917 109.398 67.1168 61.7906
threshold=-0.26970744607323316 0.95000000000000007 0.83290193939598234 0.57404044509283525 0.15641081520814923 0.83290193939598234 2.5741316470054221 4.8310626800666592 0.33823529411764713 -0.31622023809523803 0.13235294117647062 0.41666666666666669 0.41666666666666669 0.27083333333333337 1.0000000180025095e-35 1.5714285714285716 0.47066181505349131 0.81991744893367557 0.50000000000000011 1.3501544726738672 0.51860119047619058 0.87745098039215697 0.50422820956323389 0.88388881878144987 0.38420979457018156 -0.1850734486592121 0.27777777777777152 0.072172619047619055 0.60544052718457897 0.18750000000000003 1.5625000000000002 0.46052631578947373 0.42189880272466701 0.88725490196078438 0.14583333333333334 0.60544052718457897 0.14364000986626921 0.40789473684210531 0.72916666666666674 0.85416666666666674 0.88388881878144987 -0.046318289786223273 -0.67983630952380947 1.0000000180025095e-35 1.8125000000000002 0.014705882352941178 0.14657738095238099 0.9097387173396676 0.41955445544554443 0.13235294117647062 1.7608375059020343 0.27777777777777152 0.83333333333333337 0.99851190476190488 0.99251912189750724 1.6875000000000002 0.50000000000000011 -0.089108910891089174 0.59090909090909116 2.6875000000000004 -0.22448584604327013 1.9068688608555777 0.14807208948046405 -1.0136138613861385 0.17105263157894737 0.98529411764705899 1.0000000180025095e-35 0.094046495559412871 0.21526812812055238 2.8375181239273513 0.83333333333333337 4.2076237921905655 0.64473684210526327 1.0625000000000002 -0.59323040380047498 0.75000000000000011 1.2615361653843113 1.0000000180025095e-35 0.27103960396039595 1.0000000180025095e-35 0.75000000000000033 0.18333333333333343 -0.083298224244892832 -0.26008287422266169 1.0000000180025095e-35 0.19736842105263161 0.17105263157894737 0.38888888888887158 -1.043316831683168 0.0076388888888888904 0.85784313725490213 0.16666666666667143 0.50000000000000011 2.4375000000000004
decision_type=2 2 2 2 2 2 2 2 2 2 2 2 2 2 2 2 2 2 2 2 2 2 2 2 2 2 2 2 2 2 2 2 2 2 2 2 2 2 2 2 2 2 2 2 2 2 2 2 2 2 2 2 2 2 2 2 2 2 2 2 2 2 2 2 2 2 2 2 2 2 2 2 2 2 2 2 2 2 2 2 2 2 2 2 2 2 2 2 2 2 2 2 2 2
left_child=-1 4 -3 75 6 7 12 14 10 66 -9 77 65 93 30 26 25 -18 19 89 21 22 24 -5 68 83 27 -13 29 60 -6 32 -28 34 45 36 43 38 90 79 -41 42 -15 44 -36 -14 -30 48 -48 50 -24 69 84 -12 -49 -38 57 62 59 -59 -29 82 63 64 -57 -2 -7 -45 -21 -52 72 -72 -20 -34 -73 -4 -35 78 -11 80 -40 -66 -47 -17 86 -86 87 88 -44 -16 -37 -92 -93 -8
right_child=1 2 3 23 5 9 13 8 -10 11 53 15 33 41 18 16 17 -19 70 20 -22 -23 49 -25 -26 -27 31 28 46 -31 -32 -33 73 76 35 37 55 -39 39 40 -42 -43 52 67 -46 61 47 54 -50 -51 51 -53 -54 -55 -56 56 -58 58 -60 -61 -62 -63 -64 -65 81 -67 -68 -69 -70 -71 71 74 -74 -75 -76 -77 -78 -79 -80 -81 -82 -83 -84 -85 85 -87 -88 -89 -90 -91 91 92 -94 -95
leaf_value=-0.02377894227429396 0.014874994538105283 -0.0020389622066599822 0.030805643696605774 0.49963121652603154 0.12040997737028758 0.13484442924719445 0.24584394183107899 0.013083912772677279 0.029792783631003947 0.74059681675650868 0.21739730900866672 0.051321123544220096 -0.0032931573292850781 0.036887482722548333 0.20910996131991089 -0.150421382188797 0.63645037200491306 0.1776799135737949 -0.016748265321826016 0.23120064911388127 -0.003408291930175637 -0.027048889861795152 0.028965645175436656 0.042167193314124801 0.3495800546055724 -0.069173892160479949 0.042310073067997833 0.50390511651833847 0.94868770241737366 0.29999329972951139 0.60219137503837172 0.045656457677553448 0.25624780577373102 0.0062473439693194769 0.11461724502773137 0.065070170726576615 0.034809534861730745 0.036392097829277895 1.1808341822148682 0.80693149566650391 0.01513421436954689 -0.0086663637538143302 0.91521481156349194 0.015168641850702783 0.77524501170430871 0.0097211418683340184 0.61195415639215056 0.64939979930718739 -0.076785759345905202 0.031119730446580632 0.70939823136185165 0.15894245658384032 0.038674755123699264 0.54108724445104606 0.15124786558904146 0.095938113213337048 0.019065662794038839 1.2203231182965362 -0.036117127537727355 0.37135972759940405 -0.043616153493182354 0.21158787286037517 -0.05177714271204812 0.079876160869995758 0.057838786732066765 -0.025260562894857997 0.011673660318135388 -0.02722613267423217 0.089844910495327654 0.27044237967460388 0.013282669519591145 0.38141377424711692 0.0039382559408633194 0.035658173051408747 0.03494117207443103 0.52615729111891529 0.043265932329977282 0.029582518489437073 0.13177614621818065 0.44682329441110291 0.44034140751912043 0.57659262507496511 0.06475648161336485 0.39823255156571014 -0.12307310756295919 0.16577629426655183 0.36924881046946101 0.14255052565583881 0.27801114832317192 0.00042840558530120895 0.6408479421350517 0.24451207291469781 0.0087197930467399678 0.75296222090721132
leaf_weight=141523 42960 455 153 260 143 214 247 279 2594 10.999999999999998 524 439 1085 908 57 9.9999999999999982 59 54 33041 241 3653 620 197 29 145 89 304 11.999999999999998 13.999999999999998 122 26 4211 306 9437 145 1087 664 3790 17.000000000000004 10.999999999999998 112 376 9.9999999999999982 12344 13.999999999999998 919 18 60 37 2199 33 83 248 39 19 57 153 11.000000000000002 9.9999999999999982 10.999999999999998 131 145 56 117 10.999999999999998 2084 13729 2072 461 31 2500 68 9340 77 39 12.999999999999998 2630 7128 56 30 12.999999999999998 68 9576 53 67 536 139 355 56 34051 19 107 88 9.9999999999999982
leaf_count=141523 42960 455 153 260 143 214 247 279 2594 11 524 439 1085 908 57 10 59 54 33041 241 3653 620 197 29 145 89 304 12 14 122 26 4211 306 9437 145 1087 664 3790 17 11 112 376 10 12344 14 919 18 60 37 2199 33 83 248 39 19 57 153 11 10 11 131 145 56 117 11 2084 13729 2072 461 31 2500 68 9340 77 39 13 2630 7128 56 30 13 68 9576 53 67 536 139 355 56 34051 19 107 88 10
internal_value=0 0.0159324 0.155772 0.313583 0.0153273 0.00801684 0.0245854 0.000630496 0.0628497 0.0325983 0.16469 0.0526886 0.0218833 0.106823 -0.00182884 0.0780758 0.228645 0.417215 -0.00221133 0.00632586 0.0310232 0.0623893 0.0787468 0.453727 0.17453 0.0884581 0.0711365 0.144079 0.242677 0.139367 0.19453 0.0584482 0.136856 0.0307969 0.036873 0.0262187 0.016096 0.056416 0.107555 0.271992 0.0859454 0.0916841 0.107955 0.0108612 0.172786 0.0559615 0.427658 0.373222 0.14862 0.0468441 0.147361 0.306028 0.153688 0.23982 0.529591 0.0819835 0.145391 0.202071 0.535854 0.795841 0.00232969 0.062004 0.167505 0.216042 0.333184 0.0130181 0.0135641 0.00907528 0.138373 0.496779 -0.0101381 0.0232089 -0.0121893 0.211899 0.255129 0.0695982 0.0143155 0.0314649 0.231732 0.653389 0.859954 0.504361 0.0599373 0.311145 0.178213 0.133682 0.226164 0.178922 0.374557 0.000777146 0.0844255 0.182739 0.138103 0.265576
internal_weight=0 211222 910 455 210312 117517 92795 90364 3436 27153 842 13210 89843 2952 86928 6015 265 113 86759 41771 7663 4010 3390 289 847 152 5750 852 413 265 169 4898 687 44799 32732 21007 15733 5274 1484 183 123 2695 2319 14575 159 11725 148 134 55 2543 344 147 1411 563 79 1158 494 341 32 22 143 10640 309 253 136 45044 13943 14416 702 64 44988 2607 42381 383 107 166 12067 7195 67 60 30 79 10495 63 1163 603 560 421 66 34108 1301 214 195 257
internal_count=352745 211222 910 455 210312 117517 92795 90364 3436 27153 842 13210 89843 2952 86928 6015 265 113 86759 41771 7663 4010 3390 289 847 152 5750 852 413 265 169 4898 687 44799 32732 21007 15733 5274 1484 183 123 2695 2319 14575 159 11725 148 134 55 2543 344 147 1411 563 79 1158 494 341 32 22 143 10640 309 253 136 45044 13943 14416 702 64 44988 2607 42381 383 107 166 12067 7195 67 60 30 79 10495 63 1163 603 560 421 66 34108 1301 214 195 257
is_linear=0
shrinkage=0.2


Tree=6
num_leaves=95
num_cat=0
split_feature=0 11 12 0 13 0 5 12 12 12 2 13 6 6 0 4 12 12 8 3 13 11 0 16 0 12 3 1 1 6 0 0 4 13 16 1 5 5 3 1 3 0 0 2 18 1 11 18 4 4 2 0 2 6 2 7 14 7 2 3 0 11 8 1 2 2 5 3 2 11 11 0 1 0 1 13 3 1 2 1 2 11 18 0 11 1 0 4 3 2 15 18 18 3
split_gain=2140.24 289.932 393.121 305.737 247.506 244.878 419.501 275.626 248.8 234.124 206.073 205.227 205.069 166.251 162.264 157.712 149.594 147.38 138.779 137.752 133.342 127.638 124.305 121.856 115.31 144.285 107.482 105.673 94.9711 94.9567 93.1343 91.8565 140.468 87.8229 85.6172 84.8588 83.7004 120.206 141.223 81.8629 101.469 134.684 80.679 127.443 125.898 141.806 80.6354 81.7121 80.0017 96.1255 79.8687 104.982 79.5472 79.4675 76.9759 76.9214 75.2576 74.9989 72.3563 71.4289 70.7647 232.308 126.803 212.848 192.068 526.296 162.011 190.608 128.344 123.743 115.593 111.902 108.5 82.3326 78.5607 70.4685 68.4268 68.1646 88.6385 67.7924 66.4891 66.0668 65.9801 63.9911 63.5335 63.0474 62.5207 61.1933 60.5995 60.4137 67.8035 60.247 59.91 89.3167
threshold=-0.26633405140552918 0.96052631578947378 0.64998261146662717 0.57404044509283525 1.0000000180025095e-35 0.52484989904720469 0.31250000000000006 0.022003771856314035 0.020146186242682652 0.0043854340775421356 -0.64367559523809514 0.61111111111110017 0.23039215686274514 0.17156862745098042 0.75951331804795064 -0.86509900990098998 0.13549765676107547 0.084723905326712937 1.0000000180025095e-35 -0.71769596199524932 0.49999999999998584 0.19736842105263161 -0.20699565470536982 0.75000000000000011 4.8310626800666592 0.62533800398021244 2.8931116389548701 -0.81249999999999989 -1.1874999999999998 0.024509803921568631 -0.14511840739735885 -0.20699565470536982 0.45544554455445524 0.16666666666667143 0.58333333333333337 1.4375000000000002 0.31250000000000006 0.64583333333333337 -0.062945368171021365 2.0625000000000004 -0.65771971496437043 0.17636351876767553 5.3468524620142519 0.076636904761904781 0.27222222222222231 -0.31249999999999994 0.77631578947368429 0.4694444444444445 -0.25247524752475242 0.22524752475247525 -0.63921130952380933 1.2615361653843113 2.1071428571428572 0.78921568627450989 0.41443452380952389 0.50000000000000011 0.40909090909090923 0.83333333333333337 0.34300595238095244 -0.64049881235154382 0.88388881878144987 0.88157894736842113 0.50000000000000011 1.4375000000000002 0.21205357142857145 0.20758928571428573 0.81250000000000011 -0.01543942992874109 0.47842261904761912 0.61842105263157898 0.61842105263157898 0.60544052718457897 0.18750000000000003 0.58975473953301383 -0.93749999999999989 0.83333333333332871 -0.13182897862232776 -0.18749999999999997 1.4895833333333337 4.0625000000000009 3.4389880952380958 0.19736842105263161 0.0076388888888888904 0.07645600269175358 0.17105263157894737 2.8125000000000004 0.19659538315549771 0.30816831683168305 1.0463182897862235 0.23883928571428573 0.65000000000000024 0.39583333333333343 0.27222222222222231 0.5760095011876486
decision_type=2 2 2 2 2 2 2 2 2 2 2 2 2 2 2 2 2 2 2 2 2 2 2 2 2 2 2 2 2 2 2 2 2 2 2 2 2 2 2 2 2 2 2 2 2 2 2 2 2 2 2 2 2 2 2 2 2 2 2 2 2 2 2 2 2 2 2 2 2 2 2 2 2 2 2 2 2 2 2 2 2 2 2 2 2 2 2 2 2 2 2 2 2 2
left_child=-1 4 -3 31 10 7 9 8 76 75 -2 24 13 -9 -5 39 53 -12 20 28 84 -20 23 85 -11 79 29 -28 -10 -23 -24 32 -4 -14 -16 46 -21 -38 48 -15 81 59 -18 -44 45 -45 -19 -48 -39 83 -22 -52 -34 54 -13 -35 80 -32 -25 -42 61 62 66 64 65 74 -31 -68 69 -66 92 -63 -70 -71 -64 89 -6 78 -73 -26 -56 -41 -30 -50 -8 -17 -33 -60 -65 -7 -91 -74 -62 -94
right_child=1 2 3 14 5 6 18 12 19 11 17 16 33 15 34 22 42 35 21 36 50 26 30 58 25 -27 27 -29 82 60 57 86 52 55 -36 -37 37 38 -40 40 41 -43 43 44 -46 -47 47 -49 49 -51 51 -53 -54 -55 56 -57 -58 -59 87 -61 70 71 63 88 68 -67 67 -69 72 73 -72 77 91 -75 -76 -77 -78 -79 -80 -81 -82 -83 -84 -85 -86 -87 -88 -89 -90 90 -92 -93 93 -95
leaf_value=-0.018999678400849405 0.75736649549669688 -0.0039752915333346192 0.57719645500183103 0.42593024676700808 -0.017248311020663327 0.11331170280368962 0.18741998290476791 -0.0095101251861247436 -0.055640257065815317 0.00028170476766749947 0.046185409367324202 0.027173377790396316 0.027583399717410112 0.053069055386576774 -0.080458974025466229 0.04108156146198285 0.012056195774823843 0.1083669379201026 -0.02726481181466452 0.066997404475678632 0.065168671991239061 0.29885414501435925 -0.027740352528443549 0.12039655572938664 0.17170837010033746 0.015386428129140052 0.70188777181837292 0.14483399717137219 -0.035432798042893413 0.029607734640515467 0.025602607030745184 -0.11986293981571008 0.29612107872962951 -0.0031308349550194709 0.48739163875579838 0.37285893438635648 -0.02647578510842892 0.12345076515339315 0.024682892898236518 0.037689274347349672 0.7760367369651795 -0.032069776254787068 0.038689284706944355 1.0635524212072294 0.064015578897669914 0.30934543533850523 0.74155557365978464 0.1451598781347275 0.49174385243340535 0.2045405885204673 -0.0069113411807588156 0.74302539713680749 -0.29059805681830958 0.026934162616799998 0.10068813336695281 -0.018934817407304877 0.053348145279879848 -0.0070416299340610297 -0.060744848350683847 0.31268998477923671 0.037464098029531705 -0.18356822561472655 0.39417751641297832 0.40370156041213434 0.65597010180354121 1.4191961216926576 0.42554099483622443 -0.023916600048542024 0.054652481718915728 0.3168009091507305 -0.0072980774783463105 -0.17092704971631367 0.23493357631635622 -0.082985065279098658 0.092149258045286966 0.53601141329212432 0.019198933860052732 0.65100187987089164 0.51046650409698491 -0.23585690750795255 0.24317669397097308 0.50151378145584702 0.40357909593535102 1.1167896494269371 0.52981522840758166 0.54447573184967035 0.1340195972531561 0.43141732757212597 1.0309996814890343 0.23354016630487009 0.86162685632705704 -0.0020160732462125666 0.37368388251875934 0.051975338872183453
leaf_weight=141812 18 557 30 265 2904 98 224 8912 31 43581 1442 1695 2774 2368 44 2074 25639 342 1210 4884 3139 56 2245 177 411 938 18 56 15.999999999999998 5283 9774 101 18 33624 13.999999999999998 74 984 64 285 223 14.999999999999998 46 633 11.999999999999998 74 59 17 20 19.000000000000004 32 14.000000000000002 15.999999999999998 19 6230 1140 19442 1748 3954 11.999999999999998 118 8452 11.999999999999998 49 14.000000000000002 9.9999999999999982 14.999999999999998 90 65 629 22 2766 11.999999999999998 271 325 116 29 7093 40 21 17 148 12.999999999999998 95 9.9999999999999982 24 9.9999999999999982 63 64 10.999999999999998 22 9.9999999999999982 51 53 99
leaf_count=141812 18 557 30 265 2904 98 224 8912 31 43581 1442 1695 2774 2368 44 2074 25639 342 1210 4884 3139 56 2245 177 411 938 18 56 16 5283 9774 101 18 33624 14 74 984 64 285 223 15 46 633 12 74 59 17 20 19 32 14 16 19 6230 1140 19442 1748 3954 12 118 8452 12 49 14 10 15 90 65 629 22 2766 12 271 325 116 29 7093 40 21 17 148 13 95 10 24 10 63 64 11 22 10 51 53 99
internal_value=0 0.0127736 0.114674 0.233965 0.0122341 0.0115752 0.0183282 0.00459865 0.0283421 0.0116497 0.0838446 0.0111814 5.79525e-05 0.0133931 0.359612 0.02307 0.0221316 0.077447 0.0421106 0.0590659 0.0793251 0.0356707 0.0163277 0.0594094 0.00207516 0.0592936 0.039779 0.280334 0.253861 0.0388148 0.0100244 0.0582761 0.255593 -0.00710755 0.0566084 0.17696 0.0546599 0.0114345 0.102419 0.0674289 0.149367 0.26292 0.0139815 0.0774312 0.24656 0.436817 0.13871 0.41918 0.279657 0.443546 0.0682727 0.393055 -0.00516713 0.0417741 0.061316 -0.008921 0.0803779 0.0162003 0.190482 0.364947 0.0380236 0.053788 0.0497693 0.100981 0.0912579 0.284955 0.0355207 0.237059 0.0646023 -0.0376494 0.0282683 0.382423 0.102987 -0.0576384 0.181842 0.254107 0.00861148 0.475462 0.262687 0.15552 0.117061 0.0632389 0.340298 0.707277 0.220555 0.0434971 -0.0223349 0.353708 0.679713 0.191221 0.429817 0.197404 0.0397022 0.16415
internal_weight=0 210933 1111 554 209822 207909 105647 102262 16417 82484 1913 82325 85845 30005 323 21093 37378 1895 23163 6420 3417 19746 18310 2337 44947 1366 18536 74 142 18462 15973 231 67 55840 58 453 6278 1394 410 2783 415 179 26417 778 145 71 379 37 125 61 3169 30 37 10961 4731 53066 3036 13728 253 133 18406 7036 6951 1513 1488 180 5438 155 1308 357 11370 85 951 347 165 159 9997 73 33 428 1288 236 111 29 248 2084 164 76 25 130 32 322 8604 152
internal_count=352745 210933 1111 554 209822 207909 105647 102262 16417 82484 1913 82325 85845 30005 323 21093 37378 1895 23163 6420 3417 19746 18310 2337 44947 1366 18536 74 142 18462 15973 231 67 55840 58 453 6278 1394 410 2783 415 179 26417 778 145 71 379 37 125 61 3169 30 37 10961 4731 53066 3036 13728 253 133 18406 7036 6951 1513 1488 180 5438 155 1308 357 11370 85 951 347 165 159 9997 73 33 428 1288 236 111 29 248 2084 164 76 25 130 32 322 8604 152
is_linear=0
shrinkage=0.2


Tree=7
num_leaves=95
num_cat=0
split_feature=0 16 11 12 7 0 12 2 13 2 0 14 2 18 12 14 0 0 6 2 10 13 0 0 5 0 0 3 6 0 3 6 2 7 3 1 13 11 2 0 2 1 1 4 14 14 1 14 3 1 2 12 3 0 5 3 6 0 11 15 0 0 6 2 0 0 0 12 2 0 12 11 0 13 3 11 0 0 18 3 11 13 0 3 0 2 18 4 0 2 13 1 7 2
split_gain=1369.75 235.158 168.815 156.131 117.134 239.365 192.864 178.6 105.114 99.59 96.8559 100.41 93.8139 154.824 91.394 90.2382 90.1041 101.216 77.9142 76.4913 74.2846 71.8223 127.492 70.7661 127.372 70.7152 154.005 99.8292 70.6523 69.5655 68.9027 73.0513 122.967 66.2649 66.5754 70.1313 136.198 65.9163 100.888 65.7015 90.8503 65.4652 65.3886 68.0065 129.251 140.283 65.2046 72.7142 63.8624 66.944 63.0271 79.4723 112.976 90.2111 194.82 62.3732 70.3458 60.2277 90.1428 58.4709 57.918 84.4524 57.3899 54.6593 54.5779 54.383 53.7816 53.412 134.806 122.557 69.6786 57.0183 66.6604 79.8275 231.006 58.8612 69.7333 285.852 63.531 65.8229 54.4698 53.8251 53.4956 86.383 52.3101 51.3815 58.3674 52.8447 51.2635 85.6551 51.0018 71.3083 58.6627 50.0304
threshold=-0.26633405140552918 0.41666666666666669 0.96052631578947378 0.83290193939598234 0.50000000000000011 2.7033506962121949 0.83290193939598234 0.060267857142857144 0.38888888888887158 1.6383928571428574 0.36567202271070093 0.50000000000000011 0.06622023809523811 0.22361111111111115 0.045962030184042699 0.50000000000000011 0.58975473953301383 -0.20699565470536982 0.88725490196078438 -0.078124999999999986 0.75000000000000011 0.61111111111110017 -0.028995678461805448 0.40797077957564293 0.27083333333333337 0.37889216989472391 0.8677183386591476 0.24109263657957247 0.15196078431372553 0.021779614285398024 -0.71722090261282645 0.43627450980392163 -0.29836309523809518 0.83333333333333337 -0.70130641330166255 1.3125000000000002 0.72222222222221444 0.64473684210526327 0.16889880952380956 -0.079305969836951859 -0.57537202380952368 1.3125000000000002 2.0625000000000004 -1.9938118811881185 0.77272727272727304 0.9545454545454547 -0.43749999999999994 0.9545454545454547 0.26484560570071264 0.18750000000000003 0.38020833333333337 0.042294160363642502 -0.091448931116389534 0.37889216989472391 0.85416666666666674 0.3384798099762471 0.79901960784313741 5.3468524620142519 0.61842105263157898 0.81666666666666698 0.47066181505349131 -0.21268237270024101 0.36764705882352949 0.89434523809523825 1.3875605122847088 0.22008091747422032 1.9068688608555777 0.83290193939598234 2.4270833333333335 0.29785901202652831 0.041089985277197746 0.61842105263157898 0.58975473953301383 0.38888888888887158 0.41686460807600956 0.80263157894736858 0.57404044509283525 0.74632965264091788 0.4694444444444445 1.4619952494061759 0.46052631578947373 0.49999999999998584 -0.2271699438611591 0.25296912114014258 -0.25360760770906376 0.49032738095238099 0.36111111111111122 0.46287128712871278 1.3230677177302017 0.14062500000000003 0.16666666666667143 -0.43749999999999994 0.50000000000000011 0.47842261904761912
decision_type=2 2 2 2 2 2 2 2 2 2 2 2 2 2 2 2 2 2 2 2 2 2 2 2 2 2 2 2 2 2 2 2 2 2 2 2 2 2 2 2 2 2 2 2 2 2 2 2 2 2 2 2 2 2 2 2 2 2 2 2 2 2 2 2 2 2 2 2 2 2 2 2 2 2 2 2 2 2 2 2 2 2 2 2 2 2 2 2 2 2 2 2 2 2
left_child=-1 19 4 -4 5 14 33 84 10 12 46 85 13 -10 18 25 17 -5 28 23 30 29 -23 -2 -25 27 93 -14 -3 -15 -7 32 -32 -6 -35 -36 -37 38 -13 40 -38 59 88 44 -44 -46 47 -9 -48 -50 51 -30 53 -53 -55 56 64 67 -59 -39 61 -11 -57 65 -52 -51 -64 70 71 -70 81 72 -69 74 80 82 -77 -78 79 -79 -74 -21 83 -73 -8 87 -87 -12 -16 -90 91 -26 -93 -27
right_child=1 2 3 16 6 20 7 8 9 60 11 37 15 21 42 -17 -18 -19 -20 57 -22 22 -24 24 90 26 -28 -29 50 -31 31 -33 -34 34 35 36 39 41 -40 -41 -42 -43 43 -45 45 -47 48 -49 49 63 55 52 -54 54 -56 62 -58 58 -60 -61 -62 -63 66 -65 -66 -67 -68 68 69 -71 -72 75 73 -75 -76 76 77 78 -80 -81 -82 -83 -84 -85 -86 86 -88 -89 89 -91 -92 92 -94 -95
leaf_value=-0.0151997422238108 -0.008466103495680579 0.007701250791145111 0.010435432785799585 0.37468919826276381 -0.0049001908768739871 0.0045413178985880594 0.13577429902130109 0.1579702552006795 -0.050146727217361332 0.43565162420272829 0.2026962426147963 0.29521075487136844 0.50911089006592247 0.0030315838399387544 0.007046895303962364 -0.0098060303908777974 0.31849609566273668 -0.048296785313222151 0.011556910544710641 0.0046008182454982749 -0.015140212164020417 1.0905394579683028 0.2755270947428311 -0.0053022474120988832 0.4219620966662963 0.1363347280263901 -0.0021620748291227652 0.018511532155961793 0.019189237607966397 0.62389479983936669 0.23890157374787516 0.072209140809471259 0.088077771599274879 -0.014989317089505159 0.031344340331667164 0.79656566979053123 0.18138780155802953 0.14133356342931369 0.98833505511283881 0.047897573545575139 0.82763858675956736 0.63971027210354814 -0.089322308078408241 0.042000978921559899 1.0010504664054938 0.16670062404714134 0.42358906427398324 0.71399413726546557 -0.081243853812867958 0.13121295532819502 0.058877575915248274 0.073920997585831358 -0.031756614982979756 0.57507326198362951 0.08485370764715805 0.072690121414840478 0.15260469182773873 0.21725754424713661 0.013288127918739687 0.53584201335906989 0.38846975954679341 -0.067694526799023144 0.023709849229185277 0.49490714164880611 0.25339277585557962 -0.15159891524485181 0.15687860679030419 0.029437919463223824 -0.050657349742121174 0.40235536665144106 0.00087775376848981453 0.32828226139148081 0.53735487341880794 0.10076784128459489 1.108355018725762 0.019660503680097852 0.33248720888725741 -0.080878275147704196 -0.10441800582108739 0.24813073133783684 -0.0039489291865250162 0.026488344103495234 -0.0095214043637982509 0.029941598381021339 0.012045442894258213 0.49322879761457444 0.11123593989759684 -0.096835784541983772 0.074542743351668536 0.013996116003149723 0.021179091868859631 0.19127352808757375 0.031169648272337615 0.3089940400473003
leaf_weight=141812 28612 3030 234 33 24055 314 139 65 48 20 38 21 17 21 27571 1074 177 72 7768 8383 291 14.000000000000002 17 14491 24 125 201 689 5614 10.999999999999998 358 1177 546 1107 1951 11.999999999999998 67 91 13.999999999999998 200 9.9999999999999982 15.999999999999998 24 1833 13.999999999999998 19 15.999999999999998 10.999999999999998 154 122 2617 138 146 59 72 1544 405 138 233 18 52 40 4107 12.999999999999998 59 35 125 454 36 71 32910 48 9.9999999999999982 205 12.999999999999998 934 154 43 139 56 29 9688 2708 203 8187 24 48 62 1244 3758 8546 120 386 145
leaf_count=141812 28612 3030 234 33 24055 314 139 65 48 20 38 21 17 21 27571 1074 177 72 7768 8383 291 14 17 14491 24 125 201 689 5614 11 358 1177 546 1107 1951 12 67 91 14 200 10 16 24 1833 14 19 16 11 154 122 2617 138 146 59 72 1544 405 138 233 18 52 40 4107 13 59 35 125 454 36 71 32910 48 10 205 13 934 154 43 139 56 29 9688 2708 203 8187 24 48 62 1244 3758 8546 120 386 145
internal_value=0 0.0102189 0.0171004 0.131208 0.016522 0.0218638 0.00790461 0.0295836 0.0695664 0.0497032 0.135264 0.215824 0.0409653 0.220459 0.0192552 0.0321142 0.231423 0.0846417 0.028286 0.00373868 0.0802783 0.426635 0.643597 -0.00178154 0.00633399 0.070366 0.130385 0.0303248 0.0355394 0.216453 0.091872 0.105049 0.147807 -0.00123154 0.0251351 0.0449645 0.136912 0.329862 0.57246 0.108335 0.265316 0.261935 0.0125249 0.048691 0.26383 0.520667 0.0709704 0.238447 0.0335344 0.0142724 0.0412058 0.0254324 0.109888 0.186765 0.30564 0.0519428 0.074923 0.00884079 0.0891582 0.206482 0.233979 0.100088 0.0396849 0.100799 0.0631662 0.0681657 0.0276432 0.00830949 0.0278179 0.24994 0.00635677 0.0230606 0.0755132 0.156907 0.378224 0.0143573 0.0493736 0.12017 -0.0172124 0.105228 0.134847 0.0163349 -0.00133433 0.0869948 0.0141111 0.109741 0.238567 0.0169864 0.0104264 0.0290541 0.0249127 0.0851158 0.0691389 0.229059
internal_weight=0 210933 102299 516 101783 62833 38950 11548 3222 2474 748 332 2362 111 60147 2251 282 105 25684 108634 2686 63 31 52179 23567 1177 471 706 17916 32 2395 2081 904 27402 3347 2240 289 160 35 277 77 125 34463 1890 57 33 416 76 340 324 14886 6029 415 269 131 8857 3081 56455 371 109 112 60 5776 170 2676 157 4232 56084 5103 107 50981 4996 711 257 52 4285 1326 392 238 99 39 18071 2959 251 8326 172 72 100 32573 5002 9076 530 506 270
internal_count=352745 210933 102299 516 101783 62833 38950 11548 3222 2474 748 332 2362 111 60147 2251 282 105 25684 108634 2686 63 31 52179 23567 1177 471 706 17916 32 2395 2081 904 27402 3347 2240 289 160 35 277 77 125 34463 1890 57 33 416 76 340 324 14886 6029 415 269 131 8857 3081 56455 371 109 112 60 5776 170 2676 157 4232 56084 5103 107 50981 4996 711 257 52 4285 1326 392 238 99 39 18071 2959 251 8326 172 72 100 32573 5002 9076 530 506 270
is_linear=0
shrinkage=0.2


Tree=8
num_leaves=95
num_cat=0
split_feature=0 16 16 0 5 3 0 16 0 0 11 5 3 12 13 8 18 7 2 14 13 0 2 11 0 3 13 12 0 6 11 1 5 1 4 4 15 2 15 3 13 0 3 14 15 5 1 3 18 7 12 12 1 11 12 4 18 0 0 0 11 1 2 5 15 0 10 0 3 4 14 14 3 6 6 6 6 13 12 6 0 0 5 4 4 13 4 4 0 4 7 0 2 4
split_gain=877.034 159.42 146.399 103.034 124.219 186.676 149.828 94.1723 122.878 118.25 90.0545 83.1175 82.5569 78.0987 68.0826 66.2367 68.461 65.1326 63.7902 61.4772 61.4582 59.3305 68.4895 58.832 54.8516 54.4485 52.5606 51.8166 192.291 62.6535 63.9212 48.6537 48.6265 63.2144 72.6623 78.8906 48.2935 47.9542 47.136 46.7656 96.4386 66.7433 45.8784 44.1292 48.3744 43.7822 46.8023 43.145 49.0547 101.599 43.027 58.0289 42.9863 43.2038 41.7946 48.6289 41.6146 40.6411 40.5591 40.554 70.061 40.0296 43.2083 39.7254 39.4032 38.6943 38.6761 38.4159 38.2205 38.1103 42.9851 39.7993 37.899 37.7803 37.1111 74.7502 50.4578 43.5317 39.3581 37.005 64.2062 36.5725 100.834 66.3827 36.9025 36.5412 35.8874 35.8849 44.4028 35.5301 34.234 41.0876 34.213 40.4196
threshold=-0.26970744607323316 0.58333333333333337 0.91666666666666674 0.58975473953301383 0.31250000000000006 2.8931116389548701 0.75951331804795064 0.75000000000000011 -0.16581514607897038 0.60544052718457897 0.88157894736842113 0.47916666666666669 0.13657957244655586 0.0081389060391065821 0.61111111111110017 1.0000000180025095e-35 0.013194444444444448 0.50000000000000011 2.285714285714286 0.77272727272727304 0.16666666666667143 -0.20975040710598256 0.34300595238095244 0.64473684210526327 0.9175389630818489 0.95843230403800483 0.72222222222221444 0.62533800398021244 4.0693828565928589 0.60294117647058831 0.32894736842105271 2.1875000000000004 0.10416666666666667 0.31250000000000006 -0.48762376237623756 0.35148514851485141 0.78333333333333377 -0.60364583333333321 0.050000000000000024 -0.63194774346793336 1.0000000180025095e-35 -0.014622047154711718 -0.66140142517814715 0.40909090909090923 0.38333333333333347 0.18750000000000003 2.5625000000000004 0.14608076009501189 0.28333333333333338 0.83333333333333337 0.022003771856314035 0.021448411208939703 2.9375000000000004 0.82894736842105277 0.83290193939598234 0.76732673267326745 0.034722222222222231 -0.019255240558350203 4.0693828565928589 6.7450774712643673 0.64473684210526327 2.9375000000000004 0.31026785714285721 0.14583333333333334 0.61666666666666681 -0.2156496388858026 0.75000000000000011 4.8310626800666592 0.16983372921615206 -0.64232673267326723 0.50000000000000011 0.9545454545454547 1.0463182897862235 0.88725490196078438 0.19117647058823531 0.15196078431372553 0.05392156862745099 0.72222222222221444 0.031330000658772637 0.97549019607843146 4.5589154641507568 -0.12198347869142061 0.22916666666666669 0.24009900990099003 0.46287128712871278 0.61111111111110017 0.40965346534653457 0.3143564356435643 0.021779614285398024 -1.1398514851485146 0.50000000000000011 5.3468524620142519 -0.674032738095238 0.38861386138613829
decision_type=2 2 2 2 2 2 2 2 2 2 2 2 2 2 2 2 2 2 2 2 2 2 2 2 2 2 2 2 2 2 2 2 2 2 2 2 2 2 2 2 2 2 2 2 2 2 2 2 2 2 2 2 2 2 2 2 2 2 2 2 2 2 2 2 2 2 2 2 2 2 2 2 2 2 2 2 2 2 2 2 2 2 2 2 2 2 2 2 2 2 2 2 2 2
left_child=-1 3 7 12 13 15 85 9 17 47 45 56 20 36 31 16 26 38 64 -18 39 22 -4 50 -12 -19 89 28 63 30 37 79 -24 34 -34 -36 -5 67 65 40 -2 -42 -17 -39 -45 46 -11 -3 -49 -50 51 81 53 -13 -52 -56 69 -57 -26 90 -61 62 -48 73 -8 -9 -27 -30 -31 70 -10 -71 -35 -16 75 76 78 -77 -22 -15 -81 82 -14 -84 -85 -7 -20 88 -54 -6 -29 -92 93 -91
right_child=1 2 21 4 5 6 18 8 11 10 24 52 23 14 27 42 19 25 86 -21 74 -23 32 -25 58 66 -28 59 29 68 -32 -33 33 72 35 -37 -38 43 -40 -41 41 -43 -44 44 -46 -47 61 48 49 -51 54 -53 87 -55 55 57 -58 -59 -60 60 -62 -63 -64 -65 -66 -67 -68 -69 -70 71 -72 -73 -74 -75 -76 77 -78 -79 -80 80 -82 -83 83 84 -86 -87 -88 -89 -90 92 91 -93 -94 -95
leaf_value=-0.012183269905289347 0.61563049793243418 -0.0064190405673755987 0.030893255710548781 0.11692281177994319 0.29884587351232766 0.23933520598674385 -0.33173822973455702 0.1051231821021065 -0.024555040278274161 0.018836274359904856 0.3284162873029709 0.051057822624720563 -0.012090496547540743 -0.0043028582429364354 0.051928416700167991 -0.049204066235969214 0.1510413630904866 0.16910706770791448 0.028832644136512976 0.58500908482819802 0.12778865802176897 0.004012609558853822 -0.046099225160750476 -0.0010901721478017599 0.075981947152528193 0.75253224725073042 0.034180822898234715 0.016601967029712027 0.35441286752466117 -0.057152662843997996 0.13208072679619909 0.051778036350263956 0.86564743464643312 0.30966466719453978 0.005021013674281892 0.52187946725774692 0.47869152194923825 0.72962448526831247 0.053218931128300499 0.018102649101482456 0.30187884020177941 -0.014222016226396792 0.020192397331464874 0.63123891809955224 0.10676769438911887 0.050184470461454758 0.60436295629556591 0.037920629014148444 -0.0060269854629669342 0.51613131841023774 0.0062932706327602454 0.099568941125926722 0.379815050250008 0.19604830224333067 0.039311540281215938 0.05625122189521789 0.020198607479611205 0.53005902012189232 0.47232436705380682 0.068670505607865515 0.62466977596282958 0.0098957158314685045 0.095196930319070824 0.0092618754417058465 0.035816613435745236 0.57655099160396139 0.30515980397780929 0.036596235131909106 0.36084521025419236 0.073854031803470763 0.087537803865265204 0.37406646704508201 -0.17908755679925284 0.01566649803997475 -0.0097457861320833523 0.0056603548282210692 -0.02227959514814476 0.05822544147431391 0.010983714133738647 0.025099522834268462 0.471685605782729 0.017251822480394641 0.14175152681580111 0.72710567850332986 0.28489335228999457 0.43975687360062321 0.50631629765033725 0.56896448522806176 0.0031579917056425927 0.018719408301593261 -0.010081762466844295 -0.11306691023503773 0.19293219516679383 0.34199132853571107
leaf_weight=141523 14.999999999999998 8212 281 82 40 127 28 15.000000000000002 386 7097 55 3849 181 26511 2023 394 71 161 17.000000000000004 15.999999999999998 124 28847 22 12974 169 10.999999999999998 1568 2230 32 70 227 673 10.999999999999998 11.000000000000002 21 27 18 17 315 2392 38 90 11603 12.000000000000002 17 2670 15.000000000000002 2367 2366 14.999999999999998 8358 518 21 84 1234 14.000000000000002 12454 14.999999999999998 10.999999999999998 97 9.9999999999999982 21 11.999999999999998 10761 20 12.999999999999998 26 29 9.9999999999999982 945 212 18 14.999999999999998 2661 39000 1185 3470 1346 1662 1365 12.999999999999998 2277 119 13.000000000000002 18 51 9.9999999999999982 9.9999999999999982 31 172 4131 161 99 17
leaf_count=141523 15 8212 281 82 40 127 28 15 386 7097 55 3849 181 26511 2023 394 71 161 17 16 124 28847 22 12974 169 11 1568 2230 32 70 227 673 11 11 21 27 18 17 315 2392 38 90 11603 12 17 2670 15 2367 2366 15 8358 518 21 84 1234 14 12454 15 11 97 10 21 12 10761 20 13 26 29 10 945 212 18 15 2661 39000 1185 3470 1346 1662 1365 13 2277 119 13 18 51 10 10 31 172 4131 161 99 17
internal_value=0 0.00816304 0.0159014 0.00426171 0.0100656 0.0265915 0.196854 0.0235293 0.0341322 0.0149811 0.0312625 0.031311 -0.000795078 0.0054671 0.00512121 0.0235103 0.0573713 0.128048 -0.0402536 0.230852 -0.00558551 0.00505753 0.0827452 0.00839095 0.153615 0.219385 0.049411 0.0133525 0.0195594 0.154073 0.192151 -0.00135963 0.218917 0.287509 0.402005 0.295754 0.182041 0.319589 0.0753235 0.0247445 0.135845 0.0796204 0.0179133 0.473772 0.32379 0.0283331 0.0201675 0.00235549 0.0175316 -0.00273745 0.0180409 0.038426 0.0567593 0.0541545 0.0114175 0.0453277 0.024057 0.301324 0.100203 -0.00149667 0.120633 0.216992 0.378067 0.0159538 -0.17859 0.324 0.438162 0.20332 -0.00490293 0.0548399 0.0151836 0.0794655 0.0276922 0.0313279 -0.00722885 0.00537685 -0.00822098 0.0336148 0.0190934 -0.00264191 0.0293126 0.0262818 0.0884003 0.209659 0.470337 0.296759 0.205678 0.221994 0.155269 0.122219 -0.00350033 -0.0139449 0.0976871 0.0477968
internal_weight=0 211222 70796 140426 65383 14233 253 41561 18551 23010 10050 18010 75043 51150 51050 13980 1983 541 75 87 49322 29235 388 25721 235 198 1896 22488 15859 414 334 28562 107 85 59 48 100 107 343 2535 143 128 11997 46 29 9815 7145 12960 4748 2381 12747 3126 3995 3933 9621 1263 14015 29 180 6629 107 48 27 15445 48 28 37 61 80 1561 598 963 26 4684 46787 7787 5256 2531 1786 27889 1378 2608 331 150 31 178 27 62 52 328 6522 4292 288 189
internal_count=352745 211222 70796 140426 65383 14233 253 41561 18551 23010 10050 18010 75043 51150 51050 13980 1983 541 75 87 49322 29235 388 25721 235 198 1896 22488 15859 414 334 28562 107 85 59 48 100 107 343 2535 143 128 11997 46 29 9815 7145 12960 4748 2381 12747 3126 3995 3933 9621 1263 14015 29 180 6629 107 48 27 15445 48 28 37 61 80 1561 598 963 26 4684 46787 7787 5256 2531 1786 27889 1378 2608 331 150 31 178 27 62 52 328 6522 4292 288 189
is_linear=0
shrinkage=0.2


Tree=9
num_leaves=95
num_cat=0
split_feature=0 13 0 5 3 13 12 3 2 16 12 1 6 0 5 0 0 2 11 6 6 0 5 5 14 6 6 12 0 0 5 0 0 7 2 3 0 1 13 0 2 14 13 18 4 0 2 0 1 3 0 6 3 18 1 4 2 3 2 13 4 2 4 11 18 2 0 4 0 3 12 2 3 2 1 16 13 5 12 2 0 0 13 1 13 6 5 0 6 5 0 16 15 5
split_gain=561.45 137.674 107.502 193.069 218.484 113.505 109.496 103.123 101.444 93.7034 87.839 86.8966 76.3192 75.6105 73.9097 82.4804 69.8215 81.0668 69.7585 72.1497 73.3493 80.3496 69.0798 87.4299 72.0723 68.9893 67.655 57.7692 292.05 98.1783 57.6759 51.7846 51.6533 51.4603 163.165 99.9343 148.607 77.2973 73.0807 96.1114 64.0692 67.3109 73.7177 90.7964 67.1957 58.2639 82.6826 55.3651 54.3919 53.2378 52.1356 63.2179 104.133 155.993 53.3023 50.387 49.9016 59.7854 100.683 95.8883 132.366 128.746 54.1813 49.7392 78.5103 54.4731 49.1158 54.1977 48.9645 48.921 63.7227 75.1769 48.2259 47.9122 46.7277 46.082 44.4464 60.7453 46.5796 44.343 47.4286 62.0697 67.8241 44.2499 44.1232 43.7707 80.637 85.6783 75.9127 75.8652 68.0096 67.4937 43.7622 43.1124
threshold=-0.26633405140552918 1.0000000180025095e-35 0.37889216989472391 0.31250000000000006 2.9168646080760099 0.61111111111110017 0.0043854340775421356 0.12470308788598576 -0.64367559523809514 0.41666666666666669 0.20349218435215843 1.3125000000000002 0.18137254901960786 2.5741316470054221 0.43750000000000006 -0.11479432578051277 4.8310626800666592 -0.20312499999999997 0.61842105263157898 0.83823529411764719 0.85784313725490213 0.12043851130192944 0.14583333333333334 1.0000000180025095e-35 0.40909090909090923 0.87745098039215697 0.034313725490196088 0.0043854340775421356 -0.17773244319284273 -0.1850734486592121 0.47916666666666669 1.7608375059020343 0.044744085146068389 0.50000000000000011 -0.18824404761904759 0.3883610451306414 1.0338175966765237 1.3125000000000002 0.49999999999998584 1.2017038158663087 0.21205357142857145 0.22727272727272732 0.38888888888887158 0.29444444444444451 0.60519801980198007 0.54139494674218203 0.31026785714285721 1.2615361653843113 -0.43749999999999994 0.8325415676959621 0.45341156684837369 0.24019607843137256 -0.49180522565320656 0.023611111111111114 3.0625000000000004 1.0000000180025095e-35 1.5714285714285716 1.423990498812352 0.49032738095238099 0.61111111111110017 0.34405940594059387 0.68377976190476197 0.45544554455445524 0.56578947368421062 0.19583333333333339 -0.078124999999999986 0.54139494674218203 0.43193069306930693 1.3875605122847088 -0.72197149643705449 0.021448411208939703 -0.69263392857142847 -0.63479809976247015 0.34300595238095244 -1.0000000180025095e-35 0.91666666666666674 0.38888888888887158 0.27083333333333337 0.015933105469498065 2.285714285714286 0.74632965264091788 0.60544052718457897 0.61111111111110017 2.1875000000000004 0.83333333333332871 0.39705882352941185 0.062500000000000014 -0.19539014900591078 0.86764705882352955 0.062500000000000014 -0.10170750759701858 0.75000000000000011 0.15000000000000005 0.062500000000000014
decision_type=2 2 2 2 2 2 2 2 2 2 2 2 2 2 2 2 2 2 2 2 2 2 2 2 2 2 2 2 2 2 2 2 2 2 2 2 2 2 2 2 2 2 2 2 2 2 2 2 2 2 2 2 2 2 2 2 2 2 2 2 2 2 2 2 2 2 2 2 2 2 2 2 2 2 2 2 2 2 2 2 2 2 2 2 2 2 2 2 2 2 2 2 2 2
left_child=-1 8 7 5 9 16 31 11 -2 -5 -10 26 -9 79 76 30 -4 72 19 27 21 73 23 -8 -25 -19 32 28 29 -14 -16 -7 -3 34 38 63 37 40 39 -11 75 44 43 -43 -42 -39 -47 -41 -45 -46 51 52 53 -40 -52 -30 57 58 -44 61 -61 -60 -58 64 65 68 67 -65 -35 70 71 -28 -18 -21 -27 -37 77 -13 -79 80 81 -6 -83 -24 -33 86 -20 91 -87 -90 -89 -88 -75 -34
right_child=1 2 3 4 13 6 22 12 10 33 -12 14 18 -15 15 -17 17 25 85 20 -22 -23 83 24 -26 74 69 -29 55 -31 -32 84 93 35 -36 36 -38 45 50 47 41 42 56 48 49 46 -48 -49 -50 -51 54 -53 -54 -55 -56 -57 62 -59 59 60 -62 -63 -64 66 -66 -67 -68 -69 -70 -71 -72 -73 -74 92 -76 -77 -78 78 -80 -81 -82 82 -84 -85 -86 88 87 90 89 -91 -92 -93 -94 -95
leaf_value=-0.009731304389972991 0.5324836378296216 0.012731058998869844 -0.0020696186287263055 0.010946601807225762 -0.18277333606691923 -0.0017418887019157411 0.01750516925009853 -0.020750808548505421 0.034933625202600002 0.074451594752924788 0.14576148727531957 -0.011112955202475688 0.42933641431736763 -0.23934402711251201 0.49021338986662721 0.014416784916071646 0.41609386449510399 0.081886565191443314 0.0797183798272805 -0.035211209394037726 0.010854804580623113 0.034594532614676633 0.0074227432687776086 0.10680368713291594 0.032433971204603944 0.59617967671818206 0.088225254463031894 0.015150679673014426 -0.033563974919701811 1.1752210993878545 0.066760016934168595 0.21501004927051373 -0.021539561198717291 0.0010695813075938564 0.018090879382839067 0.72955398126081983 -0.028430480483352279 -0.0058985960483551028 0.097951737294594429 0.67299347682432697 0.14139611681571582 0.5079224609902927 -0.039897309832345206 0.49214351177215576 0.14847344543252672 0.26520476415753363 0.83427448749542243 0.21479634462569475 0.057997472808488361 0.65197464454741716 0.053382173486516665 0.10619527765642307 -0.021396204642951489 1.0806381911039353 0.40898397389580227 0.091237798264339143 -0.09339583136818623 -0.10692416281051881 0.95767710698502384 0.70755769157161319 -0.022173091415958159 0.018085616230964659 0.45922112464904785 -0.085877703875303274 0.19594870248867066 0.11883381401712541 -0.062003463229960143 0.39983776062726978 0.053546520697089074 -0.01007625171991774 0.010279751051483411 0.44645166752799864 -0.0057263538786270496 0.29826554269308136 0.12643672991544008 0.16282859345277148 -0.014307054602700479 0.4996169206500054 0.064585308636993341 0.26419025622726827 -0.062092129389444986 0.12398641572698305 0.4236142958535089 0.068425072880231516 0.57459154753457931 -0.028456014927831969 0.035949192609744628 -0.042965389008424192 -0.0088270055044586942 0.071990173862689508 0.007423027785927622 0.16867585479779992 0.14037611044787751 0.13698953045899295
leaf_weight=141812 18 1225 48669 13651 17 25 7532 2853 1546 350 351 802 24 17 12.999999999999998 5503 10.999999999999998 572 667 52 639 453 31217 890 1258 18 96 9503 206 9.9999999999999982 1248 39 91 4066 3443 11 381 14.999999999999998 12.000000000000002 10.999999999999998 143 28 159 12.999999999999998 13.999999999999998 32 14.999999999999998 257 103 21 2059 171 15.999999999999998 13.999999999999998 17 348 11.000000000000002 137 14.000000000000002 11.999999999999998 58 9.9999999999999982 20 17 97 192 508 20 862 44826 350 31 752 84 15.999999999999998 12 4847 9.9999999999999982 635 178 42 92 45 483 21 3313 1406 1273 1263 735 6767 172 428 279
leaf_count=141812 18 1225 48669 13651 17 25 7532 2853 1546 350 351 802 24 17 13 5503 11 572 667 52 639 453 31217 890 1258 18 96 9503 206 10 1248 39 91 4066 3443 11 381 15 12 11 143 28 159 13 14 32 15 257 103 21 2059 171 16 14 17 348 11 137 14 12 58 10 20 17 97 192 508 20 862 44826 350 31 752 84 16 12 4847 10 635 178 42 92 45 483 21 3313 1406 1273 1263 735 6767 172 428 279
internal_value=0 0.00654244 0.00605336 0.0100034 0.0247433 0.00559563 0.0133336 0.000845167 0.059924 0.0225915 0.05544 -0.00395525 0.0103767 0.173175 0.0104743 0.0249889 -0.000816622 0.0437284 0.0136246 0.0252645 0.0639564 0.0973212 0.0128678 0.0276556 0.0632482 0.0983388 -0.00797294 0.0189149 0.0797498 0.648714 0.0711255 0.240097 0.0325113 0.034525 0.0475494 0.0226608 0.0749381 0.122503 0.0824395 0.143469 0.105117 0.0949407 0.0611526 0.184677 0.20219 0.337293 0.446823 0.233603 0.106652 0.450574 0.0659624 0.160194 0.380048 0.627091 0.0562941 0.0448314 0.0189021 -0.00051101 0.0571119 0.221202 0.102924 0.566181 0.263131 0.0116918 0.0176977 0.0143207 -0.0457999 0.176671 0.0102488 -0.00939829 0.0543135 0.175666 0.000354934 0.147703 0.375124 0.433871 -0.00512409 0.025636 0.07133 0.191926 0.126298 0.177677 0.222404 0.00835221 0.340864 0.00485734 0.0124711 0.0078076 -0.00988712 0.020903 -0.000555138 0.0504162 0.16628 0.0979999
internal_weight=0 210933 209018 118866 27363 91503 41465 90152 1915 26972 1897 59956 30196 391 13058 6764 50038 1369 27343 11747 1656 1017 41380 9680 2148 606 46898 10091 588 34 1261 85 1595 13321 6350 6971 1209 828 2907 618 766 743 565 144 178 62 47 268 116 35 2289 213 42 26 2076 554 421 390 253 94 70 24 31 5762 5217 5120 545 37 4928 45303 477 127 763 564 34 23 6294 1447 645 374 196 154 137 31700 60 15596 10285 9618 5311 1998 8040 1578 512 370
internal_count=352745 210933 209018 118866 27363 91503 41465 90152 1915 26972 1897 59956 30196 391 13058 6764 50038 1369 27343 11747 1656 1017 41380 9680 2148 606 46898 10091 588 34 1261 85 1595 13321 6350 6971 1209 828 2907 618 766 743 565 144 178 62 47 268 116 35 2289 213 42 26 2076 554 421 390 253 94 70 24 31 5762 5217 5120 545 37 4928 45303 477 127 763 564 34 23 6294 1447 645 374 196 154 137 31700 60 15596 10285 9618 5311 1998 8040 1578 512 370
is_linear=0
shrinkage=0.2


Tree=10
num_leaves=95
num_cat=0
split_feature=0 13 7 0 12 2 3 2 4 14 14 2 0 6 13 16 16 0 12 0 13 13 14 6 6 1 1 5 7 3 0 13 1 14 11 11 15 4 1 15 6 14 0 2 0 10 12 3 14 6 0 0 0 4 2 0 15 15 6 5 2 2 14 1 13 0 7 14 4 0 0 1 12 3 3 0 0 12 12 4 14 14 2 0 14 18 15 15 13 6 6 0 12 2
split_gain=359.515 113.479 95.1383 233.353 131.732 150.891 118.324 100.054 99.0216 165.372 311.062 96.3866 154.202 91.3972 85.3069 79.5727 77.2151 81.4093 76.6604 65.0229 64.5223 64.4949 63.7379 76.2363 61.3386 102.421 60.8833 62.9349 58.9864 88.4317 92.1137 66.7651 58.6307 58.6037 62.7035 253.529 58.0407 56.7051 54.4891 99.1957 67.6773 53.7683 52.7517 159.817 52.569 86.1502 54.0258 90.7915 110.437 51.9941 51.3189 51.1933 50.8631 70.7085 50.7512 48.8093 48.7947 48.5436 48.4572 57.6827 47.7814 80.7859 46.0156 45.7584 45.6222 58.4893 49.7705 80.8597 130.778 152.756 105.77 207.47 73.427 55.4963 54.8498 73.8587 49.2187 47.5582 140.518 56.2549 49.4368 45.3285 45.3187 79.2346 75.5826 48.7893 43.6023 43.4365 42.5542 42.125 121.312 109.962 91.6615 63.6606
threshold=-0.26970744607323316 0.94444444444444298 0.50000000000000011 1.9068688608555777 0.83290193939598234 1.9360119047619049 0.85154394299287417 -0.57537202380952368 -1.1398514851485146 0.31818181818181829 0.86363636363636398 5.2544642857142865 2.1556712823153492 0.60294117647058831 0.16666666666667143 0.75000000000000011 0.91666666666666674 0.9175389630818489 0.075440764850343719 0.19659538315549771 0.16666666666667143 0.72222222222221444 0.31818181818181829 0.84803921568627461 0.13235294117647062 1.5625000000000002 2.9375000000000004 0.64583333333333337 0.83333333333333337 1.9667458432304039 0.97408866415335327 0.27777777777777152 -0.31249999999999994 0.68181818181818199 0.5921052631578948 0.61842105263157898 0.95000000000000029 -1.1844059405940592 1.6875000000000002 0.58333333333333359 0.27941176470588241 1.0000000180025095e-35 0.64869463919994974 0.9241071428571429 0.95399180222921387 0.75000000000000011 0.64998261146662717 -0.23871733966745839 0.40909090909090923 0.15196078431372553 2.5741316470054221 0.61993923178345534 -0.20699565470536982 0.45544554455445524 2.1071428571428572 3.5191476940063358 0.25000000000000011 0.61666666666666681 0.93627450980392168 0.85416666666666674 -0.35342261904761901 -0.35639880952380948 0.77272727272727304 0.93750000000000011 0.16666666666667143 0.19659538315549771 0.83333333333333337 0.40909090909090923 0.37252475247524747 3.9592799160208743 -0.038682688263408475 1.3125000000000002 0.019552524861006639 1.2577197149643708 -0.62078384798099751 1.5453439862293961 1.5453439862293961 0.047767718302695307 0.14364000986626921 0.39727722772277213 0.86363636363636398 0.40909090909090923 0.076636904761904781 6.7450774712643673 0.31818181818181829 0.30555555555555564 0.35000000000000014 0.11666666666666671 0.72222222222221444 0.16176470588235295 0.33823529411764713 3.9592799160208743 0.62533800398021244 0.15550595238095241
decision_type=2 2 2 2 2 2 2 2 2 2 2 2 2 2 2 2 2 2 2 2 2 2 2 2 2 2 2 2 2 2 2 2 2 2 2 2 2 2 2 2 2 2 2 2 2 2 2 2 2 2 2 2 2 2 2 2 2 2 2 2 2 2 2 2 2 2 2 2 2 2 2 2 2 2 2 2 2 2 2 2 2 2 2 2 2 2 2 2 2 2 2 2 2 2
left_child=-1 2 3 18 64 7 8 -6 9 14 13 -8 -13 -11 -5 28 17 21 22 52 24 32 -2 37 25 -10 44 -28 31 30 81 33 87 -9 -35 -36 -37 -24 -12 -40 -41 -3 -23 -44 88 46 60 -48 -49 -39 -21 -34 53 56 -55 -33 -7 -58 59 62 61 -46 89 -32 65 77 74 68 -68 70 71 -70 -72 -74 75 -66 -76 -4 79 80 86 -30 -78 -84 -85 -86 -79 -17 -20 91 93 92 -22 -91
right_child=1 41 4 6 5 19 11 15 20 10 38 12 -14 -15 -16 16 -18 -19 26 50 58 42 23 -25 -26 -27 27 -29 29 -31 63 55 51 34 35 36 -38 49 39 40 -42 -43 43 -45 45 -47 47 48 -50 -51 -52 -53 -54 54 -56 -57 57 -59 -60 -61 -62 -63 -64 -65 66 -67 67 -69 69 -71 72 -73 73 -75 76 -77 82 78 -80 -81 -82 -83 83 84 85 -87 -88 -89 -90 90 -92 -93 -94 -95
leaf_value=-0.0078003548550557855 0.022314701501784925 -0.0059972696786474503 -0.024500243583659386 0.39327324196123165 -0.01255846989670986 -0.011924049854278565 0.00018228648816285002 0.015988270061508367 0.16377101920937237 0.58801737265153375 0.12806060071160433 0.81556486219167701 -0.07702211730647833 1.3172400724887847 0.020704557791562904 0.6365271135632482 0.022258232138668715 0.0016867550890665593 -0.0084287693123180872 0.17590499689878042 -0.019257848611119052 0.0075046883263897874 0.050392508720489407 -0.0068397460422266925 0.093066431586089349 0.81411865491133462 -0.0016689914190305436 0.14000100501041121 0.068062039396660876 0.57232154057576101 0.15242400194920813 0.004508979444915487 0.18196512892319447 0.035539781667452502 0.87642892400423689 0.088982148616632922 0.52007595575772803 -0.0076672545876590274 0.11042159710611617 1.0620089745521542 0.34311484640294854 -0.047210496755228093 0.082301763625724667 0.86376465062300367 0.063919637923054856 -0.011601274161241751 0.059615216303174783 0.07993526905775071 0.8120181628502906 0.014823144302524786 -0.21418921053409579 0.033561428053223569 -0.091756305369463831 0.2054989740252495 -0.27794951984756872 -0.06729595159118533 0.84633835077285746 0.2496923789381981 -0.0004704191271546969 -0.014656608089870663 0.016737210885954552 0.63670619547367102 0.018740863062941961 0.54206649340116064 0.016225625741541915 0.0026158700593621981 0.018975068898912418 -0.010022922564716243 0.15634447363791643 0.91705226540565499 0.43156870346030463 1.2227594196796419 0.044401502601539397 0.52372051407583065 -0.015147972592950872 0.17075438485081706 -0.008171817840001025 0.14591830274270429 0.043944521208363327 0.63830563118060435 0.047597058936953547 -0.014490784570860799 0.0093579418906700046 -0.047826431496068834 0.69475267753005032 0.20084335580468179 0.46024265356543587 0.25194265543649047 0.004792853507475759 0.17156154569463086 0.066087698639230613 0.13342624496074926 0.24572446096322631 0.4511679475048655
leaf_weight=141523 17054 2878 212 26 5753 9.9999999999999982 2683 1663 38 22 277 15.000000000000002 15.999999999999998 9.9999999999999982 451 13.999999999999998 1993 328 22667 370 773 263 1531 10595 314 12.999999999999998 245 257 518 12.999999999999998 166 12002 285 511 18 320 12.999999999999998 4986 28 10.000000000000002 10.999999999999998 2261 82 11.999999999999998 654 4247 118 17 15.999999999999998 23448 13.999999999999998 138 88 15.999999999999998 19 391 10.000000000000002 11.999999999999998 1005 522 8091 9.9999999999999982 1006 12.999999999999998 1064 2975 2791 3640 27 9.9999999999999982 23 9.9999999999999982 286 9.9999999999999982 25063 140 15958 31 629 14.999999999999998 40 547 6850 20 15.999999999999998 15.999999999999998 41 73 17070 228 1671 342 56 38
leaf_count=141523 17054 2878 212 26 5753 10 2683 1663 38 22 277 15 16 10 451 14 1993 328 22667 370 773 263 1531 10595 314 13 245 257 518 13 166 12002 285 511 18 320 13 4986 28 10 11 2261 82 12 654 4247 118 17 16 23448 14 138 88 16 19 391 10 12 1005 522 8091 10 1006 13 1064 2975 2791 3640 27 10 23 10 286 10 25063 140 15958 31 629 15 40 547 6850 20 16 16 41 73 17070 228 1671 342 56 38
internal_value=0 0.0052264 0.00595844 0.00957772 0.000856314 0.012847 0.0395687 0.0106001 0.0535871 0.11812 0.22086 0.00423367 0.354875 0.815899 0.0410123 0.0174808 0.0463602 0.086557 0.0069962 0.117549 0.0446151 0.118665 0.0120558 0.00774231 0.126109 0.329546 0.0015365 0.0708593 0.0117888 0.0533963 0.0479734 0.0082829 0.164303 0.0379249 0.0802457 0.14533 0.105812 0.0128982 0.162451 0.35686 0.685445 -0.0241298 0.0534668 0.182063 0.000878532 0.0118381 0.0230156 0.141628 0.434885 0.0108794 0.161683 0.13355 0.00821187 0.139513 -0.0569445 0.00224353 0.354389 0.520895 0.0393421 0.0479727 0.0209699 0.0725459 0.0559194 0.180722 -0.0042821 0.0165106 -0.00574811 0.0102924 0.0337159 0.146124 0.124469 0.444565 0.0873421 0.0605947 -0.00796741 0.0341941 -0.00902666 0.0592138 0.0826891 0.274582 0.225869 0.0256617 -0.00231544 0.011225 0.257173 0.447798 0.324909 0.31383 -0.0027491 0.0679533 0.0860573 0.0380069 -0.00135796 0.211505
internal_weight=0 211222 206083 120561 85522 25655 9555 25116 6841 835 358 2714 31 32 477 19363 3188 1195 111006 539 6006 867 57614 40560 365 51 53392 502 16175 1257 1244 14918 510 2525 862 351 333 29965 326 49 21 5139 357 94 52890 13153 8906 151 33 28434 384 423 155 67 35 12393 32 22 5641 4636 8755 664 4114 179 59867 3943 55924 6797 3157 366 356 37 319 296 49127 1204 47923 968 756 127 112 1065 22860 6902 52 32 72 87 39737 3108 1937 1171 829 266
internal_count=352745 211222 206083 120561 85522 25655 9555 25116 6841 835 358 2714 31 32 477 19363 3188 1195 111006 539 6006 867 57614 40560 365 51 53392 502 16175 1257 1244 14918 510 2525 862 351 333 29965 326 49 21 5139 357 94 52890 13153 8906 151 33 28434 384 423 155 67 35 12393 32 22 5641 4636 8755 664 4114 179 59867 3943 55924 6797 3157 366 356 37 319 296 49127 1204 47923 968 756 127 112 1065 22860 6902 52 32 72 87 39737 3108 1937 1171 829 266
is_linear=0
shrinkage=0.2


Tree=11
num_leaves=95
num_cat=0
split_feature=0 16 16 16 16 3 7 0 1 1 2 12 18 0 1 13 5 8 15 16 3 4 12 6 3 2 11 12 4 3 12 13 2 1 0 0 3 5 5 4 0 13 0 0 12 0 11 15 7 2 0 3 0 0 12 4 14 14 4 6 15 15 15 13 18 4 14 14 2 4 4 1 1 10 3 11 4 4 3 13 1 14 4 1 2 15 2 14 1 4 16 13 11 15
split_gain=244.209 109.41 64.8652 53.931 52.8657 47.0245 47.2392 70.8259 69.101 86.0405 59.8962 49.4465 59.4174 56.6604 77.1898 55.3282 46.8335 49.7404 45.542 45.1846 55.5583 46.3044 44.5552 71.5594 43.2466 42.6158 41.267 40.8262 44.5538 40.8446 38.2593 83.7703 38.1231 67.1911 53.957 45.3015 36.6667 41.9409 37.3574 76.7388 37.0432 36.3892 34.8945 34.4703 58.6414 40.7946 70.3854 34.02 32.3077 47.3932 32.1163 32.4515 36.362 32.1041 56.7532 31.8631 78.6943 143.522 46.0048 34.6013 35.3581 42.7097 53.077 31.9035 31.357 55.9741 116.464 53.029 46.3908 45.4926 38.9184 31.0698 30.1718 29.6598 50.8655 47.2615 46.4832 51.3367 54.0581 102.691 56.6456 54.4152 45.9232 45.1835 62.8325 108.416 52.0933 43.1777 67.7741 63.093 42.1954 40.0144 34.5985 33.4173
threshold=0.07645600269175358 0.75000000000000011 0.25000000000000006 0.91666666666666674 0.91666666666666674 2.6318289786223281 0.50000000000000011 1.9068688608555777 2.5625000000000004 3.3125000000000004 0.076636904761904781 0.83290193939598234 0.61458333333333348 5.3468524620142519 -0.56249999999999989 0.27777777777777152 0.64583333333333337 1.0000000180025095e-35 0.050000000000000024 0.41666666666666669 -0.32422802850356286 -0.28589108910891087 0.041089985277197746 0.36764705882352949 -0.66140142517814715 -0.25967261904761901 0.61842105263157898 0.024646522523129818 0.48391089108910884 0.85154394299287417 0.39152102174102893 0.72222222222221444 0.49032738095238099 1.0625000000000002 0.2286080216134905 0.60544052718457897 -0.71722090261282645 0.77083333333333337 0.68750000000000011 0.30816831683168305 3.5191476940063358 0.61111111111110017 6.7450774712643673 0.58975473953301383 0.83290193939598234 1.5453439862293961 0.88157894736842113 0.050000000000000024 0.83333333333333337 -0.54241071428571408 -0.21268237270024101 0.12470308788598576 -0.14235946869220814 1.2307430768222443 0.50422820956323389 -1.1027227722772275 0.59090909090909116 0.86363636363636398 -1.1621287128712869 0.32843137254901966 0.15000000000000005 0.81666666666666698 0.58333333333333359 0.61111111111110017 0.068750000000000019 -0.089108910891089174 0.40909090909090923 0.9545454545454547 -0.50669642857142849 0.37252475247524747 0.27103960396039595 -0.56249999999999989 1.0000000180025095e-35 0.75000000000000011 1.4121140142517816 0.67105263157894746 0.27103960396039595 0.53712871287128705 0.47387173396674592 0.38888888888887158 0.31250000000000006 0.50000000000000011 0.39480198019801976 0.31250000000000006 0.5111607142857143 0.81666666666666698 0.99851190476190488 0.59090909090909116 0.68750000000000011 0.47153465346534634 0.58333333333333337 0.61111111111110017 0.5921052631578948 0.58333333333333359
decision_type=2 2 2 2 2 2 2 2 2 2 2 2 2 2 2 2 2 2 2 2 2 2 2 2 2 2 2 2 2 2 2 2 2 2 2 2 2 2 2 2 2 2 2 2 2 2 2 2 2 2 2 2 2 2 2 2 2 2 2 2 2 2 2 2 2 2 2 2 2 2 2 2 2 2 2 2 2 2 2 2 2 2 2 2 2 2 2 2 2 2 2 2 2 2
left_child=1 -1 -2 5 30 6 7 16 27 19 48 13 15 -12 -15 18 22 -18 -13 25 21 -21 23 -4 -19 -10 -20 28 -9 36 -3 47 34 35 -28 -34 -29 38 55 -40 -41 -25 -16 -7 -45 46 -46 -32 -8 53 -49 -52 -53 -50 -55 56 58 -58 -38 60 -59 62 -62 -60 65 67 69 -57 -68 72 -70 -26 -67 75 -75 76 -17 78 80 -80 -78 92 90 86 -85 87 -77 88 91 -90 -76 -86 -81 -89
right_child=2 4 3 -5 -6 43 10 8 9 -11 11 12 -14 14 42 73 17 24 26 20 -22 -23 -24 41 71 -27 32 29 -30 -31 31 -33 33 -35 -36 -37 37 -39 39 40 -42 -43 -44 44 45 -47 -48 50 49 -51 51 52 -54 54 -56 64 57 59 63 -61 61 -63 -64 -65 -66 66 68 -69 70 -71 -72 -73 -74 74 82 83 77 -79 79 81 -82 -83 -84 84 85 -87 -88 93 89 -91 -92 -93 -94 -95
